tree
version=v4
num_class=1
num_tree_per_iteration=1
label_index=0
max_feature_idx=20
objective=regression_l1
feature_names=year month_sin month_cos num_holidays consumption_lag_1m consumption_lag_2m consumption_lag_3m consumption_lag_12m consumption_roll_mean_12m eur_per_mwh_lag_12m avg_temp_lag_12m avg_hum_lag_12m wind_lag_12m rain_lag_12m air_pressure_lag_12m m_area region municipality segment p_type c_bucket
feature_infos=[2021:2023] [-1:1] [-1:1] [0:4] [73.64870663466057:8168.8974875004878] [73.64870663466057:8168.8974875004878] [73.64870663466057:8168.8974875004878] [93.3085077466786:8168.8974875004878] [91.032433583982652:7720.4945703093144] [36.833500000000001:261.53301075268814] [-12.473521505376343:21.38595430107527] [53.274755144217806:94.245967741935488] [0:6.1548387096774189] [0:0.19973118279569893] [996.08802083333342:1024.4669354838711] -1:3:5:0:2:1:4 -1:13:9:6:8:1:3:4:5:11:2:7:14:0:12 -1:0:1:3:5:20:15:13:4:26:2:9:11:16:28:29:8:10:17:22:27:6:7:12:14:18:19:21:23:24 -1:1:0 -1:3:4:1:0 -1:1:2:0
tree_sizes=1182 1478 1882 1724 1739 1887 1828 1904 1917 1912 1872 1874 1922 1917 1909 1899

Tree=0
num_leaves=13
num_cat=3
split_feature=4 1 4 19 20 1 20 7 4 7 5 6
split_gain=2038.8 292.021 394.066 84.2742 46.4903 38.2574 33.3405 26.0377 9.59468 9.54368 3.50087 0.165778
threshold=242.94139990453468 0.25000000000000011 703.43040411884874 0 1 0.68301270189221941 2 233.62310596773767 654.00616533268078 291.09324946450289 545.44777568009488 559.95773449258343
decision_type=8 2 10 9 1 2 1 10 8 8 10 10
left_child=7 9 3 4 10 -6 -4 -1 11 -2 -3 -5
right_child=1 2 6 8 5 -7 -8 -9 -10 -11 -12 -13
leaf_value=353.97355705147072 375.2382610273346 355.82128007712708 370.9973655220241 366.60724079743011 377.85646610479984 371.66540323302604 392.45020600410703 368.99781445865136 368.76581889603244 400.30475485230437 371.57396391710603 368.56189401463206
leaf_weight=1346 40 60 40 193 97 66 480 40 69 1173 37 55
leaf_count=1346 40 60 40 193 97 66 480 40 69 1173 37 55
internal_value=372.05 372.096 372.066 372.02 372.053 372.082 372.117 371.973 371.993 372.124 372.012 371.983
internal_weight=3696 2310 1097 577 260 163 520 1386 317 1213 97 248
internal_count=3696 2310 1097 577 260 163 520 1386 317 1213 97 248
cat_boundaries=0 1 2 3
cat_threshold=9 2 2
is_linear=0
shrinkage=1


Tree=1
num_leaves=16
num_cat=0
split_feature=8 1 8 8 1 5 9 8 4 4 1 8 7 8 6
split_gain=2088.95 247.256 249.981 117.505 121.221 42.0951 13.5153 8.96637 4.59508 4.21673 2.91643 35.7682 2.7514 2.70521 7.71727
threshold=355.27766939021359 0.68301270189221941 784.19162431287862 456.34640110722484 -0.24999999999999997 761.97031801825767 119.59004704301076 253.49064766724595 592.62492543915948 1231.5540025928028 0.25000000000000011 575.00231549676801 346.64814456263139 614.07609790705408 966.80459027645941
decision_type=2 2 2 2 2 10 10 2 10 10 2 2 8 2 8
left_child=7 3 5 4 -2 8 -6 -1 -3 -4 -5 -12 -9 -7 -15
right_child=1 2 9 10 6 13 -8 12 -10 -11 11 -13 -14 14 -16
leaf_value=-16.62508965130716 8.0727433646290567 -5.2522382368014888 2.1838548647627136 36.109571100684143 -2.6644774857892557 -1.3921750162019733 -0.48356970979120761 -1.4100852407730284 -1.2323487183111719 80.639638625333006 0.93446050473670805 14.276747110657666 -5.4288015599102453 1.1661900209500182 -0.34808025889709077
leaf_weight=1410 191 154 67 945 87 44 51 37 93 169 73 260 38 39 38
leaf_count=1410 191 154 67 945 87 44 51 37 93 169 73 260 38 39 38
internal_value=-0.00364174 0.0458361 0.000944028 0.0623587 0.0171448 -0.0396092 -0.0379066 -0.077678 -0.0586619 0.0665062 0.0735549 0.058029 -0.0343146 0 0.00842016
internal_weight=3696 2211 604 1607 329 368 138 1485 247 236 1278 333 75 121 77
internal_count=3696 2211 604 1607 329 368 138 1485 247 236 1278 333 75 121 77
is_linear=0
shrinkage=0.0805658


Tree=2
num_leaves=21
num_cat=0
split_feature=8 8 5 8 6 4 10 7 6 6 8 5 9 9 8 8 8 7 5 7
split_gain=1996.67 231.734 148.363 52.2151 41.0077 49.4495 37.7106 65.4165 23.7042 18.4914 17.6065 18.4879 15.3815 15.1012 11.07 3.48136 2.39813 1.88842 1.06129 0.406945
threshold=355.27766939021359 513.03310268669793 392.65157843527419 456.34640110722484 306.64931963075327 1434.1312564921184 5.1174171146953418 993.76285293085868 617.94901390958364 496.48142019703033 382.39680475585402 315.49676201443305 73.463790322580664 98.066648745519728 253.49064766724595 614.07609790705408 838.44712982967712 346.64814456263139 366.6047323371061 1176.8725000054935
decision_type=2 2 8 2 10 8 8 10 10 8 2 10 10 10 2 2 2 8 10 10
left_child=14 2 10 13 5 16 7 8 -6 -5 11 -2 -11 -4 -1 -10 -3 -16 -12 -9
right_child=1 4 3 9 6 -7 -8 19 15 12 18 -13 -14 -15 17 -17 -18 -19 -20 -21
leaf_value=-15.285675503182228 5.1365268634573384 -1.4847270265356833 -4.6395245617350271 3.8613410658209637 5.9788098415041109 29.621462736657836 35.38204349560462 2.303237231293624 -1.133063520856622 -3.2628138853054329 10.643852442516987 -1.394906065685283 0.76307601737292341 -0.69775713738342371 -1.2964805528485321 0.022097439852764245 -0.6071819119956906 -4.991425655826939 5.7097903484438364 93.398051438824382
leaf_weight=1410 57 43 145 58 53 96 926 50 73 58 158 52 48 43 37 47 43 38 52 209
leaf_count=1410 57 43 145 58 53 96 926 50 73 58 158 52 48 43 37 47 43 38 52 209
internal_value=-0.00508029 0.0432858 0.00288999 -0.0322612 0.0605206 0.0199208 0.0655454 0.0426907 0.000967377 0 0.0434166 0.0103772 -0.0190053 -0.0612114 -0.077461 -0.0154548 -0.0196754 -0.0321754 0.0578731 0.0683745
internal_weight=3696 2211 671 352 1540 182 1358 432 173 164 319 109 106 188 1485 120 86 75 210 259
internal_count=3696 2211 671 352 1540 182 1358 432 173 164 319 109 106 188 1485 120 86 75 210 259
is_linear=0
shrinkage=0.0805658


Tree=3
num_leaves=19
num_cat=2
split_feature=8 1 8 8 8 1 1 19 18 9 9 8 9 8 6 9 14 6
split_gain=1857.54 276.7 311.656 69.6444 46.8936 31.113 26.1271 14.8707 14.5564 13.6815 12.1417 7.50703 5.6397 5.15353 3.5288 3.0721 2.20164 0.16946
threshold=355.27766939021359 0.25000000000000011 838.44712982967712 481.47459181687424 425.82576427310397 -0.24999999999999997 0.68301270189221941 0 1 56.636407738095251 60.971485695084503 582.02505499557117 79.103014112903239 1449.5033777528251 717.55945722428874 98.066648745519728 1009.9446684587816 1028.2854657962832
decision_type=2 2 2 2 2 2 2 9 1 8 8 2 10 2 10 10 8 8
left_child=8 4 3 15 5 -2 11 12 -1 -6 -9 -5 17 14 -4 -3 -13 -8
right_child=1 2 13 6 9 -7 7 10 -10 -11 -12 16 -14 -15 -16 -17 -18 -19
leaf_value=-14.043466686413302 4.5567303758897602 -4.0841090180790172 2.2603358063561445 -0.63308324755256695 4.7344806223661262 -1.4028539375091997 -1.3407695701875846 -0.31931912052286987 -6.1205818519816813 30.096777517967805 -3.7571367929004889 1.1799350374826534 0.77529919809458414 101.17216539229233 9.1616743648721677 -1.2586804350101657 3.5578359805801147 -0.17742267196490399
leaf_weight=1419 148 172 65 62 56 56 50 51 66 943 80 43 43 245 51 44 65 37
leaf_count=1419 148 172 65 62 56 56 50 51 66 943 80 43 43 245 51 44 65 37
internal_value=-0.00743428 0.0392052 0.00743727 -0.0254 0.0653514 0.025662 -0.00524522 -0.0222227 -0.077244 0.0728875 -0.0399524 0.0175401 0 0.0678026 0.0409202 -0.0629717 0.0305546 -0.0129917
internal_weight=3696 2211 1008 647 1203 204 431 261 1485 999 131 170 130 361 116 216 108 87
internal_count=3696 2211 1008 647 1203 204 431 261 1485 999 131 170 130 361 116 216 108 87
cat_boundaries=0 1 2
cat_threshold=8 2
is_linear=0
shrinkage=0.0805658


Tree=4
num_leaves=19
num_cat=2
split_feature=8 8 1 1 4 19 8 6 20 10 2 11 12 1 11 5 14 7
split_gain=1777.41 265.939 339.715 47.3121 76.2931 46.8255 23.117 20.8306 15.8409 12.7237 10.0208 7.99464 6.50829 6.38105 3.1891 1.71455 1.07089 0.976219
threshold=355.27766939021359 614.07609790705408 -0.24999999999999997 0.68301270189221941 1552.9055595677996 0 231.82396128707472 336.5087579076914 1 11.498023288755105 0.6830127018922193 71.459835290182824 3.8443849206349205 0.68301270189221941 83.358198924731198 761.97031801825767 1011.9277262544804 737.78775792414979
decision_type=2 2 2 2 10 9 2 8 1 10 2 8 8 2 10 10 8 10
left_child=6 2 11 -3 15 9 -1 -8 13 -4 12 -2 -10 -7 -13 -5 -14 -17
right_child=1 3 5 4 -6 8 7 -9 10 -11 -12 14 16 -15 -16 17 -18 -19
leaf_value=-12.947752302153448 1.4048503371389773 54.326579152833197 -3.6200670619528426 -1.3508145563374725 73.874456230487695 -0.47523335472497552 0.57137270442618604 -10.05868786441714 -0.57129400131583519 -0.41750739609275078 2.5817241580582939 11.074909625712149 0.15353492885135631 -4.272429829691422 4.355581547666211 0.59552001813082278 0.89339771055705208 -0.076913337281283328
leaf_weight=1380 45 837 280 53 153 52 49 56 67 39 43 325 37 41 69 69 37 64
leaf_count=1380 45 837 280 53 153 52 49 56 67 39 43 325 37 41 69 69 37 64
internal_value=-0.00852409 0.0370921 0.00669859 0.0633584 0.0346843 -0.032301 -0.0768101 -0.03066 -0.00450919 -0.0528624 0.00659186 0.0608993 -4.62483e-05 -0.0328759 0.065193 0 0.0120121 0.00488339
internal_weight=3696 2211 1035 1176 339 596 1485 105 277 319 184 439 141 93 394 186 74 133
internal_count=3696 2211 1035 1176 339 596 1485 105 277 319 184 439 141 93 394 186 74 133
cat_boundaries=0 1 2
cat_threshold=18 2
is_linear=0
shrinkage=0.0805658


Tree=5
num_leaves=21
num_cat=3
split_feature=8 8 3 10 6 19 8 8 5 8 9 9 7 18 17 2 10 4 11 11
split_gain=1656.08 246.906 136.188 172.068 94.5221 51.1471 26.1802 25.4556 20.914 16.3974 12.4421 11.9157 11.9994 10.446 10.1649 8.64224 8.07425 4.42681 4.24726 1.10296
threshold=338.34396703823302 741.22711547135214 1.5000000000000002 1.0422435035842297 215.9399723616537 0 544.54774950863236 1507.9810500984106 814.63261743418559 376.86169026403257 136.33902329749108 136.33902329749108 623.81894601495685 1 2 -0.5 19.715591397849469 815.12285639266759 86.249327956989262 66.044948476702515
decision_type=2 2 2 8 10 9 2 2 8 2 10 8 10 1 9 2 8 10 10 8
left_child=13 2 3 6 -5 11 -2 8 -3 16 18 12 -4 -1 -10 -13 -6 -16 -7 -11
right_child=1 7 5 4 9 10 -8 -9 14 19 -12 15 -14 -15 17 -17 -18 -19 -20 -21
leaf_value=-11.916715474282139 -3.0022864296324703 24.288603824055709 -1.4253287002483819 -4.7139526007277306 4.1806858821396125 -2.4220406103427767 0.10768589908965547 149.8482574188759 3.4783579397814157 2.4822457507345912 -0.42141496279737578 3.0063398378809767 0.79905637288857745 -5.7886810001618398 2.6384134332929441 0.75855360548343642 -0.41950156340863171 -1.0322871694366891 -0.67193617058715926 14.090716639562878
leaf_weight=1386 119 126 100 52 41 211 82 518 101 37 44 57 63 54 44 61 37 65 37 461
leaf_count=1386 119 126 100 52 41 211 82 518 101 37 44 57 63 54 44 61 37 65 37 461
internal_value=-0.0108781 0.0320318 0.0107481 0.031872 0.0529668 -0.0188417 -0.0312468 0.0663032 0.0448152 0.0627784 -0.0418606 0.00444728 -0.00694614 -0.0784827 0.02493 0.0252487 0.0175705 5.47753e-05 -0.0503147 0.0687247
internal_weight=3696 2256 1402 829 628 573 201 854 336 576 292 281 163 1440 210 118 78 109 248 498
internal_count=3696 2256 1402 829 628 573 201 854 336 576 292 281 163 1440 210 118 78 109 248 498
cat_boundaries=0 1 2 3
cat_threshold=9 2 539035682
is_linear=0
shrinkage=0.0805658


Tree=6
num_leaves=20
num_cat=3
split_feature=8 1 8 19 8 17 8 1 10 20 7 8 3 7 11 10 8 10 11
split_gain=1622.17 266.611 354.202 77.3041 29.498 23.5327 18.0233 15.0602 13.8013 12.9538 13.5029 12.6913 18.9018 11.8643 8.31788 5.62291 3.3285 1.73525 0.556323
threshold=338.34396703823302 -0.24999999999999997 838.44712982967712 0 541.02987282494257 1 714.19072849660029 0.25000000000000011 14.447051971326166 2 623.81894601495685 1679.9006045821743 1.5000000000000002 824.26369417372109 71.459835290182824 9.7467708333333345 222.48348783987902 7.6860080645161295 88.275057603686648
decision_type=2 2 2 9 2 9 2 2 10 1 8 2 2 10 8 10 2 10 10
left_child=16 4 3 5 14 9 8 -7 18 -3 -11 12 -4 -9 -2 17 -1 -16 -5
right_child=1 2 11 6 -6 7 -8 13 -10 10 -12 -13 -14 -15 15 -17 -18 -19 -20
leaf_value=-10.958893692198695 0.18851915974985187 -0.97111969608325932 -0.68121447022974868 -3.0590312904693095 43.031660384692586 2.5410861269490415 0.18283572381794638 -1.2873995152005926 -0.14685267171914237 0.39346688948731939 1.2909424742573028 91.560128338719451 7.2008268758394429 0.27409110813864257 4.2465522031212783 9.1273185811632676 -9.1878977396503565 2.4304361085554027 -1.4595223450966686
leaf_weight=1365 37 56 51 321 540 63 41 121 41 62 112 309 100 54 157 112 75 41 38
leaf_count=1365 37 56 51 321 540 63 41 121 41 62 112 309 100 54 157 112 75 41 38
internal_value=-0.0115756 0.0308892 0.00812418 -0.0205624 0.0653809 0.00152957 -0.0442852 -0.0146262 -0.0505307 0.0204769 0.0328513 0.065997 0.038377 -0.0285282 0.0431639 0.0475316 -0.0784827 0.0329382 -0.0556238
internal_weight=3696 2256 1369 909 887 468 441 238 400 230 174 460 151 175 347 310 1440 198 359
internal_count=3696 2256 1369 909 887 468 441 238 400 230 174 460 151 175 347 310 1440 198 359
cat_boundaries=0 1 2 3
cat_threshold=9 2172435 2
is_linear=0
shrinkage=0.0805658


Tree=7
num_leaves=21
num_cat=2
split_feature=4 1 4 19 20 9 5 7 6 1 9 2 4 7 6 9 1 5 11 1
split_gain=1403.34 314.629 255.49 95.0362 53.745 40.4268 22.7538 16.8851 16.2267 13.4151 13.2053 12.1537 13.064 11.0226 6.68393 4.93804 4.34824 4.48751 3.06095 2.47713
threshold=226.58752214282481 -0.24999999999999997 1434.1312564921184 0 1 136.33902329749108 364.02807011365223 226.84940285172729 526.58241781399022 0.68301270189221941 162.12476254480291 -0.5 703.43040411884874 623.81894601495685 678.05763709346877 136.33902329749108 0.68301270189221941 562.11658385514534 78.490277777777791 0.68301270189221941
decision_type=8 2 10 9 1 8 10 10 10 2 10 2 10 10 10 8 2 8 8 2
left_child=7 6 3 4 11 13 10 -1 -5 15 18 -3 -13 19 -15 -10 17 -7 -2 -6
right_child=1 2 -4 8 5 16 -8 -9 9 -11 -12 12 -14 14 -16 -17 -18 -19 -20 -21
leaf_value=-10.036609963332168 0.21102925401614125 0.41508114782589539 78.964738968152801 -2.4759721538409809 -1.5647674614456963 0.99094043182854286 26.725873014315148 -4.9581470071184404 -1.411074390985829 -2.1573026361701748 14.234709913740978 -7.7168401868989251 -0.6152648203000306 1.7759665378740561 -0.094163085335516081 3.2386228436549414 0.53113118057965703 8.9288806824715525 2.8733359370248865 -0.06684881253210323
leaf_weight=1320 37 40 308 328 63 40 609 38 41 88 78 100 40 56 89 42 66 116 158 39
leaf_count=1320 37 40 308 328 63 40 609 38 41 88 78 100 40 56 89 42 66 116 158 39
internal_value=-0.0125346 0.0251202 0.00171945 -0.0153706 0.00440893 0.0195837 0.0631034 -0.0777638 -0.0414567 -0.0169675 0.0389329 -0.0317583 -0.0431078 -0.000677932 0.0111329 7.84415e-05 0.0446026 0.0541571 0.0231322 -0.0228978
internal_weight=3696 2338 1456 1148 649 469 882 1358 499 171 273 180 140 247 145 83 222 156 195 102
internal_count=3696 2338 1456 1148 649 469 882 1358 499 171 273 180 140 247 145 83 222 156 195 102
cat_boundaries=0 1 2
cat_threshold=9 2
is_linear=0
shrinkage=0.0805658


Tree=8
num_leaves=21
num_cat=2
split_feature=8 1 8 19 8 9 1 8 17 8 10 8 9 14 8 9 8 11 1 11
split_gain=1505.96 225.883 246.339 50.0756 48.5732 29.507 28.7086 48.4361 18.1621 15.9762 15.0929 12.7986 11.1648 9.81042 7.74228 7.40987 5.89447 4.17341 1.86904 2.89659
threshold=338.34396703823302 -0.24999999999999997 838.44712982967712 0 575.00231549676801 79.103014112903239 0.68301270189221941 2432.2498167372037 1 700.86166225645911 14.447051971326166 1244.1559956163021 80.134523809523827 1014.1253472222223 231.82396128707472 162.12476254480291 411.24392643738162 88.624603174603195 0.68301270189221941 87.745967741935502
decision_type=2 2 2 9 2 8 2 2 9 2 10 2 10 10 2 10 2 8 2 10
left_child=14 4 3 8 5 -2 -4 11 13 10 18 -8 17 -3 -1 16 -7 -10 19 -5
right_child=1 2 6 9 -6 15 7 -9 12 -11 -12 -13 -14 -15 -16 -17 -18 -19 -20 -21
leaf_value=-9.2673771999852654 -0.15756968930503934 0.81758183548900243 79.518683080454593 -1.8915948129262701 48.534065873666258 1.3845299349779123 1.2020620583210262 64.178771801339465 -1.5068194464314124 0.081636015782118876 0.061144031395109981 -3.9855883365742995 0.3532961802328104 -1.0630125311941794 -6.9262770092567125 10.981589862398872 4.6509001479843075 -0.64168509691446363 -3.3561667162292337 -0.63215783637753054
leaf_weight=1380 93 212 245 134 479 79 57 103 79 48 40 55 78 45 60 107 129 54 174 45
leaf_count=1380 93 212 245 134 479 79 57 103 79 48 40 55 78 45 60 107 129 54 174 45
internal_value=-0.0137988 0.0271043 0.00612375 -0.0177272 0.0588436 0.035729 0.0544456 0.0284669 0 -0.0367877 -0.0430318 -0.00364457 -0.0160465 0.0150935 -0.078259 0.0475444 0.032904 -0.0314724 -0.0483596 -0.0332832
internal_weight=3696 2256 1369 909 887 408 460 215 468 441 393 112 211 257 1440 315 208 133 353 179
internal_count=3696 2256 1369 909 887 408 460 215 468 441 393 112 211 257 1440 315 208 133 353 179
cat_boundaries=0 1 2
cat_threshold=9 2696979
is_linear=0
shrinkage=0.0805658


Tree=9
num_leaves=21
num_cat=1
split_feature=8 8 9 11 19 6 0 8 5 5 8 5 5 8 2 8 9 8 4 5
split_gain=1374.65 211.788 92.3214 88.665 61.22 38.0549 36.7864 33.5274 40.734 29.5292 27.3161 20.5581 11.7674 9.36139 9.10158 8.24947 4.51521 4.39648 6.9453 3.50172
threshold=253.49064766724595 1326.0635522760344 136.33902329749108 77.45836693548388 0 999.52025333480117 2022.5000000000002 650.91538646872516 344.29440309908819 681.45993797114909 650.91538646872516 531.81685000484993 439.92884212884206 946.43820494682348 0.25000000000000017 504.30375230790236 45.995880376344097 507.32939551717487 774.19093198355665 903.43060215771914
decision_type=2 2 10 8 9 8 2 2 10 8 2 10 10 2 2 2 8 2 10 8
left_child=-1 2 3 11 9 7 -4 8 14 10 12 -2 15 19 -6 -5 -3 -13 -19 -11
right_child=1 16 6 4 5 -7 -8 -9 -10 13 -12 17 -14 -15 -16 -17 -18 18 -20 -21
leaf_value=-8.5172912847695361 -2.1208122776357885 40.853210332906599 -0.62947502126562693 1.2512520791728414 3.8947821341446272 -2.3427067859890305 12.602074807774963 10.080874641081097 -1.7650506767718137 0.28697442315914534 15.483455149372178 0.29942220275539883 0.2505112488576331 1.7545984433485338 0.050868250630049759 6.6152958370474302 130.08736319442619 -1.6513240543283743 0.0028895673956840862 -1.7739945160344888
leaf_weight=1410 169 51 54 37 70 83 217 68 216 90 131 48 116 64 57 73 495 116 60 71
leaf_count=1410 169 51 54 37 70 83 217 68 216 90 131 48 116 64 57 73 495 116 60 71
internal_value=-0.0163707 0.0220267 0.00791997 0 0.0119077 -0.00816025 0.0510975 0.000407631 -0.008467 0.0295267 0.0446616 -0.0327901 0.0238795 0.00431971 0.0253622 0.0431457 0.0659308 -0.0133178 -0.0196848 -0.00303698
internal_weight=3696 2286 1740 1469 1076 494 271 411 343 582 357 393 226 225 127 110 546 224 176 161
internal_count=3696 2286 1740 1469 1076 494 271 411 343 582 357 393 226 225 127 110 546 224 176 161
cat_boundaries=0 1
cat_threshold=9
is_linear=0
shrinkage=0.0805658


Tree=10
num_leaves=21
num_cat=4
split_feature=8 1 8 8 0 19 1 7 18 17 9 12 2 6 11 14 11 20 8 8
split_gain=1332.02 221.759 158.886 92.6652 61.5325 55.77 43.6091 29.9441 25.3012 21.0569 10.6474 10.0843 14.2789 6.32664 6.11858 4.95668 4.68746 4.48456 3.86329 3.15041
threshold=338.34396703823302 0.25000000000000011 2268.7416605349708 659.5200426851726 2022.5000000000002 0 -0.5 448.344981987984 1 2 87.967784498207905 3.5893145161290332 0.25000000000000017 1250.0293142934397 87.745967741935502 1009.2239919354839 85.476769713261675 3 706.04981017353259 456.34640110722484
decision_type=2 2 2 2 2 9 2 8 1 9 8 10 2 10 10 8 8 1 2 2
left_child=8 3 5 4 6 9 11 -5 -1 10 17 12 -2 15 -7 -11 -8 -3 -12 -18
right_child=1 2 -4 7 -6 14 16 -9 -10 13 18 -13 -14 -15 -16 -17 19 -19 -20 -21
leaf_value=-7.8571284587527694 8.9400563923276337 0.22739514718412607 60.960700147149225 0.2433156850927396 11.509443141608362 -1.9442828017466476 -1.6304594837975124 89.769732741528017 -2.6182029565854821 -0.14458841750763227 0.35783312369833165 0.31151825216314377 1.0829590150909736 0.34684148862514508 -1.1561689299163289 -1.8916604633297045 -1.1179743122567478 -2.5555816306056727 1.7936465833542372 0.50555684343899521
leaf_weight=1386 85 104 185 42 190 292 82 512 54 37 54 107 82 40 63 141 48 46 66 80
leaf_count=1386 85 104 185 42 190 292 82 512 54 37 54 107 82 40 63 141 48 46 66 80
internal_value=-0.017199 0.0212484 -0.00588237 0.0444099 0.0230687 -0.0212163 0.00650105 0.0693396 -0.0778115 -0.00179153 0.0118069 0.0285118 0.0414482 -0.0208474 -0.0450068 -0.0285 -0.0195671 0 0.0301857 -0.00444582
internal_weight=3696 2256 1028 1228 674 843 484 554 1440 488 270 274 167 218 355 178 210 150 120 128
internal_count=3696 2256 1028 1228 674 843 484 554 1440 488 270 274 167 218 355 178 210 150 120 128
cat_boundaries=0 1 2 3 4
cat_threshold=9 2 274802227 4
is_linear=0
shrinkage=0.0805658


Tree=11
num_leaves=21
num_cat=6
split_feature=8 8 9 19 5 5 17 18 7 8 9 7 20 2 2 12 18 17 8 5
split_gain=1213.45 202.133 73.1901 67.9224 42.283 36.9024 27.5415 25.1913 16.7926 16.6761 14.2554 12.5495 11.8102 9.34567 7.8076 11.1874 7.39199 8.47472 7.18997 41.3937
threshold=338.34396703823302 1679.9006045821743 204.36906698028676 0 484.99401848470745 401.30209926597507 1 2 457.94195824541868 501.15714985077921 79.103014112903239 452.01807823555436 3 -0.68301270189221952 0.25000000000000017 4.9143234767025099 4 5 2268.7416605349708 2265.4249608901173
decision_type=2 2 10 9 8 8 9 1 10 2 8 8 1 2 2 8 1 9 2 10
left_child=7 2 3 4 9 8 12 -1 13 -2 -8 -11 -6 -5 15 -15 17 -7 19 -3
right_child=1 18 -4 5 6 16 10 -9 -10 11 -12 -13 -14 14 -16 -17 -18 -19 -20 -21
leaf_value=-7.224112382327518 0.4440097088411315 113.8742045765221 22.084319570898835 -0.61681787689218692 1.9938767379305817 -1.4839745359581471 -1.2043279675883012 -2.407265262036725 -2.6200413710744876 0.59655670555445728 0.042511309053160452 7.0659818098604052 -1.3650004536841434 0.9844974634767274 0.11104079816742222 8.2197933280032363 -4.8752539159623289 -0.46640940720837837 132.46976589603437 -10.522618111155838
leaf_weight=1386 72 70 101 88 141 131 140 54 42 39 328 165 39 38 77 55 108 188 392 42
leaf_count=1386 72 70 101 88 141 131 140 54 42 39 328 165 39 38 77 55 108 188 392 42
internal_value=-0.0198581 0.0168208 0.00354393 -0.000199113 0.0138899 -0.018803 0.00187411 -0.0776996 0.000826558 0.0405512 -0.00759321 0.052475 0.0283963 0.0103174 0.0222704 0.0380557 -0.034329 -0.0247461 0.0618365 0.0323356
internal_weight=3696 2256 1752 1651 924 727 648 1440 300 276 468 204 180 258 170 93 427 319 504 112
internal_count=3696 2256 1752 1651 924 727 648 1440 300 276 468 204 180 258 170 93 427 319 504 112
cat_boundaries=0 1 2 3 4 5 6
cat_threshold=9 2610 2 4 2 67348496
is_linear=0
shrinkage=0.0805658


Tree=12
num_leaves=21
num_cat=1
split_feature=8 1 8 8 8 9 9 6 17 1 8 6 7 11 8 1 9 6 1 6
split_gain=1190.92 182.903 159.353 62.5953 39.5415 37.7919 33.3928 26.4764 24.3217 19.7604 15.9779 15.1298 10.3348 10.0041 7.08246 7.05267 4.94313 4.07106 3.12091 8.61297
threshold=376.86169026403257 -0.24999999999999997 2268.7416605349708 222.48348783987902 747.52093382555927 98.066648745519728 98.066648745519728 347.01712801774613 0 -0.6830127018922193 575.00231549676801 556.38383841094685 1228.3711619752855 67.294444444444466 481.47459181687424 -0.5 66.492083333333355 704.08534726179857 0.68301270189221941 3844.6294848382781
decision_type=2 2 2 2 2 8 10 8 9 2 2 10 8 10 2 2 10 10 2 10
left_child=3 4 6 -1 5 15 8 -5 14 -7 -10 -8 -12 -13 -3 16 -2 -16 -4 -20
right_child=1 2 18 7 -6 9 11 -9 10 -11 12 13 -14 -15 17 -17 -18 -19 19 -21
leaf_value=-6.6412856384739269 -0.75536352060926659 -1.1741602017290136 99.28231471760698 -0.14773177389719352 147.5951417084635 14.438581613439069 -0.68103930343310937 -2.4265996815254378 -2.0925906082544925 1.8546043817779039 -0.025843628313698241 0.49584997333757758 -1.5685520587874566 12.18863686416832 0.49441567440877116 -2.1648860350758086 2.7874767531885443 -0.45506973937068607 10.876474121803048 40.90033271735637
leaf_weight=1365 44 51 134 116 284 201 107 124 205 112 145 39 237 58 129 39 127 68 57 54
leaf_count=1365 44 51 134 116 284 201 107 124 205 112 145 39 237 58 129 39 127 68 57 54
internal_value=-0.0202069 0.0196503 0.00031874 -0.0724737 0.0497055 0.0344975 -0.0130293 -0.0305342 -0.020455 0.0524763 -0.0291447 0.0146214 -0.0175075 0.0381473 0 0.00501085 0.0141459 0.00819905 0.0591402 0.0362447
internal_weight=3696 2091 1284 1605 807 523 1039 240 835 313 587 204 382 97 248 210 171 197 245 111
internal_count=3696 2091 1284 1605 807 523 1039 240 835 313 587 204 382 97 248 210 171 197 245 111
cat_boundaries=0 1
cat_threshold=274728721
is_linear=0
shrinkage=0.0805658


Tree=13
num_leaves=21
num_cat=2
split_feature=8 8 1 1 4 19 2 9 9 10 17 8 4 8 7 4 2 8 10 10
split_gain=1109.07 209.354 139.708 59.6932 62.9149 41.7422 35.9262 23.5468 21.7686 16.8849 16.3064 10.0176 8.65306 9.33081 8.51162 8.5095 8.1106 7.50547 7.23271 5.88713
threshold=338.34396703823302 1679.9006045821743 -0.5 0.68301270189221941 4191.3336353866571 0 0.25000000000000017 98.066648745519728 98.066648745519728 14.447051971326166 1 215.12036294711694 637.83309036157368 676.57024201709612 408.70396461079179 598.74704029589043 0.6830127018922193 946.43820494682348 14.447051971326166 2.2756541218637998
decision_type=2 2 2 2 10 9 2 10 8 10 9 2 8 2 8 10 2 2 10 8
left_child=11 2 6 -3 -5 9 8 10 -2 16 12 -1 -7 -14 -13 -12 -4 -15 -9 -8
right_child=1 3 5 4 -6 7 19 18 -10 -11 15 14 13 17 -16 -17 -18 -19 -20 -21
leaf_value=-6.1162280633530379 1.9676637902464436 139.20519628143651 -1.7900448080087563 -12.430129882584433 43.895962514200455 -1.9088452910189 5.4680303540565376 0.57649267734409293 16.918497935836381 0.0072697785318889853 -0.45392643346888145 -0.68193089732512446 0.50745573706361202 -1.8549617131821579 -5.6661837664599384 0.50976264113463421 -0.5765855942562792 0.18911232994237931 9.5237870253028678 -0.048366140263747144
leaf_weight=1350 108 364 313 76 64 90 40 94 209 86 133 37 49 73 53 165 113 40 63 176
leaf_count=1350 108 364 313 76 64 90 40 94 209 86 133 37 49 73 53 165 113 40 63 176
internal_value=-0.0215146 0.0135357 4.97065e-05 0.0592805 0.00980713 -0.0146739 0.034757 -0.00090763 0.0523226 -0.0319413 -0.00952772 -0.0768047 -0.0242879 -0.0094706 -0.0366438 0.00185033 -0.039134 -0.0242299 0.025647 0.00636161
internal_weight=3696 2256 1752 504 140 1219 533 707 317 512 550 1440 252 162 90 298 426 113 157 216
internal_count=3696 2256 1752 504 140 1219 533 707 317 512 550 1440 252 162 90 298 426 113 157 216
cat_boundaries=0 1 2
cat_threshold=18 622167308
is_linear=0
shrinkage=0.0805658


Tree=14
num_leaves=21
num_cat=3
split_feature=8 8 1 9 4 1 5 8 20 17 6 6 9 6 1 9 8 8 8 16
split_gain=1077.53 200.092 120.418 40.4255 38.3851 37.3815 37.5036 26.7469 24.7131 22.9722 20.5554 16.7079 15.67 11.0087 10.9873 11.4634 10.8205 9.84818 5.63464 4.48599
threshold=358.41886052675437 1862.0053715064148 -0.5 136.33902329749108 546.54161067791154 0.68301270189221941 4073.7467176421246 215.12036294711694 0 1 481.22591957091282 289.38000109091314 66.492083333333355 1145.6293276591566 -0.6830127018922193 98.066648745519728 396.74996843437549 659.5200426851726 650.91538646872516 2
decision_type=2 2 2 10 10 2 10 2 1 9 10 8 8 10 2 8 2 2 2 9
left_child=7 2 12 4 19 -3 -7 -1 9 -6 -5 -9 -2 17 15 -14 -17 -11 -10 -4
right_child=1 5 3 10 8 6 -8 11 18 13 -12 -13 14 -15 -16 16 -18 -19 -20 -21
leaf_value=-5.6234690723920657 -0.69061037331082009 129.98620680649674 -1.0176594985581069 -0.76699779323198181 0.50172858404877174 -10.239431064966364 35.663531627977278 0.63202401551396425 -2.8565799478456988 -0.0018235128846924575 9.7049951606600384 -4.3980144885129526 1.9718499576688533 0.24535923304544402 0.88190133071662125 0.76981629372779858 16.205178692935707 -2.0558868892612363 -1.9291932874634763 -1.7399035677920602
leaf_weight=1350 52 344 205 73 239 68 64 44 72 66 82 106 104 41 103 39 218 108 53 265
leaf_count=1350 52 344 205 73 239 68 64 44 72 66 82 106 104 41 103 39 218 108 53 265
internal_value=-0.021907 0.0138321 0.000706277 -0.0129166 -0.0188938 0.060059 0.0177064 -0.0745923 -0.00390522 0.00373836 0.0239024 -0.0348806 0.0335608 -0.0136162 0.0383604 0.045505 0.0557561 -0.0245323 -0.0360529 -0.0361581
internal_weight=3696 2196 1720 1204 1049 476 132 1500 579 454 155 150 516 215 464 361 257 174 125 470
internal_count=3696 2196 1720 1204 1049 476 132 1500 579 454 155 150 516 215 464 361 257 174 125 470
cat_boundaries=0 1 2 3
cat_threshold=4 268447291 10784
is_linear=0
shrinkage=0.0805658


Tree=15
num_leaves=21
num_cat=4
split_feature=8 8 1 9 18 2 6 17 1 9 8 8 6 7 7 8 10 20 17 10
split_gain=1046.2 192.645 116.837 42.1893 26.1114 25.9955 24.439 20.7449 14.216 13.7679 16.8213 13.1702 12.1608 10.9056 15.807 6.95283 5.77747 9.53037 5.28447 4.83528
threshold=338.34396703823302 2178.5555605809254 -0.5 136.33902329749108 0 0.25000000000000017 481.22591957091282 1 0.68301270189221941 98.066648745519728 442.49500750043632 456.34640110722484 3844.6294848382781 785.50559866827132 1176.8725000054935 1004.4281536077054 7.9680656362007172 2 3 6.6235215053763445
decision_type=2 2 2 10 1 2 10 9 2 8 2 2 10 10 10 2 10 1 9 8
left_child=4 2 5 7 -1 9 -5 11 -3 -2 -11 -4 -10 15 -15 -9 17 18 -13 -7
right_child=1 8 3 6 -6 19 -8 13 12 10 -12 16 -14 14 -16 -17 -18 -19 -20 -21
leaf_value=-5.1761788971475591 2.0282659844123354 134.82315045919799 -1.0432313724613247 -0.61082260382775566 -1.5483956832853683 2.9574943270255423 10.539734360703026 -1.3478921282574621 3.2030855358381278 1.1714692932848039 21.546204023695765 0.049373186449757689 31.195386773581948 0.47387623538363771 -6.9022033736917443 -0.072350542446817073 -1.4001377971787776 -1.2163742654187788 0.76797973893842053 -0.24964919161273824
leaf_weight=1386 114 290 122 81 54 76 91 410 62 62 163 118 54 75 40 47 80 101 119 151
leaf_count=1386 114 290 122 81 54 76 91 410 62 62 163 118 54 75 40 47 80 101 119 151
internal_value=-0.0214274 0.0126074 0.00126624 -0.0118611 -0.0751266 0.0320204 0.023882 -0.0178962 0.0628711 0.0465559 0.0593838 -0.004843 0.0298385 -0.0286502 -0.00145391 -0.0348957 0.000593403 0.00644893 0.0163225 0.00782584
internal_weight=3696 2256 1850 1284 1440 566 172 1112 406 339 225 540 116 572 115 457 418 338 237 227
internal_count=3696 2256 1850 1284 1440 566 172 1112 406 339 225 540 116 572 115 457 418 338 237 227
cat_boundaries=0 1 2 3 4
cat_threshold=2 275255059 4 4197634
is_linear=0
shrinkage=0.0805658


end of trees

feature_importances:
consumption_roll_mean_12m=79
month_sin=33
eur_per_mwh_lag_12m=30
consumption_lag_3m=22
consumption_lag_12m=19
consumption_lag_2m=18
consumption_lag_1m=16
avg_temp_lag_12m=13
avg_hum_lag_12m=13
municipality=11
p_type=11
month_cos=10
c_bucket=9
segment=6
air_pressure_lag_12m=4
wind_lag_12m=3
year=2
num_holidays=2
region=1

parameters:
[boosting: gbdt]
[objective: regression_l1]
[metric: rmse]
[tree_learner: serial]
[device_type: cpu]
[data_sample_strategy: bagging]
[data: ]
[valid: ]
[num_iterations: 2000]
[learning_rate: 0.0805658]
[num_leaves: 21]
[num_threads: -1]
[seed: 42]
[deterministic: 0]
[force_col_wise: 0]
[force_row_wise: 0]
[histogram_pool_size: -1]
[max_depth: -1]
[min_data_in_leaf: 37]
[min_sum_hessian_in_leaf: 0.001]
[bagging_fraction: 0.952565]
[pos_bagging_fraction: 1]
[neg_bagging_fraction: 1]
[bagging_freq: 0]
[bagging_seed: 400]
[bagging_by_query: 0]
[feature_fraction: 0.850319]
[feature_fraction_bynode: 1]
[feature_fraction_seed: 30056]
[extra_trees: 0]
[extra_seed: 12879]
[early_stopping_round: 0]
[early_stopping_min_delta: 0]
[first_metric_only: 0]
[max_delta_step: 0]
[lambda_l1: 6.91888]
[lambda_l2: 0.321912]
[linear_lambda: 0]
[min_gain_to_split: 0]
[drop_rate: 0.1]
[max_drop: 50]
[skip_drop: 0.5]
[xgboost_dart_mode: 0]
[uniform_drop: 0]
[drop_seed: 17869]
[top_rate: 0.2]
[other_rate: 0.1]
[min_data_per_group: 100]
[max_cat_threshold: 32]
[cat_l2: 10]
[cat_smooth: 10]
[max_cat_to_onehot: 4]
[top_k: 20]
[monotone_constraints: ]
[monotone_constraints_method: basic]
[monotone_penalty: 0]
[feature_contri: ]
[forcedsplits_filename: ]
[refit_decay_rate: 0.9]
[cegb_tradeoff: 1]
[cegb_penalty_split: 0]
[cegb_penalty_feature_lazy: ]
[cegb_penalty_feature_coupled: ]
[path_smooth: 0]
[interaction_constraints: ]
[verbosity: -1]
[saved_feature_importance_type: 0]
[use_quantized_grad: 0]
[num_grad_quant_bins: 4]
[quant_train_renew_leaf: 0]
[stochastic_rounding: 1]
[linear_tree: 0]
[max_bin: 255]
[max_bin_by_feature: ]
[min_data_in_bin: 3]
[bin_construct_sample_cnt: 200000]
[data_random_seed: 175]
[is_enable_sparse: 1]
[enable_bundle: 1]
[use_missing: 1]
[zero_as_missing: 0]
[feature_pre_filter: 0]
[pre_partition: 0]
[two_round: 0]
[header: 0]
[label_column: ]
[weight_column: ]
[group_column: ]
[ignore_column: ]
[categorical_feature: 15,16,17,18,19,20]
[forcedbins_filename: ]
[precise_float_parser: 0]
[parser_config_file: ]
[objective_seed: 16083]
[num_class: 1]
[is_unbalance: 0]
[scale_pos_weight: 1]
[sigmoid: 1]
[boost_from_average: 1]
[reg_sqrt: 0]
[alpha: 0.9]
[fair_c: 1]
[poisson_max_delta_step: 0.7]
[tweedie_variance_power: 1.5]
[lambdarank_truncation_level: 30]
[lambdarank_norm: 1]
[label_gain: ]
[lambdarank_position_bias_regularization: 0]
[eval_at: ]
[multi_error_top_k: 1]
[auc_mu_weights: ]
[num_machines: 1]
[local_listen_port: 12400]
[time_out: 120]
[machine_list_filename: ]
[machines: ]
[gpu_platform_id: -1]
[gpu_device_id: -1]
[gpu_use_dp: 0]
[num_gpu: 1]

end of parameters

pandas_categorical:[["Eastern Finland", "Lapland", "Northern Finland", "Southern Finland", "Southwestern Finland", "Western and Inland Finland"], ["Etel\u00e4-Karjala", "Etel\u00e4-Pohjanmaa", "Etel\u00e4-Savo", "Kanta-H\u00e4me", "Keski-Suomi", "Lappi", "Pirkanmaa", "Pohjanmaa", "Pohjois-Karjala", "Pohjois-Pohjanmaa", "Pohjois-Savo", "P\u00e4ij\u00e4t-H\u00e4me", "Satakunta", "Uusimaa", "Varsinais-Suomi"], ["Espoo", "Etel\u00e4-Pohjanmaa", "Etel\u00e4-Savo", "Joensuu", "Jyv\u00e4skyl\u00e4", "Kanta-H\u00e4me", "Kanta-H\u00e4me_Others", "Keski-Suomi", "Keski-Suomi_Others", "Lahti", "Lappeenranta", "Lappi", "Lappi_Others", "Oulu", "Pirkanmaa", "Pirkanmaa_Others", "Pohjanmaa", "Pohjois-Karjala", "Pohjois-Karjala_Others", "Pohjois-Pohjanmaa", "Pohjois-Pohjanmaa_Others", "Pohjois-Savo_Others", "Pori", "P\u00e4ij\u00e4t-H\u00e4me", "P\u00e4ij\u00e4t-H\u00e4me_Others", "Rovaniemi", "Tampere", "Uusimaa_Others", "Vantaa", "Varsinais-Suomi_Others"], ["Enterprise", "Private"], ["Fixed Price", "Flat/Hybrid", "Portfolio", "Spot Price", "Variable Price"], ["High", "Low", "Medium"]]
