tree
version=v4
num_class=1
num_tree_per_iteration=1
label_index=0
max_feature_idx=16
objective=regression_l1
feature_names=year month_sin month_cos num_holidays consumption_lag_12m eur_per_mwh_lag_12m avg_temp_lag_12m avg_hum_lag_12m wind_lag_12m rain_lag_12m air_pressure_lag_12m m_area region municipality segment p_type c_bucket
feature_infos=[2022:2022] [-1:1] [-1:0.86602540378443871] [0:3] [96.83726634606866:7767.6395599049347] [36.833500000000001:89.301388888888894] [-12.473521505376343:21.38595430107527] [61.541666666666664:94.245967741935488] [0:5.6623655913978501] [0:0.19973118279569893] [1006.6245967741935:1019.3780505952382] -1:3:5:0:2:1:4 -1:13:9:6:8:1:3:4:5:11:2:7:14:0:12 -1:0:1:3:5:20:15:13:4:26:2:9:11:16:28:29:8:10:17:22:27:6:7:12:14:18:19:21:23:24 -1:1:0 -1:3:4:1:0 -1:1:2:0
tree_sizes=781 912 969 1000 891 973 1565 975 1061 1139 1001 1049 1059 1058 1134 999 1220 1148 1139 1226 1149 1208 1218 1227 1399 1298 1309 1126 1322 1330 1218 1136 1410 1310 1301 1307 1478 1391 1402 1334 1477 1402 1413 1556 1403 1410 1310 1304 1416 1510 1399 1395 1419 1333 1416 1397 1337 1319 1328 1239 1299 1405 1398 1283 1411 1507 1313 1335 1392 1378 1503 1387 1629 1452 1566 1563 1427 1465 1676 1511 1658 1398 1566 1831 1706 1818 1742 1688 1632 1908 1582 1578 1730 1399 1587 1734 1738 1813 1445 1636 1668 1749 1671 1753 1807 1445 1609 1568 1916 1664 1821 1825 1725 1795 1828 1721 1748 1253 1721 1832 1862 1893 1974 1999 1926 1577 1977 2049 2097 1843 1696 1981 2077 2064 1986 2010 1988 1866 1990 1967 1710 2103 2018 1908 2074 2165 1770 1892 2092 1987 1880 1794 2087 2151 1931 1895 1790 2056 2062 2168 2240 2103 1933 2054 1962 1956 1844 1863 1790 1985 1842 2162 2328 1982 1972 2077 2132 1803 1970 2095 1872 1885 2158 1878 1829 2077 2026 1830 2051 1885 2098 2125 1784 2072 1762 1513 2151 1902 1823 2101 2002 1841 2038 1989 2081 2007 2054 2179 1816 2145 2004 1938 1972 1910 2018 1931 1973 2010 1808 2170 2049 2011 2240 2080 2107 1935 2047 2248 2160 2188 2187 2028 1538 2003 2161 2007 1968 2062 2105 1877 2187 2055 2337 2136 2069 1850 1997 1949 1999 2117 2181 2191 1904 1898 2078 2069 2109 2009 2101 2185 2166 2104 1983 2251 2005 1976 2096 1726 1914 1718 1958 2085 2008 2074 2012 2141 1670 2022 1971 2082 2154 1910 1976 1936 1670 2078 1663 1903 1998 2151 1994 2088 2152 2146 2258 1919 2181 2019 2331 2088 2085 2014 1898 1733 1801 2185 2117 2162 2021 1986 2090 1922 1939 1996 2161 2151 2003 1818 2086 2183 2066 2026 2176 2079 1788 2068 1968 1778 2004 1994 2077 1968 2271 2171 2108 2011 2097 1853 1856 2188 2174 1600 1853 1966 2194 1962 2015 1998 1745 2229 2347 2200 1880 1700 1597 2150 2099 2093 2182 2009 2036 1995 2272 1966 2057 1899 2026 2111 1636 1939 2122 1786 2263 2245 1921 2196 2024 1658 2230 2108 2164 1926 2083 1980 2177 2161 2086 2277 1861 2124 2026 1999 2178 2234 1827 1906 2250 1997 1896 2025 2183 1995 2273 1743 2255 1757 1844 2118 2302 2264 2313 2251 2087 1922 1915 2166 1922 1986 2150 1841 2121 2285 2141 2123 2077 2122 2001 2352 2020 1880 2212 2080 2029 1742 2117 2011 2032 2182 2149 1688 1695 2060 1935 2207 1996 2209 1946 2037 1683 1988 2001 2227 2094 1764 2200 2170 1996 2091 2073 2083 2092 1782 2185 2084 1612 2064 2060 2178 2194 1915 2096 2174 1999 1997 1983 2056 1982 1719 2192 2000 1831 2163 2022 2113 2112 1738 2145 2110 1917 2093 2074 2107 1992 2083 2267 1985 1940 2117 2053 1757 1845 2009 1839 2078 2152 2069 2010 2010 2310 1744 2288 1846 2083 2100 2202 2190 1939 2175 1859 2089 2167 2176 1996 2047 2019 1888 1889 2014 1856 2090 2060 1968 2106 2178 2162 2010 2122 2229 1887 1915 2194 1999 2188 2078 2181 2007 2178 2263 2160 2099 1884 2131 2137 1944 1728 1929 1893 1839 2134 2024 2224 1976 2034 2129 2175 2027 2187 1927 1919 2105 1785 2031 1995 2096 2254 2163 1833 2106 2200 2002 2181 2276 1918 2131 1920 2149 2123 2096 2125 1944 1911 1936 1670 1689 2027 2028 2140 2055 1943 2208 1805 1941 2026 2190 2274 1784 1994 2029 2167 2383 2214 2028 2008 2279 2130 2134 2353 2185 2007 1985 2382 2035 2092 2074 1953 2168 2214 2152 1628 2297 1955 2102 1972 1847 2100 1481 1883 2107 2177 2044 2049 2008 1869 2020 2180 2263 2084 1848 1633 2199 1908 1617 2197 2168 2089 2196 1987 1911 1793 2123 2150 2036 2085 2202 2037 2178 2135 2259 2022 1916 2113 1815 2261 2283 1957 2119 2220 1882 2024 1773 2224 1979 1642 1997 2156 2096 2183 1862 2126 1963 1773 1907 2055 2039 2201 2141 2113 1848 2114 2177 2017 2105 2205 2275 1528 1651 2223 2287 2158 2137 2127 1997 2007 2266 1587 2068 2260 2042 2037 2276 2116 2043 2083 1907 2045 1853 2093 2022 2215 1553 1526 2221 1804 1967 2193 2201 1924 1966 2141 2199 2126 1456 2160 1519 2106 2052 1996 1830 2206 1908 2016 2286 2194 1654 2218 2266 2179 2119 1942 1941 2024 2096 2083 2092 2167 2193 1909 2126 2354 2200 2184 2173 2117 1936 2068 2084 2110 1963 2209 1853 2085 1930 2270 1798 2113 2263 2179 2051 1889 2284 2123 1962 2084 2144 2118 2112 2000 2099 2129 2373 2038 1674 2220 2031 1962 2066 2093 1590 2093 2122 1809 2118 2151 1852 2216 1796 1756 1955 2026 1862 2055 2116 2043 2242 1940 1911 2155 2231 2047 1788 2208 2115 2075 1988 2109 2191 1701 2066 2186 2110 2301 1843 2096 2217 2127 2004 1934 1776 2211 2033 2020 2111 2136 2111 2080 1963 1886 2185 2102 2023 2214 1683 1896 1965 2276 2058 2215 2044 2124 1958 2236 1789 1712 2041 1659 2209 1929 2132 2124 2119 2052 2100 2092 1769 1957 1931 1860 2079 1956 2203 2139 1949 2216 2120 2093 2101 2207 1951 2099 2223 2298 2112 1598 2103 2033 2102 2056 2060 2050 2057 1967 1782 1880 2288 1995 2203 1925 2220 1738 2055 2009 2119 2051 2022 1768 2290 2092 2050 2205 1852 2085 2108 1991 2001 1937 2207 2049 2150 2298 1694 2117 1874 2028 2019 1697 2015 2133 1897 2052 2076 1830 2214 1894 2131 2028 2013 1883 1896 2178 2276 2227 2081 1907 2071 1854 1511 1949 1636 1952 2112 2006 2146 2195 2016 1489 2027 2109 1606 1856 2277 2378 2208 1809 2199 2131 1942 1868 2189 2272 2207 2119 2109 2044 1390 2041 2008 2034 2087 1562 2107 2073 1518 2019 2016 2185 2111 2222 1996 2025 1920 2050 1950 1937 2032 2207 2100 1940 2136 2169 2037 2185 2099 2200 2212 1899 2117 2183 2079 2189 2116 2074 2084 2212 2105 2124 2104 2024 1597 1909 2190 2193 1956 2121 2100 2269 1866 2046 2169 2040 2029 2029 1857 1695 1937 1933 1978 2122 2028 2185 1890 2186 2184 2132 2033 1970 2142 2007 1930 2182 2361 2288 2196 1949 1953 2197 2257 1827 2196 1919 1936 1865 1703 2216 2108 2017 2052 1769 1976 1962 2094 1956 1987 2131 2127 2092 2126 2039 2117 2122 1701 2052 1961 1890 2298 1897 2055 2112 2298 2125 2126 2078 1886 2108 2120 2219 1967 2218 2019 1610 2010 1882 2212 2110 2023 2116 1947 2116 2041 1891 2067 2232 2238 2205 2208 2070 2173 2117 2043 2052 2324 2274 1666 1621 2081 1767 2291 2220 1850 2140 2209 2105 1701 1565 1930 2162 2228 2104 2137 1858 2175 2186 2064 2182 2116 2004 1942 1552 1957 2091 1895 2285 2000 2189 1841 2022 2210 1813 1935 2246 1752 2133 1869 1959 2030 1923 2144 2041 1930 1658 1945 2093 2384 2022 2208 2210 1970 2020 2115 2047 2103 2198 2110 1932 2179 1969 2124 2299 2203 2101 2019 2049 2019 2118 1885 1843 1699 1995 2022 2137 2109 2091 1717 1647 2092 1898 1444 1746 2189 1754 2285 1984 2009 2281 2094 2056 1926 2206 1949 2121 2027 2032 2030 2310 2198 1892 2041 1720 1602 2115 2136 1820 2127 2126 1858 1960 2111 2127 1927 2160 1970 2098 2222 2023 2043 2200 2038 1810 2043 2017 1659 2235 2276 2041 2025 1788 1901 2194 1965 2037 2036 2127 2288 2122 2057 2033 2227 2122 2130 2248 2056 2216 2091 2195 2062 1773 1948 2121 1826 1878 1922 2104 2039 2063 2215 2022 2141 2280 1928 2269 2104 2113 2120 2190 1830 1708 2042 2141 2131 2006 1782 2112 2290 2016 1947 2058 1808 2112 2029 2032 2097 2187 2104 2193 1831 2123 1930 1737 2027 1914 2046 2204 2214 2095 1908 2142 2143 2192 1843 2129 2182 2217 2079 2290 2023 2031 1936 2229 2027 2228 1959 2169 2074 2141 2038 2159 1952 1938 2168 2242 1983 1796 1941 1946 2105 1938 2224 2278 2183 2130 2129 2130 2200 2271 2120 2216 2119 2129 2030 2024 2211 1957 1764 2124 1616 2209 2268 2101 2014 2127 1837 1760 1973 1980 2036 2105 2261 2048 2284 2050 2200 2044 2134 2057 2135 1993 1926 2206 1999 2109 2062 2113 2136 1890 2020 1612 2184 2039 1941 1729 2034 2294 2124 2196 2210 1889 1758 2199 2388 2286 2363 2098 2013 1956 2165 1974 1940 2214 2041 2257 1973 2072 2295 2055 2025 2105 1958 2236 2041 2220 2124 2120 2122 1890 2061 2236 1866 1885 1867 2035 1792 2122 2042 2114 1758 2101 1678 2257 1610 2054 2186 1706 1700 2133 1842 1900 2134 2147 1852 1597 2113 1786 2047 1925 2224 1745 1920 2108 1981 2155 1935 1936 2150 2002 1880 2214 2119 2220 2041 1889 2012 2253 2216 2106 1787 2208 2212 2274 1463 2225 1759 2002 2304 2029 2188 2101 2042 2200 2199 1868 1814 1958 1766 2205 2065 2232 1942 2212 1951 2095 2010 1962 2110 2128 1990 2307 1722 2052 2131 2305 2045 2217 2134 1569 2196 2218 2101

Tree=0
num_leaves=8
num_cat=3
split_feature=16 14 15 1 1 1 9
split_gain=561.585 93.5156 39.4681 24.5683 18.1923 5.75696 5.38665
threshold=0 1 2 0.68301270189221941 1.0000000180025095e-35 1.0000000180025095e-35 1.0000000180025095e-35
decision_type=1 1 9 2 2 2 2
left_child=1 -1 4 5 -2 -3 -6
right_child=2 3 -4 -5 6 -7 -8
leaf_value=350.07153405063406 359.11873729669276 359.44966875568417 364.92595272349882 354.35021851596207 355.41821465425352 356.68891398043934 356.71913512762882
leaf_weight=378 45 42 369 42 36 42 54
leaf_count=378 45 42 369 42 36 42 54
internal_value=356.371 356.349 356.393 356.371 356.377 356.38 356.37
internal_weight=1008 504 504 126 135 84 90
internal_count=1008 504 504 126 135 84 90
cat_boundaries=0 1 2 3
cat_threshold=2 2 3
is_linear=0
shrinkage=1


Tree=1
num_leaves=9
num_cat=1
split_feature=4 4 6 4 14 4 4 4
split_gain=610.538 46.2273 59.0025 38.3534 18.4569 8.1483 7.72903 2.39422
threshold=289.89543146861917 743.0684716216698 9.4959318996415778 463.76507462979936 0 366.57083162401631 239.76853280280997 604.97140978451409
decision_type=2 2 2 2 1 2 2 2
left_child=6 2 3 -2 7 -4 -1 -5
right_child=1 -3 5 4 -6 -7 -8 -9
leaf_value=-6.1116428365041484 -1.6649695601726346 26.055748927006693 1.0565893962166315 0.26603663075012313 -0.53903825028086405 4.2601812271185668 -1.2360765335770392 0.92280895096559001
leaf_weight=380 55 240 47 46 39 135 32 34
leaf_count=380 55 240 47 46 39 135 32 34
internal_value=-0.000416638 0.0185211 0.0115571 -0.000389567 0.00868554 0.0232301 -0.0279249 0.0169213
internal_weight=1008 596 356 174 119 182 412 80
internal_count=1008 596 356 174 119 182 412 80
cat_boundaries=0 1
cat_threshold=2
is_linear=0
shrinkage=0.0293497


Tree=2
num_leaves=10
num_cat=0
split_feature=4 5 4 4 4 1 4 4 4
split_gain=576.313 58.4702 73.2136 18.4127 10.1254 7.87876 18.611 5.92428 3.48794
threshold=289.89543146861917 45.995880376344097 617.94901390958364 460.07038397305661 239.76853280280997 0.68301270189221941 865.33312693746313 364.73981146994805 997.5245269406164
decision_type=2 2 2 2 2 2 2 2 2
left_child=4 2 3 -2 -1 7 -7 -3 -4
right_child=1 5 8 -5 -6 6 -8 -9 -10
leaf_value=-5.9322682564340585 -1.7628703515794089 1.5016821802238232 0.36554392709577427 -0.018077611303913402 -1.1997981195603429 -0.13880872235611957 5.3097874002067114 8.0711504150634799 23.31119227747272
leaf_weight=380 46 45 47 55 32 33 37 274 59
leaf_count=380 46 45 47 55 32 33 37 274 59
internal_value=-0.001057 0.0173399 0.00443279 -0.0131248 -0.0277825 0.0240714 0.0134849 0.0262232 0.0216164
internal_weight=1008 596 207 101 412 389 70 319 106
internal_count=1008 596 207 101 412 389 70 319 106
is_linear=0
shrinkage=0.0293497


Tree=3
num_leaves=10
num_cat=1
split_feature=4 4 1 4 6 14 4 4 1
split_gain=563.968 49.7005 76.5397 24.3908 31.4916 16.5208 2.2351 1.73655 0.647072
threshold=254.61914464884231 803.01229094783025 1.0000000180025095e-35 501.12651311311168 10.287031810035844 0 322.20657964877688 617.94901390958364 0.93301270189221952
decision_type=2 2 2 2 2 1 2 2 2
left_child=-1 2 6 4 -4 7 -2 -5 -3
right_child=1 8 3 5 -6 -7 -8 -9 -10
leaf_value=-5.7574119319982957 0.82727801993358452 36.531171936447706 -1.5179752350316527 0.26514206986726691 0.50280060127082582 -0.426219540160372 5.2542132552583727 0.90437098499809898 1.0377913237122391
leaf_weight=392 32 188 65 37 58 36 120 44 36
leaf_count=392 32 188 65 37 58 36 120 44 36
internal_value=-0.00134807 0.0161105 0.00959897 -0.000526827 -0.00983169 0.00883359 0.0258783 0.0163523 0.0272541
internal_weight=1008 616 392 240 123 117 152 81 224
internal_count=1008 616 392 240 123 117 152 81 224
cat_boundaries=0 1
cat_threshold=2
is_linear=0
shrinkage=0.0293497


Tree=4
num_leaves=9
num_cat=0
split_feature=4 5 4 4 4 1 4 4
split_gain=554.491 57.7489 58.9287 25.4724 24.6982 8.49887 18.611 2.63154
threshold=254.61914464884231 45.995880376344097 460.07038397305661 307.63851067728132 1145.6293276591566 0.68301270189221941 865.33312693746313 617.94901390958364
decision_type=2 2 2 2 2 2 2 2
left_child=-1 2 -2 -3 7 -5 -7 -4
right_child=1 3 4 5 -6 6 -8 -9
leaf_value=-5.5884339051043934 -1.680882442706533 -0.11674338687707335 -0.025328866766740964 6.1308482077695068 31.362991724965255 -0.12176719260882723 4.0817698750472946 0.24752047978267322
leaf_weight=392 47 33 55 305 52 33 37 54
leaf_count=392 47 33 55 305 52 33 37 54
internal_value=-0.00158092 0.0157295 0.00286183 0.0221607 0.0115182 0.0243437 0.0134849 0.00303721
internal_weight=1008 616 208 408 161 375 70 109
internal_count=1008 616 208 408 161 375 70 109
is_linear=0
shrinkage=0.0293497


Tree=5
num_leaves=10
num_cat=3
split_feature=16 14 5 1 16 7 3 3 1
split_gain=475.824 90.5238 27.726 27.1485 23.0715 13.6241 5.63093 0.858431 0.134081
threshold=0 1 45.995880376344097 0.68301270189221941 2 77.45836693548388 2.5000000000000004 2.5000000000000004 -0.68301270189221897
decision_type=1 1 2 2 1 2 2 2 2
left_child=1 -1 4 5 7 -3 8 -2 -4
right_child=2 3 6 -5 -6 -7 -8 -9 -10
leaf_value=-5.4334482594935309 0.12768221545579478 -0.89762122871205974 8.873657909194451 -1.9284465446461223 34.505119972127005 2.7035984004084939 1.5417959566711592 -0.024585473384391914 3.8354745292948613
leaf_weight=378 86 42 112 42 39 42 56 43 168
leaf_count=378 86 42 112 42 39 42 56 43 168
internal_value=-0.00181378 -0.0220161 0.0182916 -7.29367e-05 0.00807516 0.00915805 0.0232397 0.00165979 0.02516
internal_weight=1008 504 504 126 168 84 336 129 280
internal_count=1008 504 504 126 168 84 336 129 280
cat_boundaries=0 1 2 3
cat_threshold=2 2 4
is_linear=0
shrinkage=0.0293497


Tree=6
num_leaves=17
num_cat=5
split_feature=15 13 12 13 1 1 13 9 2 9 9 10 1 2 1 9
split_gain=83.995 30.8167 15.6459 18.8662 15.5997 6.0437 4.76 25.1753 4.33851 3.82748 3.47527 3.37236 1.53593 0.658256 0.43457 0.390013
threshold=0 1 2 3 -0.68301270189221897 1.0000000180025095e-35 4 0.026760752688172049 0.25000000000000017 0.030309139784946242 0.039231150793650797 1011.0346102150539 1.0000000180025095e-35 1.0000000180025095e-35 1.0000000180025095e-35 0.030309139784946242
decision_type=9 9 9 9 2 2 9 2 2 2 2 2 2 2 2 2
left_child=4 5 3 10 -1 15 12 11 -7 -4 -3 -8 -5 -14 -13 -2
right_child=1 2 9 6 -6 8 7 -9 -10 -11 -12 14 13 -15 -16 -17
leaf_value=-4.0857932217626241 -5.0528849344698488 0.8200786531473927 1.9385613598249951 2.2582262139635318 -4.5784968488342166 -3.360614352726873 -1.391373142832989 -5.360531170178886 -1.5710356020627203 8.7228345829307283 3.4927761044589007 3.7353992605344106 -0.19695029730210045 0.67532996293449732 0.92258569047870331 1.1750341670275901
leaf_weight=38 39 32 129 36 133 116 36 36 58 42 121 36 36 36 36 48
leaf_count=38 39 32 129 36 133 116 36 36 58 42 121 36 36 36 36 48
internal_value=-0.00216307 0.00170813 0.00552193 0.00207149 -0.0202829 -0.00641595 -0.00272025 -0.00614526 -0.00981751 0.0128375 0.00993962 8.50557e-05 0.00156605 -0.000127389 0.00418509 0
internal_weight=1008 837 576 405 171 261 252 144 174 171 153 108 108 72 72 87
internal_count=1008 837 576 405 171 261 252 144 174 171 153 108 108 72 72 87
cat_boundaries=0 1 2 3 4 5
cat_threshold=2 608208664 8748 2049 268435492
is_linear=0
shrinkage=0.0293497


Tree=7
num_leaves=10
num_cat=0
split_feature=4 1 4 4 4 4 1 4 4
split_gain=544.635 46.9546 72.4067 19.7087 19.0119 12.9766 2.3134 12.8968 0.964911
threshold=307.63851067728132 0.68301270189221941 581.6473146573295 248.69965931440211 1078.1685970396561 370.56905669001179 1.0000000180025095e-35 488.94792183815372 730.5238118931876
decision_type=2 2 2 2 2 2 2 2 2
left_child=3 5 -3 -1 8 -2 -7 -8 -4
right_child=1 2 4 -5 -6 6 7 -9 -10
leaf_value=-5.1894659176735667 1.1128676074558486 -1.2322120933370297 0.33504556492958293 -0.56416003000321457 17.995356857224962 8.2487492303263039 0.26429487856714617 7.2839968343021511 0.091515321061643937
leaf_weight=384 51 58 39 44 73 153 46 122 38
leaf_count=384 51 58 39 44 73 153 46 122 38
internal_value=-0.001872 0.0166042 0.00511591 -0.0270188 0.0160705 0.0228845 0.0251466 0.0213263 0.00505309
internal_weight=1008 580 208 428 150 372 321 168 77
internal_count=1008 580 208 428 150 372 321 168 77
is_linear=0
shrinkage=0.0293497


Tree=8
num_leaves=11
num_cat=0
split_feature=4 5 4 4 4 1 4 8 1 4
split_gain=523.786 72.2808 55.2976 24.57 20.1196 7.1272 20.8269 5.60393 3.55583 0.667774
threshold=307.63851067728132 45.995880376344097 1208.1636846254667 460.07038397305661 239.76853280280997 1.0000000180025095e-35 718.94206112883444 4.476854838709678 0.25000000000000011 617.94901390958364
decision_type=2 2 2 2 2 2 2 2 2 2
left_child=4 2 3 -2 -1 -3 8 9 -7 -5
right_child=1 5 -4 7 -6 6 -8 -9 -10 -11
leaf_value=-5.0371569076949685 -1.4703899281621025 6.4785064410179327 30.893011204026603 -0.15652760837753379 -0.61065146106872092 0.85880018968601124 8.6287577134475448 0.2987040709774279 0.065530256672962056 -0.02807085962624473
leaf_weight=380 44 181 51 41 48 37 111 36 46 33
leaf_count=380 44 181 51 41 48 37 111 36 46 33
internal_value=-0.00222128 0.0158961 0.0016172 -0.00690596 -0.0268817 0.0235618 0.0187751 8.35139e-05 0.0068025 -0.00407248
internal_weight=1008 580 205 154 428 375 194 110 83 74
internal_count=1008 580 205 154 428 375 194 110 83 74
is_linear=0
shrinkage=0.0293497


Tree=9
num_leaves=12
num_cat=0
split_feature=4 5 4 4 4 10 4 8 8 5 4
split_gain=518.859 67.2884 54.1424 25.5329 20.1196 9.58453 21.5525 5.05508 1.08348 0.71391 10.501
threshold=307.63851067728132 45.995880376344097 1208.1636846254667 460.07038397305661 239.76853280280997 1017.9785515873017 961.29014905538259 4.476854838709678 3.8660618279569898 62.616579781106005 595.46025451552225
decision_type=2 2 2 2 2 2 2 2 2 2 2
left_child=4 2 3 -2 -1 9 -7 8 -5 10 -3
right_child=1 5 -4 7 -6 6 -8 -9 -10 -11 -12
leaf_value=-4.8893181138982813 -1.4272344979514211 0.36615289991740235 29.986312128170177 -0.012616969066968376 -0.5927290542251562 -0.13356659186543463 3.2645453848804942 0.28993721094811264 -0.19048521561177359 6.2883645424439516 8.4705321119790771
leaf_weight=380 44 49 51 40 48 34 36 36 34 181 75
leaf_count=380 44 49 51 40 48 34 36 36 34 181 75
internal_value=-0.00233771 0.0156938 0.00190307 -0.00652561 -0.0268817 0.0230926 0.0118157 0.000615544 -0.00328278 0.0255031 0.0213196
internal_weight=1008 580 205 154 428 375 70 110 74 305 124
internal_count=1008 580 205 154 428 375 70 110 74 305 124
is_linear=0
shrinkage=0.0293497


Tree=10
num_leaves=10
num_cat=1
split_feature=4 4 1 4 6 14 4 6 4
split_gain=516.073 54.6342 81.6214 20.8739 27.9693 16.1514 4.19984 3.13916 0.829487
threshold=254.61914464884231 935.80339264338829 1.0000000180025095e-35 508.42243315328164 9.2897849462365603 0 351.44393267794368 -2.2668346774193546 1160.1552180693886
decision_type=2 2 2 2 2 1 2 2 2
left_child=-1 2 6 4 -4 7 -2 -5 -3
right_child=1 8 3 5 -6 -7 -8 -9 -10
leaf_value=-4.7426172212568742 0.77019630005978945 1.7015622170063032 -1.2079474310716387 1.7998469817988352 0.16827599554477579 -0.32735432294285843 4.8240106335589399 0.20716271005408174 41.257155512252695
leaf_weight=392 42 44 62 34 63 40 114 61 156
leaf_count=392 42 44 62 34 63 40 114 61 156
internal_value=-0.00239593 0.0143009 0.00805867 -0.00183923 -0.0106115 0.00592367 0.0248407 0.0127194 0.0270031
internal_weight=1008 616 416 260 125 135 156 95 200
internal_count=1008 616 416 260 125 135 156 95 200
cat_boundaries=0 1
cat_threshold=2
is_linear=0
shrinkage=0.0293497


Tree=11
num_leaves=11
num_cat=0
split_feature=4 5 4 4 4 4 1 4 4 5
split_gain=507.011 56.8806 57.0453 25.0792 14.0651 14.0303 10.1401 19.4381 1.90127 0.472408
threshold=254.61914464884231 45.995880376344097 647.38483981188426 307.63851067728132 460.07038397305661 1208.1636846254667 0.68301270189221941 961.29014905538259 419.86225585903509 73.463790322580664
decision_type=2 2 2 2 2 2 2 2 2 2
left_child=-1 2 4 -3 -2 -4 8 -8 9 -5
right_child=1 3 5 6 -6 -7 7 -9 -10 -11
leaf_value=-4.603423064259518 -1.3636693120817232 -0.062237859209095539 0.14556294971423747 1.1257112633579403 -0.069007311103183325 27.895341266062722 -0.10711617430089404 2.6234028051737459 8.6665519151947716 2.0944570671253442
leaf_weight=392 47 33 50 48 60 51 34 36 215 42
leaf_count=392 47 33 50 48 60 51 34 36 215 42
internal_value=-0.00262878 0.01392 0.00117127 0.0202919 -0.0134849 0.0171798 0.022467 0.010981 0.0249263 0.018947
internal_weight=1008 616 208 408 107 101 375 70 305 90
internal_count=1008 616 208 408 107 101 375 70 305 90
is_linear=0
shrinkage=0.0293497


Tree=12
num_leaves=11
num_cat=0
split_feature=4 4 5 4 6 4 8 4 4 4
split_gain=498.029 56.2867 82.4452 19.6919 23.3511 16.7035 6.18595 5.21894 1.32803 0.315559
threshold=254.61914464884231 935.80339264338829 62.616579781106005 575.47113013907176 8.5851478494623681 370.56905669001179 4.0768145161290326 351.44393267794368 466.05438136772176 1160.1552180693886
decision_type=2 2 2 2 2 2 2 2 2 2
left_child=-1 2 3 4 8 -6 -5 -4 -2 -3
right_child=1 9 7 6 5 -7 -8 -9 -10 -11
leaf_value=-4.468314207095208 -1.2854612026565773 1.5746260060029909 0.71078669454102783 0.074552731883837653 -1.0971967242581901 0.32858618524839284 0.57651184024907098 4.5140625733184701 -0.19784083310777981 39.598415191995741
leaf_weight=392 42 44 42 56 32 48 50 114 32 156
leaf_count=392 42 44 42 56 32 48 50 114 32 156
internal_value=-0.00286164 0.013539 0.00721272 -0.00274115 -0.00956839 0.000845423 0.00671119 0.0240898 -0.021446 0.0264171
internal_weight=1008 616 416 260 154 80 106 156 74 200
internal_count=1008 616 416 260 154 80 106 156 74 200
is_linear=0
shrinkage=0.0293497


Tree=13
num_leaves=11
num_cat=0
split_feature=4 1 4 4 1 6 4 4 4 4
split_gain=493.569 49.4915 79.9254 16.1647 17.0971 14.8899 15.4969 12.7075 6.2873 2.99786
threshold=254.61914464884231 1.0000000180025095e-35 617.94901390958364 1537.1923440399812 0.68301270189221941 8.5851478494623681 370.56905669001179 508.42243315328164 351.44393267794368 773.61878324339034
decision_type=2 2 2 2 2 2 2 2 2 2
left_child=-1 8 5 4 -4 7 -7 -3 -2 -6
right_child=1 2 3 -5 9 6 -8 -9 -10 -11
leaf_value=-4.3371707476424337 0.68992535361135565 -1.127874150272373 3.2063845541568532 34.446465496921974 0.2984669669984456 -1.0649943840801004 0.31894229561470472 -0.15149801661075921 6.7444177288951055 -0.026416934152443949
leaf_weight=392 42 53 54 91 36 32 56 37 161 54
leaf_count=392 42 53 54 91 36 32 56 37 161 54
internal_value=-0.00297807 0.0133485 0.00733608 0.0186219 0.0118581 -0.00729318 0.000768854 -0.0156978 0.0253056 0.00335114
internal_weight=1008 616 413 235 144 178 88 90 203 90
internal_count=1008 616 413 235 144 178 88 90 203 90
is_linear=0
shrinkage=0.0293497


Tree=14
num_leaves=12
num_cat=3
split_feature=16 14 1 16 5 1 1 5 10 6 6
split_gain=443.566 78.9412 26.0546 25.8548 33.9571 9.85917 4.85507 2.08773 0.548503 0.742401 0.463207
threshold=0 1 0.68301270189221941 2 45.995880376344097 1.0000000180025095e-35 1.0000000180025095e-35 53.711622311827966 1010.553561827957 8.5851478494623681 19.680901657706098
decision_type=1 1 2 1 2 2 2 2 2 2 2
left_child=1 -1 6 4 8 10 -3 -7 9 -2 -6
right_child=3 2 -4 -5 5 7 -8 -9 -10 -11 -12
leaf_value=-4.2221284994799806 -0.15655224635691503 1.7069004149221694 -1.876981436345464 42.425200073901053 5.0192528864352859 3.0203956240256273 0.0076128720990379989 0.67204237229230646 0.062681693157236734 0.035141149691376196 1.7117345389873
leaf_weight=378 48 42 42 117 92 43 42 86 44 37 37
leaf_count=378 48 42 42 117 92 43 42 86 44 37 37
internal_value=-0.00297807 -0.0224816 -0.00193153 0.0164293 0.0125265 0.0186681 0.00706987 0.0120988 0 -0.00113984 0.0248071
internal_weight=1008 504 126 504 387 258 84 129 129 85 129
internal_count=1008 504 126 504 387 258 84 129 129 85 129
cat_boundaries=0 1 2 3
cat_threshold=2 2 4
is_linear=0
shrinkage=0.0293497


Tree=15
num_leaves=10
num_cat=1
split_feature=4 4 6 4 14 4 3 4 4
split_gain=502.003 39.3369 54.6236 30.6381 15.5726 12.8468 9.26428 3.26221 2.69504
threshold=307.63851067728132 935.80339264338829 9.4959318996415778 463.76507462979936 0 239.76853280280997 1.0000000180025095e-35 617.94901390958364 1537.1923440399812
decision_type=2 2 2 2 1 2 2 2 2
left_child=5 2 3 -2 7 -1 -4 -5 -3
right_child=1 8 6 4 -6 -7 -8 -9 -10
leaf_value=-4.0891594235869171 -1.0784117262246022 2.892850258657075 3.196179072795112 0.034858973828310019 -0.38679076601787438 -0.55370847762013187 0.31580267040252596 0.77090516022148925 41.536422777759867
leaf_weight=380 53 76 118 49 45 48 56 59 124
leaf_count=380 53 76 118 49 45 48 56 59 124
internal_value=-0.00315271 0.0145812 0.00882146 -0.00118262 0.00522827 -0.0272929 0.020929 0.011464 0.025245
internal_weight=1008 580 380 206 153 428 174 108 200
internal_count=1008 580 380 206 153 428 174 108 200
cat_boundaries=0 1
cat_threshold=2
is_linear=0
shrinkage=0.0293497


Tree=16
num_leaves=13
num_cat=0
split_feature=4 1 4 4 1 4 4 4 1 4 4 1
split_gain=497.181 54.5792 83.2036 26.0725 13.9931 12.8468 4.18209 3.44409 3.28909 2.21143 0.90075 0.294189
threshold=307.63851067728132 0.25000000000000011 512.03729766786489 1537.1923440399812 0.68301270189221941 239.76853280280997 743.0684716216698 419.86225585903509 0.93301270189221952 440.89305939360764 773.61878324339034 -0.68301270189221897
decision_type=2 2 2 2 2 2 2 2 2 2 2 2
left_child=5 7 9 4 6 -1 -4 11 10 -3 -6 -2
right_child=1 2 3 -5 8 -7 -8 -9 -10 -11 -12 -13
leaf_value=-3.9691440244434175 1.8670312515779481 -1.1453031462852217 0.25375781004308184 29.251875401845052 0.36203392826100433 -0.5374573274283817 3.6732549392819314 12.303150794951176 -0.091675254991055513 -0.3948577213647973 0.029513749005781131 0.73691315069574814
leaf_weight=380 35 43 35 82 42 48 32 146 42 35 34 54
leaf_count=380 35 43 35 82 42 48 32 146 42 35 34 54
internal_value=-0.00326914 0.0143789 0.00674089 0.0146362 0.00812626 -0.0272929 0.0188807 0.0253566 0.00156605 -0.0196014 0.0055038 0.0188305
internal_weight=1008 580 345 267 185 428 67 235 118 78 76 89
internal_count=1008 580 345 267 185 428 67 235 118 78 76 89
is_linear=0
shrinkage=0.0293497


Tree=17
num_leaves=12
num_cat=0
split_feature=4 5 4 4 4 1 4 4 4 1 4
split_gain=480.488 61.6884 50.4796 22.5839 12.8468 12.2157 7.84048 4.17183 3.94331 13.6793 2.78047
threshold=307.63851067728132 45.995880376344097 1208.1636846254667 460.07038397305661 239.76853280280997 0.68301270189221941 961.29014905538259 730.5238118931876 743.0684716216698 1.0000000180025095e-35 595.46025451552225
decision_type=2 2 2 2 2 2 2 2 2 2 2
left_child=4 2 3 -2 -1 8 -7 10 9 -3 -5
right_child=1 5 -4 7 -6 6 -8 -9 -10 -11 -12
leaf_value=-3.8526510352965757 -1.1691790561122595 3.1417688693995305 22.823979915799942 -0.021214300302487891 -0.52168314281189221 -0.06666322428782738 2.3954728850314972 -0.14054106836674388 39.751837787585877 0.24335850417783866 0.26218222078979858
leaf_weight=380 44 130 51 43 48 34 36 32 115 60 35
leaf_count=380 44 130 51 43 48 34 36 32 115 60 35
internal_value=-0.00367664 0.0136709 0.00047369 -0.00766665 -0.0272929 0.0207467 0.00847719 -8.35139e-05 0.0233883 0.0197864 0.00311514
internal_weight=1008 580 205 154 428 375 70 110 305 190 78
internal_count=1008 580 205 154 428 375 70 110 305 190 78
is_linear=0
shrinkage=0.0293497


Tree=18
num_leaves=12
num_cat=0
split_feature=4 5 4 5 4 4 4 4 5 10 5
split_gain=472.573 51.885 44.7895 15.386 19.0548 13.5032 12.8939 12.1627 2.29682 2.70934 0.500008
threshold=307.63851067728132 45.995880376344097 647.38483981188426 62.616579781106005 961.29014905538259 235.21991396418878 460.07038397305661 1637.9741381530396 56.636407738095251 1014.5336111111113 56.636407738095251
decision_type=2 2 2 2 2 2 2 2 2 2 2
left_child=5 2 6 4 8 -1 -2 -4 9 -3 -6
right_child=1 3 7 -5 10 -7 -8 -9 -10 -11 -12
leaf_value=-3.7414099944132819 -1.1348640596657646 0.11902823115779788 0.061221162213539224 4.8163564935648004 22.977590446633116 -0.53949939365787425 -0.057424535647065011 23.281408124264555 -0.064706681966452767 0.49062283578546234 2.3251665935290982
leaf_weight=376 44 39 55 181 51 52 60 46 34 34 36
leaf_count=376 44 39 55 181 51 52 60 46 34 34 36
internal_value=-0.00373486 0.0134686 0.00133132 0.0199647 0.0136401 -0.0271558 -0.0119035 0.015442 0.00473451 0.00773015 0.0239668
internal_weight=1008 580 205 375 194 428 104 101 107 73 87
internal_count=1008 580 205 375 194 428 104 101 107 73 87
is_linear=0
shrinkage=0.0293497


Tree=19
num_leaves=13
num_cat=0
split_feature=4 5 4 4 4 6 4 8 4 7 8 2
split_gain=451.515 50.0154 45.3504 22.7964 16.8899 14.2999 14.5255 6.09148 5.79228 4.14948 1.0973 0.377791
threshold=307.63851067728132 45.995880376344097 1637.9741381530396 460.07038397305661 226.84940285172729 -5.4826384888632864 961.29014905538259 4.476854838709678 438.72129348082393 64.863149641577067 3.8660618279569898 0.68301270189221952
decision_type=2 2 2 2 2 2 2 2 2 2 2 2
left_child=4 2 3 -2 -1 6 -3 10 9 -7 -5 -10
right_child=1 5 -4 7 -6 8 -8 -9 11 -11 -12 -13
leaf_value=-3.6359018455326129 -1.1015561963653595 -0.089764631427461813 22.598106937096514 -0.076436642324005016 -0.61336403386146665 0.70213714393608928 3.0127701305133048 0.27497422409460909 17.516766799603282 1.2866202894653174 -0.11121108248572598 2.1487496045789309
leaf_weight=368 44 44 46 43 60 34 48 37 126 77 35 46
leaf_count=368 44 44 46 43 60 34 48 37 126 77 35 46
internal_value=-0.00385128 0.0129628 0.00104544 -0.00613662 -0.0267447 0.0193391 0.00836455 0.000334376 0.0227183 0.0161639 -0.00386452 0.0266218
internal_weight=1008 580 205 159 428 375 92 115 283 111 78 172
internal_count=1008 580 205 159 428 375 92 115 283 111 78 172
is_linear=0
shrinkage=0.0293497


Tree=20
num_leaves=12
num_cat=2
split_feature=4 16 6 4 6 4 16 4 4 2 3
split_gain=433.37 46.6378 39.8893 37.4157 18.5039 16.8899 10.9816 7.52587 5.84342 13.2949 2.33399
threshold=307.63851067728132 0 9.4959318996415778 548.80715798922017 5.6469310035842302 226.84940285172729 1 370.56905669001179 730.5238118931876 0.25000000000000017 1.0000000180025095e-35
decision_type=2 1 2 2 2 2 1 2 2 2 2
left_child=5 -2 3 4 -3 -1 -5 -4 -8 -10 -9
right_child=1 2 7 6 -6 -7 8 10 9 -11 -12
leaf_value=-3.5291893978052964 37.623854965759008 -0.86868179204203644 0.16774383552322689 -0.17103636212495482 0.10080440350325401 -0.59536201395499488 0.60322532799792505 3.2433266660800331 -0.11911857488883436 1.4788333120681392 0.30843089956078557
leaf_weight=368 117 56 38 40 33 60 52 101 39 57 47
leaf_count=368 117 56 38 40 33 60 52 101 39 57 47
internal_value=-0.004317 0.0121536 0.00781131 0.00056237 -0.0148879 -0.0267447 0.00815266 0.018321 0.0119341 0.00679852 0.0214317
internal_weight=1008 580 463 277 89 428 188 186 148 96 148
internal_count=1008 580 463 277 89 428 188 186 148 96 148
cat_boundaries=0 1 2
cat_threshold=1 2
is_linear=0
shrinkage=0.0293497


Tree=21
num_leaves=13
num_cat=0
split_feature=4 5 4 4 4 1 4 6 6 4 1 4
split_gain=421.418 52.0348 39.7738 22.3822 19.1124 13.8776 21.2696 9.16788 6.46504 3.03174 2.12106 0.343603
threshold=307.63851067728132 45.995880376344097 2233.7531394792068 460.07038397305661 226.84940285172729 -0.68301270189221897 961.29014905538259 -3.6789650537634402 7.9680656362007172 743.0684716216698 0.68301270189221941 430.36928860343761
decision_type=2 2 2 2 2 2 2 2 2 2 2 2
left_child=4 2 3 -2 -1 -3 7 -7 9 -5 -8 -9
right_child=1 5 -4 8 -6 6 10 11 -10 -11 -12 -13
leaf_value=-3.4256089231024847 -1.043730400378422 5.3156038401486612 24.04587982619665 0.0045020352346050634 -0.57788834703764913 -0.057656018184574866 35.821081909484256 0.51020917247348685 0.26394525278069669 -0.30900113116933087 2.1250967767265956 0.89438050098627309
leaf_weight=368 44 127 36 51 60 53 66 61 37 37 36 32
leaf_count=368 44 127 36 51 60 53 66 61 37 37 36 32
internal_value=-0.00449164 0.011749 0 -0.00612087 -0.0266077 0.0182444 0.0137469 0.00608009 0 -0.00409155 0.0241822 0.0117341
internal_weight=1008 580 205 169 428 375 248 146 125 88 102 93
internal_count=1008 580 205 169 428 375 248 146 125 88 102 93
is_linear=0
shrinkage=0.0293497


Tree=22
num_leaves=13
num_cat=3
split_feature=4 16 1 15 16 4 4 1 5 4 4 4
split_gain=413.192 48.6986 44.8403 34.5244 37.0092 25.677 10.4341 5.14737 4.76939 1.88455 1.04676 0.786123
threshold=254.61914464884231 0 1.0000000180025095e-35 1 2 556.87158383254734 375.51280830965146 0.68301270189221941 53.711622311827966 217.83497835225612 449.69915621628081 813.49450120768495
decision_type=2 1 2 9 1 2 2 2 2 2 2 2
left_child=9 -2 6 5 -5 8 -3 -7 -4 -1 -8 -9
right_child=1 2 3 4 -6 7 10 11 -10 -11 -12 -13
leaf_value=-3.3279857340915342 35.666744040662934 0.55819697177986816 -0.80433849144694147 -0.42578440166862463 0.7424570614795809 0.65259465857163323 1.6938623668190962 -0.0026767127305255302 -0.32606708796499279 -3.1460889983863036 9.1010450935728624 -0.37596642452330553
leaf_weight=360 117 50 53 56 84 39 54 32 38 32 60 33
leaf_count=360 117 50 53 56 84 39 54 32 38 32 60 33
internal_value=-0.0047245 0.0102056 0.00607258 0 0.0106039 -0.00790649 0.0186306 0.00121357 -0.0197036 -0.0283011 0.0236978 -0.00328577
internal_weight=1008 616 499 335 140 195 164 104 91 392 114 65
internal_count=1008 616 499 335 140 195 164 104 91 392 114 65
cat_boundaries=0 1 2 3
cat_threshold=1 10 2
is_linear=0
shrinkage=0.0293497


Tree=23
num_leaves=13
num_cat=0
split_feature=4 5 4 4 4 6 4 4 6 6 4 9
split_gain=403.081 45.0851 43.4724 21.5443 21.3475 14.4496 10.3054 7.1895 5.9455 3.24455 1.88455 1.31914
threshold=254.61914464884231 45.995880376344097 2233.7531394792068 370.56905669001179 460.07038397305661 -5.4826384888632864 961.29014905538259 469.78312480674344 18.024639336917563 2.9213888888888895 217.83497835225612 0.03590277777777779
decision_type=2 2 2 2 2 2 2 2 2 2 2 2
left_child=10 2 4 8 -2 6 -5 -7 -3 -6 -1 -11
right_child=1 3 -4 5 9 7 -8 -9 -10 11 -12 -13
leaf_value=-3.2303105165597819 -1.0032667069047991 0.63925948173453762 22.293335196620777 -0.074130437554771278 -0.15182769140300331 1.3179319415787503 2.1397472042121857 15.510884356170829 -0.16508799694094964 0.27530642273661421 -3.0537523864400029 -0.016766908043151937
leaf_weight=360 47 35 36 44 60 97 48 147 37 32 32 33
leaf_count=360 47 35 36 44 60 97 48 147 37 32 32 33
internal_value=-0.00501557 0.00972942 -0.00117127 0.0154043 -0.00754711 0.0185274 0.0077288 0.0223805 0.000127389 -0.000776051 -0.0283011 0.00328577
internal_weight=1008 616 208 408 172 336 92 244 72 125 392 65
internal_count=1008 616 208 408 172 336 92 244 72 125 392 65
is_linear=0
shrinkage=0.0293497


Tree=24
num_leaves=15
num_cat=1
split_feature=4 16 1 4 6 4 4 4 1 4 7 4 5 4
split_gain=381.281 43.3759 46.2759 31.6242 14.7688 13.8361 10.8632 5.71884 4.05643 2.94073 1.98949 1.88455 1.83569 1.45396
threshold=254.61914464884231 0 1.0000000180025095e-35 617.94901390958364 8.5851478494623681 379.15373484688661 370.56905669001179 508.42243315328164 0.68301270189221941 743.0684716216698 83.43915610599079 217.83497835225612 45.995880376344097 449.69915621628081
decision_type=2 1 2 2 2 2 2 2 2 2 2 2 2 2
left_child=11 12 5 4 7 -3 -6 -4 -5 -10 -11 -1 -2 -7
right_child=1 2 3 8 6 13 -8 -9 9 10 -12 -13 -14 -15
leaf_value=-3.1355020325065248 18.403003105400934 0.56232944531334805 -0.84423115313247765 1.0050680472018152 -0.93739661003537122 1.6288288107172844 0.12326013955677173 -0.19920087658655658 0.2424261314822386 -0.10201876099262058 0.48080827136280674 -2.9641258217651218 51.718745995748385 8.3786935707722101
leaf_weight=360 39 53 53 56 32 51 56 37 32 37 32 32 78 60
leaf_count=360 39 53 53 56 32 51 56 37 32 37 32 32 78 60
internal_value=-0.00565593 0.00868178 0.00477947 -0.00134034 -0.00992646 0.017559 -0.000768854 -0.0182971 0.00808011 0.00385628 0 -0.0283011 0.0248428 0.0235455
internal_weight=1008 616 499 335 178 164 88 90 157 101 69 392 117 111
internal_count=1008 616 499 335 178 164 88 90 157 101 69 392 117 111
cat_boundaries=0 1
cat_threshold=1
is_linear=0
shrinkage=0.0293497


Tree=25
num_leaves=14
num_cat=1
split_feature=4 1 4 2 4 4 1 16 4 4 4 7 9
split_gain=372.322 45.2366 55.2595 18.8543 19.8287 16.9461 16.2399 11.4809 7.26761 6.46149 5.09626 5.01687 4.88011
threshold=248.69965931440211 -0.68301270189221897 629.40623862749214 -0.5 370.56905669001179 3108.0581858753594 0.25000000000000011 0 773.61878324339034 484.23155979291442 402.96277702985594 86.031442012288792 0.04793682795698926
decision_type=2 2 2 2 2 2 2 1 2 2 2 2 2
left_child=-1 10 3 4 -3 6 -4 8 -8 -5 -2 -10 -6
right_child=1 2 5 9 12 -7 7 -9 11 -11 -12 -13 -14
leaf_value=-3.040558909326232 0.91830285994924576 -0.54975773276068374 34.929189273173108 -0.93526680851454858 0.78366614885479935 31.3239001742825 0.47837074265114787 -0.27564043185062731 -0.1327267325257124 -0.13397918784889215 8.2723042499153774 0.8335590578695995 0.0098632330299422769
leaf_weight=384 39 60 34 44 52 55 35 41 41 45 99 42 37
leaf_count=384 39 60 34 44 52 55 35 41 41 45 99 42 37
internal_value=-0.00583057 0.00810044 0.00376059 -0.006196 0 0.0135105 0.00900448 0.00466298 0.00950303 -0.0168592 0.022981 0.00398485 0.008974
internal_weight=1008 624 486 238 149 248 193 159 118 89 138 83 89
internal_count=1008 624 486 238 149 248 193 159 118 89 138 83 89
cat_boundaries=0 1
cat_threshold=4
is_linear=0
shrinkage=0.0293497


Tree=26
num_leaves=14
num_cat=0
split_feature=4 1 4 4 4 6 1 4 4 4 6 10 4
split_gain=368.535 41.5765 54.3538 21.3392 21.3158 12.6256 9.06603 8.81251 8.6235 5.34832 2.98688 2.11851 0.258375
threshold=248.69965931440211 1.0000000180025095e-35 629.40623862749214 402.96277702985594 3108.0581858753594 8.5851478494623681 0.68301270189221941 370.56905669001179 484.23155979291442 773.61878324339034 19.151987007168461 1011.235678763441 449.69915621628081
decision_type=2 2 2 2 2 2 2 2 2 2 2 2 2
left_child=-1 3 5 10 6 8 -4 -7 -3 -8 -2 -11 -5
right_child=1 2 4 12 -6 7 9 -9 -10 11 -12 -13 -14
leaf_value=-2.9513195685910114 0.79558038179854196 -0.90781705473823826 1.5335712548705946 1.6210603020426719 30.404554657826694 -0.85207556434778609 0.28588589579723467 0.10134729418779383 -0.12744192091821147 -0.31556896938912515 -0.0023738167085201505 0.11176945206721509 15.986288773659195
leaf_weight=384 40 48 72 34 55 35 34 57 48 34 32 36 99
leaf_count=384 40 48 72 34 55 35 34 57 48 34 32 36 99
internal_value=-0.005947 0.0079124 0.00247168 0.0187698 0.0120928 -0.0090877 0.00671012 -0.000735545 -0.0165481 0.000650944 0.00499663 -0.00346948 0.0258239
internal_weight=1008 624 419 205 231 188 176 92 96 104 72 70 133
internal_count=1008 624 419 205 231 188 176 92 96 104 72 70 133
is_linear=0
shrinkage=0.0293497


Tree=27
num_leaves=12
num_cat=4
split_feature=16 14 15 16 1 1 5 5 9 7 7
split_gain=332.607 70.7526 27.0273 48.9264 28.472 24.4538 4.65651 4.34584 3.48978 1.8069 0.694451
threshold=0 1 2 3 -0.68301270189221897 0.25000000000000011 45.995880376344097 45.995880376344097 0.04793682795698926 70.40658602150539 65.641823476702527
decision_type=1 1 9 1 2 2 2 2 2 2 2
left_child=1 -1 9 4 -4 -3 -6 -5 10 -2 -8
right_child=2 5 3 7 6 -7 8 -9 -10 -11 -12
leaf_value=-2.875443311257353 1.2864982976756205 0.89407958775099006 2.7417459562900781 19.330351008890791 -0.36801542653888281 -1.3039472121605287 -0.012987761124125728 57.368768712109201 -0.3620397074774378 1.6145287472221959 0.12299750868614939
leaf_weight=378 43 56 58 33 87 70 32 66 42 101 42
leaf_count=378 43 56 58 33 87 70 32 66 42 101 42
internal_value=-0.005947 -0.0228308 0.0108426 0.00573106 -0.000596801 -0.00332547 -0.00596344 0.0234352 -0.00159298 0.0213592 0.00170337
internal_weight=1008 504 504 360 261 126 203 99 116 144 74
internal_count=1008 504 504 360 261 126 203 99 116 144 74
cat_boundaries=0 1 2 3 4
cat_threshold=2 2 17 4
is_linear=0
shrinkage=0.0293497


Tree=28
num_leaves=14
num_cat=1
split_feature=4 5 4 4 1 4 4 1 4 8 6 16 8
split_gain=355.432 47.3045 29.542 27.5153 25.3979 14.8102 6.86954 5.74083 4.5693 3.47618 2.6791 2.29477 0.827999
threshold=248.69965931440211 45.995880376344097 2233.7531394792068 961.29014905538259 -0.68301270189221897 522.84656923984687 351.44393267794368 0.25000000000000011 743.0684716216698 4.1465725806451621 7.9680656362007172 0 3.6578629032258072
decision_type=2 2 2 2 2 2 2 2 2 2 2 1 2
left_child=-1 2 5 4 9 10 -6 -8 -7 -3 -2 -5 -9
right_child=1 3 -4 11 6 8 7 12 -10 -11 -12 -13 -14
leaf_value=-2.7803061156290534 -0.88047646547135072 2.785508856839666 19.441861396596881 48.44417406249233 -0.46288305428656917 0.030641750337728247 0.58036412422189754 0.022687291354264151 -0.30318572760366641 1.9944252737548018 -0.63066266081431888 1.5636299683450086 -0.12319012108290102
leaf_weight=384 33 54 36 78 37 63 71 32 44 52 32 56 36
leaf_count=384 33 54 36 78 37 63 71 32 44 52 32 56 36
internal_value=-0.0063545 0.00725426 -0.00398887 0.0129934 0.00751738 -0.00925021 0.000385148 0.00364714 -0.002 0.0188562 -0.0203572 0.0241023 -0.00185294
internal_weight=1008 624 208 416 282 172 176 139 107 106 65 134 68
internal_count=1008 624 208 416 282 172 176 139 107 106 65 134 68
cat_boundaries=0 1
cat_threshold=1
is_linear=0
shrinkage=0.0293497


Tree=29
num_leaves=14
num_cat=1
split_feature=4 5 4 4 1 4 4 1 4 4 16 10 8
split_gain=355.432 45.0188 28.2662 26.6316 23.876 12.9899 6.86954 5.74083 4.5571 4.11254 2.29477 1.10966 0.827999
threshold=248.69965931440211 45.995880376344097 961.29014905538259 501.12651311311168 -0.68301270189221897 2233.7531394792068 351.44393267794368 0.25000000000000011 743.0684716216698 402.96277702985594 0 1010.1748207885306 3.6578629032258072
decision_type=2 2 2 2 2 2 2 2 2 2 1 2 2
left_child=-1 3 4 -2 9 8 -6 -8 11 -3 -4 -5 -9
right_child=1 2 10 5 6 -7 7 12 -10 -11 -12 -13 -14
leaf_value=-2.6987051033810059 -0.78703998452189194 0.70577799019325216 47.02235449420872 -0.018858179674241644 -0.44929759850890327 18.871249563234212 0.56333064012360334 0.02202142728653898 -0.29428733251956141 3.1261279634665469 1.5177379755600819 0.034291987812469622 -0.11957453410748914
leaf_weight=384 59 39 78 34 37 36 71 32 44 67 56 35 36
leaf_count=384 59 39 78 34 37 36 71 32 44 67 56 35 36
internal_value=-0.0063545 0.00725426 0.0128524 -0.00370711 0.00730948 0.00261674 0.000385148 0.00364714 -0.00189412 0.0183041 0.0241023 0.00224954 -0.00185294
internal_weight=1008 624 416 208 282 149 176 139 113 106 134 69 68
internal_count=1008 624 416 208 282 149 176 139 113 106 134 69 68
cat_boundaries=0 1
cat_threshold=1
is_linear=0
shrinkage=0.0293497


Tree=30
num_leaves=13
num_cat=4
split_feature=16 14 16 15 6 7 2 7 9 10 6 7
split_gain=319.021 70.7526 25.6589 42.013 18.2223 10.2988 12.5276 3.36602 2.05287 1.18041 1.02869 0.363084
threshold=0 1 2 3 9.4959318996415778 77.45836693548388 1.0000000180025095e-35 77.45836693548388 0.050972222222222231 1012.5921034946238 17.007000448028677 77.45836693548388
decision_type=1 1 1 9 2 2 2 2 2 2 2 2
left_child=1 -1 3 11 -3 8 -7 -4 10 -8 -5 -2
right_child=2 4 7 5 -6 6 9 -9 -10 -11 -12 -13
leaf_value=-2.6302429922644706 0.49351951644258202 -0.84893343690605627 18.364173515591091 -0.31598756527676813 0.66661009877988697 2.5348994237359208 -0.34511429748168598 52.883106182267802 -0.39702618038059984 0.021375106096355918 -0.0031977439152490765 2.0308401524342305
leaf_weight=378 61 68 57 53 58 58 40 60 36 34 40 65
leaf_count=378 61 68 57 53 58 58 40 60 36 34 40 65
internal_value=-0.00629629 -0.0228308 0.0101442 0.00631304 -0.00332547 -0.000574805 0.00494901 0.0223414 -0.00665235 -0.00249307 -0.00355789 0.019443
internal_weight=1008 504 504 387 126 261 132 117 129 74 93 126
internal_count=1008 504 504 387 126 261 132 117 129 74 93 126
cat_boundaries=0 1 2 3 4
cat_threshold=2 2 4 17
is_linear=0
shrinkage=0.0293497


Tree=31
num_leaves=12
num_cat=4
split_feature=16 5 16 1 16 1 15 3 10 6 6
split_gain=299.138 36.4539 20.4997 8.25615 6.35653 2.93403 3.25432 2.2474 0.372576 1.10767 0.335565
threshold=0 45.995880376344097 1 -0.68301270189221897 2 0.25000000000000011 3 2.5000000000000004 1010.3430779569893 8.5851478494623681 14.301478494623657
decision_type=1 2 1 2 1 2 9 2 2 2 2
left_child=5 4 3 10 8 6 -1 -5 9 -2 -3
right_child=1 2 -4 7 -6 -7 -8 -9 -10 -11 -12
leaf_value=-2.3066051220293775 -0.31514983544821651 4.0306528114331348 44.596723460727866 0.38975311190037515 13.820375313773583 -2.5031728377067779 -2.1412528649667073 0.042312584575542475 -0.017839100460348631 -0.010239224237820119 1.7888269669652692
leaf_weight=124 42 49 78 129 39 280 100 43 50 37 37
leaf_count=124 42 49 78 129 39 280 100 43 50 37 37
internal_value=-0.00647093 0.0094459 0.0150368 0.0107153 -0.00144959 -0.0224816 -0.0188809 0.00652525 -0.00483688 -0.00640556 0.018465
internal_weight=1008 504 336 258 168 504 224 172 129 79 86
internal_count=1008 504 336 258 168 504 224 172 129 79 86
cat_boundaries=0 1 2 3 4
cat_threshold=2 4 4 10
is_linear=0
shrinkage=0.0293497


Tree=32
num_leaves=15
num_cat=1
split_feature=4 4 1 4 1 1 4 4 14 4 4 9 4 1
split_gain=351.733 40.1222 43.9152 18.0526 12.4551 12.0715 16.4479 10.2923 4.97193 3.40121 3.27632 1.19634 0.35816 0.292824
threshold=248.69965931440211 935.80339264338829 1.0000000180025095e-35 552.23962969623847 0.25000000000000011 0.68301270189221941 3222.7144839144198 402.96277702985594 0 730.5238118931876 436.35317504974984 0.04793682795698926 488.94792183815372 0.25000000000000011
decision_type=2 2 2 2 2 2 2 2 1 2 2 2 2 2
left_child=-1 2 7 4 -4 13 -7 11 9 -5 -6 -2 -9 -3
right_child=1 5 3 8 10 6 -8 12 -10 -11 -12 -13 -14 -15
leaf_value=-2.4717523277830749 0.050820007899473503 42.658028214373665 0.017569692687448662 0.37451360249281013 -0.81687762841978029 -0.27728034507423593 21.511236593860968 1.6592974690061681 -0.23832245468293572 -0.017755596090360173 -0.15572461998487072 0.47484784371612399 8.2342014089352826 3.899147151804359
leaf_weight=384 40 62 50 48 48 50 34 54 34 32 54 32 32 54
leaf_count=384 40 62 50 48 48 50 34 54 34 32 54 32 32 54
internal_value=-0.00647093 0.00706623 0.00182005 -0.0053242 -0.0120061 0.0179197 0.00846199 0.0141463 0.00316109 0.0074219 -0.0178724 0.00499663 0.0211847 0.0242995
internal_weight=1008 624 424 266 152 200 84 158 114 80 102 72 86 116
internal_count=1008 624 424 266 152 200 84 158 114 80 102 72 86 116
cat_boundaries=0 1
cat_threshold=2
is_linear=0
shrinkage=0.0293497


Tree=33
num_leaves=14
num_cat=1
split_feature=4 5 4 4 1 1 4 4 6 4 16 9 6
split_gain=349.89 52.0165 26.3373 20.6963 13.0906 11.9988 11.2541 8.63262 5.29087 4.46933 3.72167 1.97312 0.88154
threshold=248.69965931440211 45.995880376344097 484.23155979291442 460.07038397305661 0.25000000000000011 1.0000000180025095e-35 2275.7027642309699 2490.467423439663 18.650625000000002 375.51280830965146 0 0.021510176651305685 -7.4445732526881709
decision_type=2 2 2 2 2 2 2 2 2 2 1 2 2
left_child=-1 3 5 -2 -4 9 12 10 -7 -3 11 -5 -6
right_child=1 2 4 7 6 8 -8 -9 -10 -11 -12 -13 -14
leaf_value=-2.399207261310087 -0.7927085403667441 0.27382678654334636 23.188044652593437 0.1161506892488656 0.089647885924609913 -0.37291491295992724 38.741378215323564 17.218776364729212 0.058818136111643528 1.493446164697019 -1.6020565989788618 -0.027386875288156635 0.39341286969864453
leaf_weight=384 47 52 100 38 45 33 34 33 34 70 33 57 48
leaf_count=384 47 52 100 38 45 33 34 33 34 70 33 57 48
internal_value=-0.00652914 0.00697221 0.0129934 -0.00483415 0.0197937 0.00454418 0.0127498 0 -0.00493178 0.010152 -0.00327364 0 0.00670258
internal_weight=1008 624 416 208 227 189 127 161 67 122 128 95 93
internal_count=1008 624 416 208 227 189 127 161 67 122 128 95 93
cat_boundaries=0 1
cat_threshold=4
is_linear=0
shrinkage=0.0293497


Tree=34
num_leaves=14
num_cat=4
split_feature=16 14 16 15 6 10 3 10 7 8 10 7 8
split_gain=273.639 87.5569 26.9471 29.7462 12.9944 8.37182 5.58955 5.07297 4.25805 4.18276 4.05322 0.980718 0.00150828
threshold=0 1 2 3 9.4959318996415778 1010.2328181003585 1.0000000180025095e-35 1011.7003091397851 82.899126344086042 3.6365663402457762 1011.9694556451615 69.424395161290334 4.2462365591397857
decision_type=1 1 1 9 2 2 2 2 2 2 2 2 2
left_child=1 -1 3 8 -3 -5 9 -4 10 -7 -2 -8 -11
right_child=2 4 7 5 -6 6 11 -9 -10 12 -12 -13 -14
leaf_value=-2.3372924398456183 0.23360910439059648 -0.75672385896558281 18.724236249212797 -0.34804533233789742 0.81698769818225736 0.8841744531639798 -0.31393509682061482 41.08221275912959 1.7928226027461358 0.1271543397263829 2.0543189547846601 -0.070019440343910846 0.0062618429821557362
leaf_weight=378 55 68 62 65 58 53 38 55 32 34 39 33 38
leaf_count=378 55 68 62 65 58 53 38 55 32 34 39 33 38
internal_value=-0.00682021 -0.0221325 0.00839838 0.00449446 -0.000537584 -0.00122382 0.00154184 0.0208405 0.0155679 0.0054596 0.0125431 -0.00465522 0.000127389
internal_weight=1008 504 504 387 126 261 196 117 126 125 94 71 72
internal_count=1008 504 504 387 126 261 196 117 126 125 94 71 72
cat_boundaries=0 1 2 3 4
cat_threshold=2 2 4 17
is_linear=0
shrinkage=0.0293497


Tree=35
num_leaves=14
num_cat=0
split_feature=4 4 6 4 4 10 6 4 7 4 4 4 10
split_gain=332.362 32.0662 22.5156 29.547 16.8899 11.336 9.29439 18.6134 13.4847 8.36789 3.06464 2.26225 1.13814
threshold=307.63851067728132 997.5245269406164 5.6469310035842302 548.80715798922017 226.84940285172729 1010.2328181003585 9.2897849462365603 3222.7144839144198 83.998363095238105 501.12651311311168 773.61878324339034 370.56905669001179 1010.553561827957
decision_type=2 2 2 2 2 2 2 2 2 2 2 2 2
left_child=4 2 3 -2 -1 -4 7 8 -3 11 12 -7 -5
right_child=1 6 5 10 -6 9 -8 -9 -10 -11 -12 -13 -14
leaf_value=-2.2601926513884627 -0.64721980639221355 -0.78942830400792674 -0.026671545980697032 0.041107135980526718 -0.52742778372797727 0.10782800632015978 31.830767765603813 21.42360654113898 0.97601453424006324 7.2272630110274951 -0.041939526161941493 1.0035256592882977 0.24468112381111273
leaf_weight=368 56 33 42 32 60 41 66 53 40 33 34 106 44
leaf_count=368 56 33 42 32 60 41 66 53 40 33 34 106 44
internal_value=-0.00711129 0.00729853 0.0022911 -0.00570191 -0.0267447 0.00849002 0.0171391 0.0116891 0.00132636 0.0117694 0.00274366 0.00823012 0.00627281
internal_weight=1008 580 388 166 428 222 192 126 73 180 110 147 76
internal_count=1008 580 388 166 428 222 192 126 73 180 110 147 76
is_linear=0
shrinkage=0.0293497


Tree=36
num_leaves=16
num_cat=1
split_feature=4 4 15 6 2 6 4 7 4 6 4 4 4 4 8
split_gain=326.382 37.3866 22.0509 12.8098 12.453 6.84979 18.6134 13.4847 5.16035 5.02014 6.48498 7.65374 4.93151 1.61776 1.59109
threshold=248.69965931440211 997.5245269406164 0 5.6469310035842302 -0.68301270189221952 9.2897849462365603 3222.7144839144198 83.998363095238105 338.72290602387687 9.4959318996415778 564.01065308573266 730.5238118931876 548.80715798922017 449.69915621628081 3.7405241935483873
decision_type=2 2 9 2 2 2 2 2 2 2 2 2 2 2 2
left_child=-1 2 3 12 8 6 7 -3 -5 10 -4 -12 -2 14 -11
right_child=1 5 9 4 -6 -7 -8 -9 -10 13 11 -13 -14 -15 -16
leaf_value=-2.1938567874373214 -0.58730900089980898 -0.76625885934059734 -0.26811117986780936 -0.55037695078552951 1.2035541769215878 30.896545862589328 20.794831180780758 0.94736884896278772 0.004539801699047657 0.11141629547204863 0.4792722488075481 -0.037967582391862681 -0.020009909547280949 2.155603145773842 0.68727689113318813
leaf_weight=384 47 33 33 32 46 66 53 40 32 40 45 38 36 46 37
leaf_count=384 47 33 33 32 46 66 53 40 32 40 45 38 36 46 37
internal_value=-0.00728593 0.00574995 0.000835957 -0.00625212 0 0.0165287 0.0116891 0.00132636 -0.00835538 0.00674664 0.00209757 0.0068025 -0.0152555 0.0112595 0.0073303
internal_weight=1008 624 432 193 110 192 126 73 64 239 116 83 83 123 77
internal_count=1008 624 432 193 110 192 126 73 64 239 116 83 83 123 77
cat_boundaries=0 1
cat_threshold=18
is_linear=0
shrinkage=0.0293497


Tree=37
num_leaves=15
num_cat=0
split_feature=4 1 4 4 4 6 10 4 1 4 4 9 4 8
split_gain=326.382 36.5896 43.8713 20.608 18.7783 12.1125 8.97864 4.7603 2.995 3.87091 2.18785 1.80311 2.87633 0.0408013
threshold=248.69965931440211 1.0000000180025095e-35 3108.0581858753594 501.12651311311168 552.23962969623847 8.5851478494623681 1010.2645161290324 370.56905669001179 0.68301270189221941 792.08183638017465 730.5238118931876 0.059930555555555563 375.51280830965146 4.0455621159754225
decision_type=2 2 2 2 2 2 2 2 2 2 2 2 2 2
left_child=-1 3 4 11 5 13 10 -7 -8 -10 -6 12 -2 -3
right_child=1 2 -4 -5 6 7 8 -9 9 -11 -12 -13 -14 -15
leaf_value=-2.1294678578961475 -0.016009580296066212 -0.50939565695898037 19.824215152436157 26.952358039810424 0.020847637691514619 -0.73896950197250666 1.104940575752305 0.062342817673801051 0.27011819659481306 -0.17488367375676278 -0.29631148588234651 1.6723838762614065 1.0540456544814809 -0.66619244645370945
leaf_weight=384 39 33 55 74 33 35 48 48 44 41 46 33 59 36
leaf_count=384 39 33 55 74 33 35 48 48 44 41 46 33 59 36
internal_value=-0.00728593 0.00574995 0.000651898 0.015911 -0.00292537 -0.01085 0.00253146 -0.00257602 0.00733329 0.00320355 -0.0049257 0.00833888 0.00546632 -0.0200293
internal_weight=1008 624 419 205 364 152 212 83 133 85 79 131 98 69
internal_count=1008 624 419 205 364 152 212 83 133 85 79 131 98 69
is_linear=0
shrinkage=0.0293497


Tree=38
num_leaves=15
num_cat=2
split_feature=4 1 4 15 16 4 4 10 4 4 10 8 4 1
split_gain=326.382 34.539 43.3852 24.8628 19.264 18.9194 13.8467 5.9457 2.64306 2.48305 2.42913 1.82767 2.83036 1.63668
threshold=248.69965931440211 1.0000000180025095e-35 3108.0581858753594 0 1 501.12651311311168 484.23155979291442 1012.3067540322583 710.9847990742885 773.61878324339034 1013.8610752688174 3.6365663402457762 379.15373484688661 0.68301270189221941
decision_type=2 2 2 9 1 2 2 2 2 2 2 2 2 2
left_child=-1 5 3 6 8 11 10 9 -5 -8 -3 -2 -13 -6
right_child=1 2 -4 4 13 -7 7 -9 -10 -11 -12 12 -14 -15
leaf_value=-2.0669687209208325 1.1027211973536046 -0.64267640058691988 19.242381370044946 0.24548688348303863 0.082863997997742495 26.161315756316142 -0.025756759593917121 0.15414516437494277 0.90542431225800979 -0.37447427318371251 -0.33525318415603134 -0.10627703990150297 1.0231097831118343 -1.2135789606649929
leaf_weight=384 48 42 55 48 32 74 44 49 33 46 38 36 47 32
leaf_count=384 48 42 55 48 32 74 44 49 33 46 38 36 47 32
internal_value=-0.00728593 0.00574995 0.000791882 -0.00276425 0.00629465 0.0156252 -0.00887077 -0.00322584 0.0163523 -0.00789992 -0.0191134 0.00833888 0.00468926 -0.00470553
internal_weight=1008 624 419 364 145 205 219 139 81 90 80 131 83 64
internal_count=1008 624 419 364 145 205 219 139 81 90 80 131 83 64
cat_boundaries=0 1 2
cat_threshold=10 4
is_linear=0
shrinkage=0.0293497


Tree=39
num_leaves=14
num_cat=1
split_feature=4 5 4 4 15 1 4 4 4 4 5 4 4
split_gain=321.074 46.3321 32.0588 18.615 17.5103 13.7457 10.1835 9.17532 5.78419 3.7229 1.55844 1.32915 1.15958
threshold=248.69965931440211 45.995880376344097 1537.1923440399812 460.07038397305661 0 1.0000000180025095e-35 2490.467423439663 443.05792657047203 484.23155979291442 792.08183638017465 37.576259408602162 388.01075748368493 569.63557291704751
decision_type=2 2 2 2 9 2 2 2 2 2 2 2 2
left_child=-1 3 4 -2 5 7 9 -3 -7 10 -5 -6 -13
right_child=1 2 -4 6 11 8 -8 -9 -10 -11 -12 12 -14
leaf_value=-2.0063039117604098 -0.68918191230107906 0.01836168958171408 46.158002428130658 0.032504660188124708 0.3849473542739783 -0.34982204764907243 13.87089545142501 4.2826741272792583 0.0048934484535095128 -0.37317539557780843 -0.027264114519847966 3.0684642646515918 0.91274091806844915
leaf_weight=384 47 55 76 32 46 46 33 47 54 43 53 43 49
leaf_count=384 47 55 76 32 46 46 33 47 54 43 53 43 49
internal_value=-0.00746057 0.00546789 0.0111605 -0.00567943 0.00709864 0.000872752 -0.00060288 0.00869439 -0.00652747 -0.00464586 -0.000451933 0.0147042 0.0185366
internal_weight=1008 624 416 208 340 202 161 102 100 128 85 138 92
internal_count=1008 624 416 208 340 202 161 102 100 128 85 138 92
cat_boundaries=0 1
cat_threshold=10
is_linear=0
shrinkage=0.0293497


Tree=40
num_leaves=16
num_cat=2
split_feature=4 4 15 4 14 3 10 4 10 4 10 10 7 10 7
split_gain=317.559 35.2224 23.8576 14.8088 11.4734 11.4215 8.80808 6.86344 6.8488 10.0358 6.10482 3.9458 1.8207 0.413579 0.175657
threshold=248.69965931440211 1637.9741381530396 0 556.87158383254734 1 1.0000000180025095e-35 1010.2328181003585 773.61878324339034 1011.7003091397851 3108.0581858753594 1012.3067540322583 1010.8431698028675 79.054771505376365 1012.5921034946238 77.626713709677432
decision_type=2 2 9 2 1 2 2 2 2 2 2 2 2 2 2
left_child=-1 2 3 5 10 12 -5 -8 9 -3 14 -6 -2 -7 -4
right_child=1 8 4 6 11 13 7 -9 -10 -11 -12 -13 -14 -15 -16
leaf_value=-1.9474195935349601 -0.21538632021680695 7.4014464179754258 0.1624381856369598 -0.26153155448013815 -0.94549597612268155 -0.55590480208037463 0.97921401637193473 0.1494774367026642 43.29593726238231 17.322902975438577 1.704802464202144 0.64838736235116223 0.035966214889838491 -0.31514646566661253 1.4993152610591161
leaf_weight=384 57 32 34 39 35 41 32 53 53 35 56 51 42 32 32
leaf_count=384 57 32 34 39 35 41 32 53 53 35 56 51 42 32 32
internal_value=-0.007577 0.00527985 0.00176413 -0.00347925 0.00918327 -0.00925021 0.00385109 0.00939467 0.0195892 0.0119062 0.0154302 0.000786666 -0.00216108 -0.0181363 0.00810345
internal_weight=1008 624 504 296 208 172 124 85 120 67 122 86 99 73 66
internal_count=1008 624 504 296 208 172 124 85 120 67 122 86 99 73 66
cat_boundaries=0 1 2
cat_threshold=10 2
is_linear=0
shrinkage=0.0293497


Tree=41
num_leaves=15
num_cat=1
split_feature=4 5 4 4 15 4 4 6 5 10 8 4 6 4
split_gain=312.325 44.7608 34.3074 18.5074 13.6076 10.1622 10.0182 13.2462 5.21094 2.75383 2.66714 1.12351 5.31645 0.650675
threshold=248.69965931440211 45.995880376344097 1537.1923440399812 2490.467423439663 0 460.07038397305661 564.01065308573266 5.6469310035842302 56.636407738095251 1013.2194220430109 4.476854838709678 388.01075748368493 6.8523611111111116 743.0684716216698
decision_type=2 2 2 2 9 2 2 2 2 2 2 2 2 2
left_child=-1 3 4 5 6 -2 8 -8 -3 -10 13 -6 -13 -7
right_child=1 2 -4 -5 11 10 7 -9 9 -11 -12 12 -14 -15
leaf_value=-1.8902635094581608 -0.65810645725297823 -0.34608184219147642 43.648911617217095 12.955368375760646 0.34774247553763288 -0.046439267693781212 -0.082251120897390576 6.2976208966435374 0.36824396572415541 -0.18811257712159385 0.12857531544338016 0.78664006582356727 3.4408813997666838 -0.43003172868753758
leaf_weight=384 47 41 76 33 46 56 40 32 52 37 38 46 46 34
leaf_count=384 47 41 76 33 46 56 40 32 52 37 38 46 46 34
internal_value=-0.00775164 0.00499779 0.0105965 -0.00596119 0.00640873 -0.00992891 0.000872752 0.00986587 -0.0036738 0 -0.00510327 0.0131213 0.0166293 -0.00789992
internal_weight=1008 624 416 208 340 175 202 72 130 89 128 138 92 90
internal_count=1008 624 416 208 340 175 202 72 130 89 128 138 92 90
cat_boundaries=0 1
cat_threshold=10
is_linear=0
shrinkage=0.0293497


Tree=42
num_leaves=15
num_cat=1
split_feature=4 5 4 4 13 4 4 1 1 8 8 8 4 4
split_gain=308.859 43.2475 35.4575 18.5074 14.1752 10.1622 8.21944 7.39502 6.53778 4.7051 2.66714 1.87136 0.91815 0.650675
threshold=248.69965931440211 45.995880376344097 1537.1923440399812 2490.467423439663 0 460.07038397305661 402.96277702985594 1.0000000180025095e-35 1.0000000180025095e-35 3.6365663402457762 4.476854838709678 3.5893145161290332 832.41941912620939 743.0684716216698
decision_type=2 2 2 2 9 2 2 2 2 2 2 2 2 2
left_child=-1 3 4 5 7 -2 11 -3 9 -8 13 -6 -10 -7
right_child=1 2 -4 -5 6 10 8 -9 12 -11 -12 -13 -14 -15
leaf_value=-1.8347849364620963 -0.63879126286594956 2.2313533920852682 42.367831324846271 12.575132844296796 -0.037790829379072792 -0.045076291426323994 2.4960810317153377 0.29759817442469944 0.024414834869667074 0.10279170404792393 0.12480167489663914 -0.36795512339074476 -0.10878856737237115 -0.41741044782841852
leaf_weight=384 47 57 76 33 43 56 36 53 54 32 38 33 32 34
leaf_count=384 47 57 76 33 43 56 36 53 54 32 38 33 32 34
internal_value=-0.00786807 0.00480976 0.0103145 -0.00596119 0.00606378 -0.00992891 0.00125956 0.0142232 0.00538457 0.0121615 -0.00510327 -0.00627281 0 -0.00789992
internal_weight=1008 624 416 208 340 175 230 110 154 68 128 76 86 90
internal_count=1008 624 416 208 340 175 230 110 154 68 128 76 86 90
cat_boundaries=0 1
cat_threshold=100386
is_linear=0
shrinkage=0.0293497


Tree=43
num_leaves=17
num_cat=4
split_feature=13 5 15 8 8 13 8 1 1 8 14 8 8 8 6 6
split_gain=67.7118 26.3682 11.8568 10.8087 6.20153 5.73097 6.26709 4.99484 3.17154 0.903176 0.899023 2.7622 2.02691 0.765184 0.65628 0.272448
threshold=0 45.995880376344097 1 3.6071308563748086 4.2895833333333337 2 2.7623127880184337 -0.68301270189221897 1.0000000180025095e-35 3.6365663402457762 3 4.476854838709678 3.7405241935483873 3.6071308563748086 -5.4826384888632864 15.592930107526882
decision_type=9 2 9 2 2 9 2 2 2 2 1 2 2 2 2 2
left_child=3 10 8 7 5 9 -7 -1 15 -4 11 12 -2 -8 -5 -3
right_child=1 2 4 14 -6 6 13 -9 -10 -11 -12 -13 -14 -15 -16 -17
leaf_value=-0.46062320130802953 -0.56174468706233993 0.15328247446389762 5.2183351059408389 -1.3405103060643404 1.6201458859904228 -1.4475466265267698 1.20382382091924 -1.188124545896192 -0.3213404713868323 0.80760996669452711 -0.62381232363468608 -0.13559273401892999 -1.0065295401906109 -0.015202262281278162 -1.5400871220590917 -0.24166427606142316
leaf_weight=44 48 38 38 33 48 33 49 97 78 64 39 54 72 38 195 40
leaf_count=44 48 38 38 33 48 33 49 97 78 64 39 54 72 38 195 40
internal_value=-0.00792629 -0.00186738 0.00222457 -0.0177425 0.00589587 0.00373769 -0.000521085 -0.0110715 -0.00393737 0.00844295 -0.0103616 -0.0115011 -0.0142232 0.00313018 -0.0224063 0
internal_weight=1008 639 426 369 270 222 120 141 156 102 213 174 120 87 228 78
internal_count=1008 639 426 369 270 222 120 141 156 102 213 174 120 87 228 78
cat_boundaries=0 1 2 3 4
cat_threshold=202385176 18 2083 2
is_linear=0
shrinkage=0.0293497


Tree=44
num_leaves=15
num_cat=4
split_feature=13 5 8 14 13 8 1 1 6 2 3 14 6 10
split_gain=63.4011 21.8174 10.1173 7.40732 6.38319 4.85684 3.95054 3.70921 2.6908 2.27817 0.653177 0.343469 0.237504 0.155411
threshold=0 45.995880376344097 3.6365663402457762 1 2 2.8495138888888891 -0.68301270189221897 1.0000000180025095e-35 10.373184363799284 0.25000000000000017 1.0000000180025095e-35 3 9.9385416666666675 1013.2194220430109
decision_type=9 2 2 1 9 2 2 2 2 2 2 1 2 2
left_child=2 11 6 4 7 -6 -1 -3 -5 -4 12 -2 -7 -14
right_child=1 3 9 8 5 10 -8 -9 -10 -11 -12 -13 13 -15
leaf_value=-0.44710407142503544 -0.64471697440509312 2.117806241371718 -1.4551096208924972 0.12896649446749997 -1.3834930339145999 0.81352615238969983 -1.1455321190409722 0.062740757383450238 1.0106201081513051 -1.1262972121305239 -0.3200409453484771 -0.60550365007703344 0.22752754964375832 -0.28664452283562741
leaf_weight=44 165 54 194 32 32 39 110 54 46 48 62 39 43 46
leaf_count=44 165 54 194 32 32 39 110 54 46 48 62 39 43 46
internal_value=-0.00751879 -0.00133531 -0.0164913 0.00246639 0.000383291 -0.00231355 -0.0103291 0.0060306 0.0106089 -0.0208696 -0.000356818 -0.00923792 0.000529206 0
internal_weight=1008 612 396 408 330 222 154 108 78 242 190 204 128 89
internal_count=1008 612 396 408 330 222 154 108 78 242 190 204 128 89
cat_boundaries=0 1 2 3 4
cat_threshold=470820632 2 198662 2
is_linear=0
shrinkage=0.0293497


Tree=45
num_leaves=15
num_cat=1
split_feature=4 5 4 4 15 4 1 4 5 4 4 4 1 10
split_gain=329.945 31.1043 28.5223 21.8179 13.7667 9.40356 13.2462 7.19152 5.70027 5.44534 2.20822 1.48674 4.15622 1.03667
threshold=248.69965931440211 45.995880376344097 1537.1923440399812 436.35317504974984 0 564.01065308573266 0.25000000000000011 2490.467423439663 56.636407738095251 792.08183638017465 608.65103761391833 388.01075748368493 0.25000000000000011 1013.2194220430109
decision_type=2 2 2 2 9 2 2 2 2 2 2 2 2 2
left_child=-1 3 4 -2 5 8 -7 9 -3 10 -5 -6 -13 -10
right_child=1 2 -4 7 11 6 -8 -9 13 -11 -12 12 -14 -15
leaf_value=-1.7124639807338202 -0.58190003249132283 -0.33706905232055651 41.137026998278166 -0.0075636681735239616 0.31271407933924839 5.9489815382995799 -0.035366563546326814 12.241466320593098 0.31992403667146335 -0.28613848775800987 0.06168338832808716 3.2061097419335129 0.78604896288542381 -0.23257530203634333
leaf_weight=384 38 41 76 61 46 32 40 33 52 43 33 46 46 37
leaf_count=384 38 41 76 61 46 32 40 33 52 43 33 46 46 37
internal_value=-0.0071695 0.00593799 0.0105965 -0.00314359 0.00675369 0.0011492 0.00986587 0.00108795 -0.00322341 -0.0015631 0.00196449 0.013517 0.0172651 0.000431697
internal_weight=1008 624 416 208 340 202 72 170 130 137 94 138 92 89
internal_count=1008 624 416 208 340 202 72 170 130 137 94 138 92 89
cat_boundaries=0 1
cat_threshold=10
is_linear=0
shrinkage=0.0293497


Tree=46
num_leaves=14
num_cat=4
split_feature=15 15 5 14 12 5 1 8 9 8 6 8 10
split_gain=34.2093 14.0688 14.0286 11.6004 9.39418 5.1478 4.07543 3.49237 2.34229 2.00116 1.78624 0.641794 0.0703157
threshold=0 1 45.995880376344097 2 3 56.636407738095251 -0.68301270189221897 3.5893145161290332 0.04793682795698926 3.1412948028673839 9.4959318996415778 3.5605219534050181 1015.4170833333334
decision_type=9 9 2 1 9 2 2 2 2 2 2 2 2
left_child=5 2 9 8 10 -1 7 -6 -3 -2 -4 12 -8
right_child=1 3 4 -5 6 -7 11 -9 -10 -11 -12 -13 -14
leaf_value=-1.0396870798744731 -0.43923976981059393 0.22987340247912447 -0.11914112110375046 0.78683392744359304 1.5907134803002589 -0.63713508662484597 -0.27527298585988552 -0.44054887736548137 -0.7234296818832735 -1.5998826590641724 1.1735991070617338 -0.51957113801964772 -0.99745873781572492
leaf_weight=95 34 35 44 36 39 76 50 77 64 200 76 136 46
leaf_count=95 34 35 44 36 39 76 50 77 64 200 76 136 46
internal_value=-0.007577 -0.00482552 -0.0065229 0.00349656 -0.00352912 -0.0193118 -0.00592299 -0.00108839 -0.000979184 -0.0125642 0.00322341 -0.00837724 -0.011064
internal_weight=1008 837 702 135 468 171 348 116 99 234 120 232 96
internal_count=1008 837 702 135 468 171 348 116 99 234 120 232 96
cat_boundaries=0 1 2 3 4
cat_threshold=2 24 2 170
is_linear=0
shrinkage=0.0293497


Tree=47
num_leaves=14
num_cat=2
split_feature=4 4 15 5 14 5 4 4 6 4 10 8 8
split_gain=331.733 24.95 19.6197 17.6674 17.6463 14.1274 12.8816 9.23792 7.03258 5.14474 3.50752 1.48403 2.59603
threshold=248.69965931440211 1637.9741381530396 0 62.616579781106005 1 45.995880376344097 484.23155979291442 449.69915621628081 6.8523611111111116 803.01229094783025 1014.7273958333334 3.6365663402457762 4.2895833333333337
decision_type=2 2 9 2 1 2 2 2 2 2 2 2 2
left_child=-1 2 3 6 11 -3 10 -5 -6 -8 -2 -4 -13
right_child=1 5 4 7 8 -7 9 -9 -10 -11 -12 12 -14
leaf_value=-1.6436280171541922 -0.45519343618318797 10.27364623816649 1.1873551764458139 0.009357169742591518 -0.28948127898400955 41.02418763818104 0.055139491362085367 4.6503903606961963 0.59211332608160483 -0.21417790779795556 -0.16539471537914674 0.26721402602898725 0.91221889279966706
leaf_weight=384 47 46 42 58 40 74 62 45 46 51 33 47 33
leaf_count=384 47 46 42 58 40 74 62 45 46 51 33 47 33
internal_value=-0.00711129 0.00603201 0.00304442 -0.00175466 0.00972098 0.0181258 -0.00718276 0.00775814 0 -0.000340277 -0.0161905 0.0173496 0.0132677
internal_weight=1008 624 504 296 208 120 193 103 86 113 80 122 80
internal_count=1008 624 504 296 208 120 193 103 86 113 80 122 80
cat_boundaries=0 1 2
cat_threshold=10 2
is_linear=0
shrinkage=0.0293497


Tree=48
num_leaves=15
num_cat=1
split_feature=4 4 6 6 4 4 10 4 14 3 4 9 9 10
split_gain=322.838 27.3578 19.6578 14.1288 21.8707 10.0749 7.94668 7.11628 9.99741 6.14817 3.11231 1.04703 2.0605 0.418452
threshold=248.69965931440211 552.23962969623847 5.6469310035842302 5.6469310035842302 3788.0004649408061 370.56905669001179 1011.0096774193549 1160.1552180693886 0 1.0000000180025095e-35 792.08183638017465 0.025349462365591404 0.059930555555555563 1012.6774865591399
decision_type=2 2 2 2 2 2 2 2 1 2 2 2 2 2
left_child=-1 2 -2 4 7 9 -5 8 10 -4 -3 13 -13 -7
right_child=1 3 5 6 -6 11 -8 -9 -10 -11 -12 12 -14 -15
leaf_value=-1.5953881096112466 -0.44183366800787227 0.45722270506558266 0.094999185928833441 0.60141249612548386 25.300648249728489 0.57841576416558083 21.541419637115112 -0.4885558842313501 -0.19520066794416949 -0.51033800246138494 0.13770976235767451 -0.00045148754564197863 0.31061019037739102 1.0576177959439492
leaf_weight=384 63 48 52 32 36 32 77 53 39 37 47 35 40 33
leaf_count=384 63 48 52 32 36 32 77 53 39 37 47 35 40 33
internal_value=-0.00740236 0.00556191 -0.00083471 0.011332 0.00674357 0.00298371 0.0202179 0.00239928 0.00618625 -0.0043743 0.0114879 0.00801322 0.00440803 0.0113722
internal_weight=1008 624 292 332 223 229 109 187 134 89 95 140 75 65
internal_count=1008 624 292 332 223 229 109 187 134 89 95 140 75 65
cat_boundaries=0 1
cat_threshold=2
is_linear=0
shrinkage=0.0293497


Tree=49
num_leaves=16
num_cat=3
split_feature=13 15 12 8 5 5 5 6 5 10 8 5 8 10 8
split_gain=62.5752 22.0537 13.2896 8.49075 6.01245 5.12672 3.49016 2.59397 2.32202 1.48621 0.808366 0.303127 0.165849 0.166071 0.00160611
threshold=0 1 2 3.6071308563748086 56.636407738095251 62.616579781106005 62.616579781106005 -5.4826384888632864 45.995880376344097 1010.1748207885306 3.4740300179211467 73.463790322580664 2.8548767921146956 1017.1398611111111 4.0768145161290326
decision_type=9 9 9 2 2 2 2 2 2 2 2 2 2 2 2
left_child=3 4 8 6 -2 9 -1 -5 -3 -4 -11 -6 -10 14 -14
right_child=1 2 5 7 11 -7 -8 -9 12 10 -12 -13 13 -15 -16
leaf_value=-1.1377992111114585 -0.75594566500335103 -0.88030538984799167 -0.0023855235114887611 -1.1035219285681994 -0.33194864211016595 2.727087465352326 -0.49726523310743331 -1.2985915758064706 -0.5391654759011254 0.036939108327172454 0.61832662129485005 -0.033037619313049826 0.017740735286417297 0.9432859126645905 -0.12143355236480249
leaf_weight=75 130 66 46 33 52 69 66 195 32 35 57 52 36 32 32
leaf_count=75 130 66 46 33 52 69 66 195 32 35 57 52 36 32 32
internal_value=-0.00722772 -0.00141539 0.00263682 -0.0166593 -0.00844629 0.00774002 -0.0106562 -0.0208638 -0.00258007 0.00431001 0.0064573 -0.00290145 -6.96297e-05 9.18377e-05 -0.000134846
internal_weight=1008 639 405 369 234 207 141 228 198 138 92 104 132 100 68
internal_count=1008 639 405 369 234 207 141 228 198 138 92 104 132 100 68
cat_boundaries=0 1 2 3
cat_threshold=202385176 18 12328
is_linear=0
shrinkage=0.0293497


Tree=50
num_leaves=15
num_cat=0
split_feature=4 4 5 1 4 1 4 4 5 9 8 4 4 4
split_gain=333.527 26.9131 25.7759 22.4818 21.2139 7.05617 5.59903 4.91633 1.83935 1.81839 2.51249 0.741661 1.51345 0.95689
threshold=248.69965931440211 449.69915621628081 53.711622311827966 1.0000000180025095e-35 3788.0004649408061 0.93301270189221952 552.23962969623847 307.63851067728132 56.636407738095251 0.025349462365591404 3.6071308563748086 1951.2309774083155 803.01229094783025 617.94901390958364
decision_type=2 2 2 2 2 2 2 2 2 2 2 2 2 2
left_child=-1 2 -2 6 5 8 -3 -4 11 -9 -11 12 13 -5
right_child=1 3 7 4 -6 -7 -8 9 -10 10 -12 -13 -14 -15
leaf_value=-1.5208040117377717 -0.49190814681476824 1.1928557846221333 -0.19443105274825137 0.047299404829214617 24.555333885607553 -0.17845800891572641 25.713887291615368 0.77512710649025596 0.011549056834632754 0.39256950831972065 -0.072946808557215567 11.719851344727646 0.022777374488980397 0.27691113293009395
leaf_weight=384 46 34 39 58 36 56 65 55 54 35 33 32 46 35
leaf_count=384 46 34 39 58 36 56 65 55 54 35 33 32 46 35
internal_value=-0.00705307 0.00612603 -0.00229831 0.0104555 0.00641079 0.00347546 0.0228443 0.00294959 0.00590221 0.00602409 0.00185294 0.00741985 0.00575361 0.00796046
internal_weight=1008 624 208 416 317 281 99 162 225 123 68 171 139 93
internal_count=1008 624 208 416 317 281 99 162 225 123 68 171 139 93
is_linear=0
shrinkage=0.0293497


Tree=51
num_leaves=15
num_cat=2
split_feature=4 4 1 1 4 16 1 4 14 4 9 1 9 4
split_gain=329.945 25.7458 24.0362 23.5963 22.0204 13.4828 14.5237 5.59903 4.35737 3.20458 4.83114 2.54568 2.68809 0.421203
threshold=248.69965931440211 449.69915621628081 0.25000000000000011 1.0000000180025095e-35 3788.0004649408061 0 0.68301270189221941 552.23962969623847 1 327.30303668184587 0.04793682795698926 0.93301270189221952 0.06468189964157707 792.08183638017465
decision_type=2 2 2 2 2 1 2 2 1 2 2 2 2 2
left_child=-1 2 8 7 5 11 -7 -3 9 -2 -11 12 13 -5
right_child=1 3 -4 4 -6 6 -8 -9 -10 10 -12 -13 -14 -15
leaf_value=-1.4761689458034528 -0.21130859605066993 1.1578458844733939 -0.47408921526750814 0.25352274413520104 23.834643422823387 0.89216280514410462 -1.7866770139907853 24.959193691499589 0.74313332856866954 0.73348839045906933 -0.090482422326902123 0.04892770176832073 0.063496418138593747 0.23074136168215972
leaf_weight=384 32 34 53 58 36 46 48 65 42 43 38 37 50 42
leaf_count=384 32 34 53 58 36 46 48 65 42 43 38 37 50 42
internal_value=-0.0071695 0.00593799 -0.00229831 0.0101736 0.00604083 0.00305816 -0.00569812 0.0228443 0.00327146 0 0.0033611 0.00772616 0.00943252 0.0123781
internal_weight=1008 624 208 416 317 281 94 99 155 113 81 187 150 100
internal_count=1008 624 208 416 317 281 94 99 155 113 81 187 150 100
cat_boundaries=0 1 2
cat_threshold=4 2
is_linear=0
shrinkage=0.0293497


Tree=52
num_leaves=15
num_cat=1
split_feature=4 4 5 1 4 12 4 1 4 1 4 10 9 9
split_gain=328.161 26.8811 25.0662 23.5963 22.0204 8.372 5.59903 4.63371 4.5051 1.4642 1.43858 1.36032 1.23324 0.565775
threshold=248.69965931440211 449.69915621628081 53.711622311827966 1.0000000180025095e-35 3788.0004649408061 0 552.23962969623847 0.93301270189221952 307.63851067728132 0.68301270189221941 1208.1636846254667 1012.6774865591399 0.025349462365591404 0.054052419354838711
decision_type=2 2 2 2 2 9 2 2 2 2 2 2 2 2
left_child=-1 2 -2 6 5 9 -3 10 -4 -5 13 -10 -13 -7
right_child=1 3 8 4 -6 7 -8 -9 11 -11 -12 12 -14 -15
leaf_value=-1.4328439034458627 -0.46355646203741768 1.1238635126514009 -0.18252273593916149 0.022682891217920071 23.135104973103584 0.34587061460854396 24.226650084638287 -0.099682512625755448 0.00054948046472620682 -0.20220844161410748 1.596889462575052 0.7445190204284835 0.029167553346346714 0.20403414326932404
leaf_weight=384 46 34 39 45 36 60 65 35 37 61 48 40 46 32
leaf_count=384 46 34 39 45 36 60 65 35 37 61 48 40 46 32
internal_value=-0.00722772 0.00584397 -0.00258007 0.0101736 0.00604083 0.00305816 0.0228443 0.00685935 0.00258798 -0.00310674 0.00968639 0.00554814 0.00758601 0.012179
internal_weight=1008 624 208 416 317 281 99 175 162 106 140 123 86 92
internal_count=1008 624 208 416 317 281 99 175 162 106 140 123 86 92
cat_boundaries=0 1
cat_threshold=960
is_linear=0
shrinkage=0.0293497


Tree=53
num_leaves=14
num_cat=1
split_feature=4 4 5 4 4 5 14 4 4 6 4 6 6
split_gain=321.719 24.5254 19.5819 13.9251 13.1037 13.0497 7.95422 3.90426 5.31678 1.73202 3.4126 1.35539 0.431015
threshold=248.69965931440211 1637.9741381530396 62.616579781106005 370.56905669001179 526.59669550579099 45.995880376344097 0 1135.9860450634139 484.23155979291442 -4.1538642473118275 730.5238118931876 19.680901657706098 -2.2668346774193546
decision_type=2 2 2 2 2 2 1 2 2 2 2 2 2
left_child=-1 2 3 -2 11 -3 7 8 -5 -10 -11 -4 -8
right_child=1 5 4 6 -6 -7 12 -9 9 10 -12 -13 -14
leaf_value=-1.3907904359311274 -0.53399779502081091 8.005861229450506 0.71122249935006376 -0.017913398759348297 5.6169010569904536 36.979580685859382 -0.26086974977802729 -0.17522334373398074 0.71912967054051746 0.12354808413375057 -0.00051471141605540405 0.042058105325123871 -0.34854246890309615
leaf_weight=384 48 46 93 56 38 74 32 33 34 56 39 42 33
leaf_count=384 48 46 93 56 38 74 32 33 34 56 39 42 33
internal_value=-0.00728593 0.00565593 0.00269525 -0.00135653 0.0107208 0.017638 0.000964812 0.00380617 0.00559244 0.0089217 0.00594622 0.00592367 -0.00777824
internal_weight=1008 624 504 331 173 120 283 218 185 129 95 135 65
internal_count=1008 624 504 331 173 120 283 218 185 129 95 135 65
cat_boundaries=0 1
cat_threshold=2
is_linear=0
shrinkage=0.0293497


Tree=54
num_leaves=15
num_cat=1
split_feature=4 4 1 4 4 16 1 4 4 1 8 4 10 4
split_gain=318.201 25.3385 19.0437 13.7639 13.6108 10.5077 8.45862 3.29897 5.01347 3.11874 3.04231 2.41024 1.67323 0.115693
threshold=248.69965931440211 1637.9741381530396 1.0000000180025095e-35 526.59669550579099 370.56905669001179 0 0.68301270189221941 484.23155979291442 1113.6513602120187 0.68301270189221941 3.6365663402457762 379.15373484688661 1011.235678763441 647.38483981188426
decision_type=2 2 2 2 2 1 2 2 2 2 2 2 2 2
left_child=-1 2 3 10 -4 7 -3 -6 12 -7 -2 -12 13 -9
right_child=1 6 4 -5 5 9 -8 8 -10 -11 11 -13 -14 -15
leaf_value=-1.349971222982266 0.78021988309335577 31.621183428734653 -0.5183251464707197 5.4520469751427649 -0.017387646769900986 -0.030633423175910869 8.2750061404837094 0.081305163561638721 -0.022327008312668047 -1.2085124205745166 -0.13118474027582572 0.66175344452466323 0.57762043408771679 0.13285095778199846
leaf_weight=384 49 71 48 38 56 32 49 34 38 39 36 50 38 46
leaf_count=384 49 71 48 38 56 32 49 34 38 39 36 50 38 46
internal_value=-0.00740236 0.00546789 0.00246247 0.0103821 -0.00153369 0.000757636 0.017638 0.00419018 0.00644212 -0.0087698 0.00548992 0.0014666 0.00950303 0.00596046
internal_weight=1008 624 504 173 331 283 120 212 156 71 135 86 118 80
internal_count=1008 624 504 173 331 283 120 212 156 71 135 86 118 80
cat_boundaries=0 1
cat_threshold=4
is_linear=0
shrinkage=0.0293497


Tree=55
num_leaves=15
num_cat=2
split_feature=4 4 1 15 4 1 16 1 1 4 4 4 1 7
split_gain=316.449 27.4432 27.4121 22.5564 21.1164 9.93745 7.16127 7.15376 6.45088 4.40169 3.63615 2.95333 2.36868 0.795534
threshold=248.69965931440211 552.23962969623847 1.0000000180025095e-35 0 3788.0004649408061 1.0000000180025095e-35 1 0.68301270189221941 0.25000000000000011 730.5238118931876 388.01075748368493 388.01075748368493 0.68301270189221941 77.626713709677432
decision_type=2 2 2 9 2 2 1 2 2 2 2 2 2 2
left_child=-1 3 -3 5 6 13 9 -8 11 -4 -7 -5 -11 -2
right_child=1 2 4 8 -6 10 7 -9 -10 12 -12 -13 -14 -15
leaf_value=-1.3103500396593772 -0.15178298711218313 23.190736622434077 0.42553441057851921 0.29501773664092523 20.785290364250521 -0.45457106106088663 1.0045810189602569 -1.5547635604569767 -0.012537290597586624 1.1325728791899992 -0.17092718920642569 2.5297694702910296 -0.00186182631793823 0.43189918980222264
leaf_weight=384 34 65 48 46 36 36 42 41 36 37 59 38 63 43
leaf_count=384 34 65 48 46 36 36 42 41 36 37 59 38 63 43
internal_value=-0.00746057 0.00537387 0.0111554 -0.00103551 0.00673152 -0.00777706 0.00321166 -0.00328043 0.00817767 0.0071853 -0.0145666 0.0133344 0.00301713 0
internal_weight=1008 624 332 292 267 172 231 83 120 148 95 84 100 77
internal_count=1008 624 332 292 267 172 231 83 120 148 95 84 100 77
cat_boundaries=0 1 2
cat_threshold=10 4
is_linear=0
shrinkage=0.0293497


Tree=56
num_leaves=14
num_cat=1
split_feature=4 4 15 1 5 4 4 5 4 10 4 4 4
split_gain=312.961 26.581 26.9846 16.151 13.0497 9.81704 6.41319 5.7074 6.69565 1.53396 2.48377 2.09463 0.187841
threshold=248.69965931440211 1637.9741381530396 0 1.0000000180025095e-35 45.995880376344097 388.01075748368493 449.69915621628081 39.532184139784952 379.15373484688661 1014.5336111111113 556.87158383254734 773.61878324339034 545.32881348854892
decision_type=2 2 9 2 2 2 2 2 2 2 2 2 2
left_child=-1 2 3 6 -3 -5 -2 -4 -9 10 -7 -12 -10
right_child=1 4 7 5 -6 9 -8 8 12 -11 11 -13 -14
leaf_value=-1.2718917242118779 -0.046919794406876582 6.9179824616224712 0.022837712860888402 -0.44122955937777214 34.698732314069133 -0.30202047802339244 1.4963895518482306 0.050310170957923186 1.3000383009815704 -0.0018071823665683341 0.066464474337711119 -0.18171653689791387 0.83503240686353641
leaf_weight=384 58 46 46 36 74 37 45 42 58 47 35 38 62
leaf_count=384 58 46 46 36 74 37 45 42 58 47 35 38 62
internal_value=-0.007577 0.00518583 0.0021133 -0.00347925 0.017638 -0.00870086 0.00548585 0.00998983 0.0130745 -0.00509535 -0.00699991 -0.00292731 0.0166623
internal_weight=1008 624 504 296 120 193 103 208 162 157 110 73 120
internal_count=1008 624 504 296 120 193 103 208 162 157 110 73 120
cat_boundaries=0 1
cat_threshold=10
is_linear=0
shrinkage=0.0293497


Tree=57
num_leaves=14
num_cat=1
split_feature=4 4 5 4 15 5 5 4 4 4 9 7 4
split_gain=314.703 25.1174 20.0265 19.6489 19.4313 10.8049 10.062 6.60345 5.31219 3.74337 3.46193 3.49982 0.953982
threshold=248.69965931440211 617.94901390958364 62.616579781106005 3788.0004649408061 0 53.711622311827966 56.636407738095251 730.5238118931876 413.71359275661922 388.01075748368493 0.040617799539170517 84.917261904761929 400.11726881763673
decision_type=2 2 2 2 9 2 2 2 2 2 2 2 2
left_child=-1 4 3 7 6 -6 8 -3 -2 -7 11 -9 -8
right_child=1 2 -4 -5 5 9 12 10 -10 -11 -12 -13 -14
leaf_value=-1.2345621468742682 -0.38392549259660519 0.24609696795431976 32.41750281386048 19.156853700858111 -0.047894128952086994 0.2848824833106669 -0.12150265686956142 -0.31989320114179481 -0.15954076843375448 1.8537694816713761 0.78471265464837436 0.10916289065405449 0.16330458698879691
leaf_weight=384 43 42 53 36 49 46 40 54 54 47 63 40 57
leaf_count=384 43 42 53 36 49 46 40 54 54 47 63 40 57
internal_value=-0.00751879 0.00527985 0.0116362 0.00764687 -2.73961e-05 0.00776731 -0.00607789 0.00372725 -0.0130611 0.0142498 0.000618208 -0.00258676 0
internal_weight=1008 624 288 235 336 142 194 199 97 93 157 94 97
internal_count=1008 624 288 235 336 142 194 199 97 93 157 94 97
cat_boundaries=0 1
cat_threshold=10
is_linear=0
shrinkage=0.0293497


Tree=58
num_leaves=14
num_cat=1
split_feature=4 4 1 4 5 1 16 4 4 8 4 8 4
split_gain=306.672 23.2942 13.1115 14.2927 13.7724 11.6229 8.27406 6.88951 4.297 3.60742 2.42776 1.86361 1.82357
threshold=248.69965931440211 1637.9741381530396 1.0000000180025095e-35 436.35317504974984 53.711622311827966 0.68301270189221941 0 526.59669550579099 730.5238118931876 3.6365663402457762 595.46025451552225 3.6578629032258072 379.15373484688661
decision_type=2 2 2 2 2 2 1 2 2 2 2 2 2
left_child=-1 2 7 4 -4 -3 8 9 10 -2 -5 -10 -11
right_child=1 5 3 6 -6 -7 -8 -9 11 12 -12 -13 -14
leaf_value=-1.1983281795777316 0.74958775221926388 28.042634711303123 -0.42697025477046036 0.011084000443171602 -0.021249473131978325 6.6568092769138199 -0.30330120885960693 4.6662998857633848 0.20022259256878963 -0.1179365963787225 0.42190226507818718 -0.048664025915977696 0.53990422197724763
leaf_weight=384 49 71 41 55 54 49 59 38 35 36 37 50 50
leaf_count=384 49 71 41 55 54 49 59 38 35 36 37 50 50
internal_value=-0.00763522 0.00499779 0.0021133 -0.00117936 -0.0108722 0.0166623 0.00252277 0.00868886 0.00584474 0.00505618 0.0102718 0.000451933 0.000786666
internal_weight=1008 624 504 331 95 120 236 173 177 135 92 85 86
internal_count=1008 624 504 331 95 120 236 173 177 135 92 85 86
cat_boundaries=0 1
cat_threshold=4
is_linear=0
shrinkage=0.0293497


Tree=59
num_leaves=13
num_cat=2
split_feature=4 4 15 14 5 4 5 4 5 4 4 4
split_gain=302.153 23.6888 22.4489 13.5482 11.3246 11.8583 11.0177 4.34512 4.00877 2.08235 5.71545 0.222369
threshold=248.69965931440211 1637.9741381530396 0 1 62.616579781106005 388.01075748368493 45.995880376344097 449.69915621628081 53.711622311827966 730.5238118931876 484.23155979291442 425.90953680479186
decision_type=2 2 9 1 2 2 2 2 2 2 2 2
left_child=-1 2 4 11 5 -2 -3 -6 -5 10 -7 -4
right_child=1 6 3 8 7 9 -8 -9 -10 -11 -12 -13
leaf_value=-1.1631576665506871 -0.40448011948069812 5.9573201139102805 0.64731447121669405 -0.33927047768522578 -0.044010947455262489 -0.14232687499983793 32.381827119216744 1.0880327192804171 0.31038599736630768 -0.19569780854888474 0.056750499816097019 0.6010536795449718
leaf_weight=384 36 46 35 40 58 44 74 45 46 67 46 87
leaf_count=384 36 46 35 40 58 44 74 45 46 67 46 87
internal_value=-0.00763522 0.00490378 0.00199691 0.00918327 -0.00309601 -0.00748638 0.0166623 0.00434971 0.000106731 -0.00360297 -0.000102005 0.0159101
internal_weight=1008 624 504 208 296 193 120 103 86 157 90 122
internal_count=1008 624 504 208 296 193 120 103 86 157 90 122
cat_boundaries=0 1 2
cat_threshold=10 2
is_linear=0
shrinkage=0.0293497


Tree=60
num_leaves=14
num_cat=4
split_feature=16 14 1 16 15 5 5 8 9 7 1 1 9
split_gain=247.358 80.8377 15.4838 14.138 26.1116 12.3196 3.6559 2.23979 2.52513 1.88383 0.590813 0.509733 0.477198
threshold=0 1 0.25000000000000011 2 3 45.995880376344097 56.636407738095251 3.6365663402457762 0.03590277777777779 70.850806451612911 -0.68301270189221897 1.0000000180025095e-35 0.021510176651305685
decision_type=1 1 2 1 9 2 2 2 2 2 2 2 2
left_child=1 -1 -3 4 7 -5 9 -2 -9 -6 -8 -7 -11
right_child=3 2 -4 5 6 11 10 8 -10 12 -12 -13 -14
leaf_value=-1.1403173307457468 1.0364130694091729 0.58547266996769753 -1.074652538386478 4.1708731220509287 -0.22329219187803834 32.363258863050355 0.5277163339680524 1.0041841252049382 0.24047158965317628 0.00053038973275797282 -0.016751804338816585 15.022483236176111 -0.13465546854677279
leaf_weight=378 42 56 70 39 55 39 58 42 42 49 58 39 41
leaf_count=378 42 56 70 39 55 39 58 42 42 49 58 39 41
internal_value=-0.00769343 -0.0222489 -0.00146688 0.00676892 0.00388827 0.0158376 -0.00144016 0.0142762 0.0112462 -0.00470827 0.00209757 0.022599 -0.00140166
internal_weight=1008 504 126 504 387 117 261 126 84 145 116 78 90
internal_count=1008 504 126 504 387 117 261 126 84 145 116 78 90
cat_boundaries=0 1 2 3 4
cat_threshold=2 2 4 17
is_linear=0
shrinkage=0.0293497


Tree=61
num_leaves=15
num_cat=1
split_feature=4 4 5 1 4 16 1 4 4 4 4 9 7 4
split_gain=294.286 27.9214 19.1063 17.5112 19.4176 8.35514 6.8409 4.66494 4.60749 4.25145 3.58864 2.98998 2.55602 0.411694
threshold=248.69965931440211 508.42243315328164 53.711622311827966 0.25000000000000011 4045.6410113866414 0 0.68301270189221941 1135.9860450634139 370.56905669001179 1093.7436754328678 428.32446696240783 0.025349462365591404 77.45836693548388 730.5238118931876
decision_type=2 2 2 2 2 1 2 2 2 2 2 2 2 2
left_child=-1 2 10 9 5 7 -7 13 12 -3 -2 -10 -4 -5
right_child=1 3 8 4 -6 6 -8 -9 11 -11 -12 -13 -14 -15
leaf_value=-1.0955514808825564 -0.33662355411529454 1.5590185967640156 -0.16726310761451377 0.14032218200048147 19.04581561712406 0.73775990307333383 -1.7206616484739861 -0.067928290142389269 0.70146095342123027 28.6036258568279 -0.12319233929770847 0.081719793926315759 0.17499443453379693 0.16361551767805307
leaf_weight=384 36 34 46 63 32 33 47 44 54 55 33 63 32 52
leaf_count=384 36 34 46 63 32 33 47 44 54 55 33 63 32 52
internal_value=-0.00775164 0.00462172 -0.0024776 0.00996271 0.00598327 0.00285904 -0.00449902 0.00687344 0.0020005 0.0214589 -0.015796 0.00583186 -0.00311514 0.0100047
internal_weight=1008 624 264 360 271 239 80 159 195 89 69 117 78 115
internal_count=1008 624 264 360 271 239 80 159 195 89 69 117 78 115
cat_boundaries=0 1
cat_threshold=4
is_linear=0
shrinkage=0.0293497


Tree=62
num_leaves=15
num_cat=2
split_feature=4 4 1 4 6 15 16 4 4 7 4 4 4 7
split_gain=282.157 26.3045 18.5309 17.2107 16.6707 12.1367 7.28112 6.98765 6.05803 3.4039 4.80078 1.4965 0.754677 0.622297
threshold=248.69965931440211 552.23962969623847 0.25000000000000011 3788.0004649408061 5.6469310035842302 0 1 379.15373484688661 730.5238118931876 77.626713709677432 413.71359275661922 1208.1636846254667 1160.1552180693886 83.43915610599079
decision_type=2 2 2 2 2 9 1 2 2 2 2 2 2 2
left_child=-1 4 11 6 -2 9 8 -7 -4 10 -6 -3 -10 -8
right_child=1 2 3 -5 5 7 13 -9 12 -11 -12 -13 -14 -15
leaf_value=-1.063397428022216 -0.31289762937129978 2.2109118116010031 0.40095519671908186 16.55333217565116 -0.31906477963581076 0.0081501855187628616 -2.7929834343280078 0.92972440296244219 0.14148499478784002 0.38283349185065368 -0.0033057199762612736 30.551104589850407 -0.069902419767671309 -0.05102109843037559
leaf_weight=384 63 33 48 36 47 42 38 63 59 43 34 49 37 32
leaf_count=384 63 33 48 36 47 42 38 63 59 43 34 49 37 32
internal_value=-0.00786807 0.00424564 0.00991896 0.0056645 -0.0020395 0.00144795 0.00223397 0.00847781 0.00616434 -0.00443835 -0.00841325 0.022214 0.00131435 -0.00513872
internal_weight=1008 624 332 250 292 229 214 105 144 124 81 82 96 70
internal_count=1008 624 332 250 292 229 214 105 144 124 81 82 96 70
cat_boundaries=0 1 2
cat_threshold=10 4
is_linear=0
shrinkage=0.0293497


Tree=63
num_leaves=14
num_cat=5
split_feature=16 14 16 15 1 5 12 7 1 7 5 9 9
split_gain=218.622 83.75 13.1981 20.7717 12.9913 12.4887 5.01303 2.9271 2.08352 2.03245 1.9654 2.38032 1.23218
threshold=0 1 2 3 0.25000000000000011 45.995880376344097 4 70.850806451612911 0.68301270189221941 78.016129032258078 45.995880376344097 0.04793682795698926 0.039231150793650797
decision_type=1 1 1 9 2 2 9 2 2 2 2 2 2
left_child=1 -1 3 10 -3 -4 9 -8 -9 -5 -2 -12 -7
right_child=2 4 5 6 -6 12 7 8 -10 -11 11 -13 -14
leaf_value=-1.0434850203329131 0.12312457429164855 0.56058326180822871 4.108779546382884 -0.044662390359946333 -0.92956577419974784 12.666349434071432 -0.221034131281243 0.027029590620241593 -0.11002193707347759 0.40794428449847653 1.8213092454550317 0.90243731685096285 29.677237879749324
leaf_weight=378 42 56 39 58 70 37 47 59 47 50 41 43 41
leaf_count=378 42 56 39 58 70 37 47 59 47 50 41 43 41
internal_value=-0.0079845 -0.0216669 0.00560501 0.00282743 -0.000537584 0.0143368 -0.00187284 -0.00526756 -0.00229483 0.00255817 0.0121234 0.0161186 0.0211002
internal_weight=1008 504 504 387 126 117 261 153 106 108 126 84 78
internal_count=1008 504 504 387 126 117 261 153 106 108 126 84 78
cat_boundaries=0 1 2 3 4 5
cat_threshold=2 2 4 17 10786
is_linear=0
shrinkage=0.0293497


Tree=64
num_leaves=15
num_cat=2
split_feature=4 4 15 1 5 1 4 4 4 4 4 4 14 8
split_gain=275.592 24.0494 17.2887 15.1699 9.44089 9.36747 7.14781 3.46214 2.72487 2.67329 2.14475 4.85314 1.47224 0.0525672
threshold=248.69965931440211 1637.9741381530396 0 0.68301270189221941 45.995880376344097 1.0000000180025095e-35 388.01075748368493 379.15373484688661 552.23962969623847 449.69915621628081 730.5238118931876 484.23155979291442 1 3.6730376344086024
decision_type=2 2 9 2 2 2 2 2 2 2 2 2 1 2
left_child=-1 2 5 -3 8 9 -7 -6 -4 -2 11 -8 -9 -12
right_child=1 3 4 -5 7 6 10 12 -10 -11 13 -13 -14 -15
leaf_value=-1.0015611649190339 -0.059685419957849421 23.211423976523164 -0.096806206389828134 4.9987615407778083 0.10954797911072633 -0.35827837871587936 -0.11934353240380471 1.4386799447586547 0.14428843816650813 0.94190581778930327 -0.13648122122577844 0.048658797725857954 0.35243535664579384 -0.19569520102546772
leaf_weight=384 58 71 36 49 37 36 44 68 33 45 32 46 34 35
leaf_count=384 58 71 36 49 37 36 44 68 33 45 32 46 34 35
internal_value=-0.00810093 0.00386956 0.000949394 0.0156867 0.00730129 -0.00347925 -0.00748638 0.012073 -0.000556229 0.00321357 -0.00434916 -0.000751831 0.0150042 -0.008419
internal_weight=1008 624 504 120 208 296 193 139 69 103 157 90 102 67
internal_count=1008 624 504 120 208 296 193 139 69 103 157 90 102 67
cat_boundaries=0 1 2
cat_threshold=10 2
is_linear=0
shrinkage=0.0293497


Tree=65
num_leaves=16
num_cat=3
split_feature=14 15 1 5 12 9 1 7 1 7 10 8 8 7 8
split_gain=22.3513 16.6338 11.6005 10.4227 9.73828 3.46001 2.47829 2.82 1.71905 0.915171 0.833434 0.635985 0.247865 0.14762 0.11159
threshold=0 1 0.25000000000000011 56.636407738095251 2 0.031185195852534566 1.0000000180025095e-35 86.031442012288792 -0.93301270189221908 88.738671274961618 1012.6774865591399 3.6365663402457762 3.974307795698925 82.899126344086042 3.7405241935483873
decision_type=1 9 2 2 9 2 2 2 2 2 2 2 2 2 2
left_child=1 4 -2 9 6 -4 11 -8 -5 -3 13 -1 -12 14 -6
right_child=2 3 5 8 10 -7 7 -9 -10 -11 12 -13 -14 -15 -16
leaf_value=-0.30666952849680074 0.85168451373612342 -0.76221467080280847 -0.94681448833477355 -0.29133056559381826 -0.20288153053246327 0.10483646948434593 -0.76066829944272762 -0.50963226376107607 -0.43005934940444501 -0.37182365058661648 -0.23666680944971635 -0.43829581791993094 -0.1593950181564136 0.66423242533522697 0.14071126024799602
leaf_weight=36 64 158 38 38 48 42 149 43 114 32 50 60 44 36 56
leaf_count=36 64 158 38 38 48 42 149 43 114 32 50 60 44 36 56
internal_value=-0.00792629 -0.00972222 0.00250404 -0.0148538 -0.00586154 -0.00449902 -0.00947532 -0.0119507 -0.00892333 -0.0200949 -0.000998693 -0.00497046 -0.00320903 6.56602e-05 -8.83167e-05
internal_weight=1008 864 144 342 522 80 288 192 152 190 234 96 94 140 104
internal_count=1008 864 144 342 522 80 288 192 152 190 234 96 94 140 104
cat_boundaries=0 1 2 3
cat_threshold=2 9 12905
is_linear=0
shrinkage=0.0293497


Tree=66
num_leaves=14
num_cat=4
split_feature=16 14 13 7 5 5 16 9 9 7 5 9 6
split_gain=229.852 81.8783 11.3869 14.745 11.3493 10.3105 5.53625 3.18184 3.113 2.85424 2.4106 1.05198 0.978774
threshold=0 1 2 83.43915610599079 62.616579781106005 45.995880376344097 3 0.051969086021505385 0.021510176651305685 78.8239247311828 62.616579781106005 0.051969086021505385 19.151987007168461
decision_type=1 1 9 2 2 2 1 2 2 2 2 2 2
left_child=1 -1 3 8 6 -3 7 9 -2 -4 -7 -10 -6
right_child=2 5 4 -5 12 10 -8 -9 11 -11 -12 -13 -14
leaf_value=-0.97224514624261782 -0.28467261059322119 -1.4181725015994207 0.11802129276749988 0.85989996588400153 2.8325362334200115 0.0013647979072752071 8.2807317432973786 -0.085175551740633279 0.039200855292036728 -0.00084256360929349169 0.62534353635466811 -0.03026139778025063 0.83915557371751637
leaf_weight=378 49 42 68 42 75 42 48 56 39 44 42 50 33
leaf_count=378 49 42 68 42 75 42 48 56 39 44 42 50 33
internal_value=-0.00740236 -0.0214341 0.00653614 4.84112e-05 0.00968405 -0.000537584 0.00574074 0.00284445 -0.00431001 0.00583016 0.00498168 -0.000431697 0.0179662
internal_weight=1008 504 504 180 324 126 216 168 138 112 84 89 108
internal_count=1008 504 504 180 324 126 216 168 138 112 84 89 108
cat_boundaries=0 1 2 3 4
cat_threshold=2 2 335683601 4
is_linear=0
shrinkage=0.0293497


Tree=67
num_leaves=14
num_cat=1
split_feature=4 4 1 5 4 4 16 4 1 4 6 4 6
split_gain=285.022 23.7221 17.3464 12.6986 12.6205 12.1651 6.82384 5.98758 5.97397 5.67271 3.017 1.05447 0.690163
threshold=248.69965931440211 552.23962969623847 1.0000000180025095e-35 53.711622311827966 3788.0004649408061 436.35317504974984 0 1135.9860450634139 0.68301270189221941 370.56905669001179 18.024639336917563 456.84385804582718 -3.5825268817204297
decision_type=2 2 2 2 2 2 1 2 2 2 2 2 2
left_child=-1 3 -3 5 6 -2 7 12 -8 10 -5 -11 -4
right_child=1 2 4 9 -6 -7 8 -9 -10 11 -12 -13 -14
leaf_value=-0.93618156633980609 -0.36320606207341555 18.466022417792701 0.59914803784399018 0.097834895169037331 15.716763086998805 -0.010688318032757571 0.86949053798117659 -0.054758394764256903 -1.3533236202565222 0.34667108458601886 -0.18197885907871791 0.24083273587987475 0.10206371379213225
leaf_weight=384 41 65 33 38 36 49 42 46 41 92 40 32 69
leaf_count=384 41 65 33 38 36 49 42 46 41 92 40 32 69
internal_value=-0.00746057 0.00471574 0.0100956 -0.0012363 0.00651195 -0.0104992 0.00371915 0.00758104 -0.00257602 0.00265658 -0.00311514 0.00668382 0.0115625
internal_weight=1008 624 332 292 267 90 231 148 83 202 78 124 102
internal_count=1008 624 332 292 267 90 231 148 83 202 78 124 102
cat_boundaries=0 1
cat_threshold=4
is_linear=0
shrinkage=0.0293497


Tree=68
num_leaves=15
num_cat=3
split_feature=4 4 15 1 4 13 4 2 6 16 1 4 4 4
split_gain=277.383 21.7164 21.1992 15.1699 8.66517 6.79268 7.61383 6.10152 2.80378 3.94391 2.51606 1.05979 0.956423 0.202763
threshold=248.69965931440211 1637.9741381530396 0 0.68301270189221941 379.15373484688661 1 402.96277702985594 -0.5 2.9213888888888895 2 1.0000000180025095e-35 212.51666051270976 484.23155979291442 678.75358175068629
decision_type=2 2 9 2 2 9 2 2 2 1 2 2 2 2
left_child=11 2 5 -3 -4 10 -7 -8 9 -6 -2 -1 -12 -9
right_child=1 3 4 -5 8 6 7 13 -10 -11 12 -13 -14 -15
leaf_value=-0.91340102832432934 0.52453018112258587 21.969531078373794 -0.015629155030840832 4.1700569045824922 -0.073752144154642152 -0.47857248114688028 0.066558619606113881 -0.29228056326651142 0.77037376466892249 0.51521285544940132 -0.064283409740580763 -0.74417066134684207 0.062038486170227898 -0.15999217373087429
leaf_weight=352 41 71 44 49 33 39 58 37 89 42 33 32 40 48
leaf_count=352 41 71 44 49 33 39 58 37 89 42 33 32 40 48
internal_value=-0.007577 0.00443368 0.00164774 0.0156867 0.00864556 -0.00328763 -0.0067623 -0.00354535 0.0122009 0.00674569 0.0019626 -0.0272101 -0.000525888 -0.00870677
internal_weight=1008 624 504 120 208 296 182 143 164 75 114 384 73 85
internal_count=1008 624 504 120 208 296 182 143 164 75 114 384 73 85
cat_boundaries=0 1 2 3
cat_threshold=10 43026 2
is_linear=0
shrinkage=0.0293497


Tree=69
num_leaves=15
num_cat=5
split_feature=16 16 15 1 13 1 12 6 5 10 10 6 5 10
split_gain=200.409 11.2719 17.719 10.8797 9.05901 3.95308 3.35325 2.57261 2.56441 1.83427 1.94296 1.23615 0.863519 0.638703
threshold=0 1 2 1.0000000180025095e-35 3 -0.68301270189221897 4 1.0000000180025095e-35 45.995880376344097 1013.2194220430109 1010.641960125448 14.875739247311829 45.995880376344097 1012.6774865591399
decision_type=1 1 9 2 9 2 9 2 2 2 2 2 2 2
left_child=4 2 8 -3 13 -6 11 -5 -2 10 -8 12 -4 -1
right_child=1 3 6 7 5 -7 9 -9 -10 -11 -12 -13 -14 -15
leaf_value=-0.7842171655308191 0.10830190484790259 26.926439700058253 0.02166906302036653 12.551412207562807 -0.62063475634834842 -0.9104710359422814 -0.18490946574806738 2.7168056699965719 1.2752883323626083 -0.24753890852380797 0.14386177788266746 -0.10893199854121742 0.26482279078172483 -0.29060222276002623
leaf_weight=65 42 39 39 34 86 301 54 44 84 53 37 34 44 52
leaf_count=65 42 39 39 34 86 301 54 44 84 53 37 34 44 52
internal_value=-0.00775164 0.00525584 0.00267588 0.0133362 -0.0208522 -0.0232913 -0.0016565 0.00611265 0.0112623 -0.00462387 -0.00170767 0.00168586 0.00398485 -0.00952283
internal_weight=1008 504 387 117 504 387 261 78 126 144 91 117 83 117
internal_count=1008 504 387 117 504 387 261 78 126 144 91 117 83 117
cat_boundaries=0 1 2 3 4 5
cat_threshold=2 4 17 3 8754
is_linear=0
shrinkage=0.0293497


Tree=70
num_leaves=16
num_cat=1
split_feature=4 4 13 6 4 10 4 4 10 7 6 10 4 6 10
split_gain=268.825 22.0415 13.3321 12.1023 12.27 9.46291 6.07593 7.04082 4.39573 3.81257 2.99746 5.53894 0.844071 0.466316 0.457558
threshold=248.69965931440211 617.94901390958364 0 10.373184363799284 4045.6410113866414 1012.6774865591399 1160.1552180693886 2369.1706418080807 1010.2645161290324 79.267495519713279 10.287031810035844 1012.6774865591399 212.51666051270976 18.84631944444445 1012.3067540322583
decision_type=2 2 9 2 2 2 2 2 2 2 2 2 2 2 2
left_child=12 2 5 4 6 -2 8 -8 -3 10 -4 -12 -1 -13 -10
right_child=1 3 9 -5 -6 -7 7 -9 14 -11 11 13 -14 -15 -16
leaf_value=-0.86595717802181649 -0.0624296139361184 0.026927896240287148 -0.25015051657677206 17.241823795995952 17.022832411376559 0.94635407535269322 -0.52182665157032482 3.4386644120093739 0.2052128436047444 0.04446677545346224 0.18609318701140679 -0.1524526693241236 -0.69746025961673253 -0.16139416419004282 0.21522141643160961
leaf_weight=352 61 43 58 59 32 54 41 40 33 55 41 32 32 35 40
leaf_count=352 61 43 58 59 32 54 41 40 33 55 41 32 32 35 40
internal_value=-0.007577 0.00424564 -0.00072551 0.0102111 0.0068231 0.00686467 0.00376503 -0.00191763 0.00815264 -0.00498788 -0.00746644 -0.00387802 -0.0269047 -0.0092908 0.012533
internal_weight=1008 624 336 288 229 115 197 81 116 221 166 108 384 67 73
internal_count=1008 624 336 288 229 115 197 81 116 221 166 108 384 67 73
cat_boundaries=0 1
cat_threshold=536969226
is_linear=0
shrinkage=0.0293497


Tree=71
num_leaves=15
num_cat=5
split_feature=16 14 13 1 16 13 8 1 10 10 8 6 6 1
split_gain=198.627 87.6181 10.4885 7.63712 6.96334 6.80398 5.56009 3.10996 1.95718 4.10535 2.87178 1.41407 1.04574 0.0704935
threshold=0 1 2 0.25000000000000011 3 4 3.6365663402457762 0.25000000000000011 1016.692615740741 1010.2645161290324 3.6365663402457762 15.592930107526882 -2.2668346774193546 -0.93301270189221908
decision_type=1 1 9 2 1 9 2 2 2 2 2 2 2 2
left_child=1 13 6 -3 5 11 -2 -6 9 -7 -11 -4 -5 -1
right_child=2 3 4 12 7 8 -8 -9 -10 10 -12 -13 -14 -15
leaf_value=-0.52767022938773611 0.21861968497264136 0.47194341888453478 0.4415040046510057 -0.13491715620380662 23.501020172533227 -0.068473995666782694 -0.1793725029652278 5.9831514127701206 -0.19811427693086447 0.47584095131191478 0.046092427654899876 0.21356049701444976 -1.3717932723713209 -0.88017227303679824
leaf_weight=42 50 56 106 32 40 46 58 50 34 38 44 38 38 336
leaf_count=42 50 56 106 32 40 46 58 50 34 38 44 38 38 336
internal_value=-0.00769343 -0.0207358 0.00525584 7.29367e-05 0.00739023 0.00520384 -0.00255817 0.015048 0.000394088 0.00235883 0.00652864 0.00956839 -0.00597334 -0.0277968
internal_weight=1008 504 504 126 396 306 108 90 162 128 82 144 70 378
