tree
version=v4
num_class=1
num_tree_per_iteration=1
label_index=0
max_feature_idx=16
objective=regression_l1
feature_names=year month_sin month_cos num_holidays consumption_lag_12m eur_per_mwh_lag_12m avg_temp_lag_12m avg_hum_lag_12m wind_lag_12m rain_lag_12m air_pressure_lag_12m m_area region municipality segment p_type c_bucket
feature_infos=[2022:2022] [-1:1] [-1:0.86602540378443871] [0:3] [96.83726634606866:7767.6395599049347] [36.833500000000001:89.301388888888894] [-12.473521505376343:21.38595430107527] [61.541666666666664:94.245967741935488] [0:5.6623655913978501] [0:0.19973118279569893] [1006.6245967741935:1019.3780505952382] -1:3:5:0:2:1:4 -1:13:9:6:8:1:3:4:5:11:2:7:14:0:12 -1:0:1:3:5:20:15:13:4:26:2:9:11:16:28:29:8:10:17:22:27:6:7:12:14:18:19:21:23:24 -1:1:0 -1:3:4:1:0 -1:1:2:0
tree_sizes=792 895 1053 813 902 904 1568 974 964 887 893 1080 901 1140 1132 1226 1126 1075 1219 1054 1162 1086 1170 1091 1147 1226 1305 1142 1327 1241 1141 1155 1163 1409 1295 1410 1327 1389 1150 1333 1395 1375 1325 1558 1244 1388 1406 1333 1226 1471 1314 1214 1318 1378 1282 1266 1245 1377 1374 1297 1304 1130 1392 1286 1381 1323 1305 1471 1305 1235 1495 1229 1314 1288 1398 1415 1298 1211 1507 1457 1739 1393 1589 1821 1812 1722 1729 1675 1794 1663 1754 1493 1731 1828 1710 1728 1658 1646 1604 1803 1680 1558 1517 1814 1570 1661 1610 1505 1846 1417 1894 1900 1825 1805 1547 1620 1733 1485 1813 1837 1558 1836 1910 2154 1926 1649 2017 1970 1997 1982 1681 2011 2051 2143 1715 1908 1757 1909 1824 1980 1714 2106 1980 2003 2045 2201 1691 2133 2068 2021 2057 1831 1996 2009 1911 2075 1816 1980 2259 1988 1921 2160 2068 1799 2238 1878 1676 2065 1854 1875 1887 1984 2080 1786 2173 1763 1999 1649 1970 1831 2065 1683 1995 2016 1660 2153 1825 2070 1906 1794 2076 1914 1949 1830 1783 1851 2088 1838 1881 2210 2323 1932 1979 1976 2206 2174 1971 1958 1832 2248 2011 1989 1903 1790 2258 1899 1950 2100 1967 2156 1872 2034 2133 2156 2176 1834 1820 1911 2357 2071 2079 1994 1834 1754 2003 1983 1868 2067 2072 1644 2149 1752 2155 1882 2174 1719 2090 1824 2056 2124 2083 1817 1822 1893 1969 2067 2090 1952 1976 2147 2154 2241 1991 2081 1998 1921 1993 1720 2249 1850 1868 2252 2090 2107 1782 2081 1839 2139 2081 2279 2005 2078 1562 2142 1663 2103 1793 2171 2048 1980 1967 1720 2236 2110 2094 2064 1998 1907 2030 1711 2095 2174 1809 1973 2150 2160 2056 2176 1848 2080 2005 2014 1615 1742 2251 1995 2008 2083 2102 2173 1913 2222 2155 1931 1867 2013 2125 2019 1944 2087 1710 1974 2070 2197 2255 2085 2173 2171 1826 2165 2284 1941 2104 2003 2018 2189 2088 2176 1710 2146 2037 2029 1900 2191 1980 2085 2200 2109 1972 1983 2015 2171 2013 1728 2134 1880 2089 2113 2036 1789 2241 2044 2230 2194 1752 2262 1600 1901 2084 2105 1909 2010 2251 1930 2059 1993 2189 2246 1973 1820 2101 1968 2233 2099 2007 2013 1976 2064 2008 2147 2097 2158 2051 1935 2099 1956 1866 2107 1999 1920 2031 2104 2199 2201 2141 2008 1815 1864 1864 1772 2054 2177 2098 2073 1972 2022 2025 2118 2141 1982 2116 2079 2172 1827 2172 2148 2135 2194 2080 1624 1892 2029 2094 2103 2010 2110 2169 1812 1874 2100 2019 2218 2192 1850 1689 2040 2187 2182 2113 2270 2077 2081 2095 2004 1931 2200 2002 2041 2097 1906 2186 2202 2071 1915 2179 2105 1885 1845 2093 2155 1993 1984 2000 2003 2010 2084 2101 2082 1961 2155 2055 2096 2077 2077 2022 1816 2055 2104 2100 1616 2165 2105 1912 2262 1938 2087 1938 1899 2015 1609 2089 1819 2168 2264 2197 2053 1568 2087 2183 2091 2191 2172 2098 2155 2165 1433 2044 1911 2226 2205 1790 2273 2141 2014 2045 2167 2269 2271 1946 1729 2091 2027 2189 2277 2011 2192 2150 2066 2076 2159 1696 2103 2157 2032 2201 1900 1981 2026 1950 2180 2008 2220 2190 1844 2022 2308 2160 2072 2174 2264 1667 2026 2254 2077 1935 2201 2096 2207 2078 2193 2170 2089 2171 1945 2093 1865 2123 2223 1789 2126 2113 1764 1685 2085 1941 2186 2074 2121 1793 2050 1773

Tree=0
num_leaves=8
num_cat=2
split_feature=16 14 1 1 1 1 2
split_gain=532.135 108.788 39.7802 35.7985 5.16725 1.46331 1.3595
threshold=0 1 -0.68301270189221897 1.0000000180025095e-35 -0.93301270189221908 0.68301270189221941 0.68301270189221952
decision_type=1 1 2 2 2 2 2
left_child=1 -1 4 -3 -2 -5 -4
right_child=2 3 6 5 -6 -7 -8
leaf_value=385.09899695088922 392.32134574159403 389.47508977788016 401.42531070797963 393.50335928819521 394.70023843984376 395.6679645180854 396.24286897583858
leaf_weight=378 56 42 336 42 56 42 56
leaf_count=378 56 42 336 42 56 42 56
internal_value=392.441 392.419 392.462 392.443 392.446 392.454 392.467
internal_weight=1008 504 504 126 112 84 392
internal_count=1008 504 504 126 112 84 392
cat_boundaries=0 1 2
cat_threshold=2 2
is_linear=0
shrinkage=1


Tree=1
num_leaves=9
num_cat=0
split_feature=4 4 7 4 7 2 2 4
split_gain=630.892 34.4942 81.4043 26.9687 18.9889 6.19728 6.4263 0.613657
threshold=338.72290602387687 602.23161732041399 77.45836693548388 248.69965931440211 70.850806451612911 -0.24999999999999997 1.0000000180025095e-35 743.0684716216698
decision_type=2 2 2 2 2 2 2 2
left_child=3 2 -2 -1 -5 -4 -7 -3
right_child=1 7 5 4 -6 6 -8 -9
leaf_value=-7.1020026688664331 4.6444365406935173 4.452499751782045 0.72933861924358434 1.0072071428571412 -2.7094274399987972 -1.8236701348408717 -0.34899852135113457 39.353245511856848
leaf_weight=384 145 60 37 35 33 37 37 240
leaf_count=384 145 60 37 35 33 37 37 240
internal_value=-0.000183781 0.0206968 0.0124019 -0.0259745 -0.00786626 -0.00614615 -0.0111798 0.027589
internal_weight=1008 556 256 452 68 111 74 300
internal_count=1008 556 256 452 68 111 74 300
is_linear=0
shrinkage=0.0293497


Tree=2
num_leaves=11
num_cat=0
split_feature=4 1 4 4 7 1 2 4 4 7
split_gain=619.56 40.9163 43.9439 26.9687 18.9889 16.0258 13.9103 26.6959 0.685626 1.76024
threshold=338.72290602387687 -0.68301270189221897 569.63557291704751 248.69965931440211 70.850806451612911 -0.93301270189221908 0.68301270189221952 865.33312693746313 453.99139288516056 70.40658602150539
decision_type=2 2 2 2 2 2 2 2 2 2
left_child=3 2 5 -1 -5 -2 8 -8 9 -3
right_child=1 6 -4 4 -6 -7 7 -9 -10 -11
leaf_value=-6.8935613740355901 -1.8311580528075981 5.4658394640003971 28.286661864166412 0.97764596542470117 -2.6299066920949228 0.70793278581131647 -0.38336942404844632 3.8888766032802269 11.695083518712085 1.4358868594289489
leaf_weight=384 34 73 42 35 33 37 32 38 265 35
leaf_count=384 34 73 42 35 33 37 32 38 265 35
internal_value=-0.000416638 0.0202748 0.0039659 -0.0259745 -0.00786626 -0.00959272 0.0243171 0.010981 0.0266754 0.0217592
internal_weight=1008 556 113 452 68 71 443 70 373 108
internal_count=1008 556 113 452 68 71 443 70 373 108
is_linear=0
shrinkage=0.0293497


Tree=3
num_leaves=8
num_cat=0
split_feature=4 1 4 7 4 7 7
split_gain=603.411 51.0994 24.5504 17.4711 53.6481 17.1434 7.38139
threshold=338.72290602387687 -0.93301270189221908 248.69965931440211 79.054771505376365 762.58182896141136 70.850806451612911 86.031442012288792
decision_type=2 2 2 2 2 2 2
left_child=2 -2 -1 -3 6 -4 -5
right_child=1 3 5 4 -6 -7 -8
leaf_value=-6.691237758318163 -0.4011215939775209 8.4500698586349543 0.94895239821265165 1.0320556942171779 8.1656141844864276 -2.5527198503344044 -0.45634648600153088
leaf_weight=384 59 304 35 48 108 33 37
leaf_count=384 59 304 35 48 108 33 37
internal_value=-0.000882353 0.0195362 -0.0261043 0.022621 0.0150769 -0.00872531 -0.00182774
internal_weight=1008 556 452 497 193 68 85
internal_count=1008 556 452 497 193 68 85
is_linear=0
shrinkage=0.0293497


Tree=4
num_leaves=9
num_cat=2
split_feature=4 1 16 4 2 1 14 4
split_gain=583.445 48.6076 25.846 19.8466 41.0408 16.1818 4.22171 0.969092
threshold=338.72290602387687 -0.93301270189221908 0 792.08183638017465 0.25000000000000017 -0.68301270189221897 1 375.51280830965146
decision_type=2 2 1 2 2 2 1 2
left_child=2 -2 6 4 5 -3 -1 -7
right_child=1 3 -4 -5 -6 7 -8 -9
leaf_value=-6.5191693168975746 -0.38934881546255184 0.47131248830378347 -0.1768991669284814 41.351650858854534 -0.27424695409896233 1.9935594173607987 -2.801195795874325 5.2355842959977847
leaf_weight=378 59 37 37 211 56 35 37 158
leaf_count=378 59 37 37 211 56 35 37 158
internal_value=-0.00117342 0.0189031 -0.0259745 0.0219128 0.0164326 0.0219569 -0.0280765 0.0254
internal_weight=1008 556 452 497 286 230 415 193
internal_count=1008 556 452 497 286 230 415 193
cat_boundaries=0 1 2
cat_threshold=2 2
is_linear=0
shrinkage=0.0293497


Tree=5
num_leaves=9
num_cat=2
split_feature=16 14 1 1 7 1 7 5
split_gain=478.528 99.4956 43.2437 27.2119 6.89653 6.56585 5.03429 0.761945
threshold=0 1 -0.68301270189221897 1.0000000180025095e-35 86.031442012288792 -0.93301270189221908 78.790994623655919 56.636407738095251
decision_type=1 1 2 2 2 2 2 2
left_child=1 -1 5 -3 7 -2 -5 -4
right_child=2 3 4 6 -6 -7 -8 -9
leaf_value=-6.3278339771359349 -0.33407781605315634 -2.654044199505015 10.090221782505324 2.4617276569047948 1.7627238672956562 2.1068219493381242 0.36833573816697623 5.0431548367390588
leaf_weight=378 56 42 224 50 87 56 34 81
leaf_count=378 56 42 224 50 87 56 34 81
internal_value=-0.00140628 -0.0216669 0.0187571 0.000537584 0.0233637 0.00217226 0.0105502 0.0256953
internal_weight=1008 504 504 126 392 112 84 305
internal_count=1008 504 504 126 392 112 84 305
cat_boundaries=0 1 2
cat_threshold=2 2
is_linear=0
shrinkage=0.0293497


Tree=6
num_leaves=17
num_cat=5
split_feature=15 1 13 12 13 13 9 9 1 7 1 9 1 9 9 2
split_gain=75.1279 24.6642 23.5183 14.6888 22.1527 12.1774 10.7176 10.5321 9.98345 4.89369 3.22017 1.49594 1.2021 0.35136 0.148547 0.128287
threshold=0 -0.68301270189221897 1 2 3 4 0.021510176651305685 0.03590277777777779 -0.68301270189221897 77.45836693548388 0.68301270189221941 0.021510176651305685 1.0000000180025095e-35 0.039231150793650797 0.06468189964157707 0.25000000000000017
decision_type=9 2 9 9 9 9 2 2 2 2 2 2 2 2 2 2
left_child=1 -1 9 4 12 7 8 -3 -5 -2 -7 -12 -4 -6 -15 -10
right_child=2 5 3 6 13 10 -8 -9 15 -11 11 -13 -14 14 -16 -17
leaf_value=-5.4494060481562929 -2.9155069391958945 -5.5574527121722817 0.91658477973654007 -0.15202778211450255 -5.502551095796778 -0.89952204593330842 11.585439034193373 -1.3544894391859594 8.252444218894901 -3.3852454159994818 -0.48691297531240707 1.1280611428290714 5.2509476597795928 -5.9835531082909466 -6.0792869957335096 1.5848112773717942
leaf_weight=90 52 76 45 44 32 108 45 50 110 56 43 38 90 34 51 44
leaf_count=90 52 76 45 44 32 108 45 50 110 56 43 38 90 34 51 44
internal_value=-0.00175557 -0.0113994 0.00475246 0.00751056 0.00204897 -0.00756836 0.0126646 -0.0142762 0.00981336 -0.00702272 -0.00196036 0.00191763 0.00995899 -0.00675684 -0.00870677 0.0133719
internal_weight=1008 405 603 495 252 315 243 126 198 108 189 81 135 117 85 154
internal_count=1008 405 603 495 252 315 243 126 198 108 189 81 135 117 85 154
cat_boundaries=0 1 2 3 4 5
cat_threshold=18 335544856 28717 2081 67117112
is_linear=0
shrinkage=0.0293497


Tree=7
num_leaves=10
num_cat=0
split_feature=4 1 4 4 7 7 2 4 4
split_gain=557.82 45.7781 29.052 20.0726 49.0541 16.8445 12.3755 9.3622 1.56967
threshold=338.72290602387687 -0.93301270189221908 248.69965931440211 904.67989906041112 79.054771505376365 70.850806451612911 0.68301270189221952 463.76507462979936 375.51280830965146
decision_type=2 2 2 2 2 2 2 2 2
left_child=2 -2 -1 4 8 -4 7 -6 -3
right_child=1 3 5 -5 6 -7 -8 -9 -10
leaf_value=-6.0064739924372486 -0.29219114281910241 1.6147554946255003 0.7932577187042984 51.290352641869568 -0.11368289190518728 -2.4414344867238458 -0.77189292360676964 1.6675074333051854 4.8825828676827818
leaf_weight=384 59 35 35 187 32 33 33 37 173
leaf_count=384 59 35 35 187 32 33 33 37 173
internal_value=-0.0014645 0.0181645 -0.025715 0.0210866 0.0161075 -0.00700722 -9.00428e-05 0.00648282 0.0242756
internal_weight=1008 556 452 497 310 68 102 69 208
internal_count=1008 556 452 497 310 68 102 69 208
is_linear=0
shrinkage=0.0293497


Tree=8
num_leaves=10
num_cat=0
split_feature=4 7 4 4 7 7 1 7 4
split_gain=518.417 48.6602 55.02 29.052 27.8613 16.8445 11.5514 9.74269 2.72538
threshold=338.72290602387687 77.45836693548388 688.43045867839135 248.69965931440211 89.487903225806463 70.850806451612911 -0.93301270189221908 84.917261904761929 375.51280830965146
decision_type=2 2 2 2 2 2 2 2 2
left_child=3 8 6 -1 -4 -5 -3 -8 -2
right_child=1 2 4 5 -6 -7 7 -9 -10
leaf_value=-5.8301860811640127 1.5673629855223343 -1.2252446246723467 18.082794463323264 0.76997588205473877 -0.12342958884148471 -2.3697792382840954 1.1117615382047079 -0.44778896035228671 9.2026111882746235
leaf_weight=384 35 42 119 35 40 33 53 38 229
leaf_count=384 35 42 119 35 40 33 53 38 229
internal_value=-0.00233771 0.0165819 0.00806342 -0.025715 0.0197679 -0.00700722 -0.00557227 0 0.0257947
internal_weight=1008 556 292 452 159 68 133 91 264
internal_count=1008 556 292 452 159 68 133 91 264
is_linear=0
shrinkage=0.0293497


Tree=9
num_leaves=9
num_cat=0
split_feature=4 7 4 2 4 10 4 4
split_gain=513.229 60.2414 71.242 33.0301 12.5623 10.629 9.01806 4.86546
threshold=259.63221921951987 77.45836693548388 564.01065308573266 0.68301270189221952 370.56905669001179 1012.3067540322583 431.27233741278923 845.96862934309672
decision_type=2 2 2 2 2 2 2 2
left_child=-1 4 5 7 -2 6 -3 -4
right_child=1 2 3 -5 -6 -7 -8 -9
leaf_value=-5.6579674902642232 0.66993815632065756 -1.04533496696087 1.1209897188797293 -0.13952122902480665 8.7404027884110551 -1.5663087349451323 0.91318904660360145 29.313577759675521
leaf_weight=396 58 32 45 60 237 55 33 92
leaf_count=396 58 32 45 60 237 55 33 92
internal_value=-0.00239593 0.0143944 0.00530092 0.0162586 0.0239815 -0.012272 -0.00328577 0.0242169
internal_weight=1008 612 317 197 295 120 65 137
internal_count=1008 612 317 197 295 120 65 137
is_linear=0
shrinkage=0.0293497


Tree=10
num_leaves=9
num_cat=0
split_feature=4 7 4 3 4 10 4 4
split_gain=506.387 61.4186 67.3127 32.9342 13.4061 11.7716 8.07011 4.07512
threshold=259.63221921951987 77.45836693548388 575.47113013907176 1.0000000180025095e-35 375.51280830965146 1012.3067540322583 431.27233741278923 904.67989906041112
decision_type=2 2 2 2 2 2 2 2
left_child=-1 4 5 7 -2 6 -3 -4
right_child=1 2 3 -5 -6 -7 -8 -9
leaf_value=-5.4919081229604743 0.92308166085007148 -1.014654751223911 1.471603979414376 -0.13542632974212818 8.6759900025541636 -1.2213038805794381 0.9901151010595447 29.943180593417964
leaf_weight=396 66 32 42 60 229 61 34 88
leaf_count=396 66 32 42 60 229 61 34 88
internal_value=-0.00257057 0.0141068 0.00493096 0.0160856 0.0237828 -0.0113668 -0.00190881 0.0243916
internal_weight=1008 612 317 190 295 127 66 130
internal_count=1008 612 317 190 295 127 66 130
is_linear=0
shrinkage=0.0293497


Tree=11
num_leaves=11
num_cat=1
split_feature=4 15 1 2 4 1 2 4 4 6
split_gain=488.368 46.8816 34.7989 20.5956 28.2666 27.166 15.7382 9.73717 5.5648 0.0620368
threshold=259.63221921951987 0 -0.68301270189221897 -0.24999999999999997 1414.8232369060063 0.68301270189221941 0.25000000000000017 522.84656923984687 402.96277702985594 10.287031810035844
decision_type=2 9 2 2 2 2 2 2 2 2
left_child=-1 2 -2 8 5 -5 7 9 -3 -4
right_child=1 3 6 4 -6 -7 -8 -9 -10 -11
leaf_value=-5.3307225400177654 -1.5900646764109314 1.2657534830065775 0.30544926822706808 -0.39786851236117388 48.889883855497466 2.4173382399494914 -0.26024468240549431 8.1528183485213237 10.320849891691205 0.65358013508588952
leaf_weight=396 49 33 37 61 59 59 50 35 185 44
leaf_count=396 49 33 37 61 59 59 50 35 185 44
internal_value=-0.00303628 0.0133399 0.00147366 0.0191168 0.0116714 0.00300347 0.00817226 0.0142077 0.0258523 0.00769152
internal_weight=1008 612 215 397 179 120 166 116 218 81
internal_count=1008 612 215 397 179 120 166 116 218 81
cat_boundaries=0 1
cat_threshold=18
is_linear=0
shrinkage=0.0293497


Tree=12
num_leaves=9
num_cat=0
split_feature=4 4 5 2 4 2 2 2
split_gain=477.273 47.4077 49.1785 57.2193 31.6085 27.5377 9.02286 8.20747
threshold=259.63221921951987 1414.8232369060063 84.04589605734769 0.68301270189221952 440.89305939360764 -0.9330127018922193 -0.68301270189221952 0.25000000000000017
decision_type=2 2 2 2 2 2 2 2
left_child=-1 2 3 4 5 -2 -7 -6
right_child=1 -3 -4 -5 7 6 -8 -9
leaf_value=-5.1742676975694151 5.8001902814603516 62.542792097715328 -1.3223240955859961 -0.47582193024712305 5.6273111467394585 0.55561643677658312 -0.34928104638108559 0.69471650561073051
leaf_weight=396 45 128 54 53 165 61 59 47
leaf_count=396 45 128 54 53 165 61 59 47
internal_value=-0.00332735 0.0128606 0.00850279 0.0118887 0.0159698 0.00591392 -0.00105221 0.0235418
internal_weight=1008 612 484 430 377 165 120 212
internal_count=1008 612 484 430 377 165 120 212
is_linear=0
shrinkage=0.0293497


Tree=13
num_leaves=12
num_cat=2
split_feature=4 4 2 1 16 4 10 4 14 6 1
split_gain=476.096 36.1786 48.3052 48.0735 29.3309 14.4313 7.2126 6.20872 4.22171 3.70637 2.62234
threshold=338.72290602387687 1537.1923440399812 -0.24999999999999997 0.68301270189221941 0 404.44681781249193 1018.8554315476191 552.23962969623847 1 16.286469534050184 -0.68301270189221897
decision_type=2 2 2 2 1 2 2 2 1 2 2
left_child=4 2 5 7 8 9 -5 -4 -1 -2 -7
right_child=1 -3 3 6 -6 10 -8 -9 -10 -11 -12
leaf_value=-5.0494723248262439 -0.010364162732000278 62.020837827522463 -1.4395610155025509 3.1371701997088124 -0.11139210333392646 1.5534694349532112 0.24307216480591248 -0.30260350714184597 -2.372253598235198 1.2166578932669723 6.6150673880682227
leaf_weight=378 32 124 38 60 37 33 45 59 37 37 128
leaf_count=378 32 124 38 60 37 33 45 59 37 37 128
internal_value=-0.00344378 0.0146827 0.0104759 0 -0.0258447 0.0196633 0.013741 -0.0148704 -0.0280765 0.00732948 0.0246166
internal_weight=1008 556 432 202 452 230 105 97 415 69 161
internal_count=1008 556 432 202 452 230 105 97 415 69 161
cat_boundaries=0 1 2
cat_threshold=2 2
is_linear=0
shrinkage=0.0293497


Tree=14
num_leaves=12
num_cat=3
split_feature=16 14 15 1 7 7 7 1 1 7 10
split_gain=425.271 73.4346 35.9666 24.8836 22.214 15.3578 9.55123 4.57058 0.906564 0.741516 0.0453249
threshold=0 1 2 -0.68301270189221897 77.45836693548388 83.998363095238105 83.43915610599079 -0.68301270189221897 0.68301270189221941 70.688172043010766 1011.0346102150539
decision_type=1 1 9 2 2 2 2 2 2 2 2
left_child=1 -1 3 -2 -3 7 9 10 -7 -5 -4
right_child=2 4 5 6 -6 8 -8 -9 -10 -11 -12
leaf_value=-4.9012720778433341 -1.0249718637558303 0.8164683204913622 2.1541916704872475 1.4227624018698763 -1.4251249208541779 0.2438308647404622 -0.1449306554136571 9.9104274423229253 1.9692981366425315 2.9435433102177369 0.59051054048015139
leaf_weight=378 38 63 33 54 63 44 38 189 33 41 34
leaf_count=378 38 63 33 54 63 44 38 189 33 41 34
internal_value=-0.00361843 -0.0227144 0.0153818 0.0031261 -0.00286082 0.0207997 0.00953455 0.0249968 0.00884843 0.0145666 0.0162652
internal_weight=1008 504 504 171 126 333 133 256 77 95 67
internal_count=1008 504 504 171 126 333 133 256 77 95 67
cat_boundaries=0 1 2 3
cat_threshold=2 2 18
is_linear=0
shrinkage=0.0293497


Tree=15
num_leaves=13
num_cat=2
split_feature=4 7 4 16 4 2 4 10 9 14 4 4
split_gain=454.124 41.6294 56.1137 29.3309 17.7984 20.4209 13.4063 10.6343 4.38129 4.22171 0.416736 1.32859
threshold=338.72290602387687 77.45836693548388 1537.1923440399812 0 552.23962969623847 0.68301270189221952 508.42243315328164 1011.022244623656 0.021510176651305685 1 394.35823831089323 436.35317504974984
decision_type=2 2 2 1 2 2 2 2 2 1 2 2
left_child=3 6 4 9 7 8 10 -3 -6 -1 -2 -12
right_child=1 2 -4 -5 5 -7 -8 -9 -10 -11 11 -13
leaf_value=-4.757421456285206 0.96024169186757558 0.16586643944455889 44.692866678025119 -0.14988036302267921 0.32312095293674964 -0.34513367764542313 15.77306895202614 -0.80864716012703819 1.9374170796936778 -2.2765996556970021 3.4629605319525156 1.4606269690404436
leaf_weight=378 52 34 71 37 34 43 146 57 53 37 34 32
leaf_count=378 52 34 71 37 34 43 146 57 53 37 34 32
internal_value=-0.00396771 0.0137331 0.00585465 -0.0258447 -0.00123508 0.00547534 0.0222416 -0.0113483 0.0138846 -0.0280765 0.0139676 0.0169529
internal_weight=1008 556 292 452 221 130 264 91 87 415 118 66
internal_count=1008 556 292 452 221 130 264 91 87 415 118 66
cat_boundaries=0 1 2
cat_threshold=2 2
is_linear=0
shrinkage=0.0293497


Tree=16
num_leaves=12
num_cat=0
split_feature=4 4 7 7 4 6 3 4 7 4 4
split_gain=440.314 60.5807 51.8461 37.2627 13.7966 9.3 5.53494 9.41666 3.40349 3.11225 2.8926
threshold=252.5519536762809 552.23962969623847 77.012186379928337 86.031442012288792 1241.0865557171969 14.301478494623657 2.5000000000000004 375.51280830965146 66.044948476702515 647.38483981188426 422.65495584843416
decision_type=2 2 2 2 2 2 2 2 2 2 2
left_child=-1 2 6 9 -5 10 7 -2 -8 -3 -4
right_child=1 3 5 4 -6 -7 8 -9 -10 -11 -12
leaf_value=-4.5918298935528998 -0.17552610206658587 1.9011385783954406 -2.064863540928461 -0.28241196410405212 29.338453144370444 -0.084016620101089248 6.6063558669229732 1.5494678499157521 1.2176637487708062 35.193766274582082 -0.54799394171696214
leaf_weight=388 37 48 32 56 35 43 35 54 39 193 48
leaf_count=388 37 48 32 56 35 43 35 54 39 193 48
internal_value=-0.00420057 0.0110861 0.00104987 0.0196336 0.00299309 -0.0131633 0.0119496 0.00620664 0.0182872 0.0256991 -0.0191134
internal_weight=1008 620 288 332 91 123 165 91 74 241 80
internal_count=1008 620 288 332 91 123 165 91 74 241 80
is_linear=0
shrinkage=0.0293497


Tree=17
num_leaves=11
num_cat=2
split_feature=4 4 1 2 13 4 14 1 10 1
split_gain=423.721 60.7099 46.3643 50.5656 33.8976 27.056 12.8805 5.37928 4.80269 1.06956
threshold=259.63221921951987 1537.1923440399812 -0.93301270189221908 0.25000000000000017 0 460.07038397305661 1 0.68301270189221941 1011.4931384408603 1.0000000180025095e-35
decision_type=2 2 2 2 9 2 1 2 2 2
left_child=-1 2 -2 4 5 8 9 -5 -4 -6
right_child=1 -3 3 7 6 -7 -8 -9 -10 -11
leaf_value=-4.4559566237185342 -1.2271027673972628 58.103562828122847 -0.54239779877601935 -0.67948522662813204 1.5275075862559013 2.3163421106868194 0.47354018306933299 -0.064635379943348711 -0.14215790991342964 5.9783131928194191
leaf_weight=396 54 124 32 53 61 39 49 53 32 115
leaf_count=396 54 124 32 53 61 39 49 53 32 115
internal_value=-0.00478271 0.010464 0.00566846 0.00894104 0.0146881 0 0.0206174 -0.00836732 -0.0120052 0.0253521
internal_weight=1008 612 488 434 328 103 225 106 64 176
internal_count=1008 612 488 434 328 103 225 106 64 176
cat_boundaries=0 1 2
cat_threshold=335552529 2
is_linear=0
shrinkage=0.0293497


Tree=18
num_leaves=13
num_cat=0
split_feature=4 4 7 4 7 10 4 10 10 4 10 10
split_gain=423.755 61.067 71.6335 23.9873 22.3434 19.2277 15.3984 13.5601 7.75826 5.10743 2.41624 0.711807
threshold=254.61914464884231 1537.1923440399812 77.45836693548388 443.05792657047203 83.998363095238105 1016.2077662037038 526.59669550579099 1013.8610752688174 1018.7311755952381 375.51280830965146 1011.0346102150539 1011.4931384408603
decision_type=2 2 2 2 2 2 2 2 2 2 2 2
left_child=-1 2 6 10 5 -5 7 9 -6 -2 -4 -11
right_child=1 -3 3 4 8 -7 -8 -9 -10 11 -12 -13
leaf_value=-4.3254333510343876 -0.12964203089065213 56.3982435773611 -0.38757140433594872 2.2263936401062252 -0.61009735003151344 -0.41071663152982707 6.3056038761217552 5.2265117653545676 0.030710806086387561 0.4596419442885854 -1.7398833757858827 1.2318033641341668
leaf_weight=392 43 124 37 46 57 34 86 47 41 35 32 34
leaf_count=392 43 124 37 46 57 34 86 47 41 35 32 34
internal_value=-0.0047245 0.0103961 0.0056224 -0.00537721 5.16689e-05 0.0118062 0.0169058 0.010926 -0.00904807 0.00478505 -0.0200293 0.00986944
internal_weight=1008 616 492 247 178 80 245 159 98 112 69 69
internal_count=1008 616 492 247 178 80 245 159 98 112 69 69
is_linear=0
shrinkage=0.0293497


Tree=19
num_leaves=11
num_cat=0
split_feature=4 4 7 4 7 4 2 4 4 2
split_gain=423.806 61.42 72.2734 24.5524 22.3434 15.5685 14.8354 7.01173 5.6145 3.37034
threshold=252.5519536762809 1537.1923440399812 77.45836693548388 443.05792657047203 83.998363095238105 526.59669550579099 -0.9330127018922193 569.63557291704751 375.51280830965146 0.68301270189221952
decision_type=2 2 2 2 2 2 2 2 2 2
left_child=-1 2 5 -4 7 6 -2 -5 -8 -6
right_child=1 -3 3 4 9 -7 8 -9 -10 -11
leaf_value=-4.1993305669013985 4.924304431752712 54.742974850275871 -0.97473041991778797 0.22214791178200555 -0.11958223180871701 6.1205366073651541 -0.13824371048711359 3.0237172461341859 1.0536383131444385 -0.59219120615312226
leaf_weight=388 49 124 70 40 47 86 44 40 69 51
leaf_count=388 49 124 70 40 47 86 44 40 69 51
internal_value=-0.00466628 0.0103291 0.00557709 -0.00547374 5.16689e-05 0.0168198 0.0109049 0.0118062 0.00448385 -0.00904807
internal_weight=1008 620 496 248 178 248 162 80 113 98
internal_count=1008 620 496 248 178 248 162 80 113 98
is_linear=0
shrinkage=0.0293497


Tree=20
num_leaves=12
num_cat=2
split_feature=4 4 2 13 4 2 4 14 3 2 2
split_gain=421.697 61.7192 42.5019 28.3359 23.9271 18.3307 15.1952 13.4538 8.50881 3.83539 1.24142
threshold=254.61914464884231 1537.1923440399812 -0.24999999999999997 0 552.23962969623847 0.25000000000000017 460.07038397305661 1 1.0000000180025095e-35 0.68301270189221952 1.0000000180025095e-35
decision_type=2 2 2 9 2 2 2 1 2 2 2
left_child=-1 2 3 6 10 -6 8 -5 -2 -7 -4
right_child=1 -3 4 7 5 9 -8 -9 -10 -11 -12
leaf_value=-4.0752345110689543 -0.77552515907979713 53.136287681499418 -1.4462672602701614 4.3509434061037471 2.7407116871945014 0.048682222226896783 3.0980668953535013 0.13137168359061471 0.087297483288689331 -0.50797962561360199 -0.63983493147228498
leaf_weight=392 38 124 38 135 56 43 35 36 34 43 34
leaf_count=392 38 124 38 135 56 43 35 36 34 43 34
internal_value=-0.00478271 0.0103009 0.00550317 0.0131088 -0.00415108 0.00253923 0 0.0199592 -0.00743125 -0.00554621 -0.0179813
internal_weight=1008 616 492 278 214 142 107 171 72 86 72
internal_count=1008 616 492 278 214 142 107 171 72 86 72
cat_boundaries=0 1 2
cat_threshold=335552537 2
is_linear=0
shrinkage=0.0293497


Tree=21
num_leaves=11
num_cat=2
split_feature=4 4 1 6 13 4 16 1 3 1
split_gain=415.671 60.8371 44.6285 36.3302 36.8892 31.0898 13.7952 11.3296 7.1289 1.70408
threshold=252.5519536762809 1537.1923440399812 -0.93301270189221908 -3.4396505376344084 0 488.94792183815372 1 0.68301270189221941 1.0000000180025095e-35 1.0000000180025095e-35
decision_type=2 2 2 2 9 2 1 2 2 2
left_child=-1 2 -2 7 5 8 -6 -4 -5 -8
right_child=1 -3 3 4 6 -7 9 -9 -10 -11
leaf_value=-3.9564749753968811 -1.2344176599844368 51.57675621928388 -0.61548428426889634 -0.8056601697453768 0.14187885863997077 2.2461588710247096 1.3821847196567782 0.052098082848612864 -0.01145053787773862 5.5422035306710393
leaf_weight=388 54 124 54 35 53 34 62 63 34 107
leaf_count=388 54 124 54 35 53 34 62 63 34 107
internal_value=-0.00489914 0.00995056 0.00522229 0.00838122 0.0134703 -0.00137617 0.0197467 -0.00533157 -0.0132561 0.0248402
internal_weight=1008 620 496 442 325 103 222 117 69 169
internal_count=1008 620 496 442 325 103 222 117 69 169
cat_boundaries=0 1 2
cat_threshold=335552529 2
is_linear=0
shrinkage=0.0293497


Tree=22
num_leaves=12
num_cat=1
split_feature=4 16 5 2 4 4 6 1 4 1 4
split_gain=411.633 54.2881 43.4376 49.2513 28.4471 16.4132 15.5595 12.7851 6.25691 7.92278 0.349133
threshold=252.5519536762809 0 45.995880376344097 -0.68301270189221952 526.59669550579099 440.89305939360764 9.9385416666666675 0.68301270189221941 400.11726881763673 1.0000000180025095e-35 422.65495584843416
decision_type=2 1 2 2 2 2 2 2 2 2 2
left_child=-1 -2 4 8 10 -5 7 -7 9 -4 -3
right_child=1 2 3 5 -6 6 -8 -9 -10 -11 -12
leaf_value=-3.8403538184093144 52.245066673854126 0.019661818299716451 -0.15865530252429341 -1.124016627517932 5.1305242602101426 -0.53110238298898205 1.205697055135408 0.11338937824538703 5.1082871058359327 2.8353499658792316 0.62751157018749992
leaf_weight=388 117 32 32 64 100 77 34 52 42 33 37
leaf_count=388 117 32 32 64 100 77 34 52 42 33 37
internal_value=-0.00501557 0.00976131 0.00544122 -0.000554278 0.0175605 -0.00843239 -0.00311122 -0.00801396 0.0156725 0.00867673 0.00224954
internal_weight=1008 620 503 334 169 227 163 129 107 65 69
internal_count=1008 620 503 334 169 227 163 129 107 65 69
cat_boundaries=0 1
cat_threshold=1
is_linear=0
shrinkage=0.0293497


Tree=23
num_leaves=11
num_cat=1
split_feature=4 4 1 2 4 15 1 10 6 10
split_gain=402.236 52.0479 49.5517 47.4442 35.0847 21.1248 6.74937 6.68914 8.15592 3.02038
threshold=254.61914464884231 1725.5838108765772 -0.93301270189221908 0.25000000000000017 526.59669550579099 0 0.68301270189221941 1012.6774865591399 10.287031810035844 1011.5643884408604
decision_type=2 2 2 2 2 9 2 2 2 2
left_child=-1 2 -2 4 5 7 -5 8 -4 -7
right_child=1 -3 3 6 -6 9 -8 -9 -10 -11
leaf_value=-3.7267936046144783 -1.2076710544473828 52.322913743644634 0.052375486491018336 -0.58183236653494164 5.3376435327369789 0.79194231145383276 -0.062301695907672219 0.35065155219001903 -0.96430798284779162 2.8955512333205369
leaf_weight=392 57 116 38 54 121 53 53 32 36 56
leaf_count=392 57 116 38 54 121 53 53 32 36 56
internal_value=-0.00519021 0.00953894 0.00529786 0.00869332 0.0141642 0.00672151 -0.00801591 -0.00260215 -0.008021 0.0150803
internal_weight=1008 616 500 443 336 215 107 106 74 109
internal_count=1008 616 500 443 336 215 107 106 74 109
cat_boundaries=0 1
cat_threshold=18
is_linear=0
shrinkage=0.0293497


Tree=24
num_leaves=12
num_cat=0
split_feature=4 7 4 4 4 2 10 2 10 4 10
split_gain=398.438 54.4793 57.8961 25.4927 23.3293 15.8847 30.1076 12.1209 9.83767 4.90291 1.51079
threshold=252.5519536762809 77.45836693548388 1991.1135261607376 526.59669550579099 422.65495584843416 0.68301270189221952 1016.2077662037038 -0.9330127018922193 1017.2465277777779 375.51280830965146 1011.4931384408603
decision_type=2 2 2 2 2 2 2 2 2 2 2
left_child=-1 3 4 7 -3 6 -6 -2 -8 -9 -11
right_child=1 2 -4 -5 5 -7 8 9 -10 10 -12
leaf_value=-3.6182606877004906 4.2545075592124313 -1.3325711504787912 37.222714621115102 24.996552092999917 1.7449736603358788 -0.53389569413115456 -0.52711375325621368 -0.12360700480608458 0.04779977841140113 0.36554741499355159 1.0114349756615995
leaf_weight=388 49 53 64 139 59 52 39 44 52 35 34
leaf_count=388 49 53 64 139 59 52 39 44 52 35 34
internal_value=-0.00524843 0.00928818 0.000672224 0.0182444 -0.00543862 -0.000625771 0.00396597 0.00982004 -0.00620664 0.0039659 0.00902279
internal_weight=1008 620 319 301 255 202 150 162 91 113 69
internal_count=1008 620 319 301 255 202 150 162 91 113 69
is_linear=0
shrinkage=0.0293497


Tree=25
num_leaves=13
num_cat=0
split_feature=4 4 7 4 1 2 2 4 7 1 4 4
split_gain=384.818 41.9957 51.641 24.9637 17.1834 15.6048 13.4132 10.3357 9.36854 6.18888 3.93931 0.41958
threshold=346.40857524846075 1951.2309774083155 77.45836693548388 239.76853280280997 0.68301270189221941 -0.24999999999999997 -0.68301270189221952 702.04954948071293 84.917261904761929 0.68301270189221941 400.11726881763673 552.23962969623847
decision_type=2 2 2 2 2 2 2 2 2 2 2 2
left_child=3 2 7 -1 5 -4 -5 9 -6 10 -2 -7
right_child=1 -3 4 6 8 11 -8 -9 -10 -11 -12 -13
leaf_value=-3.5129688748422647 0.6358570953795728 51.722752832533253 0.62000713637680982 0.052309321053855891 1.5618922212608892 -1.1277763385651192 -1.7642870491750922 15.881461107600595 -0.06393312884116012 0.58030623526410208 3.4498364941090864 -0.30544540437559597
leaf_weight=380 42 108 46 41 34 36 35 56 46 50 70 64
leaf_count=380 42 108 46 41 34 36 35 56 46 50 70 64
internal_value=-0.00577236 0.0106442 0.00649399 -0.0257468 -0.00315293 -0.00928922 -0.00934886 0.0167112 0.0074219 0.0123513 0.0162813 -0.0158884
internal_weight=1008 552 444 456 226 146 76 218 80 162 112 100
internal_count=1008 552 444 456 226 146 76 218 80 162 112 100
is_linear=0
shrinkage=0.0293497


Tree=26
num_leaves=14
num_cat=0
split_feature=4 4 7 4 1 6 7 4 10 1 9 4 4
split_gain=380.356 40.325 50.2579 24.9637 14.9831 14.718 12.4267 10.9362 8.72088 5.66423 8.39692 0.97112 0.275494
threshold=346.40857524846075 1951.2309774083155 77.45836693548388 239.76853280280997 0.68301270189221941 11.456080869175628 77.45836693548388 702.04954948071293 1018.8554315476191 0.68301270189221941 0.04793682795698926 552.23962969623847 813.49450120768495
decision_type=2 2 2 2 2 2 2 2 2 2 2 2 2
left_child=3 2 7 -1 5 11 -5 9 -6 10 -2 -4 -13
right_child=1 -3 4 6 8 -7 -8 -9 -10 -11 -12 12 -14
leaf_value=-3.4098644668162605 3.208988351449122 50.204708123835658 -1.0946764974005108 0.036056389243705467 1.1767263731419946 0.60181014373454034 -1.8614783958699379 15.415345777683052 -0.064113773007281841 0.56327445018647615 1.2315487267862697 -0.13718901301021619 -0.4936085740572847
leaf_weight=380 64 108 36 42 35 46 34 56 45 50 48 32 32
leaf_count=380 64 108 36 42 35 46 34 56 45 50 48 32 32
internal_value=-0.00588879 0.0104317 0.00636188 -0.0257468 -0.00315293 -0.00888807 -0.00934886 0.0164424 0.00669118 0.0119897 0.0157588 -0.0153033 -0.0110928
internal_weight=1008 552 444 456 226 146 76 218 80 162 112 100 64
internal_count=1008 552 444 456 226 146 76 218 80 162 112 100 64
is_linear=0
shrinkage=0.0293497


Tree=27
num_leaves=12
num_cat=4
split_feature=16 14 16 13 7 1 7 1 9 6 10
split_gain=339.521 68.118 37.9462 36.0968 49.4706 20.9686 13.483 7.68306 5.54037 1.49182 0.39432
threshold=0 1 2 3 83.43915610599079 -0.68301270189221897 77.45836693548388 1.0000000180025095e-35 0.031185195852534566 -7.4445732526881709 1014.9509722222223
decision_type=1 1 1 9 2 2 2 2 2 2 2
left_child=1 -1 3 7 5 -5 -3 -2 -9 -6 -4
right_child=2 6 10 4 9 -7 -8 8 -10 -11 -12
leaf_value=-3.3348461706693278 -0.68731129582208184 0.25082870620266173 49.274368472347447 0.29056503006251067 -0.048741260474573431 3.4853843635961117 -1.3717448200295319 -0.32895071249967306 0.85221511594265364 -0.68341674311237699 25.991435432384279
leaf_weight=378 42 63 83 51 32 145 63 36 48 33 34
leaf_count=378 42 63 83 51 32 145 63 36 48 33 34
internal_value=-0.00588879 -0.0229472 0.0110754 0.00646459 0.0124734 0.0203777 -0.00379012 -0.0060955 -0.000805322 -0.00867673 0.0258434
internal_weight=1008 504 504 387 261 196 126 126 84 65 117
internal_count=1008 504 504 387 261 196 126 126 84 65 117
cat_boundaries=0 1 2 3 4
cat_threshold=2 2 4 335552529
is_linear=0
shrinkage=0.0293497


Tree=28
num_leaves=14
num_cat=1
split_feature=4 16 2 1 4 4 2 2 10 4 10 4 10
split_gain=373.09 40.2729 29.9448 30.4431 24.9442 16.833 19.7988 12.5598 8.2692 5.98133 3.13872 2.55425 0.39432
threshold=355.61733781931133 0 -0.24999999999999997 0.93301270189221952 239.76853280280997 443.05792657047203 -0.9330127018922193 -0.68301270189221952 1017.2465277777779 617.94901390958364 1011.4931384408603 586.89386005087238 1014.9509722222223
decision_type=2 1 2 2 2 2 2 2 2 2 2 2 2
left_child=4 12 5 8 -1 6 -3 -6 9 -4 -8 -7 -2
right_child=1 2 3 -5 7 11 10 -9 -10 -11 -12 -13 -14
leaf_value=-3.2119095681649399 47.828182988445398 5.3848860382010093 -0.97252623150425954 2.1812390005858373 -0.019130251872120255 1.1659086688394238 -0.14471050963850476 -1.6251858193549202 0.048010713864894521 -0.19217171431148178 0.15527069560530898 5.9765506273947064 25.228595891392779
leaf_weight=380 83 32 49 56 48 59 38 36 59 50 32 52 34
leaf_count=380 83 32 49 56 48 59 38 36 59 50 32 52 34
internal_value=-0.005947 0.0104772 0.0061342 -0.00141235 -0.0253032 0.0139386 0.00467903 -0.00985411 -0.00821444 -0.0133891 -0.00346948 0.0219637 0.0258434
internal_weight=1008 544 427 214 464 213 102 84 158 99 70 111 117
internal_count=1008 544 427 214 464 213 102 84 158 99 70 111 117
cat_boundaries=0 1
cat_threshold=1
is_linear=0
shrinkage=0.0293497


Tree=29
num_leaves=13
num_cat=1
split_feature=4 16 5 6 4 4 4 6 6 1 5 10
split_gain=375.331 39.683 28.1841 34.2107 24.9442 19.9715 9.53811 11.8828 7.91293 6.03774 3.75087 0.39432
threshold=355.61733781931133 0 45.995880376344097 15.932594086021506 239.76853280280997 526.59669550579099 443.05792657047203 9.9385416666666675 16.286469534050184 0.68301270189221941 73.463790322580664 1014.9509722222223
decision_type=2 1 2 2 2 2 2 2 2 2 2 2
left_child=4 11 5 6 -1 -3 -4 9 -6 -8 -5 -2
right_child=1 2 3 10 8 -7 7 -9 -10 -11 -12 -13
leaf_value=-3.1176411455124411 46.424442542779055 0.25944990175159305 -0.62516647310447782 5.544760532395018 -1.101125405965421 3.2725933270373435 -0.39921394318014403 1.0172457678880065 0.013480206686760763 0.049023949612026017 1.0321481213378967 24.488145424171904
leaf_weight=380 83 56 36 38 49 100 77 32 35 52 36 34
leaf_count=380 83 56 36 38 49 100 77 32 35 52 36 34
internal_value=-0.00588879 0.010585 0.00627156 0.000358467 -0.0253032 0.0162046 -0.00584729 -0.0024221 -0.00985411 -0.00665235 0.0174974 0.0258434
internal_weight=1008 544 427 271 464 156 197 161 84 129 74 117
internal_count=1008 544 427 271 464 156 197 161 84 129 74 117
cat_boundaries=0 1
cat_threshold=1
is_linear=0
shrinkage=0.0293497


Tree=30
num_leaves=12
num_cat=3
split_feature=16 14 16 7 7 10 7 10 3 6 10
split_gain=344.173 65.5308 37.3202 25.1469 14.8495 12.5528 9.1938 4.53333 4.33456 2.1025 0.39432
threshold=0 1 2 77.45836693548388 77.45836693548388 1011.0096774193549 82.899126344086042 1017.2465277777779 1.0000000180025095e-35 10.373184363799284 1014.9509722222223
decision_type=1 1 1 2 2 2 2 2 2 2 2
left_child=1 -1 3 8 -3 6 -5 9 -2 -7 -4
right_child=2 4 10 5 -6 7 -8 -9 -10 -11 -12
leaf_value=-3.0548752402178709 1.0555426115966271 0.25491933315975673 45.061901388318816 1.5852965823763734 -1.2912244948043603 -0.45598198724801181 -0.12931189996955045 0.045162780423915173 3.1872995529475201 -0.092749417363880093 23.76942691923573
leaf_weight=378 61 63 83 41 63 40 37 45 129 34 34
leaf_count=378 61 63 83 41 63 40 37 45 129 34 34
internal_value=-0.00588879 -0.0230636 0.0111918 0.00661614 -0.00425477 -0.000492894 0.00836078 -0.00671792 0.0142351 -0.0111798 0.0258434
internal_weight=1008 504 504 387 126 197 78 119 190 74 117
internal_count=1008 504 504 387 126 197 78 119 190 74 117
cat_boundaries=0 1 2 3
cat_threshold=2 2 4
is_linear=0
shrinkage=0.0293497


Tree=31
num_leaves=12
num_cat=2
split_feature=16 16 5 6 8 10 1 10 5 7 1
split_gain=330.336 35.2284 24.6433 21.886 6.96769 4.83405 2.18051 1.28446 0.702974 0.309527 0.259112
threshold=0 1 45.995880376344097 14.301478494623657 3.5605219534050181 1017.2465277777779 -0.68301270189221897 1011.0346102150539 73.463790322580664 70.688172043010766 1.0000000180025095e-35
decision_type=1 1 2 2 2 2 2 2 2 2 2
left_child=6 2 9 5 -5 7 -1 -4 -6 -2 -3
right_child=1 10 3 4 8 -7 -8 -9 -10 -11 -12
leaf_value=-3.263460710914067 2.2758696517388373 22.835703532303896 -0.14811317712525701 2.1101694430896254 0.72172394491987313 0.043837268611453817 -2.6714319430630757 -0.40599765228235413 0.071956390973649087 2.7151512667588404 50.3569972706577
leaf_weight=112 36 39 32 49 42 45 392 58 32 93 78
leaf_count=112 36 39 32 49 42 45 392 58 32 93 78
internal_value=-0.00612164 0.0106098 0.00616149 0.000717344 0.00983169 -0.00722491 -0.0229472 -0.0111491 0.00328278 0.0166375 0.0248428
internal_weight=1008 504 387 258 123 135 504 90 74 129 117
internal_count=1008 504 387 258 123 135 504 90 74 129 117
cat_boundaries=0 1 2
cat_threshold=2 4
is_linear=0
shrinkage=0.0293497


Tree=32
num_leaves=12
num_cat=2
split_feature=4 4 10 13 4 4 10 14 9 1 1
split_gain=371.035 36.5543 30.3309 25.2775 24.2561 21.959 7.23459 6.23158 6.1897 1.74224 1.52242
threshold=346.40857524846075 1951.2309774083155 1016.2077662037038 0 488.94792183815372 239.76853280280997 1017.2465277777779 1 0.072396953405017936 1.0000000180025095e-35 0.68301270189221941
decision_type=2 2 2 9 2 2 2 1 2 2 2
left_child=5 2 3 4 -2 -1 -4 8 10 -7 -5
right_child=1 -3 6 7 -6 9 -8 -9 -10 -11 -12
leaf_value=-2.8580743547039815 -0.53127985051051563 42.749221578426685 -0.95927495812760555 3.0365969074432977 1.1016748595732289 -1.072219025909106 -0.039279979566810813 0.11818495578350104 0.36320885110017104 -0.02363505673541309 2.8546268123104017
leaf_weight=380 53 108 45 97 53 43 55 48 37 33 56
leaf_count=380 53 108 45 97 53 43 55 48 37 33 56
internal_value=-0.00600521 0.0101129 0.00622978 0.0104256 -0.00159298 -0.0256182 -0.00769759 0.0154015 0.0185528 -0.0101179 0.021307
internal_weight=1008 552 444 344 106 456 100 238 190 76 153
internal_count=1008 552 444 344 106 456 100 238 190 76 153
cat_boundaries=0 1 2
cat_threshold=335552529 2
is_linear=0
shrinkage=0.0293497


Tree=33
num_leaves=15
num_cat=1
split_feature=4 16 5 6 4 4 2 4 6 4 1 4 8 2
split_gain=364.474 33.4351 26.8324 26.6294 21.959 17.0984 12.0448 11.6934 9.36712 7.37767 3.22636 1.57307 1.26752 0.0692446
threshold=346.40857524846075 0 45.995880376344097 15.932594086021506 239.76853280280997 526.59669550579099 -0.68301270189221952 453.99139288516056 9.4959318996415778 404.44681781249193 0.68301270189221941 702.04954948071293 4.0768145161290326 -0.24999999999999997
decision_type=2 1 2 2 2 2 2 2 2 2 2 2 2 2
left_child=4 13 5 7 -1 -3 -6 -4 10 -5 12 -7 -9 -2
right_child=1 2 3 9 6 11 -8 8 -10 -11 -12 -13 -14 -15
leaf_value=-2.7741908718338726 46.392261469918267 0.13484114435679692 -0.55735386607521731 0.51231329813374582 0.020604063342450234 2.065363250973832 -1.5010297232718499 -0.442441240974079 0.54908552035309677 3.6594183071083313 0.0027881939346423201 3.3243469616745269 -0.222568842557097 24.206653143136926
leaf_weight=380 65 60 44 36 41 48 35 32 38 41 50 52 34 52
leaf_count=380 65 60 44 36 41 48 35 32 38 41 50 52 34 52
internal_value=-0.00617986 0.00979404 0.00588664 0.000140064 -0.0256182 0.0154342 -0.0101179 -0.00537386 -0.00120075 0.014921 -0.00562969 0.0229091 -0.00987334 0.0238423
internal_weight=1008 552 435 275 456 160 76 198 154 77 116 100 66 117
internal_count=1008 552 435 275 456 160 76 198 154 77 116 100 66 117
cat_boundaries=0 1
cat_threshold=1
is_linear=0
shrinkage=0.0293497


Tree=34
num_leaves=14
num_cat=4
split_feature=16 14 16 7 12 7 3 10 6 10 6 7 10
split_gain=303.479 81.7656 34.386 21.9589 26.92 14.5361 4.86174 5.17018 4.05268 2.7278 1.40371 0.271385 0.00790013
threshold=0 1 2 83.43915610599079 3 77.45836693548388 1.0000000180025095e-35 1010.8431698028675 9.4959318996415778 1018.7311755952381 18.650625000000002 77.45836693548388 1012.6774865591399
decision_type=1 1 1 2 9 2 2 2 2 2 2 2 2
left_child=1 -1 3 4 8 -3 7 -6 -2 -5 -10 -4 -9
right_child=2 5 11 9 6 -7 -8 12 10 -11 -12 -13 -14
leaf_value=-2.7157073256811808 0.62984295004544022 0.43184842788744743 56.365074772028819 -0.42945574526883462 1.8959932382602986 -1.1463237344476416 3.4448274551809863 0.71237578356580378 -0.41032708119175176 -0.065190549849122634 -0.093350799750165109 22.319758756564934 0.1592077229915933
leaf_weight=378 40 63 57 54 35 63 81 32 40 39 32 60 34
leaf_count=378 40 63 57 54 35 63 81 32 40 39 32 60 34
internal_value=-0.00623807 -0.0223652 0.00979507 0.00540375 0.00940466 -0.00146688 0.0159183 0.011387 -0.00199469 -0.00670258 -0.00661971 0.0238423 0.0054486
internal_weight=1008 504 504 387 294 126 182 101 112 93 72 117 66
internal_count=1008 504 504 387 294 126 182 101 112 93 72 117 66
cat_boundaries=0 1 2 3 4
cat_threshold=2 2 4 8272
is_linear=0
shrinkage=0.0293497


Tree=35
num_leaves=15
num_cat=1
split_feature=4 16 7 4 4 8 3 2 10 4 7 10 4 7
split_gain=362.301 33.9695 30.938 22.2462 21.959 13.4332 13.8468 12.0448 5.65389 4.28677 5.98272 3.18347 1.5405 0.271385
threshold=346.40857524846075 0 79.054771505376365 702.04954948071293 239.76853280280997 3.5893145161290332 1.0000000180025095e-35 -0.68301270189221952 1013.2194220430109 453.99139288516056 83.998363095238105 1018.8554315476191 488.94792183815372 77.45836693548388
decision_type=2 1 2 2 2 2 2 2 2 2 2 2 2 2
left_child=4 13 3 5 -1 -3 8 -6 -7 -4 -11 -12 -8 -2
right_child=1 2 9 -5 7 6 12 -9 -10 10 11 -13 -14 -15
leaf_value=-2.6130642795001355 54.710779537781285 2.2479560120100053 -0.30084551951810862 4.3845746026368779 0.007324740943032493 0.02314746805074892 0.98763581014222279 -1.4443706498419346 -0.6399642175119602 1.3639152184862091 -0.32529183570541592 0.047957334506423546 1.9388799354172479 21.664681642059566
leaf_weight=380 57 58 33 58 41 38 41 35 36 32 61 42 36 60
leaf_count=380 57 58 33 58 41 38 41 35 36 32 61 42 36 60
internal_value=-0.00623807 0.00968776 0.0057518 0.0120013 -0.0256182 0.00719458 0.00219427 -0.0101179 -0.00644159 -0.00389059 -0.00115245 -0.00491778 0.0111256 0.0238423
internal_weight=1008 552 435 267 456 209 151 76 74 168 135 103 77 117
internal_count=1008 552 435 267 456 209 151 76 74 168 135 103 77 117
cat_boundaries=0 1
cat_threshold=1
is_linear=0
shrinkage=0.0293497


Tree=36
num_leaves=14
num_cat=1
split_feature=4 16 7 4 4 8 2 7 9 4 7 2 7
split_gain=357.505 34.5079 30.092 24.1152 22.9054 14.122 10.3922 8.7626 11.8377 4.28677 5.98272 1.9975 0.271385
threshold=346.40857524846075 0 79.054771505376365 239.76853280280997 702.04954948071293 3.5893145161290332 -0.68301270189221952 73.810595878136212 0.03590277777777779 453.99139288516056 83.998363095238105 0.68301270189221952 77.45836693548388
decision_type=2 1 2 2 2 2 2 2 2 2 2 2 2
left_child=3 12 4 -1 5 -3 -5 8 -7 -4 -11 -12 -2
right_child=1 2 9 6 -6 7 -8 -9 -10 10 11 -13 -14
leaf_value=-2.5363717566596495 53.10503729016817 2.1819792891455889 -0.29201580872296651 0.0071097623577442209 4.2558888712920391 2.3108115500393764 -1.4019788763512651 -0.56774765494505564 -0.28574047066527408 1.323884783771357 -0.064684761005100511 -0.36960474265143545 21.028830811790915
leaf_weight=380 57 58 33 41 58 62 35 53 36 32 49 54 60
leaf_count=380 57 58 33 41 58 62 35 53 36 32 49 54 60
internal_value=-0.00623807 0.00958149 0.00561696 -0.0254896 0.0117818 0.00691416 -0.00934886 0.00180638 0.0072572 -0.00389059 -0.00115245 -0.00491778 0.0238423
internal_weight=1008 552 435 456 267 209 76 151 98 168 135 103 117
internal_count=1008 552 435 456 267 209 76 151 98 168 135 103 117
cat_boundaries=0 1
cat_threshold=1
is_linear=0
shrinkage=0.0293497


Tree=37
num_leaves=15
num_cat=0
split_feature=4 4 7 4 4 3 6 4 10 2 10 1 7 7
split_gain=350.268 33.9552 32.2831 27.3792 17.0177 10.8519 10.8017 9.81717 11.556 18.882 4.25127 2.97276 1.44688 1.04138
threshold=355.61733781931133 1951.2309774083155 77.45836693548388 235.21991396418878 702.04954948071293 1.0000000180025095e-35 14.875739247311829 453.99139288516056 1012.3067540322583 0.68301270189221952 1017.2465277777779 0.68301270189221941 84.917261904761929 70.40658602150539
decision_type=2 2 2 2 2 2 2 2 2 2 2 2 2 2
left_child=3 2 4 -1 5 -2 -5 -4 9 -9 -10 13 -3 -7
right_child=1 12 7 6 -6 11 -8 8 10 -11 -12 -13 -14 -15
leaf_value=-2.4619301325459109 -0.081267039498241891 48.678650462352046 -0.51844569151799469 -1.1338541947809251 14.089295655214162 4.6622467939761298 -0.015265328014229017 1.578612735480535 -0.42175012739414103 -0.2501051278429326 0.048448278624742554 0.39064964089145998 32.333707521020969 1.9720731563567393
leaf_weight=376 44 76 48 40 56 40 48 44 51 34 48 38 32 33
leaf_count=376 44 76 48 40 56 40 48 44 51 34 48 38 32 33
internal_value=-0.00629629 0.00961447 0.00580588 -0.0250504 0.0140705 0.00856204 -0.00940787 -0.00173416 0.00121052 0.00985954 -0.00511582 0.0135277 0.0244684 0.0173358
internal_weight=1008 544 436 464 211 155 88 225 177 78 99 111 108 73
internal_count=1008 544 436 464 211 155 88 225 177 78 99 111 108 73
is_linear=0
shrinkage=0.0293497


Tree=38
num_leaves=12
num_cat=3
split_feature=4 4 13 6 16 4 16 1 3 9 9
split_gain=356.392 49.3294 35.0125 28.6347 21.4178 8.37419 8.05204 6.1351 3.29598 1.29286 0.954484
threshold=252.5519536762809 552.23962969623847 0 -4.8369287634408602 1 702.04954948071293 2 -0.68301270189221897 1.0000000180025095e-35 0.08387096774193549 0.04793682795698926
decision_type=2 2 9 2 1 2 1 2 2 2 2
left_child=-1 2 8 6 -4 -5 -3 -6 -2 -7 -9
right_child=1 3 4 5 7 9 -8 10 -10 -11 -12
leaf_value=-2.3930535704206135 -0.68910038758345038 -0.19122126581770754 -0.51128603674495254 0.66462075053886749 0.25752092972035318 16.691375411011204 0.95078783801796873 2.0402596427513275 -0.41069271130565582 20.190707840300011 1.8628776237051896
leaf_weight=388 56 54 55 60 41 139 42 57 46 37 33
leaf_count=388 56 54 55 60 41 139 42 57 46 37 33
internal_value=-0.00606343 0.00767954 -0.00104987 0.0153945 0.00632555 0.0209027 0.00131435 0.0132554 -0.0141911 0.0243535 0.0176473
internal_weight=1008 620 288 332 186 236 96 131 102 176 90
internal_count=1008 620 288 332 186 236 96 131 102 176 90
cat_boundaries=0 1 2 3
cat_threshold=335552529 2 4
is_linear=0
shrinkage=0.0293497


Tree=39
num_leaves=14
num_cat=1
split_feature=4 4 2 15 1 4 4 1 1 4 4 7 4
split_gain=339.736 47.2708 34.9729 35.3476 23.3702 8.00284 7.69033 5.83827 5.68561 3.22865 1.82243 1.11569 0.378974
threshold=252.5519536762809 1795.5943992225059 -0.24999999999999997 0 0.68301270189221941 413.71359275661922 488.94792183815372 1.0000000180025095e-35 0.93301270189221952 792.08183638017465 602.23161732041399 84.917261904761929 370.56905669001179
decision_type=2 2 2 9 2 2 2 2 2 2 2 2 2
left_child=-1 2 3 7 6 -5 -4 -2 -6 -8 -7 -3 -9
right_child=1 11 4 5 8 10 9 12 -10 -11 -12 -13 -14
leaf_value=-2.3228182849560328 -0.7133586056867165 46.639146735859391 -1.1141586737577769 0.50451917939401647 -0.090612410172720911 1.3026460544321761 -0.099289606740797912 -0.017082377331453819 1.0342557894437701 -0.57861830543171699 8.0720007999828791 31.07447675946516 1.0371781913202434
leaf_weight=388 46 80 34 45 54 77 46 33 53 32 54 32 34
leaf_count=388 46 80 34 45 54 77 46 33 53 32 54 32 34
internal_value=-0.00658736 0.00682791 0.00290499 0.00966863 -0.00579604 0.017376 -0.0152362 -0.00316839 0.0036407 -0.00911016 0.0221946 0.0241197 0.00144456
internal_weight=1008 620 508 289 219 176 112 113 107 78 131 112 67
internal_count=1008 620 508 289 219 176 112 113 107 78 131 112 67
cat_boundaries=0 1
cat_threshold=18
is_linear=0
shrinkage=0.0293497


Tree=40
num_leaves=15
num_cat=1
split_feature=4 16 7 4 4 7 10 4 10 4 10 10 10 7
split_gain=336.089 49.418 29.3728 20.5518 17.7483 16.1478 9.55237 6.70654 4.99686 4.92303 3.21011 2.81014 0.416382 0.271385
threshold=252.5519536762809 0 77.45836693548388 413.71359275661922 443.05792657047203 83.43915610599079 1013.8610752688174 569.63557291704751 1011.0346102150539 702.04954948071293 1017.9785515873017 1009.8378360215055 1011.5643884408604 77.45836693548388
decision_type=2 1 2 2 2 2 2 2 2 2 2 2 2 2
left_child=-1 13 3 6 8 7 12 -6 -4 11 -7 -5 -3 -2
right_child=1 2 4 9 5 10 -8 -9 -10 -11 -12 -13 -14 -15
leaf_value=-2.2546443805592498 48.881244823507863 -0.13098562886983453 -0.24117628116213466 1.0067373740959928 0.080493453747214797 -0.36729967121426604 2.5881010686654502 1.9464207660516148 -1.11041197235149 2.5610325245520236 -0.031854649296839919 2.2617877661432115 -0.38513246349512198 17.772118202703297
leaf_weight=388 57 32 37 40 39 61 39 37 33 43 52 57 33 60
leaf_count=388 57 32 37 40 39 61 39 37 33 43 52 57 33 60
internal_value=-0.00670379 0.00663866 0.00252567 0.00988777 -0.00422299 0.000203685 0 0.0108869 -0.0168234 0.0172157 -0.00655564 0.012458 -0.00687974 0.0238423
internal_weight=1008 620 503 244 259 189 104 76 70 140 113 97 65 117
internal_count=1008 620 503 244 259 189 104 76 70 140 113 97 65 117
cat_boundaries=0 1
cat_threshold=1
is_linear=0
shrinkage=0.0293497


Tree=41
num_leaves=15
num_cat=0
split_feature=4 4 7 4 4 7 5 10 4 5 10 7 4 4
split_gain=335.545 48.1733 34.2235 22.5188 12.8236 9.123 14.9231 7.93332 5.88104 5.3923 4.16446 1.11569 0.270966 0.114565
threshold=254.61914464884231 1795.5943992225059 77.45836693548388 413.71359275661922 431.27233741278923 83.43915610599079 84.04589605734769 1013.8610752688174 718.94206112883444 39.532184139784952 1017.9785515873017 84.917261904761929 364.73981146994805 217.83497835225612
decision_type=2 2 2 2 2 2 2 2 2 2 2 2 2 2
left_child=13 2 3 7 -4 6 -6 12 9 -5 -7 -3 -2 -1
right_child=1 11 4 8 5 10 -8 -9 -10 -11 -12 -13 -14 -15
leaf_value=-2.196479637092033 -0.23493471443236896 44.579350406269754 -0.78231930528538274 0.2919948957507576 1.1575071834918775 -0.3700717716671314 -0.57704840813192482 2.6983983266443734 13.321152379285612 2.6047869963603363 -0.0068378696869584492 29.90703906421054 -0.23776749190401472 -2.1117110365162661
leaf_weight=360 32 80 57 42 57 58 32 37 49 59 49 32 32 32
leaf_count=360 32 80 57 42 57 58 32 37 49 59 49 32 32 32
internal_value=-0.006762 0.00668175 0.00269525 0.0104298 -0.00478643 -0.000943877 0.0056885 0 0.0176323 0.0125455 -0.00692211 0.0241197 -0.00653046 -0.0280018
internal_weight=1008 616 504 251 253 196 89 101 150 101 107 112 64 392
internal_count=1008 616 504 251 253 196 89 101 150 101 107 112 64 392
is_linear=0
shrinkage=0.0293497


Tree=42
num_leaves=14
num_cat=2
split_feature=4 16 3 5 4 15 2 4 4 4 4 2 4
split_gain=329.563 47.6501 24.9785 21.2605 17.9161 9.73985 11.3767 9.29204 6.34898 5.04303 0.946516 0.891023 0.0313071
threshold=252.5519536762809 0 2.5000000000000004 45.995880376344097 526.59669550579099 1 -0.24999999999999997 564.01065308573266 434.15131852036637 388.01075748368493 327.30303668184587 -0.24999999999999997 762.58182896141136
decision_type=2 1 2 2 2 9 2 2 2 2 2 2 2
left_child=-1 11 3 4 -3 7 8 10 -7 -4 -5 -2 -8
right_child=1 2 9 5 -6 6 12 -9 -10 -11 -12 -13 -14
leaf_value=-2.1240054471554144 36.874893645353851 -0.057815936378303304 0.43612923872141396 -0.83021852663147189 1.7411139989940572 0.0054330025020553029 -0.12165626547156373 0.24246804689644927 1.2225633834773468 2.1234944223933852 -0.7593585072446124 14.432314086918197 -0.37798152756553483
leaf_weight=388 65 47 37 33 66 32 47 33 32 72 51 52 53
leaf_count=388 65 47 37 33 66 32 47 33 32 72 51 52 53
internal_value=-0.006762 0.00644941 0.00240905 -0.000916515 0.00966332 -0.00535329 -5.28544e-05 -0.0113668 0.00926784 0.0148489 -0.0175108 0.023342 -0.00652747
internal_weight=1008 620 503 394 113 281 164 117 64 109 84 117 100
internal_count=1008 620 503 394 113 281 164 117 64 109 84 117 100
cat_boundaries=0 1 2
cat_threshold=1 18
is_linear=0
shrinkage=0.0293497


Tree=43
num_leaves=17
num_cat=4
split_feature=13 7 15 1 15 6 6 7 8 14 7 3 6 1 8 7
split_gain=67.16 24.3993 14.2062 11.1209 7.72832 6.35455 3.96052 3.45726 3.0946 1.31315 1.40049 0.956774 0.873385 0.150209 0.134285 0.0638968
threshold=0 77.45836693548388 1 0.93301270189221952 2 14.301478494623657 -6.2402157738095232 70.688172043010766 3.5605219534050181 3 70.688172043010766 2.5000000000000004 16.286469534050184 0.68301270189221941 4.0768145161290326 64.774103942652346
decision_type=9 2 9 2 9 2 2 2 2 1 2 2 2 2 2 2
left_child=8 2 7 4 6 13 -3 11 -1 10 12 -2 -4 14 -6 -14
right_child=1 3 9 -5 5 -7 -8 -9 -10 -11 -12 -13 15 -15 -16 -17
leaf_value=-1.5427625914948504 -1.2110628974192363 -0.21673108721572329 0.21795968303763519 0.7827269489773665 -1.0944990705977129 0.37667046537609983 -1.514452408557232 0.27425758447363541 -1.7152078802586026 2.1313331867831611 2.2049523263506803 -0.45048022892199652 1.6509459507282269 -0.30093767845662867 -0.71580558581132336 2.8706983529489274
leaf_weight=87 48 35 47 50 67 44 85 42 174 41 59 44 41 53 48 43
leaf_count=87 48 35 47 50 67 44 85 42 174 41 59 44 41 53 48 43
internal_value=-0.00687843 -0.00214364 0.00315837 -0.00739355 -0.00938907 -0.00479377 -0.0153839 -0.00413084 -0.0193963 0.00745675 0.00621655 -0.0077288 0.0038693 -0.00772645 -0.00898678 0.00567774
internal_weight=1008 747 365 382 332 212 120 134 261 231 190 92 131 168 115 84
internal_count=1008 747 365 382 332 212 120 134 261 231 190 92 131 168 115 84
cat_boundaries=0 1 2 3 4
cat_threshold=201335320 18 18 2
is_linear=0
shrinkage=0.0293497


Tree=44
num_leaves=13
num_cat=3
split_feature=13 2 12 1 14 8 8 1 8 6 8 1
split_gain=66.9711 19.3339 15.0884 13.9048 8.9296 3.21571 3.02392 2.65726 1.48611 1.24885 0.938747 0.931102
threshold=0 -0.24999999999999997 1 0.68301270189221941 2 3.6071308563748086 4.2895833333333337 0.93301270189221952 3.5893145161290332 10.287031810035844 2.8318010752688179 0.25000000000000011
decision_type=9 2 9 2 1 2 2 2 2 2 2 2
left_child=5 2 4 -3 8 -1 10 -5 -2 -10 -4 -8
right_child=1 3 6 7 -6 -7 11 -9 9 -11 -12 -13
leaf_value=-1.4911836944781995 -0.62710016415525138 -1.0748479826554889 1.8928604807272287 -0.29046091120451256 0.81312785762226003 -1.6714646727357738 0.021141508735900656 0.40912995881241587 -0.96794781979201316 -1.1706902790177467 4.4944572236973155 1.4119891770036199
leaf_weight=99 56 166 32 83 55 162 48 83 36 78 60 50
leaf_count=99 56 166 32 83 55 162 48 83 36 78 60 50
internal_value=-0.00647093 -0.0017561 0.00235415 -0.00709289 -0.0026582 -0.0189636 0.00825033 -0.000761211 -0.00625725 -0.00829526 0.0128148 0.00427241
internal_weight=1008 747 415 332 225 261 190 166 170 114 92 98
internal_count=1008 747 415 332 225 261 190 166 170 114 92 98
cat_boundaries=0 1 2 3
cat_threshold=201335320 29193 2
is_linear=0
shrinkage=0.0293497


Tree=45
num_leaves=15
num_cat=0
split_feature=4 4 2 4 4 2 1 4 4 8 7 8 6 4
split_gain=349.279 40.6666 29.2462 29.835 14.049 10.9845 7.28343 5.01161 4.17315 3.33338 2.47265 2.05862 1.10268 0.0207745
threshold=254.61914464884231 1795.5943992225059 -0.24999999999999997 453.99139288516056 484.23155979291442 -0.9330127018922193 0.93301270189221952 702.04954948071293 602.23161732041399 3.5893145161290332 84.917261904761929 4.2895833333333337 -7.4445732526881709 217.83497835225612
decision_type=2 2 2 2 2 2 2 2 2 2 2 2 2 2
left_child=13 2 3 5 -4 -2 7 -6 -5 -7 -3 -11 -9 -1
right_child=1 10 4 8 6 9 -8 12 -10 11 -12 -13 -14 -15
leaf_value=-2.0109452705753976 3.4650809959540543 42.623441351044015 -0.80087902814605849 0.84116362923534183 0.031283791067194471 0.13185993357722703 0.81864250622817214 -0.18215950447893334 6.8614212348912318 -0.32585442201914716 28.883760383094096 -0.088979824086842185 -0.49355787105184662 -1.946518714888668
leaf_weight=360 46 80 50 55 56 33 43 33 63 43 32 46 36 32
leaf_count=360 46 80 50 55 56 33 43 33 63 43 32 46 36 32
internal_value=-0.00617986 0.0075389 0.00385916 0.0100774 -0.00407503 0.00179831 0 -0.00358618 0.0214085 -0.00247453 0.0235971 -0.0056885 -0.00902279 -0.0278522
internal_weight=1008 616 504 286 218 168 168 125 118 122 112 89 69 392
internal_count=1008 616 504 286 218 168 168 125 118 122 112 89 69 392
is_linear=0
shrinkage=0.0293497


Tree=46
num_leaves=15
num_cat=4
split_feature=15 7 14 6 14 12 1 5 10 10 3 3 10 10
split_gain=44.0284 16.7481 7.63984 6.86078 6.29155 7.31507 4.57968 3.3465 1.32261 0.925353 0.560049 0.275963 0.23195 0.156224
threshold=0 77.012186379928337 1 11.456080869175628 2 3 0.93301270189221952 45.995880376344097 1016.5230555555557 1018.7311755952381 2.5000000000000004 1.0000000180025095e-35 1017.1398611111111 1011.0096774193549
decision_type=9 2 1 2 1 9 2 2 2 2 2 2 2 2
left_child=2 4 7 6 5 10 8 -1 -3 -9 -2 -7 -10 -5
right_child=1 3 -4 13 -6 11 -8 9 12 -11 -12 -13 -14 -15
leaf_value=-1.1288158223704055 -0.92088321088542613 -1.1667525708022248 -0.30394091068356877 0.39777012525310212 2.2640549578806755 0.79461563494159859 -0.086075211948051691 -1.4698134442030746 -0.34820666850178367 -0.84711527117343299 -0.51056050440894885 2.0621872921860964 -0.79230642585586952 0.00072393137117570446
leaf_weight=114 54 75 63 32 38 37 59 196 32 32 54 93 94 35
leaf_count=114 54 75 63 32 38 37 59 196 32 32 54 93 94 35
internal_value=-0.00617986 -0.000924228 -0.0135193 -0.00549763 0.00428183 0.0022553 -0.0077017 -0.0156306 -0.00981291 -0.018036 -0.00305423 0.00675834 -0.00704265 0.00231636
internal_weight=1008 603 405 327 276 238 260 342 201 228 108 130 126 67
internal_count=1008 603 405 327 276 238 260 342 201 228 108 130 126 67
cat_boundaries=0 1 2 3 4
cat_threshold=18 2 2 8312
is_linear=0
shrinkage=0.0293497


Tree=47
num_leaves=14
num_cat=1
split_feature=4 4 2 4 2 15 8 4 9 2 4 2 4
split_gain=351.527 39.8297 35.067 23.129 19.1065 12.7983 9.55034 9.22233 4.18706 3.36851 0.734933 0.310813 0.207761
threshold=252.5519536762809 552.23962969623847 -0.24999999999999997 2660.0020138354826 -0.24999999999999997 0 3.5893145161290332 1160.1552180693886 0.030309139784946242 0.25000000000000017 430.36928860343761 1.0000000180025095e-35 773.61878324339034
decision_type=2 2 2 2 2 9 2 2 2 2 2 2 2
left_child=-1 4 -3 7 5 8 -7 9 -2 -4 -8 -6 -11
right_child=1 2 3 -5 11 6 10 -9 -10 12 -12 -13 -14
leaf_value=-1.932225025469765 0.060943966272744572 16.321506334617684 0.37562154367443579 29.753773879901328 -0.82264917642783553 2.1655768805766016 0.0058700225509087317 -0.73848814827036835 -0.64938542448178604 0.20757115621815186 0.46599138954571429 -0.34247216579353607 -0.13984548860043036
leaf_weight=388 49 124 55 52 38 39 33 34 55 34 39 35 33
leaf_count=388 49 124 55 52 38 39 33 34 55 34 39 35 33
internal_value=-0.00606343 0.00758492 0.0145113 0.00680647 -0.00023554 0.0039955 0.0104775 0.000809903 -0.00316109 0.00487373 0.00418509 -0.0133335 0
internal_weight=1008 620 332 208 288 215 111 156 104 122 72 73 67
internal_count=1008 620 332 208 288 215 111 156 104 122 72 73 67
cat_boundaries=0 1
cat_threshold=18
is_linear=0
shrinkage=0.0293497


Tree=48
num_leaves=13
num_cat=2
split_feature=4 4 13 14 7 4 7 10 3 9 9 2
split_gain=334.987 36.8743 25.0674 23.0056 21.1079 17.5223 5.10257 4.86111 4.77159 4.10195 3.18173 1.73235
threshold=252.5519536762809 1795.5943992225059 0 1 83.43915610599079 512.03729766786489 84.917261904761929 1015.8655555555557 1.0000000180025095e-35 0.030309139784946242 0.040617799539170517 -0.5
decision_type=2 2 9 1 2 2 2 2 2 2 2 2
left_child=-1 2 5 4 7 11 -3 9 -5 -4 -6 -2
right_child=1 6 3 8 10 -7 -8 -9 -10 -11 -12 -13
leaf_value=-1.8755148966522885 -0.42022542573089383 40.748536773104775 2.0573827164070329 -1.0617469273101656 0.064531440798023948 0.53193763719630149 27.184351427140683 0.12641675850804765 0.049692369905033174 1.0091394636943596 -0.23771466418951076 -0.60221687982942562
leaf_weight=388 52 80 92 47 35 53 32 34 37 92 32 34
leaf_count=388 52 80 92 47 35 53 32 34 37 92 32 34
internal_value=-0.00658736 0.00673329 0.00325142 0.0072199 0.01145 -0.00694065 0.0220294 0.0159046 -0.00567774 0.0178829 -0.00231636 -0.0157452
internal_weight=1008 620 508 369 285 139 112 218 84 184 67 86
internal_count=1008 620 508 369 285 139 112 218 84 184 67 86
cat_boundaries=0 1 2
cat_threshold=67117073 2
is_linear=0
shrinkage=0.0293497


Tree=49
num_leaves=16
num_cat=5
split_feature=13 7 12 15 5 8 12 7 11 6 7 2 10 10 7
split_gain=66.1035 19.634 9.04431 8.45863 5.73004 4.97554 4.73832 3.36866 3.01088 4.66918 2.23383 2.22352 1.35394 1.16121 0.55337
threshold=0 77.45836693548388 1 2 84.04589605734769 3.6071308563748086 3 84.917261904761929 4 8.5851478494623681 70.688172043010766 0.25000000000000017 1010.553561827957 1013.2194220430109 66.044948476702515
decision_type=9 2 9 9 2 2 9 2 1 2 2 2 2 2 2
left_child=5 3 11 10 6 -1 12 -8 9 -5 13 -3 -4 -2 -10
right_child=1 2 4 8 -6 -7 7 -9 14 -11 -12 -13 -14 -15 -16
leaf_value=-1.3371660747278262 -0.98888531770705557 0.12797528317980728 -0.565093216707936 0.63763557721500286 -1.6512575376068195 -1.4185010437661509 -0.81260616439079714 -1.5122136831293427 -0.23514403576986911 3.3786411951600992 0.20611537558787485 -0.31302167752399823 0.031690037939124588 -0.47178211464680442 0.66396929379027592
leaf_weight=99 49 61 40 49 59 162 55 49 36 70 42 48 70 43 76
leaf_count=99 49 61 40 49 59 162 55 49 36 70 42 48 70 43 76
internal_value=-0.006762 -0.00206613 -0.00677943 0.00267635 -0.00945902 -0.0191799 -0.00716368 -0.0113758 0.00599736 0.00937557 -0.00291074 0.000323167 -0.00154002 -0.00582155 0.00151484
internal_weight=1008 747 382 365 273 261 214 104 231 119 134 109 110 92 112
internal_count=1008 747 382 365 273 261 214 104 231 119 134 109 110 92 112
cat_boundaries=0 1 2 3 4 5
cat_threshold=201335320 2420 18 8194 37
is_linear=0
shrinkage=0.0293497


Tree=50
num_leaves=14
num_cat=2
split_feature=4 4 13 14 7 4 4 5 2 9 7 9 6
split_gain=340.456 30.6134 22.0685 21.7892 19.7616 17.6112 5.72196 5.63707 5.25402 1.58883 1.89678 1.81092 0.499403
threshold=252.5519536762809 1795.5943992225059 0 1 79.267495519713279 487.47729189717182 1113.6513602120187 56.636407738095251 0.25000000000000017 0.030309139784946242 77.012186379928337 0.051969086021505385 13.307392473118282
decision_type=2 2 9 1 2 2 2 2 2 2 2 2 2
left_child=-1 2 5 4 9 12 -6 -5 -3 10 -4 -11 -2
right_child=1 8 3 7 6 -7 -8 -9 -10 11 -12 -13 -14
leaf_value=-1.8091432141678483 -0.54290951539705201 40.708538867887526 2.7009588167591314 0.062080556312578743 0.11234345064766067 0.37540360350111612 -0.1744879497838496 -1.2423971102879077 22.875734048899613 0.65083254246080058 0.65195509084430758 2.3269881383492237 -0.39816567875694259
leaf_weight=388 38 78 58 47 62 62 32 37 34 46 38 49 39
leaf_count=388 38 78 58 47 62 62 32 37 34 46 38 49 39
internal_value=-0.00641271 0.00701716 0.00382879 0.00752939 0.0116557 -0.0057614 9.76791e-05 -0.00498168 0.0209843 0.0170753 0.0208136 0.0127194 -0.01568
internal_weight=1008 620 508 369 285 139 94 84 112 191 96 95 77
internal_count=1008 620 508 369 285 139 94 84 112 191 96 95 77
cat_boundaries=0 1 2
cat_threshold=67117073 2
is_linear=0
shrinkage=0.0293497


Tree=51
num_leaves=13
num_cat=4
split_feature=4 16 13 16 14 2 1 2 10 4 4 9
split_gain=334.987 37.9744 18.2511 20.8299 20.1832 18.876 4.89084 3.8645 2.93117 2.88712 2.10111 1.86127
threshold=252.5519536762809 0 1 2 3 0.25000000000000017 1.0000000180025095e-35 -0.24999999999999997 1013.2194220430109 404.44681781249193 487.47729189717182 0.03590277777777779
decision_type=2 1 9 1 1 2 2 2 2 2 2 2
left_child=-1 7 4 9 10 6 8 -2 -5 -4 -3 -8
right_child=1 2 3 5 -6 -7 11 -9 -10 -11 -12 -13
leaf_value=-1.7560454934715859 32.122828963995453 -0.46453462544970614 -1.1568326712722494 0.70018457328829509 1.7121384980162118 -0.10857482175933462 2.3642487587650867 10.85774334647582 0.010419724370615552 -0.13694281461437338 -0.15407192911948817 1.6398395029424331
leaf_weight=388 65 58 34 54 48 62 63 52 39 52 32 61
leaf_count=388 65 58 34 54 48 62 63 52 39 52 32 61
internal_value=-0.00658736 0.00673329 0.00310878 0.00651488 -0.00560237 0.0106452 0.0147624 0.0218411 0.00858939 -0.00554621 -0.0143982 0.018959
internal_weight=1008 620 503 365 138 279 217 117 93 86 90 124
internal_count=1008 620 503 365 138 279 217 117 93 86 90 124
cat_boundaries=0 1 2 3 4
cat_threshold=1 67117073 2 2
is_linear=0
shrinkage=0.0293497


Tree=52
num_leaves=14
num_cat=1
split_feature=4 4 2 2 4 4 4 14 1 2 10 4 4
split_gain=327.765 32.7007 33.3828 23.3411 18.1558 11.4937 6.36426 5.82235 4.01994 3.05872 1.51898 0.613362 0.292808
threshold=252.5519536762809 453.99139288516056 -0.24999999999999997 -0.9330127018922193 2660.0020138354826 1160.1552180693886 602.23161732041399 0 0.93301270189221952 -0.5 1016.692615740741 617.94901390958364 400.11726881763673
decision_type=2 2 2 2 2 2 2 1 2 2 2 2 2
left_child=-1 3 6 -2 5 8 -3 9 10 12 -4 -12 -5
right_child=1 2 4 7 -6 -7 -8 -9 -10 -11 11 -13 -14
leaf_value=-1.7045061723100086 3.1258218635612418 0.69921245862032988 -0.23991666944912482 -0.072027111986228992 26.635977199111725 -0.71391165438581916 16.829615303647156 -1.0432238900561022 0.6216376941841748 -0.26852908757481991 0.041471216903479262 0.11354180527916846 0.042421069457081989
leaf_weight=388 48 55 44 45 52 34 113 48 46 38 32 32 33
leaf_count=388 48 55 44 45 52 34 113 48 46 38 32 32 33
internal_value=-0.00682021 0.00635478 0.0112354 -0.00280792 0.00394624 -4.89253e-05 0.0213263 -0.00827172 0.00310248 -0.00411592 0 0.00288061 -0.000117631
internal_weight=1008 620 408 212 240 188 168 164 154 116 108 64 78
internal_count=1008 620 408 212 240 188 168 164 154 116 108 64 78
cat_boundaries=0 1
cat_threshold=2
is_linear=0
shrinkage=0.0293497


Tree=53
num_leaves=15
num_cat=2
split_feature=4 4 2 13 14 2 4 7 4 4 3 2 4 7
split_gain=320.623 29.1691 32.7815 24.8904 15.8423 7.39685 5.58048 4.68357 3.20091 3.09685 2.48187 1.82637 1.33995 0.509114
threshold=252.5519536762809 832.41941912620939 0.25000000000000017 0 1 -0.5 453.99139288516056 77.012186379928337 487.47729189717182 2369.1706418080807 1.0000000180025095e-35 -0.24999999999999997 552.23962969623847 70.850806451612911
decision_type=2 2 2 9 1 2 2 2 2 2 2 2 2 2
left_child=-1 3 11 8 5 6 10 -6 13 -4 -5 -3 -7 -2
right_child=1 2 9 4 7 12 -8 -9 -10 -11 -12 -13 -14 -15
leaf_value=-1.6544795122017306 -0.4430938711142241 28.697102965813919 -0.12440435793242395 0.2635729445449988 0.026311003505496377 -0.01623999354367249 1.7568925144280583 -1.2052463781141045 -0.088960997655015139 23.213178571631232 3.3374233000946116 2.3650747607364146 0.14855297606292872 -0.46669998969458215
leaf_weight=388 32 84 46 50 37 47 38 41 35 33 38 53 53 33
leaf_count=388 32 84 46 50 37 47 38 41 35 33 38 53 53 33
internal_value=-0.00705307 0.00597628 0.014695 0.0011842 0.00544488 0.00963673 0.014477 -0.00536327 -0.0107241 0 0.00940787 0.023362 0.00301713 -0.0158647
internal_weight=1008 620 216 404 304 226 126 78 100 79 88 137 100 65
internal_count=1008 620 216 404 304 226 126 78 100 79 88 137 100 65
cat_boundaries=0 1 2
cat_threshold=67117057 2
is_linear=0
shrinkage=0.0293497


Tree=54
num_leaves=14
num_cat=4
split_feature=4 16 13 4 7 16 2 16 4 9 6 9 2
split_gain=322.401 36.3453 16.4616 21.8655 21.6489 11.7807 6.27027 5.88785 9.67127 4.02039 2.54781 1.8526 1.1778
threshold=252.5519536762809 0 1 484.23155979291442 78.171863799283173 2 -0.24999999999999997 3 1127.9093152950893 0.03590277777777779 13.307392473118282 0.031185195852534566 -0.5
decision_type=2 1 9 2 2 1 2 1 2 2 2 2 2
left_child=-1 6 3 10 5 -4 -2 -6 11 -5 -3 -9 -7
right_child=1 2 4 9 7 12 -8 8 -10 -11 -12 -13 -14
leaf_value=-1.6059211170738004 29.843841905975403 -0.54808144736618802 0.0016971506840223183 -0.0067789924319578395 -1.0934614924652777 2.4627263836380577 9.0760170859901663 0.44601609788221358 -0.14157587461263163 1.5659393244214179 -0.38362265423592096 0.107875148468503 0.827649263785737
leaf_weight=388 65 42 45 41 41 85 52 36 34 41 50 43 45
leaf_count=388 65 42 45 41 41 85 52 36 34 41 50 43 45
internal_value=-0.00699486 0.00607091 0.00252567 -0.00450822 0.00634112 0.0136116 0.0208405 -0.00120075 0.00189412 0.00581567 -0.014722 0.00788543 0.0180862
internal_weight=1008 620 503 174 329 175 117 154 113 82 92 79 130
internal_count=1008 620 503 174 329 175 117 154 113 82 92 79 130
cat_boundaries=0 1 2 3 4
cat_threshold=1 335618065 2 2
is_linear=0
shrinkage=0.0293497


Tree=55
num_leaves=14
num_cat=4
split_feature=4 16 13 4 7 16 2 16 4 4 2 2 10
split_gain=313.559 38.7986 16.7534 25.3577 23.9428 10.564 6.27027 4.76542 8.84436 2.32695 2.28248 1.53108 0.15756
threshold=252.5519536762809 0 1 488.94792183815372 78.016129032258078 2 -0.24999999999999997 3 1113.6513602120187 484.23155979291442 -0.5 -0.5 1011.022244623656
decision_type=2 1 9 2 2 1 2 1 2 2 2 2 2
left_child=-1 6 3 10 5 -4 -2 -6 9 -9 -3 -7 -5
right_child=1 2 4 12 7 11 -8 8 -10 -11 -12 -13 -14
leaf_value=-1.5587878938624826 28.967935582132611 -0.39345816204045125 0.0016473399049226894 0.48846880010601207 -1.061368780034136 2.3695124612097467 8.8096391583101425 0.047500169230390757 -0.172164167045461 0.13263496941075231 -0.48912553955929805 0.64838835639022407 1.1505734460944084
leaf_weight=388 65 57 45 33 41 89 52 34 38 51 33 49 33
leaf_count=388 65 57 45 33 41 89 52 34 38 51 33 49 33
internal_value=-0.00728593 0.00559778 0.00194256 -0.00570191 0.00552889 0.0130177 0.0208405 -0.00219928 0.000312686 0.00595516 -0.0163477 0.0170402 0.0072185
internal_weight=1008 620 503 156 347 183 117 164 123 85 90 138 66
internal_count=1008 620 503 156 347 183 117 164 123 85 90 138 66
cat_boundaries=0 1 2 3 4
cat_threshold=1 335552529 2 2
is_linear=0
shrinkage=0.0293497


Tree=56
num_leaves=13
num_cat=1
split_feature=4 4 2 13 2 4 4 4 4 2 1 4
split_gain=311.806 34.4894 30.7602 25.8061 14.4259 8.04071 7.16674 2.4654 1.88675 1.82637 1.81289 0.959358
threshold=252.5519536762809 832.41941912620939 0.25000000000000017 0 -0.68301270189221952 425.90953680479186 404.44681781249193 2369.1706418080807 522.84656923984687 -0.24999999999999997 0.68301270189221941 501.12651311311168
decision_type=2 2 2 9 2 2 2 2 2 2 2 2
left_child=-1 3 9 11 6 -6 -5 -4 -7 -3 -10 -2
right_child=1 2 7 4 5 8 -8 -9 10 -11 -12 -13
leaf_value=-1.513038014270393 -0.38798704241786641 26.951936127234806 -0.11154497301922241 0.24695546156220116 -0.66806436253283741 0.26873675968381144 2.310434981198259 22.471583737925187 -0.094006876789511293 2.2523394555558056 0.29965321011783541 -0.14519089957754663
leaf_weight=388 68 84 46 58 47 49 62 33 33 53 55 32
leaf_count=388 68 84 46 58 47 49 62 33 33 53 55 32
internal_value=-0.00734414 0.00550315 0.0149663 0.000313142 0.00469791 -4.9987e-05 0.0127598 0 0.00327282 0.023362 0.000104314 -0.0117882
internal_weight=1008 620 216 404 304 184 120 79 137 137 88 100
internal_count=1008 620 216 404 304 184 120 79 137 137 88 100
cat_boundaries=0 1
cat_threshold=67117057
is_linear=0
shrinkage=0.0293497


Tree=57
num_leaves=15
num_cat=3
split_feature=4 16 13 4 16 7 7 7 2 2 4 4 4 4
split_gain=309.367 37.1145 19.5177 19.6011 15.5998 18.6072 6.81371 3.16196 2.47941 2.19149 1.49941 1.21064 0.0445549 0.0207745
threshold=254.61914464884231 0 1 534.46341720090197 2 83.998363095238105 77.45836693548388 77.012186379928337 -0.5 -0.68301270189221952 430.36928860343761 718.94206112883444 730.5238118931876 217.83497835225612
decision_type=2 1 9 2 1 2 2 2 2 2 2 2 2 2
left_child=13 6 3 8 7 9 -2 -4 -3 10 -6 -5 -11 -1
right_child=1 2 4 11 5 -7 -8 -9 -10 12 -12 -13 -14 -15
leaf_value=-1.4730819135543902 36.158905112136573 -0.32943265435753594 0.10565846069144456 0.037729398786129104 1.913631940857953 -0.094794935812810552 7.0104035820882133 -0.98270617499596236 -0.43648484691628042 0.60743561599274998 2.4001250372788663 6.7731849397018458 0.46420090622570426 -1.3945391492933852
leaf_weight=360 57 66 35 34 41 59 60 47 41 66 40 33 37 32
leaf_count=360 57 66 35 34 41 59 60 47 41 66 40 33 37 32
internal_value=-0.00746057 0.00544363 0.00184057 -0.00578201 0.00606667 0.010049 0.0203402 -0.00438973 -0.0140318 0.0146985 0.0192393 0.00580358 0.0105985 -0.0278522
internal_weight=1008 616 499 174 325 243 117 82 107 184 81 67 103 392
internal_count=1008 616 499 174 325 243 117 82 107 184 81 67 103 392
cat_boundaries=0 1 2 3
cat_threshold=1 335618065 2
is_linear=0
shrinkage=0.0293497


Tree=58
num_leaves=15
num_cat=2
split_feature=4 16 4 2 2 12 1 2 2 4 8 8 8 4
split_gain=303.792 33.2762 12.6881 20.4808 14.5601 11.5613 6.93685 5.74486 4.93913 3.3794 1.42559 1.32845 1.57498 0.120003
threshold=252.5519536762809 0 428.32446696240783 -0.5 -0.9330127018922193 1 0.68301270189221941 -0.24999999999999997 -0.5 526.59669550579099 3.8660618279569898 4.0768145161290326 3.6578629032258072 678.75358175068629
decision_type=2 1 2 2 2 9 2 2 2 2 2 2 2 2
left_child=-1 7 4 9 -3 6 -5 -2 10 -4 -6 12 -7 -8
right_child=1 2 3 5 8 11 13 -9 -10 -11 -12 -13 -14 -15
leaf_value=-1.4253964386054645 26.265455681462839 2.0617334941153951 0.68790352720920644 -0.047584623960625447 -0.37300776503696842 -0.23705608727023239 0.42164143081010441 7.6857933113759955 -0.65845813392145514 4.352709195243154 -0.11771578146902861 -0.31316490006149006 0.11557948495145756 1.5542707145143801
leaf_weight=388 65 42 54 38 47 49 34 52 42 34 41 54 36 32
leaf_count=388 65 42 54 38 47 49 34 52 42 34 41 54 36 32
internal_value=-0.00746057 0.00521927 0.00182594 0.0052541 -0.00448153 0.000640948 0.00778184 0.0193397 -0.00952883 0.0173823 -0.00475609 -0.00458215 -0.00182774 0.0142981
internal_weight=1008 620 503 331 172 243 104 117 130 88 88 139 85 66
internal_count=1008 620 503 331 172 243 104 117 130 88 88 139 85 66
cat_boundaries=0 1 2
cat_threshold=1 8450
is_linear=0
shrinkage=0.0293497


Tree=59
num_leaves=14
num_cat=4
split_feature=4 16 13 14 4 6 14 7 7 6 6 4 7
split_gain=301.364 28.9976 18.1533 25.5292 15.7054 13.6209 14.7027 9.32782 5.96007 5.54642 3.8377 0.493532 0.0831653
threshold=254.61914464884231 0 1 2 425.90953680479186 13.307392473118282 3 77.45836693548388 78.171863799283173 15.592930107526882 6.8523611111111116 813.49450120768495 86.031442012288792
decision_type=2 1 9 1 2 2 1 2 2 2 2 2 2
left_child=-1 7 3 8 9 6 10 -2 -3 -4 12 -10 -6
right_child=1 2 4 -5 5 -7 -8 -9 11 -11 -12 -13 -14
leaf_value=-1.3835615515794897 34.326771952028594 1.8392936099464685 -0.43124639839908707 -0.29707128489224066 -0.31595321187536296 1.1196215023627518 1.4629024059781635 6.3064220456617957 0.12204624358811866 -0.3620601175702754 0.0044157368854161301 0.051583813786509516 -0.35233954618564101
leaf_weight=392 57 88 39 55 50 33 42 60 42 51 35 32 32
leaf_count=392 57 88 39 55 50 33 42 60 42 51 35 32 32
internal_value=-0.007577 0.00515791 0.00195813 0.00817418 -0.00284269 0.00157391 -0.00171568 0.0183391 0.0145209 -0.0130985 -0.00733272 0.0072313 -0.0108065
internal_weight=1008 616 499 217 282 192 159 117 162 90 117 74 82
internal_count=1008 616 499 217 282 192 159 117 162 90 117 74 82
cat_boundaries=0 1 2 3 4
cat_threshold=1 536971306 2 2
is_linear=0
shrinkage=0.0293497


Tree=60
num_leaves=14
num_cat=4
split_feature=16 14 13 7 1 2 16 1 8 5 7 8 5
split_gain=245.366 78.9977 37.5692 15.5027 11.2309 6.13873 4.72191 2.4367 1.42891 1.42358 1.02573 0.801813 0.166987
threshold=0 1 2 77.45836693548388 1.0000000180025095e-35 0.68301270189221952 3 -0.93301270189221908 3.6365663402457762 37.576259408602162 77.012186379928337 3.6927284946236565 73.463790322580664
decision_type=1 1 9 2 2 2 1 2 2 2 2 2 2
left_child=1 -1 8 6 -3 7 9 -5 -2 -4 -6 -9 -11
right_child=2 4 3 5 10 -7 -8 11 -10 12 -12 -13 -14
leaf_value=-1.3714942573515878 -0.14676652765750067 -0.91220454384308325 0.8180009943444212 0.015787574143589982 0.87518781991042538 -0.19622881077995788 35.304369181828903 0.47887168323351181 -0.22169859240227902 2.3818935119147406 0.041503963804304198 1.030806586327855 0.99722901437011358
leaf_weight=378 35 42 32 43 45 43 48 52 82 74 39 63 32
leaf_count=378 35 42 32 43 45 43 48 52 82 74 39 63 32
internal_value=-0.00751879 -0.0220161 0.00688531 0.0111771 -0.00146688 0.00543956 0.017691 0.00821444 -0.00721784 0.0140698 0.00428562 0.0105137 0.0160959
internal_weight=1008 504 504 387 126 201 186 158 117 138 84 115 106
internal_count=1008 504 504 387 126 201 186 158 117 138 84 115 106
cat_boundaries=0 1 2 3 4
cat_threshold=2 2 335749136 4
is_linear=0
shrinkage=0.0293497


Tree=61
num_leaves=12
num_cat=3
split_feature=4 16 13 16 4 7 7 7 7 7 4
split_gain=284.696 28.9456 14.8171 26.98 15.9887 10.598 8.14315 6.99988 3.8696 10.5191 1.96506
threshold=254.61914464884231 0 1 2 383.75398696069499 86.031442012288792 77.45836693548388 78.016129032258078 71.469444444444449 77.901881720430126 522.84656923984687
decision_type=2 1 9 1 2 2 2 2 2 2 2
left_child=-1 6 3 10 -4 8 -2 -5 -6 -10 -3
right_child=1 2 4 7 5 -7 -8 -9 9 -11 -12
leaf_value=-1.3027016270032445 33.19251817522661 -0.63825837788809192 -0.40147306754472423 1.8802645329697767 1.1269974204630688 -0.35987740584247019 6.1072760474691066 0.14803685251835108 -0.72207557333744721 0.11988598597189663 -0.1660018359487386
leaf_weight=392 57 40 54 86 69 42 60 76 33 67 32
leaf_count=392 57 40 54 86 69 42 60 76 33 67 32
internal_value=-0.00769343 0.00468171 0.0014879 0.00676458 -0.0031248 0.000182481 0.0178388 0.0137977 0.00369429 0 -0.00743125
internal_weight=1008 616 499 234 265 211 117 162 169 100 72
internal_count=1008 616 499 234 265 211 117 162 169 100 72
cat_boundaries=0 1 2 3
cat_threshold=1 537954346 2
is_linear=0
shrinkage=0.0293497


Tree=62
num_leaves=15
num_cat=3
split_feature=4 13 15 4 7 4 4 4 16 1 7 4 4 6
split_gain=277.071 27.8126 23.0606 24.8694 22.6846 12.4689 10.6659 8.30424 8.78441 7.3019 3.8558 2.43066 1.8115 1.65317
threshold=252.5519536762809 0 1 604.97140978451409 71.469444444444449 575.47113013907176 2660.0020138354826 1283.1844881144877 2 1.0000000180025095e-35 83.998363095238105 602.23161732041399 997.5245269406164 13.307392473118282
decision_type=2 9 9 2 2 2 2 2 1 2 2 2 2 2
left_child=-1 5 3 9 12 13 7 8 10 -3 11 -6 -4 -2
right_child=1 2 4 -5 6 -7 -8 -9 -10 -11 -12 -13 -14 -15
leaf_value=-1.264467789792628 -0.27749547780322675 -1.204212851438812 1.9909242133065497 0.99620794362766163 0.55699336372797514 0.1607536910774815 30.639891976537243 -0.88519625156636161 -0.30097285046702943 -0.25681350894527999 0.0058937059113297417 0.44510510196623276 34.767302476816482 -0.39237205473365178
leaf_weight=388 42 33 102 49 46 42 43 32 48 38 38 33 41 33
leaf_count=388 42 33 102 49 46 42 43 32 48 38 38 33 41 33
internal_value=-0.00792629 0.00417839 0.00716482 -0.0036738 0.0106938 -0.00813984 0.00516746 0.00198023 0.00484879 -0.0153531 0.00933388 0.0130649 0.0203364 -0.0160963
internal_weight=1008 620 503 120 383 117 240 197 165 71 117 79 143 75
internal_count=1008 620 503 120 383 117 240 197 165 71 117 79 143 75
cat_boundaries=0 1 2 3
cat_threshold=335749136 16 4
is_linear=0
shrinkage=0.0293497


Tree=63
num_leaves=14
num_cat=4
split_feature=16 14 13 7 1 1 16 9 9 9 2 7 7
split_gain=226.119 78.0856 34.8452 15.8594 11.2309 8.79774 6.08277 3.39664 2.26573 1.68612 1.1114 1.02573 0.0283885
threshold=0 1 2 83.43915610599079 1.0000000180025095e-35 -0.93301270189221908 3 0.030309139784946242 0.070421626984127003 0.054052419354838711 -0.5 77.012186379928337 79.267495519713279
decision_type=1 1 9 2 2 2 1 2 2 2 2 2 2
left_child=1 -1 10 5 -3 -4 7 -7 -5 -9 -2 -6 -12
right_child=2 4 3 8 11 6 -8 9 -10 -11 12 -13 -14
leaf_value=-1.2558958558272544 -0.1366975844064513 -0.84338065958253139 -0.0020491437610463538 0.10826123125819892 0.82396176993231263 1.4778090009536395 26.178855181268325 0.47664106928052458 -0.26822185668815124 1.112817264376039 -0.28831691881635868 0.045600673128813891 -0.15396512139383406
leaf_weight=378 52 42 36 60 45 72 66 56 33 64 32 39 33
leaf_count=378 52 42 36 60 45 72 66 56 33 64 32 39 33
internal_value=-0.0079845 -0.0218997 0.00583779 0.00999524 -0.00146688 0.0135928 0.015487 0.0122559 0 0.00836945 -0.00767884 0.00428562 -0.0113722
internal_weight=1008 504 504 387 126 294 258 192 93 120 117 84 65
internal_count=1008 504 504 387 126 294 258 192 93 120 117 84 65
cat_boundaries=0 1 2 3 4
cat_threshold=2 2 335749136 4
is_linear=0
shrinkage=0.0293497


Tree=64
num_leaves=15
num_cat=1
split_feature=4 4 2 4 2 15 1 2 4 10 8 4 10 7
split_gain=270.512 24.6932 15.567 18.0409 12.5326 6.51583 15.1641 6.49199 15.1486 3.92438 3.34036 3.09336 2.91237 0.82501
threshold=252.5519536762809 1795.5943992225059 -0.9330127018922193 425.90953680479186 -0.5 0 0.68301270189221941 -0.5 4045.6410113866414 1013.2194220430109 3.7405241935483873 581.6473146573295 1016.5230555555557 77.012186379928337
decision_type=2 2 2 2 2 9 2 2 2 2 2 2 2 2
left_child=-1 2 -2 9 10 12 -7 -3 -9 13 -5 -8 -6 -4
right_child=1 7 3 4 5 6 11 8 -10 -11 -12 -13 -14 -15
leaf_value=-1.1904959981400283 3.2706840141031295 32.97855406182277 -0.067310610567569193 1.745222810536381 -0.43288019430474833 -0.29196302858627682 0.19754274688193024 -0.13137136766986196 54.892836131043879 -0.73000190700731526 0.53858760904590464 1.3714586850664756 0.0066682432930297462 -0.42193717624422977
leaf_weight=388 58 35 57 36 67 48 33 45 32 35 55 47 38 34
leaf_count=388 58 35 57 36 67 48 33 45 32 35 55 47 38 34
internal_value=-0.00815914 0.00379989 0.000941923 -0.000802543 0.0027432 -0.000668418 0.00346133 0.0162813 0.0103666 -0.0102952 0.011991 0.0118062 -0.00593299 -0.00620664
internal_weight=1008 620 508 450 324 233 128 112 77 126 91 80 105 91
internal_count=1008 620 508 450 324 233 128 112 77 126 91 80 105 91
cat_boundaries=0 1
cat_threshold=8
is_linear=0
shrinkage=0.0293497


Tree=65
num_leaves=14
num_cat=4
split_feature=15 7 1 14 12 6 11 10 8 8 10 8 9
split_gain=29.1788 13.7116 9.19211 8.62438 5.74215 4.86309 3.61635 1.72611 1.11162 0.398184 0.164922 0.66094 0.149548
threshold=0 71.469444444444449 1.0000000180025095e-35 1 2 11.456080869175628 3 1012.3067540322583 4.2895833333333337 3.2067809139784949 1018.9909226190476 4.2462365591397857 0.06468189964157707
decision_type=9 2 2 1 9 2 1 2 2 2 2 2 2
left_child=2 6 -1 12 7 10 8 -3 -2 -8 11 -6 -4
right_child=1 4 3 -5 5 -7 9 -9 -10 -11 -12 -13 -14
leaf_value=-1.0691886603126115 1.8995814745225523 0.22552032855259183 -0.4845018683268536 0.11715866502834084 -0.99165407170910524 -0.13767525883038076 0.057680696969451863 -0.2164338833615799 0.091066318304978883 -0.3401028063055459 -0.47190289441358868 -0.53679664694017248 -0.76396267772058601
leaf_weight=135 72 57 186 42 117 50 47 43 36 73 37 71 42
leaf_count=135 72 57 186 42 117 50 47 43 36 73 37 71 42
internal_value=-0.00804272 -0.00360399 -0.0140847 -0.010891 -0.00714045 -0.009187 0.00183992 -8.35139e-05 0.00553454 -0.00142186 -0.0113728 -0.0122045 -0.0131514
internal_weight=1008 603 405 270 375 275 228 100 108 120 225 188 228
internal_count=1008 603 405 270 375 275 228 100 108 120 225 188 228
cat_boundaries=0 1 2 3 4
cat_threshold=18 2 16646 37
is_linear=0
shrinkage=0.0293497


Tree=66
num_leaves=14
num_cat=4
split_feature=16 14 13 7 5 10 16 8 10 8 10 2 10
split_gain=233.73 75.3246 31.3189 14.4745 10.4627 7.10268 5.31078 4.15683 2.45908 2.01398 0.603997 0.519121 1.93363
threshold=0 1 2 89.487903225806463 62.616579781106005 1016.5230555555557 3 3.6365663402457762 1010.641960125448 4.018864087301588 1017.2465277777779 -0.9330127018922193 1009.7022666517325
decision_type=1 1 9 2 2 2 1 2 2 2 2 2 2
left_child=1 -1 7 5 9 6 11 -2 -9 -3 -7 -4 -13
right_child=2 4 3 -5 -6 10 -8 8 -10 -11 -12 12 -14
leaf_value=-1.1665348919585889 -0.021876454621585242 0.49191129304887149 3.9251334381992242 -0.27573171349121078 -0.77790886469752696 0.017526059017727816 28.562257961729728 -0.086631877674180305 -0.35517321640496641 -0.096497454872103636 0.30182806327973383 1.2394489369422577 0.59200667866034618
leaf_weight=378 50 46 32 39 42 40 61 42 34 38 44 32 130
leaf_count=378 50 46 32 39 42 40 61 42 34 38 44 32 130
internal_value=-0.00786807 -0.0220161 0.00618697 0.0103025 -0.00193153 0.0125686 0.0150942 -0.0060955 -0.0108869 0.00358956 0.00428562 0.0121298 0.0105433
internal_weight=1008 504 504 378 126 339 255 126 76 84 84 194 162
internal_count=1008 504 504 378 126 339 255 126 76 84 84 194 162
cat_boundaries=0 1 2 3 4
cat_threshold=2 2 336732176 4
is_linear=0
shrinkage=0.0293497


Tree=67
num_leaves=16
num_cat=2
split_feature=4 13 4 16 2 2 4 4 4 3 2 4 4 4 2
split_gain=274.667 24.0198 29.4086 18.6733 14.9128 10.7244 6.22617 6.89575 3.41401 2.58618 1.63748 1.43799 1.73869 0.190451 0.174973
threshold=254.61914464884231 0 484.23155979291442 1 -0.5 0.25000000000000017 2233.7531394792068 688.43045867839135 469.78312480674344 1.0000000180025095e-35 -0.68301270189221952 865.33312693746313 526.59669550579099 430.36928860343761 -0.9330127018922193
decision_type=2 9 2 1 2 2 2 2 2 2 2 2 2 2 2
left_child=14 2 9 8 -4 10 7 -6 -3 -2 13 12 -12 -5 -1
right_child=1 3 4 5 6 -7 -8 -9 -10 -11 11 -13 -14 -15 -16
leaf_value=-0.81935069915052494 -0.37171717523275172 -0.54537408314272995 5.3047707408937175 1.987130828507945 0.054862203078932151 0.027378640794205732 14.258200271781272 -0.55107327966870712 0.27325417892276443 -0.21219215243443948 0.52672946370089024 3.7072750044483045 0.066677991872078804 5.9886653393698914 -1.140538802814044
leaf_weight=48 67 32 41 36 46 62 32 37 33 49 39 49 36 57 344
leaf_count=48 67 32 41 36 46 62 32 37 33 49 39 49 36 57 344
internal_value=-0.00804272 0.00411027 -0.00231964 0.00913744 0.00569116 0.0127466 0 -0.00398485 -0.00418426 -0.0137031 0.0158428 0.0123493 0.00830413 0.0199103 -0.0272538
internal_weight=1008 616 272 344 156 279 115 83 65 116 217 124 75 93 392
internal_count=1008 616 272 344 156 279 115 83 65 116 217 124 75 93 392
cat_boundaries=0 1 2
cat_threshold=336797713 2
is_linear=0
shrinkage=0.0293497


Tree=68
num_leaves=14
num_cat=3
split_feature=4 4 2 13 4 16 12 2 1 1 9 4 9
split_gain=269.456 22.3729 23.9484 22.8546 19.1136 17.0405 11.9707 5.98925 5.00736 4.12081 2.37171 1.71871 1.16665
threshold=254.61914464884231 564.01065308573266 -0.5 0 4045.6410113866414 1 2 0.25000000000000017 0.68301270189221941 -0.68301270189221897 0.04793682795698926 383.75398696069499 0.031185195852534566
decision_type=2 2 2 9 2 1 9 2 2 2 2 2 2
left_child=-1 3 -3 11 6 -5 8 -8 -4 -7 -11 -2 -10
right_child=1 2 4 5 -6 9 7 -9 12 10 -12 -13 -14
leaf_value=-1.0880050916392743 -0.32074498129094847 11.165517915602257 -0.034807816034889819 -0.59239788079542954 53.28593866936891 0.13075872847594516 0.010001374609988982 -0.82674851423614837 0.63652141620009073 1.2159682110544558 0.79279389185801885 -0.30848016689200997 1.7256272948179572
leaf_weight=392 44 80 38 52 32 44 57 48 33 57 34 61 36
leaf_count=392 44 80 38 52 32 44 57 48 33 57 34 61 36
internal_value=-0.00792629 0.00411027 0.00943968 -0.0016379 0.00460237 0.00435996 0.0011492 -0.00542402 0.00783301 0.0102611 0.0139192 -0.0120406 0.0132561
internal_weight=1008 616 324 292 244 187 212 105 107 135 91 105 69
internal_count=1008 616 324 292 244 187 212 105 107 135 91 105 69
cat_boundaries=0 1 2 3
cat_threshold=335552529 2 8514
is_linear=0
shrinkage=0.0293497


Tree=69
num_leaves=13
num_cat=4
split_feature=16 13 2 1 1 12 8 16 6 2 10 2
split_gain=222.342 27.9923 12.7037 4.51517 2.78837 7.48671 2.05173 1.87967 1.82029 3.01357 1.31656 0.195647
threshold=0 1 -0.24999999999999997 0.68301270189221941 -0.68301270189221897 2 3.6365663402457762 3 19.270216173835131 -0.68301270189221952 1016.692615740741 -0.24999999999999997
decision_type=1 9 2 2 2 9 2 1 2 2 2 2
left_child=4 6 7 10 -1 -6 -2 8 9 -3 -4 -8
right_child=1 2 3 -5 5 -7 11 -9 -10 -11 -12 -13
leaf_value=-1.368650972594321 -0.17836375650702854 2.102318033574651 -0.25235753362265806 0.62188373556919541 -0.59506168176980978 -0.95847079207273644 -0.2089653133104829 19.194479835467476 0.62210507958354511 0.45027643774398107 0.056067665611370859 -0.15717997938797984
leaf_weight=112 35 56 49 86 175 217 44 55 40 64 37 38
leaf_count=112 35 56 49 86 175 217 44 55 40 64 37 38
internal_value=-0.00786807 0.00583779 0.00955204 0.00345967 -0.0216669 -0.0199225 -0.00629584 0.0146269 0.0121392 0.0142232 -0.000786666 -0.00938052
internal_weight=1008 504 387 172 504 392 117 215 160 120 86 82
internal_count=1008 504 387 172 504 392 117 215 160 120 86 82
cat_boundaries=0 1 2 3 4
cat_threshold=2 335749136 8706 4
is_linear=0
shrinkage=0.0293497


Tree=70
num_leaves=16
num_cat=1
split_feature=4 4 13 2 4 2 7 3 4 7 4 10 4 7 4
split_gain=262.672 23.1635 25.3818 23.9484 19.1136 13.0676 3.87945 2.58862 1.90373 2.28632 1.38243 0.686533 0.668387 0.608821 0.599829
threshold=254.61914464884231 564.01065308573266 0 -0.5 4045.6410113866414 -0.68301270189221952 88.738671274961618 2.5000000000000004 1372.7146778288031 77.901881720430126 425.90953680479186 1013.0015120967743 217.83497835225612 84.917261904761929 383.75398696069499
decision_type=2 2 9 2 2 2 2 2 2 2 2 2 2 2 2
left_child=12 2 7 -3 6 11 8 14 9 -5 -7 -4 -1 -11 -2
right_child=1 3 5 4 -6 10 -8 -9 -10 13 -12 -13 -14 -15 -16
leaf_value=-1.0290843419621802 -0.69047216159132763 10.525287084163015 0.40674782703773177 -0.040600878534979207 51.703762932818535 -0.31280256353747854 -0.29461240505887554 -0.20675373932858176 -0.33318529317701473 0.36277873775052882 0.073248509883160604 3.1501387398756391 -0.9485234925977396 0.081100898216624237 -0.26087187643212506
leaf_weight=360 32 80 48 44 32 38 43 32 47 37 56 37 32 41 49
leaf_count=360 32 80 48 44 32 38 43 32 47 37 56 37 32 41 49
internal_value=-0.00786807 0.00401503 -0.0018387 0.00943968 0.00460237 0.00485422 0.0011492 -0.0122114 0.00334763 0.00535357 -0.00196449 0.0135221 -0.0266553 0.00836078 -0.0163523
internal_weight=1008 616 292 324 244 179 212 113 169 122 94 85 392 78 81
internal_count=1008 616 292 324 244 179 212 113 169 122 94 85 392 78 81
cat_boundaries=0 1
cat_threshold=335552521
is_linear=0
shrinkage=0.0293497


Tree=71
num_leaves=13
num_cat=4
split_feature=16 14 13 2 1 1 10 16 6 2 8 10
split_gain=216.736 80.9503 25.8739 13.5805 8.04296 5.11702 2.95031 1.87967 1.82029 3.01357 1.71895 0.91507
threshold=0 1 2 -0.24999999999999997 1.0000000180025095e-35 0.68301270189221941 1011.5643884408604 3 19.270216173835131 -0.68301270189221952 3.6365663402457762 1016.692615740741
decision_type=1 1 9 2 2 2 2 1 2 2 2 2
left_child=1 -1 10 7 -3 11 -6 8 9 -4 -2 -5
right_child=2 4 3 5 6 -7 -8 -9 -10 -11 -12 -13
leaf_value=-1.0101728013115865 -0.17527866077638407 -0.68425475024040838 1.9348742423201619 -0.23729442990881947 -0.0088997803288379026 0.6013666148202268 0.5993780396074827 18.407398608137953 0.52907906455175546 0.43491116360264215 -0.17830125449602213 0.062078597580945409
leaf_weight=378 35 42 56 49 47 86 37 55 40 64 82 37
leaf_count=378 35 42 56 49 47 86 37 55 40 64 82 37
internal_value=-0.00769343 -0.0213177 0.00583779 0.00940431 -0.000537584 0.00311905 0.00428562 0.0146269 0.0121392 0.0142232 -0.00583485 -0.0014666
internal_weight=1008 504 504 387 126 172 84 215 160 120 117 86
internal_count=1008 504 504 387 126 172 84 215 160 120 117 86
cat_boundaries=0 1 2 3 4
cat_threshold=2 2 335749136 4
is_linear=0
shrinkage=0.0293497


Tree=72
num_leaves=14
num_cat=2
split_feature=4 4 13 16 4 2 2 7 1 8 4 4 2
split_gain=253.211 23.5126 14.3001 32.5584 12.4986 17.6179 7.45948 5.79432 3.4836 3.30572 2.73087 3.96315 1.33854
threshold=239.76853280280997 1795.5943992225059 0 1 383.75398696069499 -0.5 -0.24999999999999997 77.012186379928337 1.0000000180025095e-35 3.6365663402457762 647.38483981188426 512.03729766786489 0.25000000000000017
decision_type=2 2 9 1 2 2 2 2 2 2 2 2 2
left_child=-1 2 3 8 -4 9 -3 -5 -2 -6 11 -7 -10
right_child=1 6 4 7 5 10 -8 -9 12 -11 -12 -13 -14
leaf_value=-0.96469517808219996 0.19148185973771101 32.688687352240642 -0.29187820344427418 0.1085720103670208 1.1026150737004918 -0.23032992137051997 9.0517688625129384 -1.2212584048868032 1.7626929037699901 0.19178698726113283 -0.51668947045039515 0.10665441406652601 0.12614682320049309
leaf_weight=380 54 50 57 41 34 33 62 50 70 50 61 34 32
leaf_count=380 54 50 57 41 34 33 62 50 70 50 61 34 32
internal_value=-0.00780986 0.00356466 0.000813644 0.00585257 -0.00371048 -0.000319847 0.0157588 -0.00749207 0.0143272 0.00985411 -0.0073903 -0.00231636 0.0178724
internal_weight=1008 628 516 247 269 212 112 91 156 84 128 67 102
internal_count=1008 628 516 247 269 212 112 91 156 84 128 67 102
cat_boundaries=0 1 2
cat_threshold=537954346 4
is_linear=0
shrinkage=0.0293497


Tree=73
num_leaves=14
num_cat=5
split_feature=16 14 13 2 16 5 3 16 5 10 9 8 2
split_gain=211.213 75.4374 24.4662 13.5538 10.2513 7.40138 3.30917 2.58376 2.55788 2.66259 1.73181 4.43695 1.25157
threshold=0 1 2 -0.5 3 62.616579781106005 1.0000000180025095e-35 4 45.995880376344097 1016.9273611111113 0.031185195852534566 4.0768145161290326 1.0000000180025095e-35
decision_type=1 1 9 2 1 2 2 1 2 2 2 2 2
left_child=1 -1 4 6 10 12 -4 8 -5 -10 -2 -12 -3
right_child=2 5 3 7 -6 -7 -8 -9 9 -11 11 -13 -14
leaf_value=-0.95221111670826053 -0.25753656915680628 0.83294163721978975 0.55258980615816866 0.50286671465307164 4.2645701716623101 -0.66235719615236632 2.7772181386776582 24.534649141176118 -0.15946051673532588 0.076839082196797165 -0.27336928104156194 0.09921130404477238 0.039290381265080027
leaf_weight=378 56 42 72 56 45 42 72 40 38 46 47 32 42
leaf_count=378 56 42 72 56 45 42 72 40 38 46 47 32 42
internal_value=-0.00763522 -0.0210849 0.0057214 0.0103863 -0.00282407 -0.00100223 0.0175519 0.00493373 0.00257541 -0.000109262 -0.00722491 -0.00344584 0.00358956
internal_weight=1008 504 504 324 180 126 144 180 140 84 135 79 84
internal_count=1008 504 504 324 180 126 144 180 140 84 135 79 84
cat_boundaries=0 1 2 3 4 5
cat_threshold=2 2 335749121 4 4
is_linear=0
shrinkage=0.0293497


Tree=74
num_leaves=15
num_cat=2
split_feature=4 4 2 4 15 12 6 1 1 2 9 4 4 9
split_gain=239.485 20.2465 20.8803 19.5867 16.573 7.87294 6.87667 6.6346 4.79304 4.09368 3.10536 2.82591 2.27468 1.44476
threshold=254.61914464884231 564.01065308573266 -0.5 4045.6410113866414 0 1 13.307392473118282 1.0000000180025095e-35 0.68301270189221941 0.25000000000000017 0.050972222222222231 402.96277702985594 327.30303668184587 0.031185195852534566
decision_type=2 2 2 2 9 9 2 2 2 2 2 2 2 2
left_child=-1 4 -3 5 7 8 -6 12 -4 -7 -9 -8 -2 -10
right_child=1 2 3 -5 6 9 11 10 13 -11 -12 -13 -14 -15
leaf_value=-0.90994350760035225 -0.37889686651198634 9.4191252396721712 -0.028070973671715287 49.182876047615316 -0.11513356300348297 0.033150871603788462 0.1392743551220528 0.047179871974471592 0.57359991685084466 -0.76044426338003313 -0.3691493116632325 0.64698054456532217 -0.89632299273835536 1.6319903791818484
leaf_weight=392 32 80 38 32 51 57 32 57 33 48 33 54 33 36
leaf_count=392 32 80 38 32 51 57 32 57 33 48 33 54 33 36
internal_value=-0.00751879 0.00382455 0.00889672 0.00436213 -0.0016379 0.000872752 0.00544119 -0.00804417 0.00633214 -0.00440609 -0.00270131 0.0109857 -0.0158647 0.0115628
internal_weight=1008 616 324 244 292 212 137 155 107 105 90 86 65 69
internal_count=1008 616 324 244 292 212 137 155 107 105 90 86 65 69
cat_boundaries=0 1 2
cat_threshold=18 8514
is_linear=0
shrinkage=0.0293497


Tree=75
num_leaves=15
num_cat=1
split_feature=4 4 15 1 2 4 9 2 4 8 4 9 4 8
split_gain=226.126 20.6566 16.4387 21.1979 18.9865 8.53184 8.41733 5.20465 3.53916 4.57973 2.78231 1.6671 1.41543 0.676231
threshold=239.76853280280997 1795.5943992225059 0 1.0000000180025095e-35 -0.24999999999999997 484.23155979291442 0.025349462365591404 -0.24999999999999997 381.97031400509212 3.5893145161290332 635.87065526325944 0.031185195852534566 322.20657964877688 3.974307795698925
decision_type=2 2 9 2 2 2 2 2 2 2 2 2 2 2
left_child=-1 2 3 -2 8 -6 -5 -3 12 -10 -7 -12 -4 -11
right_child=1 7 4 6 5 10 -8 -9 9 13 11 -13 -14 -15
leaf_value=-0.88172812490356356 -1.0280638812230811 31.3942676021273 0.34387284382364985 0.41261851554225798 -0.40382108058616517 0.078419137715443066 -0.17169673177954431 8.0673201795898493 1.4676448036962502 0.057244270664089804 0.059572506596991946 -0.64253260687509606 -0.011188365439142079 0.56450682558966359
leaf_weight=380 43 50 34 39 46 37 45 62 54 34 52 32 32 68
leaf_count=380 43 50 34 39 46 37 45 62 54 34 52 32 32 68
internal_value=-0.00746057 0.0032844 0.000699958 -0.00797455 0.00377143 -0.00338765 0 0.0147136 0.00954609 0.0120743 0.00031784 -0.00219744 0.00279376 0.00754714
internal_weight=1008 628 516 127 389 167 84 112 222 156 121 84 66 102
internal_count=1008 628 516 127 389 167 84 112 222 156 121 84 66 102
cat_boundaries=0 1
cat_threshold=16
is_linear=0
shrinkage=0.0293497


Tree=76
num_leaves=14
num_cat=0
split_feature=4 4 7 4 4 10 4 7 7 4 10 6 4
split_gain=219.348 20.1877 20.3741 16.4449 12.351 5.49765 5.14433 3.74625 3.80982 2.84812 2.71899 1.24888 0.0489268
threshold=239.76853280280997 4045.6410113866414 72.042786738351268 617.94901390958364 425.90953680479186 1013.8610752688174 413.71359275661922 83.43915610599079 77.901881720430126 1113.6513602120187 1011.022244623656 -6.2402157738095232 710.9847990742885
decision_type=2 2 2 2 2 2 2 2 2 2 2 2 2
left_child=-1 2 3 5 -4 6 -2 8 12 11 -10 -9 -6
right_child=1 -3 4 -5 7 -7 -8 9 10 -11 -12 -13 -14
leaf_value=-0.85584971276928523 -0.1899359261110343 47.502602808176604 -0.55429752372680519 17.799773683956694 -0.099902425687453972 1.9322212841532311 0.44569265656504836 0.069729016819945214 0.67492358927956075 -0.36696788585688545 0.021397384805243464 -0.21928075627477331 -0.080806445730669821
leaf_weight=380 59 32 68 71 33 51 59 46 52 47 44 33 33
leaf_count=380 59 32 68 71 33 51 59 46 52 47 44 33 33
internal_value=-0.007577 0.00300414 0.00168883 0.00834263 -0.00266158 0.00300098 -7.78677e-05 0 0.00294959 -0.00379012 0.00679852 0 -0.00190881
internal_weight=1008 628 596 240 356 169 118 288 162 126 96 79 66
internal_count=1008 628 596 240 356 169 118 288 162 126 96 79 66
is_linear=0
shrinkage=0.0293497


Tree=77
num_leaves=13
num_cat=5
split_feature=16 14 12 15 7 7 16 9 9 7 1 3
split_gain=179.58 65.0946 13.4009 9.61081 8.63315 8.3806 6.06575 5.8174 2.72128 1.75225 1.38788 1.36924
threshold=0 1 2 3 72.042786738351268 77.012186379928337 4 0.030309139784946242 0.050972222222222231 81.380981182795708 0.25000000000000011 2.5000000000000004
decision_type=1 1 9 9 2 2 1 2 2 2 2 2
left_child=1 11 3 6 -4 -3 8 -5 10 -6 -2 -1
right_child=2 5 4 7 9 -7 -8 -9 -10 -11 -12 -13
leaf_value=-0.91719194039973806 0.020650920732416422 0.30825372012780977 1.9011050589903091 0.0097563244804867114 0.40398703451418017 -0.53524433899501611 7.211963941189623 -0.61403191010655622 0.15253706469703002 0.053082005514122156 -0.34093005251579367 -0.57099107041628139
leaf_weight=294 35 59 76 56 69 67 63 61 51 53 40 84
leaf_count=294 35 59 76 56 69 67 63 61 51 53 40 84
internal_value=-0.00728593 -0.0196883 0.00502306 0.00077138 0.0107511 -0.00100223 0.00490518 -0.00537385 0.00100223 0.00583341 -0.00207037 -0.0257798
internal_weight=1008 504 504 306 198 126 189 117 126 122 75 378
internal_count=1008 504 504 306 198 126 189 117 126 122 75 378
cat_boundaries=0 1 2 3 4 5
cat_threshold=2 2 11200 9 4
is_linear=0
shrinkage=0.0293497


Tree=78
num_leaves=16
num_cat=1
split_feature=4 4 7 4 2 4 6 16 4 10 4 4 9 7 4
split_gain=205.647 18.0286 12.6711 12.2911 10.6462 12.2271 6.84465 4.44389 3.57543 2.76154 1.89182 2.86647 2.22061 0.584127 0.00151642
