tree
version=v4
num_class=1
num_tree_per_iteration=1
label_index=0
max_feature_idx=16
objective=regression_l1
feature_names=year month_sin month_cos num_holidays consumption_lag_12m eur_per_mwh_lag_12m avg_temp_lag_12m avg_hum_lag_12m wind_lag_12m rain_lag_12m air_pressure_lag_12m m_area region municipality segment p_type c_bucket
feature_infos=[2022:2022] [-1:1] [-1:0.86602540378443871] [0:3] [96.83726634606866:7767.6395599049347] [36.833500000000001:89.301388888888894] [-12.473521505376343:21.38595430107527] [61.541666666666664:94.245967741935488] [0:5.6623655913978501] [0:0.19973118279569893] [1006.6245967741935:1019.3780505952382] -1:3:5:0:2:1:4 -1:13:9:6:8:1:3:4:5:11:2:7:14:0:12 -1:0:1:3:5:20:15:13:4:26:2:9:11:16:28:29:8:10:17:22:27:6:7:12:14:18:19:21:23:24 -1:1:0 -1:3:4:1:0 -1:1:2:0
tree_sizes=860 815 814 889 968 897 1440 971 980 970 1059 993 1057 988 1040 1203 978 1077 1236 1148 1149 1312 1247 1319 1244 1305 1311 1131 1480 1324 1212 1144 1224 1245 1294 1318 1470 1391 1394 1221 1494 1400 1414 1390 1497 1479 1300 1492 1477 1327 1420 1304 1429 1408 1246 1403 1405 1318 1336 1487 1466 1492 1408 1356 1421 1391 1451 1433 1499 1153 1595 1449 1492 1385 1335 1486 1493 1462 1593 1505 1404 1298 1414 1509 1621 1502 1657 1584 1578 1741 1742 1083 1683 1000 1167 1717 1632 1518 1532 1530 1562 1681 1892 1805 1708 1547 1718 1164 1742 1545 1892 1634 1908 1717 1918 1623 1671 1670 1729 1815 1606 1810 1993 1894 2138 1725 1987 2072 2143 2133 1932 1977 1944 2061 1968 1952 2056 1591 1768 2052 1977 2081 2043 1904 2049 2055 1432 1967 2139 2088 1941 1871 2085 1896 1909 2217 1860 1951 2037 2087 2162 1888 2104 1873 1803 1929 2259 2027 1693 2159 1751 2277 2079 1961 1827 1831 1904 1846 2038 2264 2040 2001 2137 1924 1705 2067 1756 1991 2053 1896 2202 2120 1925 1889 1986 2050 2185 1640 1923 2060 1992 1846 2062 1896 2101 2209 2028 1903 1900 2257 2153 1720 1983 1903 2209 2056 1817 1988 1952 1972 1985 2075 1908 2158 2141 1987 1784 2062 1996 2238 2246 1992 1623 1933 2037 1866 1857 2131 2141 1950 2002 1893 1923 1859 2100 1851 1928 1805 1891 2006 2151 2100 1704 2174 2091 2116 2079 1725 2082 2023 2230 2103 2061 1997 2155 2029 1765 1778 2068 2161 1926 2171 2276 2177 1837 1902 1801 2175 1926 1999 2187 2093 1976 2081 2025 2088 1870 1839 1968 2068 1984 1881 2067 2149 2092 2014 2099 1991 2202 1848 2008 2184 1898 1994 1870 2259 2089 2083 1715 2052 1976 1811 1762 1980 1982 2005 2163 1967 2151 2080 2173 2166 2158 2073 1749 2083 1659 1734 1929 2190 1699 1820 1916 2162 1887 1985 2189 2003 1777 2266 2107 2019 2100 2198 2110 2344 2270 2300 2061 2148 2014 2130 1927 2000 1930 1981 1941 1987 2144 2259 1703 2101 2338 2061 1965 1971 1931 2092 1754 1761 2020 1689 2099 2274 2104 2078 1910 1780 2254 2166 2260 1986 2128 1749 2078 2200 1914 2181 1830 1979 2086 1866 1989 2032 2018 1673 2103 2000 2176 1994 1910 2056 2074 1809 2196 1995 1731 2095 2194 2183 1849 2078 2193 2093 2014 2017 2150 2015 1834 2080 2081 2111 2186 2083 2188 2055 2094 2169 2183 1812 2170 2174 2253 1892 2069 2106 1876 2148 2097 1630 1831 2261 2072 2227 1936 2185 2093 2005 1932 2098 2017 2203 2076 2077 2069 2106 2245 2121 2023 2108 2193 1894 2199 2235 2094 2112 2085 2190 2022 1919 2032 2108 1937 2092 2281 2080 2079 2171 2108 1991 2049 2106 2086 2203 2026 1966 2343 1992 2066 2113 2014 2082 2163 2181 2089 1958 2002 2011 1994 1719 2097

Tree=0
num_leaves=9
num_cat=3
split_feature=16 14 2 15 1 9 1 2
split_gain=543.819 102.546 37.1984 27.046 46.2556 4.33683 4.24296 1.9133
threshold=0 1 1.0000000180025095e-35 2 0.25000000000000011 0.032385912698412705 1.0000000180025095e-35 1.0000000180025095e-35
decision_type=1 1 2 9 2 2 2 2
left_child=1 -1 6 4 -2 -6 -3 -5
right_child=3 2 -4 7 5 -7 -8 -9
leaf_value=359.38729993228532 370.87721152670019 369.98494964408781 363.29228801350342 378.7555675018578 364.48694005621962 366.19197175174753 366.57714202373222 367.13506751889696
leaf_weight=378 60 42 42 246 40 35 42 123
leaf_count=378 60 42 42 246 40 35 42 123
internal_value=365.981 365.96 365.982 366.003 365.989 365.974 365.994 366.007
internal_weight=1008 504 126 504 135 75 84 369
internal_count=1008 504 126 504 135 75 84 369
cat_boundaries=0 1 2 3
cat_threshold=2 2 3
is_linear=0
shrinkage=1


Tree=1
num_leaves=8
num_cat=0
split_feature=4 6 4 6 4 6 4
split_gain=589.604 66.3988 127.97 19.4953 5.59487 10.8781 4.63557
threshold=248.69965931440211 5.1174171146953418 718.94206112883444 1.0000000180025095e-35 375.51280830965146 14.875739247311829 1113.6513602120187
decision_type=2 2 2 2 2 2 2
left_child=-1 2 3 -2 5 -3 -4
right_child=1 4 6 -5 -6 -7 -8
leaf_value=-6.3877584552017304 -2.0922043070655381 0.56180129183216765 0.42518488330906928 -0.16234968511292158 12.378055196667162 3.7408364669653209 19.595533093182528
leaf_weight=384 67 33 62 53 245 63 101
leaf_count=384 67 33 62 53 245 63 101
internal_value=-0.000241995 0.0173144 0.00655856 -0.0161745 0.0260807 0.0183762 0.0235964
internal_weight=1008 624 283 120 341 96 163
internal_count=1008 624 283 120 341 96 163
is_linear=0
shrinkage=0.0293497


Tree=2
num_leaves=8
num_cat=0
split_feature=4 6 4 6 4 4 6
split_gain=571.485 72.6675 111.502 18.0833 8.30645 5.21943 10.8781
threshold=248.69965931440211 5.1174171146953418 718.94206112883444 1.0000000180025095e-35 1208.1636846254667 375.51280830965146 14.875739247311829
decision_type=2 2 2 2 2 2 2
left_child=-1 2 3 -2 -4 6 -3
right_child=1 5 4 -5 -6 -7 -8
leaf_value=-6.2002799782777789 -2.0307988422764054 0.54531262037327166 0.30620230894317463 -0.15758477862694301 23.912738081236917 12.014763605128973 3.6310442247935577
leaf_weight=384 67 33 81 53 82 245 63
leaf_count=384 67 33 81 53 82 245 63
internal_value=-0.000533067 0.0167502 0.00552268 -0.0156867 0.0214401 0.0259088 0.0183762
internal_weight=1008 624 283 120 163 341 96
internal_count=1008 624 283 120 163 341 96
is_linear=0
shrinkage=0.0293497


Tree=3
num_leaves=9
num_cat=0
split_feature=4 6 4 6 4 4 6 6
split_gain=552.797 76.6221 96.157 16.7236 9.71976 5.51511 7.53501 5.16567
threshold=248.69965931440211 5.1174171146953418 718.94206112883444 1.0000000180025095e-35 1537.1923440399812 368.16476071192187 14.875739247311829 -7.4445732526881709
decision_type=2 2 2 2 2 2 2 2
left_child=-1 2 3 -2 7 6 -3 -4
right_child=1 5 4 -5 -6 -7 -8 -9
leaf_value=-6.018303929092168 -1.9711956064059468 0.53992068359173506 0.058654527377996486 -0.15295972048008777 34.40189456394743 11.07764939325552 2.7976379237287499 0.42155821518436426
leaf_weight=384 67 32 33 53 67 254 55 63
leaf_count=384 67 32 33 53 67 254 55 63
internal_value=-0.000998782 0.0159981 0.0044868 -0.0151989 0.0192837 0.0253929 0.0172453 0.0122827
internal_weight=1008 624 283 120 163 341 87 96
internal_count=1008 624 283 120 163 341 87 96
is_linear=0
shrinkage=0.0293497


Tree=4
num_leaves=10
num_cat=0
split_feature=4 6 4 4 6 6 4 6 4
split_gain=552.797 76.6221 93.0431 16.5053 10.122 7.29771 5.51511 7.53501 4.33369
threshold=248.69965931440211 5.1174171146953418 635.87065526325944 1537.1923440399812 -3.5825268817204297 1.7836111111111115 368.16476071192187 14.875739247311829 961.29014905538259
decision_type=2 2 2 2 2 2 2 2 2
left_child=-1 2 5 4 8 -2 7 -3 -4
right_child=1 6 3 -5 -6 -7 -8 -9 -10
leaf_value=-5.8416688133149233 -1.9133417046656214 0.52407420033326313 -0.71380886440615654 33.392210988499279 0.66032246944801798 -0.63432103365880366 10.752524257308361 2.715528228973739 0.23558581140864454
leaf_weight=384 61 32 32 67 52 32 254 55 39
leaf_count=384 61 32 32 67 52 32 254 55 39
internal_value=-0.000998782 0.0159981 0.0044868 0.016394 0.00935574 -0.0192813 0.0253929 0.0172453 0.00136355
internal_weight=1008 624 283 190 123 93 341 87 71
internal_count=1008 624 283 190 123 93 341 87 71
is_linear=0
shrinkage=0.0293497


Tree=5
num_leaves=9
num_cat=3
split_feature=16 14 6 1 16 6 6 1
split_gain=492.354 102.546 36.5053 36.3286 24.5484 6.14894 1.88893 1.65727
threshold=0 1 3.9193055555555563 0.25000000000000011 2 1.0000000180025095e-35 -6.2402157738095232 0.25000000000000011
decision_type=1 1 2 2 1 2 2 2
left_child=1 -1 4 -3 6 -5 -2 -4
right_child=2 3 7 5 -6 -7 -8 -9
leaf_value=-5.6828319652464936 -0.0061938777584715906 3.3562208763225492 9.772050203447785 -2.3925789198031087 34.681933818116775 -0.75853262791209386 0.18704471266754868 2.6756381939420022
leaf_weight=378 54 56 224 36 47 34 102 77
leaf_count=378 54 56 224 36 47 34 102 77
internal_value=-0.000998782 -0.0215505 0.0194555 0.00100223 0.0094277 -0.0126503 0.00343827 0.0260364
internal_weight=1008 504 504 126 203 70 156 301
internal_count=1008 504 504 126 203 70 156 301
cat_boundaries=0 1 2 3
cat_threshold=2 2 4
is_linear=0
shrinkage=0.0293497


Tree=6
num_leaves=16
num_cat=7
split_feature=15 6 1 13 13 14 13 15 14 10 9 9 9 6 6
split_gain=61.2399 25.2132 23.3642 15.492 15.272 5.86554 4.96036 3.55599 3.07731 1.43397 1.30143 0.979543 0.197559 0.0906017 0.00519927
threshold=0 6.8523611111111116 0.25000000000000011 1 2 3 4 5 6 1013.2194220430109 0.026760752688172049 0.050972222222222231 0.03590277777777779 15.592930107526882 -3.4396505376344084
decision_type=9 2 2 9 9 1 9 9 1 2 2 2 2 2 2
left_child=2 4 9 13 -2 7 8 -5 12 -1 14 -12 -6 -3 -8
right_child=1 3 -4 5 6 -7 10 -9 -10 -11 11 -13 -14 -15 -16
leaf_value=-1.8302129965576479 -2.92739364263256 -5.0777701436313718 -4.9254062008580615 10.38723427483842 0.80059023165732623 3.2641609387716732 -0.31981696249085395 1.303842635869561 -0.22099674537265168 -4.5114355544745388 -5.4245408120978889 -0.53054086168367764 7.2281582067653414 -4.7294206148107385 0.23134263056512783
leaf_weight=32 104 54 95 152 35 75 42 125 36 44 40 52 37 51 34
leaf_count=32 104 54 95 152 35 75 42 125 36 44 40 52 37 51 34
internal_value=-0.00123164 0.0020545 -0.0167221 0.00675863 -0.00341965 0.00958371 0.000237185 0.00754709 0.00503848 -0.00473479 -0.00268495 -0.0051858 0.00905433 -0.0028792 0
internal_weight=1008 837 171 457 380 352 276 277 108 76 168 92 72 105 76
internal_count=1008 837 171 457 380 352 276 277 108 76 168 92 72 105 76
cat_boundaries=0 1 2 3 4 5 6 7
cat_threshold=2 608184080 873463832 2 2051 8 2
is_linear=0
shrinkage=0.0293497


Tree=7
num_leaves=10
num_cat=0
split_feature=4 1 4 2 4 4 7 4 4
split_gain=548.174 69.0884 74.0395 39.8264 30.093 10.8573 1.13078 1.05764 0.884426
threshold=248.69965931440211 0.25000000000000011 718.94206112883444 1.0000000180025095e-35 460.07038397305661 1537.1923440399812 79.743951612903246 586.89386005087238 327.30303668184587
decision_type=2 2 2 2 2 2 2 2 2
left_child=-1 8 3 4 -3 6 -4 -5 -2
right_child=1 2 5 7 -6 -7 -8 -9 -10
leaf_value=-5.4277406536320232 2.0812494284647629 -0.83506887881415715 0.77709318831670238 -1.7335799122101523 2.0612684356866748 35.642241460731888 0.16964693796149363 -1.0304662625892844 9.870586299913624
leaf_weight=384 52 37 33 45 56 82 65 34 220
leaf_count=384 52 37 33 45 56 82 65 34 220
internal_value=-0.00111521 0.01581 0.00702347 -0.00652525 0.00607364 0.0202327 0.0126298 -0.0219441 0.0269769
internal_weight=1008 624 352 172 93 180 98 79 272
internal_count=1008 624 352 172 93 180 98 79 272
is_linear=0
shrinkage=0.0293497


Tree=8
num_leaves=10
num_cat=2
split_feature=4 6 4 14 6 4 4 6 16
split_gain=548.174 63.2865 90.0996 17.0193 8.56687 5.44212 4.60546 2.07274 0.0921366
threshold=248.69965931440211 5.1174171146953418 629.40623862749214 0 1.0000000180025095e-35 338.72290602387687 1537.1923440399812 -3.6789650537634402 1
decision_type=2 2 2 1 2 2 2 2 1
left_child=-1 2 4 6 -2 -3 7 -4 -7
right_child=1 5 3 -5 -6 8 -8 -9 -10
leaf_value=-5.2684383634753713 -1.6922768391876377 1.6498741965858195 0.2328790785581811 -0.47415669484456641 -0.84199923932764553 2.8786607004080058 27.233946726818893 0.4413968988709111 9.8291666465330945
leaf_weight=384 46 63 53 33 43 35 59 49 243
leaf_count=384 46 63 53 33 43 35 59 49 243
internal_value=-0.00111521 0.01581 0.00531551 0.0166606 -0.0188305 0.024361 0.0206143 0.0155779 0.0263953
internal_weight=1008 624 283 194 89 341 161 102 278
internal_count=1008 624 283 194 89 341 161 102 278
cat_boundaries=0 1 2
cat_threshold=2 2
is_linear=0
shrinkage=0.0293497


Tree=9
num_leaves=10
num_cat=0
split_feature=4 2 4 5 4 4 4 4 4
split_gain=541.276 51.2036 76.4449 15.627 48.9461 10.3988 5.0546 2.59554 1.0813
threshold=248.69965931440211 1.0000000180025095e-35 718.94206112883444 53.711622311827966 460.07038397305661 1991.1135261607376 564.01065308573266 602.23161732041399 327.30303668184587
decision_type=2 2 2 2 2 2 2 2 2
left_child=-1 3 6 4 -2 -4 -3 -6 -5
right_child=1 2 5 8 7 -7 -8 -9 -10
leaf_value=-5.1138115398283768 -0.88905371181025128 -1.6457200367295897 0.25195858685609918 1.9717422548067116 0.60679847357970218 30.529062897466297 -0.72029395082622449 16.34709126423083 9.2924054397449964
leaf_weight=384 37 37 84 52 39 51 42 62 220
leaf_count=384 37 37 84 52 39 51 42 62 220
internal_value=-0.00128985 0.015528 0.00360333 0.0216236 0.0127968 0.0172011 -0.0189844 0.0235519 0.0258991
internal_weight=1008 624 214 410 138 135 79 101 272
internal_count=1008 624 214 410 138 135 79 101 272
is_linear=0
shrinkage=0.0293497


Tree=10
num_leaves=11
num_cat=0
split_feature=4 1 4 6 4 4 6 10 4 4
split_gain=528.444 56.3532 68.6499 30.9686 31.9748 11.912 2.89009 2.67218 1.33347 0.768653
threshold=248.69965931440211 0.25000000000000011 718.94206112883444 1.0000000180025095e-35 460.07038397305661 1537.1923440399812 -7.4445732526881709 1016.9273611111113 581.6473146573295 304.07105627753566
decision_type=2 2 2 2 2 2 2 2 2 2
left_child=-1 7 3 8 -5 6 -4 9 -3 -2
right_child=1 2 5 4 -6 -7 -8 -9 -10 -11
leaf_value=-4.9637229593839436 1.7024791742709804 -1.5943077981440992 0.068242487985029993 -0.88781446438017464 0.84446123000545215 33.328697240893746 0.36402287366330011 5.4458242515901834 -1.1681652630183468 8.7908764833308286
leaf_weight=384 34 34 33 40 65 82 65 47 33 191
leaf_count=384 34 34 33 40 65 82 65 47 33 191
internal_value=-0.0014645 0.0151519 0.00719007 -0.00584401 0.00370983 0.0199071 0.0120329 0.0252525 -0.0214961 0.0270029
internal_weight=1008 624 352 172 105 180 98 272 67 225
internal_count=1008 624 352 172 105 180 98 272 67 225
is_linear=0
shrinkage=0.0293497


Tree=11
num_leaves=10
num_cat=1
split_feature=4 1 4 4 14 6 10 4 4
split_gain=521.672 54.6975 67.8122 31.6416 25.975 9.27575 2.80302 7.99732 0.418452
threshold=248.69965931440211 0.25000000000000011 460.07038397305661 1537.1923440399812 0 -3.6789650537634402 1014.7273958333334 469.78312480674344 370.56905669001179
decision_type=2 2 2 2 1 2 2 2 2
left_child=-1 6 -3 4 5 -4 -2 8 -8
right_child=1 2 3 -5 -6 -7 7 -9 -10
leaf_value=-4.8180394262910573 8.3448855452613611 -1.3150159103754389 0.069663773036655996 32.350511631590685 -1.8468510387585306 0.49305433403469734 0.66647449792332125 23.370533804757056 3.9421017976596686
leaf_weight=384 148 61 64 82 49 96 32 59 33
leaf_count=384 148 61 64 82 49 96 32 59 33
internal_value=-0.00163914 0.0148698 0.00702347 0.0130275 0.00663375 0.0125053 0.0248214 0.0199032 0.0113722
internal_weight=1008 624 352 291 209 160 272 124 65
internal_count=1008 624 352 291 209 160 272 124 65
cat_boundaries=0 1
cat_threshold=2
is_linear=0
shrinkage=0.0293497


Tree=12
num_leaves=11
num_cat=0
split_feature=4 6 4 4 4 6 6 6 4 4
split_gain=514.944 51.351 81.7931 18.4156 10.2505 12.4313 8.32932 6.07224 3.93218 0.0721663
threshold=248.69965931440211 5.1174171146953418 617.94901390958364 1537.1923440399812 381.97031400509212 14.301478494623657 -3.6789650537634402 1.0000000180025095e-35 865.33312693746313 484.23155979291442
decision_type=2 2 2 2 2 2 2 2 2 2
left_child=-1 2 7 6 5 -3 8 -2 -4 -6
right_child=1 4 3 -5 9 -7 -8 -9 -10 -11
leaf_value=-4.6766316539503485 -1.5163991770598648 -0.29192672511157713 -0.58282803833013597 27.991731296136479 4.2289161471303718 2.395374823771657 0.3143620276396531 -0.7712387205258675 0.26103292244257681 37.858033537183225
leaf_weight=384 44 32 32 67 97 71 60 42 38 141
leaf_count=384 44 32 32 67 97 71 60 42 38 141
internal_value=-0.00181378 0.0145878 0.00510833 0.0156637 0.0222974 0.0134389 0.00862805 -0.018465 0.000965629 0.0258995
internal_weight=1008 624 283 197 341 103 130 86 70 238
internal_count=1008 624 283 197 341 103 130 86 70 238
is_linear=0
shrinkage=0.0293497


Tree=13
num_leaves=10
num_cat=1
split_feature=4 1 4 16 6 4 4 6 10
split_gain=503.828 53.5565 78.2192 44.1006 14.0252 9.24472 3.28822 2.26522 1.119
threshold=248.69965931440211 0.25000000000000011 534.46341720090197 0 4.839930555555557 1537.1923440399812 318.49601606039852 2.9213888888888895 1016.9273611111113
decision_type=2 2 2 1 2 2 2 2 2
left_child=-1 6 4 -4 -3 7 -2 -5 -8
right_child=1 2 3 5 -6 -7 8 -9 -10
leaf_value=-4.5393741502789364 1.1783909656885498 -1.4339015937171233 -1.8375657688549281 0.190785099631296 -0.32758308514593149 30.579487902749939 8.3521478542281429 1.2287925880193218 4.3678128087600463
leaf_weight=384 45 50 41 100 44 82 184 35 43
leaf_count=384 45 50 41 100 44 82 184 35 43
internal_value=-0.00210485 0.0141177 0.00635706 0.0148053 -0.0162767 0.0201643 0.0239592 0.0145986 0.0257325
internal_weight=1008 624 352 258 94 217 272 135 227
internal_count=1008 624 352 258 94 217 272 135 227
cat_boundaries=0 1
cat_threshold=2
is_linear=0
shrinkage=0.0293497


Tree=14
num_leaves=11
num_cat=4
split_feature=16 14 6 15 1 6 1 16 6 6
split_gain=446.149 93.5156 28.4448 25.7859 24.7603 7.79702 5.16547 9.02796 3.57405 0.779787
threshold=0 1 13.307392473118282 2 1.0000000180025095e-35 2.9213888888888895 0.25000000000000011 3 4.839930555555557 -4.1538642473118275
decision_type=1 1 2 9 2 2 2 1 2 2
left_child=1 -1 5 6 -5 -3 -2 -8 9 -6
right_child=3 2 -4 4 8 -7 7 -9 -10 -11
leaf_value=-4.4308417343343169 9.952807344530596 -1.9384591874240422 2.7254182584536921 3.7836862752087663 -0.71967988074953138 -0.21858657555603608 0.27619144764665732 31.379955419369907 0.4302899967330393 -0.018152810443456319
leaf_weight=378 148 46 42 57 32 38 125 60 45 37
leaf_count=378 148 46 42 57 32 38 125 60 45 37
internal_value=-0.00233771 -0.0218997 0 0.0171277 0.00603952 -0.00985411 0.0218255 0.0182615 -0.00110743 -0.00563616
internal_weight=1008 504 126 504 171 84 333 185 114 69
internal_count=1008 504 126 504 171 84 333 185 114 69
cat_boundaries=0 1 2 3 4
cat_threshold=2 2 9 4
is_linear=0
shrinkage=0.0293497


Tree=15
num_leaves=13
num_cat=0
split_feature=4 6 4 4 4 6 6 6 4 7 4 4
split_gain=489.082 43.9272 75.1372 20.2738 12.6684 28.047 9.19788 5.80783 5.65656 2.67531 2.59316 0.403138
threshold=252.5519536762809 5.1174171146953418 617.94901390958364 2075.1129950200425 526.59669550579099 11.456080869175628 -3.6789650537634402 1.0000000180025095e-35 304.07105627753566 71.631675627240156 865.33312693746313 215.06016458080848
decision_type=2 2 2 2 2 2 2 2 2 2 2 2
left_child=11 2 7 6 5 9 10 -2 -7 -3 -4 -1
right_child=1 4 3 -5 -6 8 -8 -9 -10 -11 -12 -13
leaf_value=-4.2683200529542527 -1.405277934773868 -0.36104904843404312 -0.57942783757987981 26.297544909451023 52.550912669647417 1.1916538879476812 0.30991732885260542 -0.67780568445395373 4.6287089776940293 0.3427100350749378 0.21124687292838573 -4.3780097003968415
leaf_weight=356 42 34 32 65 121 32 61 42 117 35 39 32
leaf_count=356 42 34 32 65 121 32 61 42 117 35 39 32
internal_value=-0.00257057 0.0135463 0.00472735 0.0147713 0.0206989 0.0159046 0.00761049 -0.0182068 0.023057 0 0 -0.0284414
internal_weight=1008 620 281 197 339 218 132 84 149 69 71 388
internal_count=1008 620 281 197 339 218 132 84 149 69 71 388
is_linear=0
shrinkage=0.0293497


Tree=16
num_leaves=10
num_cat=0
split_feature=4 1 4 4 4 6 4 6 4
split_gain=458.475 61.6318 87.8656 12.7596 9.93846 9.5772 5.19643 3.08666 0.510513
threshold=248.69965931440211 0.25000000000000011 718.94206112883444 1537.1923440399812 460.07038397305661 1.0000000180025095e-35 318.49601606039852 -7.4445732526881709 488.94792183815372
decision_type=2 2 2 2 2 2 2 2 2
left_child=-1 6 4 7 -3 -6 -2 -4 -8
right_child=1 2 3 -5 5 -7 8 -9 -10
leaf_value=-4.1522405150098631 0.99778110895611749 -1.148229039343633 0.084601192611523018 28.445618458697954 -1.3836916256903549 0.074414243739678837 3.6438252554495989 0.32855732342368033 54.365818275624775
leaf_weight=384 45 61 33 82 46 65 131 65 96
leaf_count=384 45 61 33 82 46 65 131 65 96
internal_value=-0.00332735 0.0121433 0.00385802 0.0182796 -0.0109533 -0.00509165 0.022666 0.010242 0.0246997
internal_weight=1008 624 352 180 172 111 272 98 227
internal_count=1008 624 352 180 172 111 272 98 227
is_linear=0
shrinkage=0.0293497


Tree=17
num_leaves=11
num_cat=1
split_feature=4 1 4 16 4 10 4 2 10 10
split_gain=445.912 55.7383 84.2129 13.3926 9.0294 6.7484 16.9646 5.38523 5.09218 4.25323
threshold=248.69965931440211 0.25000000000000011 702.04954948071293 0 460.07038397305661 1014.9509722222223 501.12651311311168 0.25000000000000017 1009.8378360215055 1012.3067540322583
decision_type=2 2 2 1 2 2 2 2 2 2
left_child=-1 5 4 -4 -3 -2 -7 8 -6 -5
right_child=1 2 3 9 7 6 -8 -9 -10 -11
leaf_value=-4.0303737078919362 6.5671556389133317 -1.1145289185632838 28.510854117284335 0.536169431685246 -0.41161650654755855 0.40462366075275646 34.759711908584116 -1.6070989256893318 0.182303098861199 0.090687508490588653
leaf_weight=384 158 61 65 75 32 65 49 33 38 48
leaf_count=384 158 61 65 75 32 65 49 33 38 48
internal_value=-0.00367664 0.0115792 0.00369141 0.0171914 -0.0114865 0.0215882 0.0149697 -0.00548585 -0.000131012 0.0107836
internal_weight=1008 624 352 188 164 272 114 103 70 123
internal_count=1008 624 352 188 164 272 114 103 70 123
cat_boundaries=0 1
cat_threshold=1
is_linear=0
shrinkage=0.0293497


Tree=18
num_leaves=13
num_cat=1
split_feature=4 16 5 4 7 10 4 5 10 7 8 4
split_gain=421.334 55.6943 35.3617 25.6887 24.9591 16.1501 9.32189 8.00768 6.26068 5.29902 2.52756 0.403138
threshold=252.5519536762809 0 62.616579781106005 718.94206112883444 67.32187500000002 1016.9273611111113 460.07038397305661 45.995880376344097 1010.1748207885306 78.790994623655919 4.018864087301588 215.06016458080848
decision_type=2 1 2 2 2 2 2 2 2 2 2 2
left_child=11 -2 3 4 -3 -4 -6 8 -8 -5 -11 -1
right_child=1 2 5 9 6 -7 7 -9 -10 10 -12 -13
leaf_value=-3.9028894859269645 43.637077495647048 1.6358257644848107 3.9028076236079778 1.1105035720785179 -1.0816420079100386 0.028962134848901359 -0.39953570601862559 -1.4414030516709626 0.30911321572261746 0.035992888040251289 0.48869887262865186 -4.0093597805745036
leaf_weight=356 117 49 126 37 59 39 40 36 35 42 40 32
leaf_count=356 117 49 126 37 59 39 40 36 35 42 40 32
internal_value=-0.00443343 0.0105183 0.00614095 0.000547725 -0.00526078 0.0172752 -0.0107373 -0.00509165 0 0.011637 0.00652864 -0.0284414
internal_weight=1008 620 503 338 219 165 170 111 75 119 82 388
internal_count=1008 620 503 338 219 165 170 111 75 119 82 388
cat_boundaries=0 1
cat_threshold=1
is_linear=0
shrinkage=0.0293497


Tree=19
num_leaves=12
num_cat=2
split_feature=4 16 6 4 16 6 4 7 6 4 4
split_gain=417.268 56.8934 57.5691 37.6322 19.769 16.6775 7.63306 3.34143 2.44709 2.20622 0.403138
threshold=252.5519536762809 0 11.456080869175628 545.32881348854892 1 4.839930555555557 307.63851067728132 71.631675627240156 9.4959318996415778 961.29014905538259 215.06016458080848
decision_type=2 1 2 2 1 2 2 2 2 2 2
left_child=10 -2 3 5 -5 -3 -4 -6 -7 -9 -1
right_child=1 2 6 4 7 8 -8 9 -10 -11 -12
leaf_value=-3.7883410443170225 42.356344530606023 -1.2143473833946823 0.74542125154107075 -1.5176264586849231 0.19319485211910331 0.036914464837994841 4.7793018431444469 0.3129171119938754 -0.43799744005614577 0.2692256450002064 -3.8916864730482681
leaf_weight=356 117 49 35 41 33 41 127 74 41 62 32
leaf_count=356 117 49 35 41 33 41 127 74 41 62 32
internal_value=-0.00454986 0.0103291 0.0059077 -0.000800868 0.00674175 -0.0132554 0.0203065 0.0113207 -0.00438973 0.0134151 -0.0284414
internal_weight=1008 620 503 341 210 131 162 169 82 136 388
internal_count=1008 620 503 341 210 131 162 169 82 136 388
cat_boundaries=0 1 2
cat_threshold=1 2
is_linear=0
shrinkage=0.0293497


Tree=20
num_leaves=12
num_cat=2
split_feature=4 16 6 4 16 6 10 4 6 2 4
split_gain=406.032 56.4946 53.8579 38.9211 19.769 17.2572 8.30982 5.97654 2.44709 1.86515 0.606904
threshold=248.69965931440211 0 11.456080869175628 545.32881348854892 1 4.839930555555557 1009.9737231182797 419.86225585903509 9.4959318996415778 -0.9330127018922193 1135.9860450634139
decision_type=2 1 2 2 1 2 2 2 2 2 2
left_child=-1 -2 3 5 -5 -3 -6 9 -7 -4 -8
right_child=1 2 7 4 6 8 10 -9 -10 -11 -12
leaf_value=-3.6815607986403376 41.113200630229251 -1.2041672145476532 0.69731831927277543 -1.4730846528215467 0.012912382915499504 0.035831038203624571 0.31893161925672719 8.5112084798536571 -0.4251423683538883 2.4917079257876797 0.40148448704111594
leaf_weight=384 117 51 42 41 42 41 84 55 41 67 43
leaf_count=384 117 51 42 41 42 41 84 55 41 67 43
internal_value=-0.00466628 0.00988681 0.00551402 -0.000967173 0.00674175 -0.0134968 0.0113207 0.019345 -0.00438973 0.014312 0.0150548
internal_weight=1008 624 507 343 210 133 169 164 82 109 127
internal_count=1008 624 507 343 210 133 169 164 82 109 127
cat_boundaries=0 1 2
cat_threshold=1 2
is_linear=0
shrinkage=0.0293497


Tree=21
num_leaves=14
num_cat=2
split_feature=4 16 6 4 16 6 10 4 5 6 8 4 4
split_gain=398.018 46.5947 51.8322 37.6322 19.769 16.6775 8.30982 6.27609 2.93443 2.44709 1.09122 0.302923 0.214915
threshold=252.5519536762809 0 11.456080869175628 545.32881348854892 1 4.839930555555557 1009.9737231182797 419.86225585903509 73.463790322580664 9.4959318996415778 3.6071308563748086 215.06016458080848 364.73981146994805
decision_type=2 1 2 2 1 2 2 2 2 2 2 2 2
left_child=11 -2 3 5 -5 -3 -6 8 12 -7 -8 -1 -4
right_child=1 2 7 4 6 9 10 -9 -10 -11 -12 -13 -14
leaf_value=-3.5691020373773275 39.906542568613354 -1.1433648256758089 0.65062719124543322 -1.4298501333844282 0.01253340899226307 0.034779409762108915 0.21642590148114732 8.2614074872557328 3.1958448830324215 -0.41266458851080107 0.3897010577416305 -3.6694143139141895 1.5170526631078964
leaf_weight=356 117 49 35 41 42 41 38 55 38 41 89 32 34
leaf_count=356 117 49 35 41 42 41 38 55 38 41 89 32 34
internal_value=-0.00495736 0.00957206 0.00555784 -0.000800868 0.00674175 -0.0132554 0.0113207 0.0192217 0.0140318 -0.00438973 0.0150548 -0.0282903 0.00902279
internal_weight=1008 620 503 341 210 131 169 162 107 82 127 388 69
internal_count=1008 620 503 341 210 131 169 162 107 82 127 388 69
cat_boundaries=0 1 2
cat_threshold=1 2
is_linear=0
shrinkage=0.0293497


Tree=22
num_leaves=13
num_cat=1
split_feature=4 6 4 15 2 4 4 6 5 4 9 4
split_gain=394.219 49.5085 64.9739 19.8584 15.4512 14.5248 9.60867 5.11796 2.53681 2.40686 2.07622 0.721551
threshold=248.69965931440211 11.456080869175628 702.04954948071293 0 1.0000000180025095e-35 3222.7144839144198 419.86225585903509 1.7836111111111115 73.463790322580664 1135.9860450634139 0.050972222222222231 534.46341720090197
decision_type=2 2 2 9 2 2 2 2 2 2 2 2
left_child=-1 2 3 7 -4 9 8 -2 -3 -6 11 -5
right_child=1 6 4 10 5 -7 -8 -9 -10 -11 -12 -13
leaf_value=-3.468756379888601 -1.1622961216576888 1.0576639795257701 33.170182075190134 -0.75292968422931394 0.21854210642061922 22.568865176709494 29.00390534213571 -0.43236289748641832 3.1020479532709002 -0.078714371148190451 0.27614957345227825 0.15022840248201291
leaf_weight=384 49 71 65 32 63 42 94 66 38 35 33 36
leaf_count=384 49 71 65 32 63 42 94 66 38 35 33 36
internal_value=-0.00501557 0.00932269 0.00343518 -0.00764013 0.0153393 0.00926809 0.0212639 -0.0152951 0.014312 0.00248154 0.00192814 -0.000134846
internal_weight=1008 624 421 216 205 140 203 115 109 98 101 68
internal_count=1008 624 421 216 205 140 203 115 109 98 101 68
cat_boundaries=0 1
cat_threshold=18
is_linear=0
shrinkage=0.0293497


Tree=23
num_leaves=14
num_cat=1
split_feature=4 6 4 16 6 4 4 5 6 5 6 6 10
split_gain=374.922 55.2506 56.7191 24.9218 17.2572 10.0747 8.61493 4.86503 4.15053 2.53681 2.44709 1.34016 1.22885
threshold=248.69965931440211 11.456080869175628 545.32881348854892 0 4.839930555555557 1537.1923440399812 419.86225585903509 45.995880376344097 1.0000000180025095e-35 73.463790322580664 9.4959318996415778 -5.4826384888632864 1010.0791666666668
decision_type=2 2 2 1 2 2 2 2 2 2 2 2 2
left_child=-1 2 4 -4 -2 7 9 12 -7 -3 -6 -9 -5
right_child=1 6 3 5 10 8 -8 11 -10 -11 -12 -13 -14
leaf_value=-3.3669495931288131 -1.101154985348781 1.0266219115813648 -1.3537715472469578 -0.023386427044089716 0.025653752833569084 18.289902312039366 28.152650862724066 0.16633954208312199 37.172597070150516 3.0110039305980161 -0.38786332729457224 0.72649713817380313 0.11403817453759985
leaf_weight=384 51 71 41 37 41 43 94 39 54 38 41 37 37
leaf_count=384 51 71 41 37 41 43 94 39 54 38 41 37 37
internal_value=-0.00559771 0.0083825 0.00218131 0.00960037 -0.0134968 0.0132091 0.0209752 0.00787065 0.0209013 0.014312 -0.00438973 0.0131939 0.00170337
internal_weight=1008 624 421 288 133 247 203 150 97 109 82 76 74
internal_count=1008 624 421 288 133 247 203 150 97 109 82 76 74
cat_boundaries=0 1
cat_threshold=2
is_linear=0
shrinkage=0.0293497


Tree=24
num_leaves=13
num_cat=1
split_feature=4 1 4 4 7 4 10 16 6 4 4 4
split_gain=367.339 57.566 50.9331 14.6004 14.4105 13.7627 17.0723 11.4372 9.46768 4.26564 2.47853 2.42381
threshold=248.69965931440211 0.25000000000000011 617.94901390958364 4045.6410113866414 73.810595878136212 548.80715798922017 1015.8655555555557 0 2.5369444444444453 460.07038397305661 307.63851067728132 1135.9860450634139
decision_type=2 2 2 2 2 2 2 1 2 2 2 2
left_child=-1 5 8 4 -4 6 10 11 -3 -10 -2 -6
right_child=1 2 3 -5 7 -7 -8 -9 9 -11 -12 -13
leaf_value=-3.2681307999595939 0.93926482670520406 -1.0902996381874428 5.515150448938936 25.004772765187298 0.20014755637156928 57.719340173959047 -0.11829111208338583 -1.0712739998609255 -0.48390787023656218 0.003969081472118159 4.2102031279980663 0.022917672645586896
leaf_weight=384 34 58 47 32 62 83 52 41 34 42 103 36
leaf_count=384 34 58 47 32 62 83 52 41 34 42 103 36
internal_value=-0.00583057 0.00800642 2.6152e-05 0.00891442 0.00540492 0.0181395 0.0132252 0.000276779 -0.0140518 -0.00627281 0.0186603 0.00606328
internal_weight=1008 624 352 218 186 272 189 139 134 76 137 98
internal_count=1008 624 352 218 186 272 189 139 134 76 137 98
cat_boundaries=0 1
cat_threshold=4
is_linear=0
shrinkage=0.0293497


Tree=25
num_leaves=14
num_cat=0
split_feature=4 1 4 4 1 4 4 2 2 4 4 4 4
split_gain=359.407 50.2582 47.4057 14.5032 12.424 10.4963 8.3446 8.5865 7.20718 4.60399 3.40802 0.392204 0.302923
threshold=252.5519536762809 0.25000000000000011 762.58182896141136 569.63557291704751 -0.93301270189221908 460.07038397305661 4045.6410113866414 1.0000000180025095e-35 0.25000000000000017 1135.9860450634139 307.63851067728132 581.6473146573295 215.06016458080848
decision_type=2 2 2 2 2 2 2 2 2 2 2 2 2
left_child=12 3 5 4 -2 -3 7 -4 11 -9 -6 -7 -1
right_child=1 2 6 -5 10 8 -8 9 -10 -11 -12 -13 -14
leaf_value=-3.1678060645854651 -0.1368418132076866 -0.84692486609056006 14.766676001326362 58.33683226332824 0.58321456153678597 0.096071511106804147 24.270891428451819 0.2392165031758714 -1.1800981374699133 -0.070977658336173019 3.0870412650543551 -0.079148274519423495 -3.2651742108841848
leaf_weight=356 44 59 34 76 35 41 32 50 40 52 115 42 32
leaf_count=356 44 59 34 76 35 41 32 50 40 52 115 42 32
internal_value=-0.00612164 0.00767954 0.000193855 0.0171881 0.0124318 -0.0100306 0.0115623 0.00781776 -0.00459624 0.00295816 0.0164609 0 -0.0282903
internal_weight=1008 620 350 270 194 182 168 136 123 102 150 83 388
internal_count=1008 620 350 270 194 182 168 136 123 102 150 83 388
is_linear=0
shrinkage=0.0293497


Tree=26
num_leaves=14
num_cat=0
split_feature=4 6 4 6 4 6 4 8 10 10 10 7 4
split_gain=345.061 50.936 57.4553 14.7214 8.91432 18.3121 8.45567 5.97519 3.96939 3.27766 1.96757 1.47493 1.30611
threshold=248.69965931440211 11.456080869175628 865.33312693746313 0.79717069892473136 534.46341720090197 4.839930555555557 436.35317504974984 4.0768145161290326 1018.7311755952381 1010.3430779569893 1014.9509722222223 79.267495519713279 440.89305939360764
decision_type=2 2 2 2 2 2 2 2 2 2 2 2 2
left_child=-1 2 4 7 5 -2 10 8 -4 -6 -3 -11 -7
right_child=1 6 3 -5 9 12 -8 -9 -10 11 -12 -13 -14
leaf_value=-3.0792383035689297 -1.0074875112413659 1.9547115477679071 -0.13718988425910558 37.107830196477487 -0.36313714610036535 -0.33711989042676621 40.432364630827401 0.72078150077713321 0.29951213540640653 0.085333968448666822 0.65631620056051476 -0.3297579672650528 0.0092377955716038511
leaf_weight=384 50 91 33 51 51 44 79 45 32 44 33 36 35
leaf_count=384 50 91 33 51 51 44 79 45 32 44 33 36 35
internal_value=-0.00652914 0.00687819 0.000927441 0.0147928 -0.00747622 -0.0130065 0.0189544 0.00806397 0.00148878 -0.00163451 0.0132935 0.00157614 -0.00344584
internal_weight=1008 624 421 161 260 129 203 110 65 131 124 80 79
internal_count=1008 624 421 161 260 129 203 110 65 131 124 80 79
is_linear=0
shrinkage=0.0293497


Tree=27
num_leaves=12
num_cat=4
split_feature=16 14 16 15 1 6 6 6 9 10 6
split_gain=277.803 87.5569 32.8517 35.3423 34.0746 17.8543 9.51703 4.63484 3.96839 3.54175 3.38495
threshold=0 1 2 3 0.25000000000000011 2.9213888888888895 1.0000000180025095e-35 15.592930107526882 0.025349462365591404 1015.8655555555557 1.7836111111111115
decision_type=1 1 1 9 2 2 2 2 2 2 2
left_child=1 -1 3 9 8 -3 -4 -7 -5 -2 -6
right_child=2 5 6 4 10 7 -8 -9 -10 -11 -12
leaf_value=-3.0169355228090895 1.0161858156007675 -1.5901074552462888 16.327843260342039 0.36731553490580399 -0.25546418606284232 0.11012771200926227 52.401185692478393 2.2933357524089319 2.0023429612743513 0.20526236757100152 -0.4982020807078486
leaf_weight=378 92 46 34 52 89 46 83 34 64 34 56
leaf_count=378 92 46 34 52 89 46 83 34 64 34 56
internal_value=-0.00670379 -0.0221325 0.00863117 0.00434291 -0.00187284 -0.000537584 0.0223414 0.0074219 0.00966641 0.0164291 -0.0115746
internal_weight=1008 504 504 387 261 126 117 80 116 126 145
internal_count=1008 504 504 387 261 126 117 80 116 126 145
cat_boundaries=0 1 2 3 4
cat_threshold=2 2 4 17
is_linear=0
shrinkage=0.0293497


Tree=28
num_leaves=16
num_cat=1
split_feature=4 6 4 6 13 4 4 6 5 4 4 4 4 5 4
split_gain=329.947 48.2212 47.4675 11.5506 10.1127 9.96541 6.68498 8.19663 4.8073 3.67234 5.04629 3.21437 3.02039 3.017 0.302923
threshold=252.5519536762809 11.456080869175628 865.33312693746313 2.5369444444444453 0 449.69915621628081 647.38483981188426 5.1174171146953418 73.463790322580664 3540.0940033894253 1135.9860450634139 366.57083162401631 453.99139288516056 45.995880376344097 215.06016458080848
decision_type=2 2 2 2 9 2 2 2 2 2 2 2 2 2 2
left_child=14 2 4 9 12 8 7 -6 11 10 -4 -3 -2 -14 -1
right_child=1 5 3 -5 6 -7 -8 -9 -10 -11 -12 -13 13 -15 -16
leaf_value=-2.8959114943082138 -0.59018517471547849 0.40953604490429918 0.23499769528222814 35.39317825525368 -1.000021594968032 40.56225572136573 -0.12657930458690828 -0.37880909045390254 3.0868993658799311 19.81629352298831 -0.10698963083773808 1.042423136304963 0.11627750491220276 -0.11283629376437393 -3.0179654287491231
leaf_weight=356 32 37 33 47 49 69 36 63 47 37 44 48 40 38 32
leaf_count=356 32 37 33 47 49 69 36 63 47 37 44 48 40 38 32
internal_value=-0.00705307 0.00616553 0.000371932 0.0129736 -0.00730688 0.0179765 -0.0119218 -0.0162813 0.0124899 0.00726842 0.00277589 0.00733096 0 0.00311514 -0.0282903
internal_weight=1008 620 419 161 258 201 148 112 132 114 77 85 110 78 388
internal_count=1008 620 419 161 258 201 148 112 132 114 77 85 110 78 388
cat_boundaries=0 1
cat_threshold=268468249
is_linear=0
shrinkage=0.0293497


Tree=29
num_leaves=14
num_cat=1
split_feature=4 6 4 6 13 4 4 6 1 4 4 4 5
split_gain=328.813 48.4408 48.3894 11.5506 10.5358 8.56264 6.92851 8.55762 5.57681 3.67234 5.04629 3.02039 3.017
threshold=248.69965931440211 11.456080869175628 865.33312693746313 2.5369444444444453 0 402.96277702985594 647.38483981188426 5.1174171146953418 1.0000000180025095e-35 3540.0940033894253 1135.9860450634139 453.99139288516056 45.995880376344097
decision_type=2 2 2 2 9 2 2 2 2 2 2 2 2
left_child=-1 2 4 9 11 8 7 -6 -3 10 -4 -2 -13
right_child=1 5 3 -5 6 -7 -8 -9 -10 -11 -12 12 -14
leaf_value=-2.8153237438504624 -0.5728634462195219 1.6285557008617042 0.22810059510207417 34.354400850107837 -0.972590286612661 7.6440263902812635 -0.12286424626081814 -0.36769117611488694 0.1740085793140074 19.234692237651274 -0.10384952258587125 0.11286480080412781 -0.10952458800012974
leaf_weight=384 32 56 33 47 51 112 36 63 35 37 44 40 38
leaf_count=384 32 56 33 47 51 112 36 63 35 37 44 40 38
internal_value=-0.00705307 0.00603201 0.000230847 0.0129736 -0.00747622 0.0177997 -0.0121392 -0.0165099 0.0100629 0.00726842 0.00277589 0 0.00311514
internal_weight=1008 624 421 161 260 203 150 114 91 114 77 110 78
internal_count=1008 624 421 161 260 203 150 114 91 114 77 110 78
cat_boundaries=0 1
cat_threshold=268468249
is_linear=0
shrinkage=0.0293497


Tree=30
num_leaves=13
num_cat=4
split_feature=16 14 16 15 6 6 6 10 6 10 6 10
split_gain=263.368 87.5569 27.3806 37.9234 24.6817 17.8543 12.7911 8.71805 4.63484 3.54175 2.23876 2.20016
threshold=0 1 2 3 11.456080869175628 2.9213888888888895 2.5369444444444453 1016.5230555555557 15.592930107526882 1015.8655555555557 1.7836111111111115 1013.2194220430109
decision_type=1 1 1 9 2 2 2 2 2 2 2 2
left_child=1 -1 3 9 7 -3 -4 10 -7 -2 -5 -6
right_child=2 5 6 4 11 8 -8 -9 -10 -11 -12 -13
leaf_value=-2.7591692686404339 0.91219073810441298 -1.5108300825242884 14.206220678461531 -0.35831537850790379 3.1337697621800804 0.13491779822126732 52.738231173127566 0.0013674087937466846 2.0502434511516738 0.19881565427621817 -0.50272321599158853 0.39240921424329844
leaf_weight=378 92 46 42 60 50 46 75 55 34 34 59 37
leaf_count=378 92 46 42 60 50 46 75 55 34 34 59 37
internal_value=-0.00711129 -0.0221325 0.00781643 0.00388827 -0.00252185 -0.000537584 0.0203402 -0.00914408 0.0074219 0.0164291 -0.0136046 0.00985167
internal_weight=1008 504 504 387 261 126 117 174 80 126 119 87
internal_count=1008 504 504 387 261 126 117 174 80 126 119 87
cat_boundaries=0 1 2 3 4
cat_threshold=2 2 4 17
is_linear=0
shrinkage=0.0293497


Tree=31
num_leaves=12
num_cat=3
split_feature=16 16 15 5 6 7 10 10 6 9 6
split_gain=269.52 26.3195 33.7141 23.7266 12.7911 9.12668 3.09684 3.01918 2.06163 1.08384 0.00238036
threshold=0 1 2 45.995880376344097 2.5369444444444453 86.648257488479274 1015.8655555555557 1013.2194220430109 13.307392473118282 0.04793682795698926 2.5369444444444453
decision_type=1 1 9 2 2 2 2 2 2 2 2
left_child=8 2 6 10 -3 7 -2 -5 -1 -9 -4
right_child=1 4 3 5 -6 -7 -8 9 -10 -11 -12
leaf_value=-2.6517143232791587 0.88541825892516546 13.789273069324141 -0.40961519100197752 2.8474143688091678 51.190382530236299 -0.25367859609637455 0.19298048434708653 -0.015800302162831459 -2.1308931138195342 0.78193227861809533 -0.48796846539959304
leaf_weight=338 92 42 34 53 75 44 34 38 166 39 53
leaf_count=338 92 42 34 53 75 44 34 38 166 39 53
internal_value=-0.00705307 0.00804921 0.00419137 -0.00187284 0.0203402 0.0040934 0.0159985 0.00817767 -0.0222489 0.00353496 -0.0145567
internal_weight=1008 504 387 261 117 174 126 130 504 77 87
internal_count=1008 504 387 261 117 174 126 130 504 77 87
cat_boundaries=0 1 2 3
cat_threshold=2 4 17
is_linear=0
shrinkage=0.0293497


Tree=32
num_leaves=13
num_cat=0
split_feature=4 4 1 10 1 4 10 4 10 4 8 1
split_gain=330.599 44.7081 42.2747 16.5655 15.928 11.7233 3.33545 3.24393 2.39159 1.94839 0.686968 0.244101
threshold=248.69965931440211 865.33312693746313 0.25000000000000011 1015.8655555555557 0.68301270189221941 460.07038397305661 1010.3430779569893 307.63851067728132 1012.3067540322583 2369.1706418080807 4.0050694444444455 0.25000000000000011
decision_type=2 2 2 2 2 2 2 2 2 2 2 2
left_child=-1 2 3 7 11 -4 -7 -2 -8 -6 -5 -3
right_child=1 4 5 10 9 6 8 -9 -10 -11 -12 -13
leaf_value=-2.5823850772832762 0.72077886812094483 61.962088645315447 -0.70456676415917308 0.09511944373143344 0.023110453896384251 -0.32120904708458869 0.082959285486809531 2.5663568973915041 -0.51622270996247832 17.671080677132746 -0.39992144461486012 1.6899354950990513
leaf_weight=384 34 64 61 34 46 70 41 107 36 43 33 55
leaf_count=384 34 64 61 34 46 70 41 107 36 43 33 55
internal_value=-0.00699486 0.00612603 0.000445108 0.00990583 0.0172316 -0.00877879 -0.00384752 0.0156402 0 0.0070027 -0.00144456 0.0244265
internal_weight=1008 624 416 208 208 208 147 141 77 89 67 119
internal_count=1008 624 416 208 208 208 147 141 77 89 67 119
is_linear=0
shrinkage=0.0293497


Tree=33
num_leaves=13
num_cat=1
split_feature=4 6 4 15 6 4 2 4 4 4 5 4
split_gain=322.781 46.5954 44.0937 16.5459 13.1465 10.6778 4.98748 4.96386 4.59772 3.53508 2.65848 0.302923
threshold=252.5519536762809 11.456080869175628 865.33312693746313 0 2.5369444444444453 307.63851067728132 -0.24999999999999997 3540.0940033894253 1135.9860450634139 449.69915621628081 56.636407738095251 215.06016458080848
decision_type=2 2 2 9 2 2 2 2 2 2 2 2
left_child=11 2 3 10 7 -3 -5 8 -4 -7 -2 -1
right_child=1 5 4 6 -6 9 -8 -9 -10 -11 -12 -13
leaf_value=-2.498461836226471 -0.58657833496198852 0.33678809435339224 0.17921153496093722 0.49318912580056773 29.232175452969408 1.7737012985133283 -0.14033882605248454 17.999462688662422 -0.34154785107849428 34.278584095061987 -0.53597277024831891 -2.6121607911033213
leaf_weight=356 98 35 33 46 47 97 65 37 44 69 49 32
leaf_count=356 98 35 33 46 47 97 65 37 44 69 49 32
internal_value=-0.00728593 0.00578703 9.19651e-05 -0.00730688 0.0122459 0.0173934 0.00128543 0.00624159 0.00125775 0.020524 -0.0133034 -0.0282903
internal_weight=1008 620 419 258 161 201 111 114 77 166 147 388
internal_count=1008 620 419 258 161 201 111 114 77 166 147 388
cat_boundaries=0 1
cat_threshold=10
is_linear=0
shrinkage=0.0293497


Tree=34
num_leaves=14
num_cat=4
split_feature=16 14 16 15 6 6 6 10 6 10 10 6 10
split_gain=263.368 87.5569 27.3806 32.9342 22.9335 17.8543 12.7911 5.85799 4.63484 2.67525 2.20016 0.667451 0.252645
threshold=0 1 2 3 11.456080869175628 2.9213888888888895 2.5369444444444453 1016.5230555555557 15.592930107526882 1015.8655555555557 1013.2194220430109 2.5369444444444453 1011.0346102150539
decision_type=1 1 1 9 2 2 2 2 2 2 2 2 2
left_child=1 -1 3 9 7 -3 -4 11 -7 12 -6 -5 -2
right_child=2 5 6 4 10 8 -8 -9 -10 -11 -12 -13 -14
leaf_value=-2.4516980070049708 0.36228512952999131 -1.3591558261904229 12.337644752564072 -0.28795173769022925 2.4147307536403613 0.22724711542019049 46.863332613231776 -0.023413278411947794 2.0753945928357336 0.20658642610381189 0.32690348155560012 -0.47452370273587513 4.1151650791902723
leaf_weight=378 59 46 42 63 50 46 75 55 34 34 37 56 33
leaf_count=378 59 46 42 63 50 46 75 55 34 34 37 56 33
internal_value=-0.00711129 -0.0221325 0.00781643 0.00388827 -0.00208918 -0.000537584 0.0203402 -0.00847066 0.0074219 0.0155679 0.00985167 -0.0121289 0.0198081
internal_weight=1008 504 504 387 261 126 117 174 80 126 87 119 92
internal_count=1008 504 504 387 261 126 117 174 80 126 87 119 92
cat_boundaries=0 1 2 3 4
cat_threshold=2 2 4 17
is_linear=0
shrinkage=0.0293497


Tree=35
num_leaves=14
num_cat=1
split_feature=4 6 4 6 4 4 6 16 6 2 7 6 4
split_gain=319.958 47.592 43.3341 13.975 10.768 8.91432 15.2308 4.53836 4.36648 4.12343 3.84541 0.59452 0.167128
threshold=248.69965931440211 11.456080869175628 865.33312693746313 2.5369444444444453 402.96277702985594 534.46341720090197 4.839930555555557 0 3.9193055555555563 -0.9330127018922193 87.487351190476218 9.4959318996415778 2150.17206809662
decision_type=2 2 2 2 2 2 2 1 2 2 2 2 2
left_child=-1 2 5 10 9 6 -2 -7 -9 -3 12 -8 -4
right_child=1 4 3 -5 -6 7 11 8 -10 -11 -12 -13 -14
leaf_value=-2.3613075179229392 -0.85942603577785293 0.096489934057298776 0.014003469154627558 27.292163456847589 7.1185578826376448 -1.2849647290092536 -0.050124607715061775 0.066195181940706713 -0.29934160214779154 1.3615307106194476 0.5657742769719204 -0.31938938211639195 -0.22189258026738279
leaf_weight=384 50 35 32 47 112 37 40 55 39 56 50 39 32
leaf_count=384 50 35 32 47 112 37 40 55 39 56 50 39 32
internal_value=-0.00734414 0.00556191 0 0.0118821 0.0172223 -0.00747622 -0.0130065 -0.00163451 0.00134222 0.00877749 0.00572817 -0.00418577 0.000143231
internal_weight=1008 624 421 161 203 260 129 131 94 91 114 79 64
internal_count=1008 624 421 161 203 260 129 131 94 91 114 79 64
cat_boundaries=0 1
cat_threshold=2
is_linear=0
shrinkage=0.0293497


Tree=36
num_leaves=16
num_cat=1
split_feature=4 6 4 15 6 4 4 4 4 6 6 4 7 4 6
split_gain=313.935 41.2095 39.8787 15.0343 12.3168 14.6864 10.3191 7.00679 3.50611 3.13682 2.71708 1.46307 1.86738 0.302923 0.198166
threshold=252.5519536762809 11.456080869175628 865.33312693746313 0 5.1174171146953418 4045.6410113866414 449.69915621628081 1135.9860450634139 307.63851067728132 18.024639336917563 1.7836111111111115 569.63557291704751 77.45836693548388 215.06016458080848 8.5851478494623681
decision_type=2 2 2 9 2 2 2 2 2 2 2 2 2 2 2
left_child=13 2 3 10 5 7 8 -4 -3 -10 -2 -5 -13 -1 -12
right_child=1 6 4 11 -6 -7 -8 -9 9 -11 14 12 -14 -15 -16
leaf_value=-2.2838728259247154 -0.8500222362900961 0.31447703286387041 0.17422791368952872 0.15359799392592963 40.625190962561028 19.607775417572476 31.688170029636844 -0.41574555894538356 0.68154178784609853 2.1683351725664139 -0.083683663288507557 -0.29055603080156311 0.031416944660722153 -2.3942347562353352 -0.31001541543859651
leaf_weight=356 55 35 33 55 34 32 69 62 32 65 33 37 43 32 35
leaf_count=356 55 35 33 55 34 32 69 62 32 65 33 37 43 32 35
internal_value=-0.007577 0.0053139 0 -0.00707965 0.0115182 0.00675684 0.0162272 0.000404526 0.0107156 0.0136642 -0.0139371 0 -0.00230686 -0.0282903 -0.00958436
internal_weight=1008 620 419 258 161 127 201 95 132 97 123 135 80 388 68
internal_count=1008 620 419 258 161 127 201 95 132 97 123 135 80 388 68
cat_boundaries=0 1
cat_threshold=18
is_linear=0
shrinkage=0.0293497


Tree=37
num_leaves=15
num_cat=0
split_feature=4 6 4 6 4 4 6 4 4 1 7 10 10 9
split_gain=306.042 37.7838 36.7187 13.7816 12.1954 8.95669 13.7063 5.09658 4.16191 3.81468 5.63839 3.73457 1.10867 0.151859
threshold=248.69965931440211 11.456080869175628 865.33312693746313 2.5369444444444453 792.08183638017465 534.46341720090197 2.9213888888888895 3540.0940033894253 1135.9860450634139 1.0000000180025095e-35 78.719623655913992 1010.3430779569893 1012.3067540322583 0.049742383512544813
decision_type=2 2 2 2 2 2 2 2 2 2 2 2 2 2
left_child=-1 2 5 7 9 6 -2 8 -4 10 -3 -7 -13 -8
right_child=1 4 3 -5 -6 11 13 -9 -10 -11 -12 12 -14 -15
leaf_value=-2.2249730992048269 -0.82042617292049269 2.3934230131735643 0.16911438534852591 26.503349989962793 57.437027505615418 -0.26315471787473727 -0.26590438283895812 16.540110311627508 -0.39125063906868585 0.26085230795590669 0.62524526219517873 0.048402510559746079 -0.10308658007178541 -0.02471691677363556
leaf_weight=384 42 54 33 47 51 51 47 37 44 50 48 33 47 40
leaf_count=384 42 54 33 47 51 51 47 37 44 50 48 33 47 40
internal_value=-0.00780986 0.00480976 -9.15286e-05 0.0107905 0.0152015 -0.00702526 -0.0125527 0.00470134 0 0.0104647 0.013857 -0.00118755 0.00230686 -0.00514663
internal_weight=1008 624 421 161 203 260 129 114 77 152 102 131 80 87
internal_count=1008 624 421 161 203 260 129 114 77 152 102 131 80 87
is_linear=0
shrinkage=0.0293497


Tree=38
num_leaves=15
num_cat=1
split_feature=4 4 6 6 4 15 4 4 6 4 4 10 9 6
split_gain=304.325 38.1802 35.1566 28.1263 16.3843 13.2803 3.60107 3.57998 3.42663 3.3304 6.30577 1.91418 0.849972 0.207146
threshold=248.69965931440211 865.33312693746313 11.456080869175628 5.1174171146953418 4045.6410113866414 0 1537.1923440399812 307.63851067728132 19.680901657706098 534.46341720090197 373.75386785630633 1010.3430779569893 0.031185195852534566 15.932594086021506
decision_type=2 2 2 2 2 9 2 2 2 2 2 2 2 2
left_child=-1 2 5 4 6 9 -3 -4 13 10 -2 -7 -13 -9
right_child=1 3 7 -5 -6 11 -8 8 -10 -11 -12 12 -14 -15
leaf_value=-2.1596709167943446 -0.1761713965420911 0.08197253177963168 0.29759131789781357 45.975179181737197 18.546847611980077 -0.25100603307894437 -1.4972079837476251 0.65433934095266411 4.1754080834831049 -0.28417929705141953 -0.75094694633781112 -0.46074176288314617 0.050373767041419465 0.88829199335830744
leaf_weight=384 32 60 37 81 32 54 35 40 33 39 52 37 46 46
leaf_count=384 32 60 37 81 32 54 35 40 33 39 52 37 46 46
internal_value=-0.00786807 0.00471574 -0.000304116 0.0149775 0.00583485 -0.00702526 0 0.0105724 0.0131127 -0.0134968 -0.0182068 0 0.00257602 0.00894588
internal_weight=1008 624 416 208 127 260 95 156 119 123 84 137 83 86
internal_count=1008 624 416 208 127 260 95 156 119 123 84 137 83 86
cat_boundaries=0 1
cat_threshold=18
is_linear=0
shrinkage=0.0293497


Tree=39
num_leaves=13
num_cat=0
split_feature=4 4 1 2 10 4 7 4 10 4 5 7
split_gain=296.429 38.1499 27.3611 25.9466 12.2876 10.8624 7.51896 4.91336 3.5505 2.89922 2.79597 1.0381
threshold=248.69965931440211 865.33312693746313 0.25000000000000011 1.0000000180025095e-35 1015.4170833333334 534.46341720090197 73.810595878136212 3540.0940033894253 1010.3430779569893 1135.9860450634139 73.463790322580664 78.171863799283173
decision_type=2 2 2 2 2 2 2 2 2 2 2 2
left_child=-1 2 4 -3 10 6 -4 9 -7 -5 -2 -6
right_child=1 3 5 7 11 8 -8 -9 -10 -11 -12 -13
leaf_value=-2.0962853306020799 0.77612842172305441 39.486553805549811 -0.21264156483327948 0.16174507213343714 -0.2157501255035125 -0.24806427963119707 -0.77936174923594359 15.175520400021325 0.037414814054267422 -0.37148159954568527 2.4838930094653699 0.052287167834686142
leaf_weight=384 86 98 56 33 33 51 38 36 63 41 52 37
leaf_count=384 86 98 56 33 33 51 38 36 63 41 52 37
internal_value=-0.0079845 0.00443368 -0.0005861 0.0146958 0.00680647 -0.00821527 -0.0156545 0.00433976 -0.00162084 0 0.0119481 -0.00263486
internal_weight=1008 624 416 208 208 208 94 110 114 74 138 70
internal_count=1008 624 416 208 208 208 94 110 114 74 138 70
is_linear=0
shrinkage=0.0293497


Tree=40
num_leaves=16
num_cat=1
split_feature=4 15 4 7 7 4 4 4 10 4 7 4 4 7 4
split_gain=290.488 32.9042 15.8684 14.4105 12.9396 11.678 9.42602 3.93787 2.99681 2.68704 2.65865 1.81584 1.06101 0.683518 0.204559
threshold=252.5519536762809 0 702.04954948071293 67.32187500000002 66.044948476702515 351.44393267794368 1145.6293276591566 487.47729189717182 1009.9737231182797 3788.0004649408061 82.899126344086042 434.15131852036637 743.0684716216698 79.743951612903246 215.06016458080848
decision_type=2 9 2 2 2 2 2 2 2 2 2 2 2 2 2
left_child=14 2 4 11 -2 -6 7 -5 -9 10 -8 -3 -10 -7 -1
right_child=1 3 -4 6 5 13 9 8 12 -11 -12 -13 -14 -15 -16
leaf_value=-2.0266289471260741 0.4698821530774191 1.2794903878929678 0.317683103799553 0.54867571851355934 0.035508090866307407 -0.4027015100867154 23.423217398484358 -0.27413047328177453 0.045958462555797761 16.738148894736121 0.066753155983683352 25.869162497288478 -0.012119802047695371 -0.78544099723939664 -2.1337517933745569
leaf_weight=356 35 48 41 51 39 69 56 40 61 34 32 40 39 35 32
leaf_count=356 35 48 41 51 39 69 56 40 61 34 32 40 39 35 32
internal_value=-0.00821736 0.00417839 -0.00477542 0.00908422 -0.00893898 -0.0129647 0.00611795 0.00173553 -0.000483953 0.0125512 0.00874333 0.0200405 0.00184701 -0.0180924 -0.0281391
internal_weight=1008 620 219 401 178 143 313 191 140 122 88 88 100 104 388
internal_count=1008 620 219 401 178 143 313 191 140 122 88 88 100 104 388
cat_boundaries=0 1
cat_threshold=18
is_linear=0
shrinkage=0.0293497


Tree=41
num_leaves=15
num_cat=0
split_feature=4 6 4 4 4 6 6 4 5 8 6 9 4 4
split_gain=291.374 34.209 28.5677 14.8831 13.3826 15.0226 11.5209 9.58177 6.17907 4.28152 1.8956 1.60901 3.61544 1.48038
threshold=248.69965931440211 11.456080869175628 617.94901390958364 792.08183638017465 4045.6410113866414 5.1174171146953418 2.5369444444444453 1537.1923440399812 73.463790322580664 3.6071308563748086 18.650625000000002 0.059930555555555563 508.42243315328164 730.5238118931876
decision_type=2 2 2 2 2 2 2 2 2 2 2 2 2 2
left_child=-1 2 6 8 5 7 -2 9 10 -4 -3 12 -8 -11
right_child=1 3 4 -5 -6 -7 11 -9 -10 13 -12 -13 -14 -15
leaf_value=-1.9752792382932747 -0.73343533582300158 0.69421486975630076 -0.085795156146909038 52.483747982333789 17.065849086313111 30.807255172089477 -0.44764883898464164 -2.2227053088654474 2.0330042251605835 0.19834163480149383 -0.084880495760746827 0.017717012955064521 0.039764679805888423 0.085919423715209373
leaf_weight=384 58 68 34 51 32 40 56 35 50 33 34 36 34 63
leaf_count=384 58 68 34 51 32 40 56 35 50 33 34 36 34 63
internal_value=-0.00815914 0.00415162 -0.000509485 0.0140467 0.00609844 0.00304658 -0.00928491 -0.000588294 0.00892333 0.00277302 0.00410541 -0.00379012 -0.00595044 0.00618917
internal_weight=1008 624 421 203 237 205 184 165 152 130 102 126 90 96
internal_count=1008 624 421 203 237 205 184 165 152 130 102 126 90 96
is_linear=0
shrinkage=0.0293497


Tree=42
num_leaves=15
num_cat=1
split_feature=4 6 4 4 4 6 16 6 5 4 4 6 6 4
split_gain=288.028 33.4992 26.7368 15.5879 13.1292 18.343 20.8402 9.16717 5.03925 2.27301 2.01569 1.8956 1.40406 2.19091
threshold=248.69965931440211 11.456080869175628 678.75358175068629 792.08183638017465 4045.6410113866414 5.1174171146953418 0 1.7836111111111115 73.463790322580664 1113.6513602120187 512.03729766786489 18.650625000000002 7.7752430555555554 487.47729189717182
decision_type=2 2 2 2 2 2 1 2 2 2 2 2 2 2
left_child=-1 2 7 8 5 6 9 10 11 -4 -2 -3 -9 -14
right_child=1 3 4 -5 -6 -7 -8 12 -10 -11 -12 -13 13 -15
leaf_value=-1.9173054833850625 -0.71150264529862317 0.67383990608905664 0.12258911262449394 50.943368332102047 16.564972383389161 34.89414405154492 -2.0633759129064582 0.010240772893679216 1.9733362620736756 0.05322178857646629 -0.42999082302091729 -0.082389282892042004 -0.057573830877147326 -0.47183212788561718
leaf_weight=384 33 68 61 51 32 34 43 45 50 47 32 34 48 46
leaf_count=384 33 68 61 51 32 34 43 45 50 47 32 34 48 46
internal_value=-0.00827557 0.00396358 -0.000648804 0.013758 0.00638956 0.00305863 -0.00103061 -0.00837609 0.00853799 0.00550358 -0.0176617 0.00410541 -0.00364714 -0.00569812
internal_weight=1008 624 421 203 217 185 151 204 152 108 65 102 139 94
internal_count=1008 624 421 203 217 185 151 204 152 108 65 102 139 94
cat_boundaries=0 1
cat_threshold=4
is_linear=0
shrinkage=0.0293497


Tree=43
num_leaves=15
num_cat=4
split_feature=13 15 14 13 6 8 6 1 6 2 8 6 8 6
split_gain=67.8192 18.7365 18.876 10.3196 10.1406 7.38569 7.06675 2.79976 2.36555 1.72049 1.46943 0.432326 0.180892 0.0951127
threshold=0 1 2 3 11.456080869175628 3.6071308563748086 10.373184363799284 1.0000000180025095e-35 10.287031810035844 -0.24999999999999997 4.018864087301588 14.301478494623657 3.125837813620072 18.84631944444445
decision_type=9 9 1 9 2 2 2 2 2 2 2 2 2 2
left_child=5 4 3 8 -2 7 10 11 -3 -4 -5 -1 -8 -6
right_child=1 2 9 6 13 -7 12 -9 -10 -11 -12 -13 -14 -15
leaf_value=-1.0648482627132878 -0.95442024482238852 -1.334796945791175 2.2430736678598437 -0.63359099764761617 0.21213521285371828 -1.6053818357750451 3.4529088205383256 -1.3809570583882091 -0.65743023462355032 0.26782366756726578 0.68560453573048608 -0.24194612149153738 5.217371561776357 -0.3091618384085934
leaf_weight=38 144 52 40 84 35 239 36 85 56 32 54 34 42 37
leaf_count=38 144 52 40 84 35 239 36 85 56 32 54 34 42 37
internal_value=-0.00821736 -0.00180692 0.00190068 -0.000933339 -0.00859932 -0.0175026 0.00263423 -0.0121841 -0.00801485 0.0155466 -0.00091529 -0.00661971 0.00985954 0
internal_weight=1008 612 396 324 216 396 216 157 108 72 138 72 78 72
internal_count=1008 612 396 324 216 396 216 157 108 72 138 72 78 72
cat_boundaries=0 1 2 3 4
cat_threshold=206643992 18 2 268469249
is_linear=0
shrinkage=0.0293497


Tree=44
num_leaves=16
num_cat=4
split_feature=13 6 14 8 13 14 8 10 6 10 10 8 8 1 8
split_gain=62.1624 15.7704 11.8028 11.5536 5.56741 4.47571 3.33208 1.93529 1.60085 1.07162 0.873806 0.592905 1.03864 0.514891 0.0313387
threshold=0 11.456080869175628 1 3.6365663402457762 2 3 4.0768145161290326 1014.9509722222223 9.2897849462365603 1010.3430779569893 1016.9273611111113 3.6365663402457762 4.2895833333333337 1.0000000180025095e-35 4.0455621159754225
decision_type=9 2 1 2 9 1 2 2 2 2 2 2 2 2 2
left_child=3 4 7 8 5 6 -2 11 -1 14 -11 -3 -13 -10 -6
right_child=1 2 -4 -5 9 -7 -8 -9 13 10 -12 12 -14 -15 -16
leaf_value=-1.4705269122346338 -0.81287787250869259 2.3581376301034584 2.4368754443622547 -1.5643546181157926 -0.28217276442750611 -0.083865565169358905 -1.1318724604573729 -0.30629833404042656 -0.56508291844711189 0.06130285398157799 -0.4806429569474151 -0.48384841219880342 1.8792373397141222 -1.1171877873487515 -0.10229969480330028
leaf_weight=75 92 40 39 203 34 54 94 46 50 48 52 48 40 41 52
leaf_count=75 92 40 39 203 34 54 94 46 50 48 52 48 40 41 52
internal_value=-0.00786807 -0.00204818 0.00430811 -0.0172783 -0.00539132 -0.00824385 -0.0107604 0.000726279 -0.0113484 -0.000943877 0.000676896 0.00281624 0.000768854 -0.00749207 -0.00350641
internal_weight=1008 639 213 369 426 240 186 174 166 186 100 128 88 91 86
internal_count=1008 639 213 369 426 240 186 174 166 186 100 128 88 91 86
cat_boundaries=0 1 2 3 4
cat_threshold=206579224 2 536903973 2
is_linear=0
shrinkage=0.0293497


Tree=45
num_leaves=16
num_cat=2
split_feature=4 4 6 1 15 14 4 4 5 10 4 4 6 10 4
split_gain=307.63 37.4015 22.2018 17.6522 17.0526 17.1675 10.1804 11.3987 5.66376 3.06044 2.55035 3.01054 1.48083 0.729184 0.204559
threshold=252.5519536762809 865.33312693746313 11.456080869175628 0.25000000000000011 0 1 4045.6410113866414 1135.9860450634139 73.463790322580664 1010.3430779569893 404.44681781249193 678.75358175068629 18.650625000000002 1010.641960125448 215.06016458080848
decision_type=2 2 2 2 9 1 2 2 2 2 2 2 2 2 2
left_child=14 2 4 -3 10 -6 7 -5 12 -9 -2 13 -4 -12 -1
right_child=1 3 8 6 5 -7 -8 9 -10 -11 11 -13 -14 -15 -16
leaf_value=-1.8025339385724404 -0.090860284780744857 50.536136563066108 0.70194786069985282 0.23356924438964974 0.29718138649957904 -0.6383604865506427 16.073088908223742 0.45519647315862927 2.138541079455436 -0.65799308418516289 -0.55335866616035201 -0.20578013969296272 -0.0017348729610725268 -0.62031022824552406 -1.8638502675122042
leaf_weight=356 33 64 67 33 57 54 32 35 52 44 42 33 35 39 32
leaf_count=356 33 64 67 33 57 54 32 35 52 44 42 33 35 39 32
internal_value=-0.00763522 0.00512465 0 0.0152593 -0.00526185 0.00322061 0.00901124 0.00426249 0.00880769 -0.00122605 -0.011438 -0.0144563 0.00410541 -0.0177958 -0.0281391
internal_weight=1008 620 412 208 258 111 144 112 154 79 147 114 102 81 388
internal_count=1008 620 412 208 258 111 144 112 154 79 147 114 102 81 388
cat_boundaries=0 1 2
cat_threshold=10 2
is_linear=0
shrinkage=0.0293497


Tree=46
num_leaves=14
num_cat=5
split_feature=15 15 14 6 6 14 9 6 8 10 12 5 10
split_gain=31.1719 21.1481 20.6691 17.4656 5.98322 5.67436 2.57543 2.20736 1.49479 1.36898 1.86509 0.644833 0.0637434
threshold=0 1 2 14.301478494623657 5.1174171146953418 3 0.051969086021505385 15.592930107526882 3.125837813620072 1009.4664986559141 4 73.463790322580664 1018.8554315476191
decision_type=9 9 1 2 2 1 2 2 2 2 9 2 2
left_child=4 3 6 9 -1 8 -3 -6 -5 -2 -11 -10 -12
right_child=1 2 -4 5 7 -7 -8 -9 11 10 12 -13 -14
leaf_value=-1.3134601948546805 -1.4804881662048224 0.25945179259430756 1.3861405449625857 0.5750015183864936 -0.61696473530758988 1.6511150507114587 -0.82058742601906276 -1.0790751677514336 -1.1562530540232259 -0.52972137431146737 -1.2272013665819093 -0.19423578315643786 -1.5817198617689456
leaf_weight=76 68 49 36 44 52 34 50 43 91 128 244 50 43
leaf_count=76 68 49 36 44 52 34 50 43 91 128 244 50 43
internal_value=-0.00775164 -0.00510263 0.00511217 -0.00718213 -0.0189881 -0.000175825 -0.000979184 -0.0139509 -0.00242517 -0.0104028 -0.00942073 -0.00401086 -0.0109878
internal_weight=1008 837 135 702 171 219 99 95 185 483 415 141 287
internal_count=1008 837 135 702 171 219 99 95 185 483 415 141 287
cat_boundaries=0 1 2 3 4 5
cat_threshold=2 24 2 2 2480
is_linear=0
shrinkage=0.0293497


Tree=47
num_leaves=16
num_cat=1
split_feature=4 4 15 6 5 2 4 4 10 4 7 9 8 7 4
split_gain=309.371 33.6298 20.9913 20.0906 15.2463 13.0861 11.8874 11.8647 3.52615 2.77829 4.63791 2.46069 1.8943 0.331514 0.204559
threshold=252.5519536762809 813.49450120768495 0 9.2897849462365603 62.616579781106005 -0.24999999999999997 4045.6410113866414 1372.7146778288031 1010.2960349462367 647.38483981188426 73.810595878136212 0.032385912698412705 3.6365663402457762 86.648257488479274 215.06016458080848
decision_type=2 2 9 2 2 2 2 2 2 2 2 2 2 2 2
left_child=14 2 4 6 9 8 7 13 -4 10 -2 -10 -6 -3 -1
right_child=1 3 5 -5 12 -7 -8 -9 11 -11 -12 -13 -14 -15 -16
leaf_value=-1.7170039468749447 -0.29512608902471699 0.12796218361994019 0.28110708278994312 39.263309254520216 0.80391499435164637 -0.042403959383857159 15.62713190340158 -1.0642191209564613 3.9306390197059438 -0.20515367056195088 -0.57689728244754201 0.59800368127787429 0.049335437521841517 0.19509172983072179 -1.7718631497388833
leaf_weight=356 73 32 32 70 34 60 32 50 32 32 38 45 54 36 32
leaf_count=356 73 32 32 70 34 60 32 50 32 32 38 45 54 36 32
internal_value=-0.007577 0.00521927 2.30163e-05 0.0144282 -0.00551089 0.0077435 0.00787065 0.00305423 0.014312 -0.0117361 -0.0140549 0.0179572 0.00342701 0.0113025 -0.0281391
internal_weight=1008 620 400 220 231 169 150 118 109 143 111 77 88 68 388
internal_count=1008 620 400 220 231 169 150 118 109 143 111 77 88 68 388
cat_boundaries=0 1
cat_threshold=10
is_linear=0
shrinkage=0.0293497


Tree=48
num_leaves=16
num_cat=2
split_feature=4 4 6 6 4 4 13 6 10 10 7 4 14 4 4
split_gain=304.162 34.6901 18.7626 18.5324 11.9381 12.1655 10.9285 7.65049 4.12032 3.57551 3.10634 2.87912 2.56481 2.2245 0.204559
threshold=252.5519536762809 865.33312693746313 9.2897849462365603 11.456080869175628 4045.6410113866414 1372.7146778288031 0 1.7836111111111115 1014.9509722222223 1010.3430779569893 78.719623655913992 370.56905669001179 1 512.03729766786489 215.06016458080848
decision_type=2 2 2 2 2 2 9 2 2 2 2 2 1 2 2
left_child=14 3 4 6 5 -3 12 -8 10 -9 11 -5 13 -2 -1
right_child=1 2 -4 8 -6 -7 7 9 -10 -11 -12 -13 -14 -15 -16
leaf_value=-1.6666104814535347 0.0075814942562227551 0.18116829668511508 39.707161870274447 0.62679208640942308 15.168481046690861 -1.032984661903334 -0.63141017039996916 -0.29904183965807662 -0.03116687033623234 -0.049473730040598518 0.70124675912752943 3.6108030617397318 -0.13223469574221539 0.14868760417214744 -1.7198595858971393
leaf_weight=356 36 58 68 32 32 50 50 37 35 61 47 40 32 42 32
leaf_count=356 36 58 68 32 32 50 50 37 35 61 47 40 32 42 32
internal_value=-0.00775164 0.0049354 0.0146958 0 0.00801322 0.00279432 -0.0048074 -0.0096974 0.008047 -0.00486937 0.0106532 0.0147351 0.00202784 0.00536327 -0.0281391
internal_weight=1008 620 208 412 140 108 258 148 154 98 119 72 110 78 388
internal_count=1008 620 208 412 140 108 258 148 154 98 119 72 110 78 388
cat_boundaries=0 1 2
cat_threshold=268476425 2
is_linear=0
shrinkage=0.0293497


Tree=49
num_leaves=14
num_cat=3
split_feature=13 15 8 12 6 6 5 5 7 8 8 8 7
split_gain=58.8486 16.497 10.1611 9.9308 8.21555 3.5171 2.91453 1.03089 0.321865 0.233866 0.521977 0.334548 0.151432
threshold=0 1 3.6365663402457762 2 11.456080869175628 13.307392473118282 62.616579781106005 62.616579781106005 66.044948476702515 3.6730376344086024 4.0768145161290326 4.6399103942652333 66.044948476702515
decision_type=9 9 2 9 2 2 2 2 2 2 2 2 2
left_child=2 4 7 6 -2 9 -3 -1 -6 -5 -11 -12 -7
right_child=1 3 -4 5 8 12 -8 -9 -10 10 11 -13 -14
leaf_value=-1.1646876893749083 -0.83317509482555929 -1.5278796546598585 -1.357202237153919 0.051785747237563878 0.12447009765661582 3.0735241959339503 0.14265095492279159 -0.68142017785890929 -0.35975142840490992 0.66828503573608278 -0.02565399703055524 0.31644240040815458 0.74501991256677735
leaf_weight=82 156 78 221 44 39 50 39 66 39 46 54 48 46
leaf_count=82 156 78 221 44 39 50 39 66 39 46 54 48 46
internal_value=-0.00780986 -0.00213858 -0.0169688 0.00136483 -0.00820605 0.00435959 -0.00537385 -0.0107469 -0.000117631 0.00187911 0.00243651 0.000663666 0.00923592
internal_weight=1008 639 369 405 234 288 117 148 78 192 148 102 96
internal_count=1008 639 369 405 234 288 117 148 78 192 148 102 96
cat_boundaries=0 1 2 3
cat_threshold=202385176 18 4140
is_linear=0
shrinkage=0.0293497


Tree=50
num_leaves=15
num_cat=1
split_feature=4 4 13 1 4 1 7 4 4 7 6 5 9 7
split_gain=310.125 32.7845 17.7532 16.7219 10.8355 10.6481 10.4331 9.58301 8.46729 12.4338 6.38619 2.53753 2.36485 0.801505
threshold=248.69965931440211 865.33312693746313 0 0.25000000000000011 4045.6410113866414 1.0000000180025095e-35 75.893234767025106 1372.7146778288031 545.32881348854892 70.688172043010766 15.592930107526882 39.532184139784952 0.031185195852534566 66.044948476702515
decision_type=2 2 9 2 2 2 2 2 2 2 2 2 2 2
left_child=-1 2 6 -3 7 10 13 -5 9 -7 -4 -10 -8 -2
right_child=1 3 5 4 -6 8 12 -9 11 -11 -12 -13 -14 -15
leaf_value=-1.5982043199457823 2.1100983869214263 46.7188972215124 -0.23749567419474976 0.18503615852617791 14.71386093410678 -0.28440161927281166 -0.2193077742401805 -0.56766855560461116 0.10729695542104921 -0.54088065565148546 1.03567661434692 -0.25035812709595434 0.19304879054830218 0.2524200965736032
leaf_weight=384 34 64 52 58 32 57 44 54 33 38 50 40 34 34
leaf_count=384 34 64 52 58 32 57 44 54 33 38 50 40 34 34
internal_value=-0.00751879 0.00518583 0.000304116 0.0146958 0.00860454 -0.00401134 0.00831953 0.00373993 -0.00877259 -0.0145666 0.00295816 -0.000525888 0.000867009 0.0173158
internal_weight=1008 624 416 208 144 270 146 112 168 95 102 73 78 68
internal_count=1008 624 416 208 144 270 146 112 168 95 102 73 78 68
cat_boundaries=0 1
cat_threshold=268470282
is_linear=0
shrinkage=0.0293497


Tree=51
num_leaves=14
num_cat=2
split_feature=4 4 15 1 1 14 4 2 4 4 8 1 10
split_gain=308.396 31.5012 25.112 17.5606 14.9579 13.8938 11.5064 10.3904 8.45837 5.68713 4.72395 4.20901 1.67521
threshold=248.69965931440211 865.33312693746313 0 0.25000000000000011 0.25000000000000011 1 4045.6410113866414 -0.24999999999999997 1372.7146778288031 678.75358175068629 3.125837813620072 0.25000000000000011 1013.8610752688174
decision_type=2 2 9 2 2 1 2 2 2 2 2 2 2
left_child=-1 2 4 -3 10 11 8 -7 -5 -6 -2 -4 -12
right_child=1 3 5 6 9 7 -8 -9 -10 -11 12 -13 -14
leaf_value=-1.5512975820316837 1.0569556918022223 45.34771392519923 2.0081842292489722 0.1796054119787561 -0.38438066384943942 0.93095268170453016 14.282014260982997 -0.90828784905058813 -0.55100768200571915 -0.15359369336393547 0.16861634961392621 0.36208427825722816 -0.46155917097709842
leaf_weight=384 34 64 52 58 87 46 32 34 54 33 45 44 41
leaf_count=384 34 64 52 58 87 46 32 34 54 33 45 44 41
internal_value=-0.007577 0.00509181 0.000304116 0.014414 -0.0056645 0.00855519 0.00819784 0 0.00321737 -0.0132476 0.00105221 0.0165481 -0.00214654
internal_weight=1008 624 416 208 240 176 144 80 112 120 120 96 86
internal_count=1008 624 416 208 240 176 144 80 112 120 120 96 86
cat_boundaries=0 1 2
cat_threshold=10 2
is_linear=0
shrinkage=0.0293497


Tree=52
num_leaves=15
num_cat=1
split_feature=4 4 13 1 4 1 4 4 2 1 9 3 4 4
split_gain=304.162 32.7067 19.9838 17.5606 11.5064 9.96368 8.45837 8.02612 7.61045 2.64686 4.00811 1.91525 0.204559 0.124915
threshold=252.5519536762809 865.33312693746313 0 0.25000000000000011 4045.6410113866414 1.0000000180025095e-35 1372.7146778288031 678.75358175068629 -0.24999999999999997 -0.93301270189221908 0.044959677419354846 2.5000000000000004 215.06016458080848 404.44681781249193
decision_type=2 2 9 2 2 2 2 2 2 2 2 2 2 2
left_child=12 2 8 -3 6 9 -5 11 13 -4 -11 -7 -1 -2
right_child=1 3 5 4 -6 7 -8 -9 -10 10 -12 -13 -14 -15
leaf_value=-1.5024835290258924 0.71054892111061552 44.01677437914357 -0.13653874630510546 0.17433405594342369 13.86284213670287 -0.39424241752582434 -0.53483579922081093 0.14976233147654655 0.0048052451576140898 -0.13400088833422497 1.1184937396131649 -0.30167061046594534 -1.5371121179355618 1.0409508797502172
leaf_weight=356 48 64 34 58 32 76 54 36 55 32 35 54 32 42
leaf_count=356 48 64 34 58 32 76 54 36 55 32 35 54 32 42
internal_value=-0.00775164 0.0049354 2.23465e-05 0.014414 0.00819784 -0.00458387 0.00321737 -0.00923098 0.00856204 0.00211843 0.00580358 -0.0126815 -0.0281391 0.0143982
internal_weight=1008 620 412 208 144 267 112 166 145 101 67 130 388 90
internal_count=1008 620 412 208 144 267 112 166 145 101 67 130 388 90
cat_boundaries=0 1
cat_threshold=268470282
is_linear=0
shrinkage=0.0293497


Tree=53
num_leaves=15
num_cat=2
split_feature=4 4 6 13 4 4 5 7 4 7 14 6 5 4
split_gain=299.824 32.8211 15.3959 15.1873 11.9381 12.1655 9.70233 8.53787 8.46729 12.4338 4.19952 3.751 2.53753 0.418271
threshold=248.69965931440211 865.33312693746313 9.2897849462365603 0 4045.6410113866414 1372.7146778288031 62.616579781106005 66.044948476702515 545.32881348854892 70.688172043010766 1 15.592930107526882 39.532184139784952 463.76507462979936
decision_type=2 2 2 9 2 2 2 2 2 2 1 2 2 2
left_child=-1 3 4 7 5 -3 8 -2 9 -5 13 -8 -10 -9
right_child=1 2 -4 6 -6 -7 11 10 12 -11 -12 -13 -14 -15
leaf_value=-1.4616701742993223 2.0063288005290207 0.17651834491998336 35.9992732986981 -0.27434760002397229 13.455972567689997 -0.91179885091690616 -0.24265868181717837 0.16079569547559586 0.10509165744227889 -0.50215368238721103 -0.41870396882448269 0.98588377652526571 -0.22015788845191775 0.16599072900397829
leaf_weight=384 34 58 68 57 32 50 52 32 33 38 33 50 40 47
leaf_count=384 34 58 68 57 32 50 52 32 33 38 33 50 40 47
internal_value=-0.00786807 0.00462172 0.0141322 -2.21318e-05 0.00801322 0.00279432 -0.00422073 0.00719309 -0.00877259 -0.0145666 0.00321737 0.00238454 -0.000525888 0.00714549
internal_weight=1008 624 208 416 140 108 270 146 168 95 112 102 73 79
internal_count=1008 624 208 416 140 108 270 146 168 95 112 102 73 79
cat_boundaries=0 1 2
cat_threshold=268470282 2
is_linear=0
shrinkage=0.0293497


Tree=54
num_leaves=13
num_cat=1
split_feature=4 4 1 13 4 7 4 8 1 4 10 10
split_gain=296.429 34.0997 13.399 11.6067 10.8355 9.65857 7.4458 6.05682 3.0211 7.69773 3.5305 1.16129
threshold=248.69965931440211 865.33312693746313 0.25000000000000011 0 4045.6410113866414 66.044948476702515 1372.7146778288031 3.974307795698925 1.0000000180025095e-35 453.99139288516056 1010.553561827957 1016.692615740741
decision_type=2 2 2 9 2 2 2 2 2 2 2 2
left_child=-1 3 -3 7 6 -5 -4 -2 11 -10 -11 -7
right_child=1 2 4 5 -6 8 -8 -9 9 10 -12 -13
leaf_value=-1.4187706658153014 -0.22790661245050894 41.668331360622709 0.16403666066771186 1.5838772105574563 13.061044478249377 1.0040673747819913 -0.4923775781131588 -0.44989548376993233 -0.32636207814998713 -0.10390462946644435 0.14437978300104867 0.0076940581733669373
leaf_weight=384 56 64 58 66 32 41 54 53 48 58 57 37
leaf_count=384 56 64 58 66 32 41 54 53 48 58 57 37
internal_value=-0.0079845 0.00443368 0.0141322 -0.000304116 0.00860454 0.00252624 0.00373993 -0.00819363 0 -0.00239244 0.00135231 0.0046139
internal_weight=1008 624 208 416 144 307 112 109 241 163 115 78
internal_count=1008 624 208 416 144 307 112 109 241 163 115 78
cat_boundaries=0 1
cat_threshold=68165680
is_linear=0
shrinkage=0.0293497


Tree=55
num_leaves=15
num_cat=2
split_feature=4 4 15 1 1 4 16 4 4 2 7 4 9 4
split_gain=294.739 29.8836 21.5494 13.7159 12.2845 11.6517 10.3761 6.30475 6.28664 5.39465 4.83606 3.49716 0.867688 0.106805
threshold=248.69965931440211 904.67989906041112 0 1.0000000180025095e-35 0.25000000000000011 4045.6410113866414 1 1372.7146778288031 678.75358175068629 -0.24999999999999997 73.810595878136212 548.80715798922017 0.030309139784946242 418.8829960126352
decision_type=2 2 9 2 2 2 1 2 2 2 2 2 2 2
left_child=-1 2 3 12 -3 7 9 -6 10 -4 13 -8 -2 -5
right_child=1 4 6 8 5 -7 11 -9 -10 -11 -12 -13 -14 -15
leaf_value=-1.3771302429037511 -0.024031121530463266 40.498774476105751 0.90569677812677962 -0.097580170332567287 0.1541330256482932 12.677707390131372 0.53493092324558278 -0.4779264683751267 -0.022496974979814986 -0.86186445110919796 -0.46727940234697468 0.36856502820301623 0.90434006856059179 -0.26324602935950708
leaf_weight=384 48 63 46 38 55 32 62 54 37 34 41 35 42 37
leaf_count=384 48 63 46 38 55 32 62 54 37 34 41 35 42 37
internal_value=-0.00804272 0.00433966 -2.19212e-05 -0.00571327 0.0135471 0.00816419 0.00741281 0.00303721 -0.0113535 0 -0.0147123 0.0142673 0.00270131 -0.00908336
internal_weight=1008 624 420 243 204 141 177 109 153 80 116 97 90 75
internal_count=1008 624 420 243 204 141 177 109 153 80 116 97 90 75
cat_boundaries=0 1 2
cat_threshold=10 2
is_linear=0
shrinkage=0.0293497


Tree=56
num_leaves=15
num_cat=1
split_feature=4 4 15 1 4 2 4 4 7 4 7 9 4 4
split_gain=288.801 29.741 12.4249 10.807 11.6517 8.59483 6.94025 6.30475 5.4417 2.57831 3.41668 3.25493 1.95557 0.204559
threshold=252.5519536762809 904.67989906041112 0 0.25000000000000011 4045.6410113866414 -0.5 548.80715798922017 1372.7146778288031 65.506070788530479 569.63557291704751 78.790994623655919 0.03590277777777779 346.40857524846075 215.06016458080848
decision_type=2 2 9 2 2 2 2 2 2 2 2 2 2 2
left_child=13 2 5 -3 7 12 -7 -5 -4 11 -11 -10 -2 -1
right_child=1 3 8 4 -6 6 -8 -9 9 10 -12 -13 -14 -15
leaf_value=-1.3334279403967615 -0.099509508086877904 39.310149607254608 2.5154750387916849 0.149609275244316 12.305621111500427 -0.39559873763014186 -0.0098907166035766721 -0.46389949365449551 -0.0065714470498767583 -0.2277882775353896 0.099775147056018032 0.47147333892458571 0.21515226807416288 -1.3670401923312088
leaf_weight=356 47 63 39 55 32 68 33 54 54 43 41 52 39 32
leaf_count=356 47 63 39 55 32 68 33 54 54 43 41 52 39 32
internal_value=-0.00827557 0.00408376 -0.000304116 0.0132598 0.00816419 -0.00584729 -0.0119663 0.00303721 0.00408536 0.00189885 -0.00150138 0.00505505 0.000106731 -0.0281391
internal_weight=1008 620 416 204 141 187 101 109 229 190 84 106 86 388
internal_count=1008 620 416 204 141 187 101 109 229 190 84 106 86 388
cat_boundaries=0 1
cat_threshold=18
is_linear=0
shrinkage=0.0293497


Tree=57
num_leaves=14
num_cat=2
split_feature=4 4 15 5 6 4 16 4 6 4 9 4 6
split_gain=288.028 28.5766 19.5702 11.8708 11.3773 12.8439 10.5182 8.34749 6.71165 5.83718 4.46506 1.20836 1.17537
threshold=248.69965931440211 904.67989906041112 0 62.616579781106005 9.2897849462365603 4045.6410113866414 1 1372.7146778288031 6.8523611111111116 678.75358175068629 0.04793682795698926 370.56905669001179 14.301478494623657
decision_type=2 2 9 2 2 2 1 2 2 2 2 2 2
left_child=-1 2 3 9 5 7 8 -3 -4 11 -8 -2 -5
right_child=1 4 6 12 -6 -7 10 -9 -10 -11 -12 -13 -14
leaf_value=-1.2975763080793812 -0.2616271051056539 0.1452182953327858 -0.79199382382573436 -0.064881318191150242 33.69987039761142 11.944455435032395 1.125715664439823 -0.84294450111323782 0.86527731677414876 -0.024765062306835953 0.13667731840763572 -0.30826086691506288 0.93073679986042035
leaf_weight=384 33 55 34 35 67 32 47 50 46 37 50 83 55
leaf_count=384 33 55 34 35 67 32 47 50 46 37 50 83 55
internal_value=-0.00827557 0.00396358 -0.000301222 -0.00571327 0.0129725 0.00754712 0.00678612 0.00203798 -0.000114703 -0.0109707 0.0136642 -0.0142077 0.00205148
internal_weight=1008 624 420 243 204 137 177 105 80 153 97 116 90
internal_count=1008 624 420 243 204 137 177 105 80 153 97 116 90
cat_boundaries=0 1 2
cat_threshold=10 2
is_linear=0
shrinkage=0.0293497


Tree=58
num_leaves=14
num_cat=1
split_feature=4 4 6 4 4 6 4 6 14 6 1 6 4
split_gain=283.651 29.1609 11.3773 12.8439 8.34749 8.21329 5.9481 14.6099 5.49986 12.4246 4.29304 1.89244 0.812705
threshold=248.69965931440211 904.67989906041112 9.2897849462365603 4045.6410113866414 1372.7146778288031 13.307392473118282 534.46341720090197 2.9213888888888895 0 3.9193055555555563 1.0000000180025095e-35 15.932594086021506 373.75386785630633
decision_type=2 2 2 2 2 2 2 2 1 2 2 2 2
left_child=-1 5 3 4 -3 6 7 -2 9 -8 11 -7 -9
right_child=1 2 -4 -5 -6 10 8 12 -10 -11 -12 -13 -14
leaf_value=-1.2594928971869064 -0.44490933096742308 0.14095618914617669 32.71079098595429 11.593889844872622 -0.818204374774955 0.42608386349618632 0.16658207654667359 0.032003024536788875 -0.95749059776095324 -0.2665937625392194 -0.066075286145825807 1.5648734181429167 -0.14139514059464936
leaf_weight=384 42 55 67 32 50 48 58 32 37 40 52 55 56
leaf_count=384 42 55 67 32 50 48 58 32 37 40 52 55 56
internal_value=-0.00827557 0.00386956 0.0129725 0.00754712 0.00203798 -0.000440872 -0.00368503 -0.00817767 0.00028496 0.00427241 0.00478305 0.00832621 -0.000768854
internal_weight=1008 624 204 137 105 420 265 130 135 98 155 103 88
internal_count=1008 624 204 137 105 420 265 130 135 98 155 103 88
cat_boundaries=0 1
cat_threshold=2
is_linear=0
shrinkage=0.0293497


Tree=59
num_leaves=16
num_cat=2
split_feature=4 4 15 5 14 6 4 4 2 4 7 4 6 4 4
split_gain=279.434 26.6699 17.1509 11.3834 10.5286 8.73803 12.8439 8.34749 5.9077 3.76518 3.94163 3.13144 1.17537 0.737121 0.108045
threshold=252.5519536762809 904.67989906041112 0 62.616579781106005 1 9.2897849462365603 4045.6410113866414 1372.7146778288031 -0.24999999999999997 678.75358175068629 73.810595878136212 548.80715798922017 14.301478494623657 418.8829960126352 215.06016458080848
decision_type=2 2 9 2 1 2 2 2 2 2 2 2 2 2 2
left_child=14 2 3 9 11 6 7 -3 -6 10 13 -4 -5 -2 -1
right_child=1 5 4 12 8 -7 -8 -9 -10 -11 -12 -13 -14 -15 -16
leaf_value=-1.2192432096400851 -0.083616988663101036 0.13681917428572818 0.50929324341021109 -0.063916351769609317 0.83570397287362408 31.750740709157974 11.253613232194702 -0.79419036249332164 -0.81811835728489757 -0.028927342082762365 -0.39316386894790911 0.32731264644028529 0.85749151265233692 -0.25616018150007008 -1.2518689537341299
leaf_weight=356 38 55 62 35 44 67 32 50 34 37 39 35 55 37 32
leaf_count=356 38 55 62 35 44 67 32 50 34 37 39 35 55 37 32
internal_value=-0.00845022 0.00370526 -0.000445108 -0.00552518 0.0062259 0.012398 0.00754712 0.00203798 -0.000867009 -0.0107278 -0.0134294 0.0130611 0.00205148 -0.00830413 -0.027988
internal_weight=1008 620 416 241 175 204 137 105 78 151 114 97 90 75 388
internal_count=1008 620 416 241 175 204 137 105 78 151 114 97 90 75 388
cat_boundaries=0 1 2
cat_threshold=10 2
is_linear=0
shrinkage=0.0293497


Tree=60
num_leaves=16
num_cat=4
split_feature=16 14 13 2 16 5 9 2 8 2 2 9 1 9 8
split_gain=213.139 82.7553 23.4671 12.0307 9.90355 5.96309 4.38661 3.72561 3.59032 2.20196 1.46005 1.36948 1.15484 0.808973 0.753935
threshold=0 1 2 1.0000000180025095e-35 3 56.636407738095251 0.039231150793650797 1.0000000180025095e-35 3.8660618279569898 -0.5 -0.24999999999999997 0.021510176651305685 1.0000000180025095e-35 0.066209677419354851 3.2067809139784949
decision_type=1 1 9 2 1 2 2 2 2 2 2 2 2 2 2
left_child=1 -1 8 12 5 11 -7 -6 -2 -10 -8 -4 -3 14 -13
right_child=2 3 4 -5 7 6 10 -9 9 -11 -12 13 -14 -15 -16
leaf_value=-1.2149013129352939 -0.024050245734163329 0.77129101314905424 0.13380660445707493 -1.1292013927797366 34.921101502960461 0.72677511494955227 1.1948263351603547 7.2301506916514144 -0.80924565496896095 -0.035644825612913607 -0.017224174932699815 -0.13769402976642314 0.40301380950331234 0.079874787367521391 0.0045194772486292127
leaf_weight=378 50 42 40 42 66 53 39 33 32 44 32 34 42 46 35
leaf_count=378 50 42 40 42 66 53 39 33 32 44 32 34 42 46 35
internal_value=-0.00850843 -0.0220161 0.00490667 -0.00100223 0.00848858 0.00560177 0.0104608 0.0169348 -0.00566494 -0.0101179 0.00465522 0.00138197 0.00498168 0 -0.00224954
internal_weight=1008 504 504 126 378 279 124 99 126 76 71 155 84 115 69
internal_count=1008 504 504 126 378 279 124 99 126 76 71 155 84 115 69
cat_boundaries=0 1 2 3 4
cat_threshold=2 2 336666640 4
is_linear=0
shrinkage=0.0293497


Tree=61
num_leaves=16
num_cat=2
split_feature=4 4 15 1 4 1 16 1 4 7 9 4 9 4 4
split_gain=266.909 24.9742 19.0488 10.5367 12.3918 10.3428 9.8962 4.70515 3.98147 4.39654 3.69455 8.61696 3.1035 1.0711 0.737121
threshold=248.69965931440211 935.80339264338829 0 1.0000000180025095e-35 4045.6410113866414 1.0000000180025095e-35 1 0.25000000000000011 678.75358175068629 73.810595878136212 0.054052419354838711 1537.1923440399812 0.04793682795698926 392.54222910431639 418.8829960126352
decision_type=2 2 9 2 2 2 1 2 2 2 2 2 2 2 2
left_child=-1 2 5 -3 10 13 7 -4 9 14 11 -5 -8 -2 -7
right_child=1 3 6 4 -6 8 12 -9 -10 -11 -12 -13 -14 -15 -16
leaf_value=-1.1510859305455101 1.0053392149088849 35.251374216515615 0.96405275913238264 0.14529020223591585 10.775179294991172 -0.080314372013083057 0.87606607462898778 -0.57583161383462533 -0.030422631786051563 -0.40844237175572312 1.2381589485446296 -1.9936434480692709 0.10543865731195057 -0.043961550912965955 -0.25098626682754588
leaf_weight=384 34 47 36 46 32 38 49 45 37 41 37 38 50 57 37
leaf_count=384 34 47 36 46 32 38 49 45 37 41 37 38 50 57 37
internal_value=-0.00856664 0.00321142 -0.000713384 0.0117665 0.00752524 -0.006037 0.00621655 -0.00047416 -0.0109707 -0.0137031 0.00273682 -0.000109262 0.0127981 0.00106495 -0.00830413
internal_weight=1008 624 424 200 153 244 180 81 153 116 121 84 99 91 75
internal_count=1008 624 424 200 153 244 180 81 153 116 121 84 99 91 75
cat_boundaries=0 1 2
cat_threshold=10 2
is_linear=0
shrinkage=0.0293497


Tree=62
num_leaves=15
num_cat=2
split_feature=4 4 15 1 4 1 16 9 4 4 6 9 4 6
split_gain=262.424 24.3928 16.8808 10.5367 12.3918 9.27035 8.97352 3.69455 8.61696 3.40554 3.33287 2.72601 1.30693 1.14192
threshold=252.5519536762809 935.80339264338829 0 1.0000000180025095e-35 4045.6410113866414 1.0000000180025095e-35 1 0.054052419354838711 1537.1923440399812 678.75358175068629 6.8523611111111116 0.03590277777777779 431.27233741278923 15.932594086021506
decision_type=2 2 9 2 2 2 1 2 2 2 2 2 2 2
left_child=-1 2 5 -3 7 13 10 8 -5 12 -4 -8 -7 -2
right_child=1 3 6 4 -6 9 11 -9 -10 -11 -12 -13 -14 -15
leaf_value=-1.1173019610074122 -0.042671294766591726 34.216758710319255 -0.65010775453452363 0.14102598560684457 10.458931550657256 -0.1348212848332187 1.4761839625025288 1.2018194163768339 -1.9351307100259172 -0.029529738181625628 0.78824655812753497 0.13142328414016902 -0.36913148258591422 1.0965003943261409
leaf_weight=388 59 47 35 46 32 57 43 37 38 37 44 56 57 32
leaf_count=388 59 47 35 46 32 57 43 37 38 37 44 56 57 32
internal_value=-0.00845022 0.00332676 -0.000580522 0.0117665 0.00752524 -0.0056196 0.00597088 0.00273682 -0.000109262 -0.0103399 -0.000486114 0.0122072 -0.012916 0.00106495
internal_weight=1008 620 420 200 153 242 178 121 84 151 79 99 114 91
internal_count=1008 620 420 200 153 242 178 121 84 151 79 99 114 91
cat_boundaries=0 1 2
cat_threshold=10 2
is_linear=0
shrinkage=0.0293497


Tree=63
num_leaves=15
num_cat=5
split_feature=16 14 13 5 2 16 16 9 9 7 2 2 1 9
split_gain=196.942 81.8783 19.7454 11.1327 10.3105 5.84306 2.91425 4.38661 2.1777 1.67412 1.46005 0.611989 0.209906 0.199245
threshold=0 1 2 56.636407738095251 1.0000000180025095e-35 3 4 0.039231150793650797 0.021510176651305685 78.8239247311828 -0.24999999999999997 -0.5 1.0000000180025095e-35 0.06468189964157707
decision_type=1 1 9 2 2 1 1 2 2 2 2 2 2 2
left_child=1 -1 11 5 12 8 7 -5 -4 13 -9 -2 -3 -10
right_child=2 4 3 6 -6 -7 -8 10 9 -11 -12 -13 -14 -15
leaf_value=-1.1126679928554928 -0.42296526952031271 0.7562274012182042 0.10330515364445624 0.68389666893338386 -1.0771894903440016 9.1135805496963034 29.388653975912774 1.1268047738516695 -0.035191956670207677 -0.036244569572611768 -0.014567539011628701 -0.067680631256809398 0.41483759936977749 0.12018189597924159
leaf_weight=378 56 42 40 53 42 55 44 39 51 32 32 70 42 32
leaf_count=378 56 42 40 53 42 55 44 39 51 32 32 70 42 32
internal_value=-0.00845022 -0.0214341 0.00444111 0.00773279 -0.000537584 0.0031137 0.0136546 0.0104608 0 -0.00186127 0.00465522 -0.00523437 0.00498168 0
internal_weight=1008 504 504 378 126 210 168 124 155 115 71 126 84 83
internal_count=1008 504 504 378 126 210 168 124 155 115 71 126 84 83
cat_boundaries=0 1 2 3 4 5
cat_threshold=2 2 336666640 4 4
is_linear=0
shrinkage=0.0293497


Tree=64
num_leaves=15
num_cat=1
split_feature=4 4 2 15 4 7 1 4 4 1 4 7 7 10
split_gain=254.121 24.1747 10.7576 11.111 14.787 9.58543 8.92607 12.3863 7.94977 3.80932 2.32672 1.96568 1.82963 4.0304
threshold=252.5519536762809 813.49450120768495 1.0000000180025095e-35 0 402.96277702985594 66.044948476702515 1.0000000180025095e-35 4045.6410113866414 564.01065308573266 1.0000000180025095e-35 1537.1923440399812 84.917261904761929 71.469444444444449 1011.0346102150539
decision_type=2 2 2 9 2 2 2 2 2 2 2 2 2 2
left_child=-1 2 3 4 9 -5 -3 10 -4 -2 11 -8 -7 -14
right_child=1 6 8 5 -6 12 7 -9 -10 -11 -12 -13 13 -15
leaf_value=-1.0518531226600658 1.0649990164239467 33.149545165559509 -0.45089582739673389 0.72991361728799409 1.9553001489926463 -0.2406661786959407 0.023587933740482136 9.442464617184573 -0.026476948921232632 -0.084353450094512714 -0.64427150857592941 0.12533487313671438 0.049820622277889019 -0.73030727288863106
leaf_weight=388 33 50 35 58 37 55 33 32 58 32 59 46 52 40
leaf_count=388 33 50 35 58 37 55 33 32 58 32 59 46 52 40
internal_value=-0.00845022 0.00313751 -0.00104941 0.00146246 0.00896551 -0.0023599 0.0109648 0.0072911 -0.00984727 0.000590285 0.00303699 0.00640556 -0.00663645 -0.00327855
internal_weight=1008 620 400 307 102 205 220 170 93 65 138 79 147 92
internal_count=1008 620 400 307 102 205 220 170 93 65 138 79 147 92
cat_boundaries=0 1
cat_threshold=3
is_linear=0
shrinkage=0.0293497


Tree=65
num_leaves=15
num_cat=3
split_feature=14 6 15 12 6 10 6 5 7 1 10 6 1 7
split_gain=24.865 11.5474 8.60483 7.846 4.9432 4.759 2.31092 1.89245 1.40571 1.13579 1.00604 1.55724 0.339188 0.127889
threshold=0 2.9213888888888895 1 2 11.456080869175628 1010.2645161290324 15.592930107526882 56.636407738095251 77.45836693548388 1.0000000180025095e-35 1014.9509722222223 9.4959318996415778 0.25000000000000011 71.15967741935485
decision_type=1 2 9 9 2 2 2 2 2 2 2 2 2 2
left_child=2 -2 3 7 -4 -5 -3 13 -9 -6 12 -12 -7 -1
right_child=1 6 4 5 9 10 -8 8 -10 -11 11 -13 -14 -15
leaf_value=-0.77462514953191708 -0.55213016103313739 0.49545241977449483 -0.67124725043080657 -0.4063587713123909 -0.38315273782084602 1.0863419355335797 1.8993392226181367 -0.18287510284227002 -0.72670126977156158 -0.48159684973073741 0.0074305910210770076 -0.70887300981061174 -0.19189681020993538 -0.94962006940659993
leaf_weight=77 52 52 228 72 76 52 40 32 96 38 36 32 42 83
leaf_count=77 52 52 228 72 76 52 40 32 96 38 36 32 42 83
internal_value=-0.00850843 0.00250404 -0.0104014 -0.00729503 -0.014354 -0.00268041 0.0090003 -0.0106559 -0.0073903 -0.00880867 0 -0.00271199 0.00196449 -0.0136037
internal_weight=1008 144 864 522 342 234 92 288 128 114 162 68 94 160
internal_count=1008 144 864 522 342 234 92 288 128 114 162 68 94 160
cat_boundaries=0 1 2 3
cat_threshold=2 9 12905
is_linear=0
shrinkage=0.0293497


Tree=66
num_leaves=16
num_cat=5
split_feature=16 14 13 6 5 16 8 5 6 16 9 9 10 10 7
split_gain=200.447 76.3336 19.7678 8.97956 7.9568 4.18572 2.60586 5.57059 2.52922 1.92596 1.36948 1.63204 0.463561 2.56555 0.46149
threshold=0 1 2 2.9213888888888895 56.636407738095251 3 3.6578629032258072 53.711622311827966 15.592930107526882 4 0.021510176651305685 0.066209677419354851 1013.2194220430109 1017.2465277777779 75.893234767025106
decision_type=1 1 9 2 2 1 2 2 2 1 2 2 2 2 2
left_child=1 -1 6 -3 5 10 -2 -8 -5 12 -4 14 -6 -14 -12
right_child=2 3 4 8 9 -7 7 -9 -10 -11 11 -13 13 -15 -16
leaf_value=-1.0255798352818644 0.024226939616178913 -0.88059872001875839 0.11463213842717279 0.036666925020714239 2.2490827397308788 8.5968381298788827 -0.029541489216077365 -0.54152135125149703 1.4159653931193072 27.566527574336025 -0.05281692480955253 0.076789543497735299 0.21783580321760876 0.14278019683337526 -0.050985030739302287
leaf_weight=378 36 46 40 46 50 55 56 34 34 44 37 46 41 33 32
leaf_count=378 36 46 40 46 50 55 56 34 34 44 37 46 41 33 32
internal_value=-0.00810093 -0.0212013 0.00490667 -0.00100223 0.00818626 0.00423002 -0.00480381 -0.00789992 0.00449902 0.0133059 0.00138197 0 0.0104608 0.0072313 -0.0030962
internal_weight=1008 504 504 126 378 210 126 90 80 168 155 115 124 74 69
internal_count=1008 504 504 126 378 210 126 90 80 168 155 115 124 74 69
cat_boundaries=0 1 2 3 4 5
cat_threshold=2 2 336666640 4 4
is_linear=0
shrinkage=0.0293497


Tree=67
num_leaves=15
num_cat=1
split_feature=4 4 6 13 6 1 1 4 5 6 10 4 4 6
split_gain=254.399 25.5198 13.1028 10.1485 11.1848 6.82547 6.81883 10.7541 5.69396 3.09267 1.32172 1.29975 2.54726 0.786653
threshold=252.5519536762809 762.58182896141136 -2.2668346774193546 0 11.456080869175628 0.25000000000000011 1.0000000180025095e-35 4045.6410113866414 39.532184139784952 -7.4445732526881709 1010.641960125448 419.86225585903509 368.16476071192187 13.307392473118282
decision_type=2 2 2 9 2 2 2 2 2 2 2 2 2 2
left_child=13 2 -2 5 10 -4 -3 8 -8 -10 -5 12 -6 -1
right_child=1 6 3 4 11 -7 7 -9 9 -11 -12 -13 -14 -15
leaf_value=-1.0827332499712303 -0.38550491384983748 32.084755188882532 -0.60904541201593554 -0.10944387535745058 0.96869210532090799 0.016226836210646609 -0.22861017998053143 8.6592402364400431 0.0030219569247816368 0.37533673746488183 0.081100169069360864 0.59706648552359598 3.7751878214793977 -0.68910295950025968
leaf_weight=255 62 51 60 56 34 44 47 32 38 68 57 39 32 133
leaf_count=255 62 51 60 56 34 44 47 32 38 68 57 39 32 133
internal_value=-0.0079845 0.00361063 -0.000940362 0.00130335 0.00492488 -0.00572817 0.011216 0.00812626 0.00446261 0.00836732 -0.000858223 0.0120691 0.015183 -0.0266275
internal_weight=1008 620 384 322 218 104 236 185 153 106 113 105 66 388
internal_count=1008 620 384 322 218 104 236 185 153 106 113 105 66 388
cat_boundaries=0 1
cat_threshold=335552529
is_linear=0
shrinkage=0.0293497


Tree=68
num_leaves=16
num_cat=1
split_feature=4 4 6 15 6 1 4 4 4 1 9 6 6 6 4
split_gain=248.118 22.2718 13.176 16.5537 10.5361 7.07414 9.5772 6.26925 3.38683 2.83497 2.53801 2.28284 1.12815 0.786653 0.0932384
threshold=252.5519536762809 702.04954948071293 -3.5825268817204297 0 14.301478494623657 1.0000000180025095e-35 4045.6410113866414 404.44681781249193 1135.9860450634139 1.0000000180025095e-35 0.054052419354838711 7.7752430555555554 19.151987007168461 13.307392473118282 845.96862934309672
decision_type=2 2 2 9 2 2 2 2 2 2 2 2 2 2 2
left_child=13 2 -2 4 11 -3 8 9 14 -5 -10 -4 -6 -1 -7
right_child=1 5 3 7 12 6 -8 -9 10 -11 -12 -13 -14 -15 -16
leaf_value=-1.0509554077057286 -0.41083743489888858 31.143078843811715 -0.034509782185657575 1.030877549356958 -0.056481207583135767 0.067257833354541344 8.4050945635515504 1.061906327086839 -0.59410935426643785 -0.046031947032351028 1.382651875772003 -0.54490824816458183 0.55001355608868296 -0.66887802861144552 0.09151147579087078
leaf_weight=255 39 51 46 37 51 42 32 50 57 34 33 67 40 133 41
leaf_count=255 39 51 46 37 51 42 32 50 57 34 33 67 40 133 41
internal_value=-0.00821736 0.00323213 -0.00131421 0.000479396 -0.00442495 0.00988287 0.00704886 0.00878584 0.00394769 0.00300938 0 -0.0106992 0.00235038 -0.0266275 0.00821133
internal_weight=1008 620 364 325 204 256 205 121 173 71 90 113 91 388 83
internal_count=1008 620 364 325 204 256 205 121 173 71 90 113 91 388 83
cat_boundaries=0 1
cat_threshold=24
is_linear=0
shrinkage=0.0293497


Tree=69
num_leaves=12
num_cat=4
split_feature=16 13 12 6 5 16 8 8 5 10 10
split_gain=188.206 19.2992 8.23352 7.95292 7.75961 4.98897 1.9279 1.86496 3.55557 1.11756 0.56574
threshold=0 1 2 15.592930107526882 56.636407738095251 3 3.4067780337941631 3.6578629032258072 53.711622311827966 1009.9737231182797 1013.2194220430109
decision_type=1 9 9 2 2 1 2 2 2 2 2
left_child=2 7 3 -1 5 6 -3 -2 -9 -8 -6
right_child=1 4 -4 -5 10 -7 9 8 -10 -11 -12
leaf_value=-0.84480992665075394 0.0093925801150570656 -0.044306587105225954 -0.97999996648498855 -0.20501932579931784 2.8839052426509419 7.8436916778466159 -0.011459121956135168 -0.030485242422970703 -0.51662681519201636 0.11072764357402531 0.36377109234715788
leaf_weight=176 36 58 261 67 67 55 35 56 34 62 101
leaf_count=176 36 58 261 67 67 55 35 56 34 62 101
internal_value=-0.00827557 0.00432472 -0.0209686 -0.0140548 0.00758163 0.00367186 0.000626168 -0.00523437 -0.00789992 0.00341167 0.0126084
internal_weight=1008 504 504 243 378 210 155 126 90 97 168
internal_count=1008 504 504 243 378 210 155 126 90 97 168
cat_boundaries=0 1 2 3 4
cat_threshold=2 336666640 25090 4
is_linear=0
shrinkage=0.0293497


Tree=70
num_leaves=17
num_cat=1
split_feature=4 4 13 2 6 4 4 6 6 10 10 10 4 6 4 6
split_gain=244.065 21.3746 11.6443 9.49679 6.13982 10.1356 4.84143 4.14106 3.42358 2.34836 1.88699 2.32286 1.69554 1.46705 0.788109 0.515286
threshold=252.5519536762809 702.04954948071293 0 -0.24999999999999997 10.373184363799284 4045.6410113866414 1113.6513602120187 4.839930555555557 -2.2668346774193546 1010.2960349462367 1014.5336111111113 1010.8431698028675 418.8829960126352 8.5851478494623681 813.49450120768495 13.307392473118282
decision_type=2 2 9 2 2 2 2 2 2 2 2 2 2 2 2 2
left_child=15 2 3 9 5 6 14 -8 -4 -2 11 13 -13 -10 -3 -1
right_child=1 4 8 -5 -6 -7 7 -9 10 -11 -12 12 -14 -15 -16 -17
leaf_value=-0.99134757767832271 0.45511377021947708 0.007855081112967708 -0.31048851898395363 -0.41335154506016536 24.675385204294507 8.0379648961719532 -0.25258023101322569 14.358975143547903 -0.013764694795168919 1.4400835211464416 -0.29827314639007407 -0.32849409066485968 0.45627323260299651 -0.3174231687232778 0.13460172494619491 -0.62048403605175961
leaf_weight=255 32 34 40 34 59 32 63 32 35 47 62 45 34 35 36 133
leaf_count=255 32 34 40 34 59 32 63 32 35 47 62 45 34 35 36 133
internal_value=-0.00821736 0.00313751 -0.00131421 0.00602409 0.00965387 0.00673969 0.00342863 -0.000404526 -0.00486452 0.012325 -0.00323784 -0.00104441 0.00196598 -0.00513872 0.00931181 -0.0264764
internal_weight=1008 620 364 113 256 197 165 95 251 79 211 149 79 70 70 388
internal_count=1008 620 364 113 256 197 165 95 251 79 211 149 79 70 70 388
cat_boundaries=0 1
cat_threshold=536903690
is_linear=0
shrinkage=0.0293497


Tree=71
num_leaves=16
num_cat=5
split_feature=16 14 13 16 6 13 1 8 6 3 8 6 6 8 10
split_gain=181.35 78.2542 16.2425 9.39806 8.84982 8.73793 4.93511 2.94226 2.86194 2.57088 2.53801 1.92787 1.75319 1.15438 0.199386
threshold=0 1 2 3 15.592930107526882 4 1.0000000180025095e-35 3.1412948028673839 2.9213888888888895 1.0000000180025095e-35 4.2462365591397857 14.301478494623657 2.9213888888888895 3.6578629032258072 1010.3430779569893
decision_type=1 1 9 1 2 9 2 2 2 2 2 2 2 2 2
left_child=1 -1 9 5 8 11 -7 -8 -3 10 -2 12 -4 -5 -11
right_child=2 4 3 13 -6 6 7 -9 -10 14 -12 -13 -14 -15 -16
leaf_value=-0.8834449288857219 0.11534297956574067 -0.82493333775206512 0.20734629356058848 27.327178675901646 1.3189027652590168 0.50307380004568247 -0.22499574998608105 0.0091415312491075623 0.02786140102541694 -0.060315620777765644 -0.071388441146252132 2.2150013126508985 0.0077237237759370048 12.750033077099388 -0.45299735058984303
leaf_weight=378 57 46 41 36 34 51 46 56 46 33 33 34 33 45 39
leaf_count=378 57 46 41 36 34 51 46 56 46 33 33 34 33 45 39
internal_value=-0.00804272 -0.020503 0.00432472 0.00785648 -7.29367e-05 0.00508914 0 -0.00353178 -0.0051858 -0.00311905 0 0.0109912 0.008021 0.0170741 -0.00743125
internal_weight=1008 504 504 342 126 261 153 102 92 162 90 108 74 81 72
internal_count=1008 504 504 342 126 261 153 102 92 162 90 108 74 81 72
cat_boundaries=0 1 2 3 4 5
cat_threshold=2 2 67182609 4 1081354
is_linear=0
shrinkage=0.0293497


Tree=72
num_leaves=16
num_cat=3
split_feature=4 13 4 7 1 4 13 16 7 4 4 4 4 1 7
split_gain=234.541 21.8458 18.3861 8.52838 7.90259 11.208 4.39504 4.79379 4.05471 3.54123 2.55165 1.92858 0.853873 0.807316 0.756246
threshold=252.5519536762809 0 1637.9741381530396 66.044948476702515 0.25000000000000011 4045.6410113866414 1 2 77.626713709677432 604.97140978451409 678.75358175068629 629.40623862749214 425.90953680479186 0.25000000000000011 70.688172043010766
decision_type=2 9 2 2 2 2 9 1 2 2 2 2 2 2 2
left_child=13 10 3 -3 -4 -6 7 11 14 -10 12 -5 -2 -1 -8
right_child=1 2 4 6 5 -7 8 -9 9 -11 -12 -13 -14 -15 -16
leaf_value=-0.73389234492650401 -0.50389182863043325 1.3295207755444756 62.212576036317017 0.10441167729353822 -0.36280829643323165 7.5083622924677735 -0.15178619811229657 -0.29366501752066754 -0.29881930734176371 0.068119957359729671 -0.23372770451722641 0.29943113427312268 -0.30307563639596602 -0.93668143723750441 -0.3715293154684739
leaf_weight=178 39 75 38 62 38 32 52 38 51 58 35 35 34 210 33
leaf_count=178 39 75 38 62 38 32 52 38 51 58 35 35 34 210 33
internal_value=-0.00827557 0.00285363 0.00541186 0.00249079 0.0163406 0.00931181 0.000295336 0.00430437 -0.0023433 0.000889622 -0.00851091 0.0082364 -0.012533 -0.0261741 -0.00733096
internal_weight=1008 620 512 404 108 70 329 135 194 109 108 97 73 388 85
internal_count=1008 620 512 404 108 70 329 135 194 109 108 97 73 388 85
cat_boundaries=0 1 2 3
cat_threshold=68165648 268470282 4
is_linear=0
shrinkage=0.0293497


Tree=73
num_leaves=15
num_cat=5
split_feature=16 14 13 5 6 16 6 8 10 9 16 9 2 6
split_gain=176.329 78.2542 15.9271 8.4095 7.35219 3.55538 2.23732 1.92358 1.21898 1.1936 1.11124 7.21939 1.10756 0.602532
threshold=0 1 2 56.636407738095251 2.5369444444444453 3 15.592930107526882 3.974307795698925 1012.6774865591399 0.066209677419354851 4 0.039231150793650797 1.0000000180025095e-35 14.301478494623657
decision_type=1 1 9 2 2 1 2 2 2 2 1 2 2 2
left_child=1 -1 8 5 -3 7 -6 9 -2 -4 11 -5 -9 -13
right_child=2 4 3 10 6 -7 -8 12 -10 -11 -12 13 -14 -15
leaf_value=-0.83252806877197894 -0.074577477030420905 -0.83159368753513851 -0.10737590771555819 0.49988034732204606 0.015105109093514226 6.7829937911225944 1.2411724604640624 -0.00091382382935541228 -0.26762689478083651 0.048719540968475125 24.105976392180256 -0.012483480990773652 0.11900017897364119 0.81922267415143157
leaf_weight=378 60 45 47 55 47 55 34 38 48 36 44 36 44 41
leaf_count=378 60 45 47 55 47 55 34 38 48 36 44 36 44 41
internal_value=-0.00821736 -0.020503 0.00397555 0.00666792 -7.29367e-05 0.00270596 0.00480457 0.000233252 -0.00553454 -0.00257602 0.0117035 0.00938481 0.00367676 0.00277589
internal_weight=1008 504 504 396 126 220 81 165 108 83 176 132 82 77
internal_count=1008 504 504 396 126 220 81 165 108 83 176 132 82 77
cat_boundaries=0 1 2 3 4 5
cat_threshold=2 2 68231184 4 4
is_linear=0
shrinkage=0.0293497


Tree=74
num_leaves=14
num_cat=1
split_feature=4 4 15 6 6 4 1 4 5 4 6 5 1
split_gain=221.925 18.9482 15.3738 9.84716 9.06404 9.9621 6.5926 11.1015 6.13386 4.94011 5.44463 3.64598 2.86056
threshold=252.5519536762809 762.58182896141136 0 14.301478494623657 4.839930555555557 327.30303668184587 1.0000000180025095e-35 4045.6410113866414 39.532184139784952 1135.9860450634139 4.839930555555557 73.463790322580664 0.25000000000000011
decision_type=2 2 9 2 2 2 2 2 2 2 2 2 2
left_child=12 2 3 8 -4 -6 -3 9 -2 -8 -11 -5 -1
right_child=1 6 4 11 5 -7 7 -9 -10 10 -12 -13 -14
leaf_value=-0.68791845354624426 -0.017890646313460712 27.566838306099388 -0.047273850639399317 -0.16204640094160305 -0.015427716261634644 1.0438139456817463 0.12549621159835431 6.92690783934487 -0.62230242776025257 -0.51915484059678063 23.974034181708923 0.85441882910812572 -0.88475575691126562
leaf_weight=178 47 51 49 59 35 61 63 32 101 56 34 32 210
leaf_count=178 47 51 49 59 35 61 63 32 101 56 34 32 210
internal_value=-0.00815914 0.00266438 -0.00124582 -0.00580493 0.00591675 0.0116733 0.00922896 0.0062259 -0.0107469 0.00254847 -0.00140166 0.00106495 -0.0255694
internal_weight=1008 620 384 239 145 96 236 185 148 153 90 91 388
internal_count=1008 620 384 239 145 96 236 185 148 153 90 91 388
cat_boundaries=0 1
cat_threshold=24
is_linear=0
shrinkage=0.0293497


Tree=75
num_leaves=16
num_cat=3
split_feature=4 4 15 16 1 4 5 1 2 9 4 4 16 4 4
split_gain=218.666 17.0398 7.62638 10.3362 5.31538 8.59044 5.16043 4.03274 3.9437 3.88568 3.10254 2.12554 1.5411 1.09187 0.143385
threshold=252.5519536762809 762.58182896141136 0 1 1.0000000180025095e-35 4045.6410113866414 39.532184139784952 0.25000000000000011 -0.24999999999999997 0.030309139784946242 379.15373484688661 1145.6293276591566 2 478.3738704968581 1991.1135261607376
decision_type=2 2 9 1 2 2 2 2 2 2 2 2 1 2 2
left_child=7 2 3 -2 -3 6 -6 -1 10 12 -5 -8 -4 -11 -13
right_child=1 4 9 8 5 -7 11 -9 -10 13 -12 14 -14 -15 -16
leaf_value=-0.66772828749296986 -0.80411804916068486 26.757761241667225 0.52377532356541601 -0.087252295055059062 -0.36780094354492526 6.7236055165315438 0.19171714369377918 -0.85878848483629444 -0.046196612545462722 0.64015084702187663 0.30391444918504829 0.013802598785675963 -0.091050398799527435 0.10704754548946585 22.67837740467921
leaf_weight=178 48 51 38 50 47 32 41 210 51 55 35 33 62 45 32
leaf_count=178 48 51 38 50 47 32 41 210 51 55 35 33 62 45 32
