tree
version=v4
num_class=1
num_tree_per_iteration=1
label_index=0
max_feature_idx=16
objective=regression_l1
feature_names=year month_sin month_cos num_holidays consumption_lag_12m eur_per_mwh_lag_12m avg_temp_lag_12m avg_hum_lag_12m wind_lag_12m rain_lag_12m air_pressure_lag_12m m_area region municipality segment p_type c_bucket
feature_infos=[2022:2022] [-1:1] [-1:0.86602540378443871] [0:3] [96.83726634606866:7767.6395599049347] [36.833500000000001:89.301388888888894] [-12.473521505376343:21.38595430107527] [61.541666666666664:94.245967741935488] [0:5.6623655913978501] [0:0.19973118279569893] [1006.6245967741935:1019.3780505952382] -1:3:5:0:2:1:4 -1:13:9:6:8:1:3:4:5:11:2:7:14:0:12 -1:0:1:3:5:20:15:13:4:26:2:9:11:16:28:29:8:10:17:22:27:6:7:12:14:18:19:21:23:24 -1:1:0 -1:3:4:1:0 -1:1:2:0
tree_sizes=788 889 884 958 892 953 1638 901 900 897 1056 885 1039 955 965 1043 1045 961 990 959 1037 1063 1066 1052 1129 1070 1298 1118 1383 1333 1142 1066 1409 1393 1196 1398 1314 1380 1337 1321 1298 1260 1309 1275 1530 1455 1316 1314 1245 1229 1447 1388 1222 1487 1414 1222 1315 1468 1408 1240 1135 1488 1392 1232 1390 1333 1197 1424 1380 1135 1417 1154 1403 1273 1650 1615 1666 1384 1386 1559 1639 1379 1487 1499 1549 1622 1649 1545 1707 1734 1727 1376 1812 1497 1655 1524 1565 1578 1611 1734 1571 1590 1680 1813 1647 1316 1459 1594 1636 1649 1981 1717 1797 1971 1785 1709 1859 1687 1650 1884 1813 1964 1723 1949 2058 1759 1755 1800 1873 1879 1700 1815 1997 1898 1888 2036 1879 1789 1976 2084 2015 1857 1887 2178 1899 1891 1762 1913 1991 1999 1787 1890 2201 1998 1672 1898 1994 2043 1867 2086 1885 1906 1982 1789 1908 1585 1796 1738 1711 1882 1747 1968 1989 1740 1949 1881 1992 1731 1633 1923 2057 1804 1739 1790 1927 1921 1985 1992 2133 1859 2159 2128 1694 2045 1813 1817 2044 1826 1847 2137 1836 2232 1971 1966 2184 2164 1874 2311 2065 2070 2201 1892 1958 1896 2057 2154 1754 2104 2041 1938 1783 2138 2136 2085 2067 1432 1779 1985 2011 2224 2153 2072 1677 1991 2058 2050 1827 2057 2003 1936 2096 1773 2172 1640 2065 1905 1914 1922 2057 2094 2071 2232 1933 2169 2090 1907 2162 1989 2077 2078 2147 2155 2096 2179 2173 2087 1830 2065 2078 2111 2013 2146 2000 2160 1633 2116 1691 1977 1924 2028 2082 2149 1883 2061 1922 2152 1766 2231 1932 2048 1881 1881 1965 2150 2005 1714 2069 1794 2184 1786 1995 1860 1887 1626 1774 2066 2115 2058 1999 2124 2085 1997 1874 1852 2076 2078 1985 1899 2003 2145 2273 1928 2027 2087 2049 2175 1979 1869 2086 2168 1833 1819 2094 2101 2077 2055 2185 2154 1857 1979 2262 1533 2189 2137 2073 1934 1988 2272 1917 2138 2140 1994 2164 2063 1911 2172 2057 2106 2002 2090 1850 2086 2105 1981 2091 1980 2016 2077 2086 1778 2172 1870 2090 2282 1762 2088 1983 1862 2322 2111 1930 1914 2124 1505 1854 2104 1995 2115 2148 1944 2044 1849 1835 2098 1793 2179 1917 2149 2044 2102 1921 2090 2215 1858 2186 1975 1474 2035 2094 1997 1759 1901 1987 2117 1852 2097 2037 1898 2161 1815 2061 2110 2001 2104 2165 2349 2094 2071 2014 1953 2172 2178 2188 1813 2009 2200 1931 2167 2130 1782 1935 2055 2082 2063 2181 2377 2172 2018 1789 2092 1984 1997 2026 1874 1971 1995 2212 1903 2180 2063 2264 1679 1838 2079 1589 2356 1983 2167 2164 1891 2101 2012 1661 1847 2207 1940 2086 1994 2165 2023 2089 2095 2233 2077 2122 1818 2050 2027 1911 2065 2163 2312 2162 2056 2239 1857 2053 1935 2068 1796 2102 1922 1872 1741 1860 2272 1949 2141 2187 1791 2167 1734 2050 2260 2156 2118 1816 2084 2025 2187 2115 2152 2098 2106 2041 1826 1841 2237 1864 2170 1801 2073 2342 2000 2083 2089 2261 2272 1948 1908 2224 1915 2177 1995 2173 2177 1991 2050 2005 2015 1993 2258 2118 1934 1896 2240 1973 2249 1926 1839 2108 2270 2061 2081 1765 1920 2083 1931 2139 2110 1655 2211 2192 2109 2034 2084 2013 2111 2135 2171 2024 2205 2113 2214 2056 2081 2097 2113 1835 2088 2181 1609 1801 1851 1811 2114 1974 2093 1789 2036 1685 1819 1981 2097 2192 1710 2168 1943 2014 2044 2177 2107 2259 1929 2189 2187 1902 2299 2156 2144 2143 1979 2014 2145 1883 2081 2175 1982 1885 2021 1877 1957 2049 1829 1909 1562 2011 2099 2343 2175 2033 2080 1831 2060 2033 1945 2064 2044 1969 1941 1682 1965 2086 1902 2223 2335 2179 1748 1967 2099 2117 2039 1761 1929 2018 2205 2045 2286 2190 2038 1991 1840 1920 2176 2111 2216 2186 1898 2174 1691 2101 1833 2115 2258 2204 2226 2168 1867 1963 2016 1799 1855 2098 2265 2109 2155 1684 1762 2104 2087 1941 2101 1996 2002 1945 1975 2287 2022 2260 2272 2274 2017 1900 2112 1830 1733 2244 1947 1875 1997 2260 2085 2110 2026 1992 1921 1914 2205 1928 1662 2045 2185 1827 2048 2182 2019 1869 1914 2158 1881 2089 1851 2236 1675 2001 2182 2097 2026 2091 2173 2156 2024 1952 2169 1934 2089 2015 1956 2155 1905 2088 1994 2106 2058 2141 2080 2160 2118 2171 2190 2096 2021 2012 2036 2177 2176 2191 2147 2210 1989 2012 1791 2137 2111 2214 2165 2114 2163 2187 2004 2019 2033 2208 2337 1915 2028 2080 2176 2303 2014 2354 2094 2194 2092 2104 1697 2245 1764 1896 2273 1962 2075 2109 2088 2118 1722 2023 2138 2113 2197 2201 2199 2061 1998 2118 1852 2030 2180 2211 1943 2094 2034 1743 2196 2277 2090 1951 2040 1978 2123 2194 1876 2171 2184 2270 2126 2009 2014 2171 2108 2109 2127 2219 2166 1975 2019 1738 2116 1839 2087 2084 1932 1930 1952 2131 2036 2109 2204 2169 1900 2184 1853 1854 2170 1935 1839 1926 1951 2028 2094 1807 1846 2123 1822 2160 1990 1747 2291 2122 1945 2043 1936 2188 1860 2106 1996 2125 2009 2181 2323 1929 2250 1862 2198 1774 1607 2253 2110 2036 1620 1940 1541 2039 1999 2195

Tree=0
num_leaves=8
num_cat=2
split_feature=16 14 2 2 10 2 9
split_gain=503.478 125.224 54.571 27.7788 6.92734 2.96303 0.717201
threshold=0 1 0.25000000000000017 -0.24999999999999997 1012.5921034946238 -0.24999999999999997 0.032385912698412705
decision_type=1 1 2 2 2 2 2
left_child=1 -1 5 6 -4 -2 -3
right_child=2 3 4 -5 -6 -7 -8
leaf_value=382.2672541463802 400.31974660961299 393.02669528338811 389.22459533557969 387.93334641750363 390.5325231633617 393.63969794825664 391.3204047092741
leaf_weight=378 280 37 47 56 65 112 33
leaf_count=378 280 37 47 56 65 112 33
internal_value=389.5 389.479 389.52 389.504 389.502 389.525 389.516
internal_weight=1008 504 504 126 112 392 70
internal_count=1008 504 504 126 112 392 70
cat_boundaries=0 1 2
cat_threshold=2 2
is_linear=0
shrinkage=1


Tree=1
num_leaves=9
num_cat=0
split_feature=4 2 4 2 4 4 4 4
split_gain=600.742 84.1991 63.1808 13.7942 39.9249 8.0913 1.71568 0.276063
threshold=252.5519536762809 0.25000000000000017 961.29014905538259 -0.24999999999999997 478.3738704968581 1414.8232369060063 635.87065526325944 629.40623862749214
decision_type=2 2 2 2 2 2 2 2
left_child=-1 3 7 -2 -5 -4 -6 -3
right_child=1 2 5 4 6 -7 -8 -9
leaf_value=-6.9862173684825892 7.9159615967379064 -2.4833957789314658 0.52779343237169185 -0.52491062760680263 2.7215099878112561 37.233535731218915 18.960086714617901 -0.69810681531751595
leaf_weight=388 339 32 37 35 38 35 66 38
leaf_count=388 339 32 37 35 38 35 66 38
internal_value=-6.73524e-05 0.0178045 -0.0017144 0.0237036 0.0150221 0.0171697 0.0242813 -0.0218311
internal_weight=1008 620 142 478 139 72 104 70
internal_count=1008 620 142 478 139 72 104 70
is_linear=0
shrinkage=0.0293497


Tree=2
num_leaves=9
num_cat=1
split_feature=4 2 4 15 2 4 4 4
split_gain=588.626 83.6441 60.6343 12.6837 27.8663 23.378 8.98646 0.276063
threshold=252.5519536762809 0.25000000000000017 961.29014905538259 0 -0.5 487.47729189717182 2275.7027642309699 629.40623862749214
decision_type=2 2 2 9 2 2 2 2
left_child=-1 3 7 4 -2 -6 -4 -3
right_child=1 2 6 -5 5 -7 -8 -9
leaf_value=-6.7811743317290327 3.6462941577045442 -2.410508981238872 0.48974741189399645 10.921341220313849 -0.65230557867712935 3.3815102299285673 36.154932868298978 -0.67761762440902373
leaf_weight=388 94 32 38 309 42 33 34 38
leaf_count=388 94 32 38 309 42 33 34 38
internal_value=-0.000358424 0.0173314 -0.00212681 0.0232128 0.0129807 0 0.0163582 -0.0218311
internal_weight=1008 620 142 478 169 75 72 70
internal_count=1008 620 142 478 169 75 72 70
cat_boundaries=0 1
cat_threshold=18
is_linear=0
shrinkage=0.0293497


Tree=3
num_leaves=10
num_cat=0
split_feature=4 2 4 2 4 4 4 4 1
split_gain=579.022 77.1184 57.9777 14.6224 59.7535 8.98646 2.77773 0.51449 0.244447
threshold=252.5519536762809 0.25000000000000017 961.29014905538259 -0.5 469.78312480674344 2275.7027642309699 635.87065526325944 307.63851067728132 0.68301270189221941
decision_type=2 2 2 2 2 2 2 2 2
left_child=-1 3 8 7 -5 -4 -6 -2 -3
right_child=1 2 5 4 6 -7 -8 -9 -10
leaf_value=-6.5821492364026621 1.4280430110188651 -2.2229432641234848 0.47537349661475475 -0.47206782767137917 2.3720303806678786 35.093798231638338 13.538968945414432 11.255856472196154 -1.5085988577905323
leaf_weight=388 37 35 38 49 57 34 102 233 35
leaf_count=388 37 35 38 49 57 34 102 233 35
internal_value=-0.000591281 0.0169529 -0.0017144 0.0225992 0.0161046 0.0163582 0.0249256 0.0273936 -0.0209965
internal_weight=1008 620 142 478 208 72 159 270 70
internal_count=1008 620 142 478 208 72 159 270 70
is_linear=0
shrinkage=0.0293497


Tree=4
num_leaves=9
num_cat=0
split_feature=4 6 4 4 6 1 4 2
split_gain=572.974 74.8995 76.246 10.5439 17.015 7.1916 6.83175 2.62474
threshold=248.69965931440211 1.0000000180025095e-35 904.67989906041112 383.75398696069499 11.456080869175628 0.68301270189221941 688.43045867839135 -0.24999999999999997
decision_type=2 2 2 2 2 2 2 2
left_child=-1 2 6 4 -3 -4 -2 -5
right_child=1 3 5 7 -6 -7 -8 -9
leaf_value=-6.3889654580270054 -1.9851874962625391 -0.18006894585255298 0.75420723154561475 11.993402032601987 2.4697884764613405 3.7098040426501475 -0.32895899636007292 3.390383269774635
leaf_weight=384 58 38 37 241 77 58 34 81
leaf_count=384 58 38 37 241 77 58 34 81
internal_value=-0.000649496 0.0166562 0.000832551 0.0233085 0.0145854 0.0194926 -0.0179008 0.0262523
internal_weight=1008 624 187 437 115 95 92 322
internal_count=1008 624 187 437 115 95 92 322
is_linear=0
shrinkage=0.0293497


Tree=5
num_leaves=10
num_cat=3
split_feature=16 14 7 6 15 6 7 8 7
split_gain=467.493 125.224 43.5195 22.6755 4.64389 8.35075 2.84408 1.90128 0.938377
threshold=0 1 86.031442012288792 1.7836111111111115 2 7.9680656362007172 89.487903225806463 4.0050694444444455 72.042786738351268
decision_type=1 1 2 2 9 2 2 2 2
left_child=1 -1 4 -3 5 -2 -4 -7 -5
right_child=2 3 6 8 -6 7 -8 -9 -10
leaf_value=-6.235286772975388 0.70611206645290014 -1.6659979925733417 0.79114975781649544 2.4265962489057724 11.728807520792902 3.6929172816071034 -0.24159382091608606 3.4491745036800117 1.0389214000310576
leaf_weight=378 53 42 40 51 275 47 47 42 33
leaf_count=378 53 42 40 51 275 47 47 42 33
internal_value=-0.00070771 -0.0207358 0.0192227 0.00425477 0.0231597 0.0135474 0 0.0201447 0.0133344
internal_weight=1008 504 504 126 417 142 87 89 84
internal_count=1008 504 504 126 417 142 87 89 84
cat_boundaries=0 1 2 3
cat_threshold=2 2 18
is_linear=0
shrinkage=0.0293497


Tree=6
num_leaves=18
num_cat=5
split_feature=13 15 2 15 2 6 7 12 9 7 9 14 9 2 6 7 9
split_gain=67.0608 24.7953 15.7412 15.4865 12.3496 9.16481 8.67979 4.20896 3.14003 2.57732 1.36754 1.21635 1.12623 0.758003 0.678958 0.0645394 0.102119
threshold=0 1 -0.24999999999999997 2 0.68301270189221952 0.24223790322580649 70.850806451612911 3 0.030309139784946242 86.031442012288792 0.04793682795698926 4 0.021510176651305685 1.0000000180025095e-35 2.5369444444444453 72.042786738351268 0.03590277777777779
decision_type=9 9 2 9 2 2 2 9 2 2 2 1 2 2 2 2 2
left_child=3 2 8 6 7 -5 10 11 -2 -4 -1 14 -8 -9 -3 16 -7
right_child=1 4 9 5 -6 15 12 13 -10 -11 -12 -13 -14 -15 -16 -17 -18
leaf_value=-5.0677396921412177 0.0049678246311728631 0.2630138421588793 -1.102381609556301 -1.4747204937606737 -0.3604345601826161 1.2859401508239356 -5.6219431880425397 9.0432230867581715 1.0314370683779703 -2.3025795001622442 -0.79930675412712537 2.7931436407484731 -3.7370082071891844 1.6595727969494112 4.4005944038416906 -0.69516925147778685 -2.0319553791244811
leaf_weight=36 70 40 57 67 44 32 61 132 45 35 33 32 68 44 104 56 52
leaf_count=36 70 40 57 67 44 32 61 132 45 35 33 32 68 44 104 56 52
internal_value=-0.000998782 0.00513528 -0.00287836 -0.0101274 0.0094127 -0.00368864 -0.0161046 0.0115217 0.00389713 -0.012179 -0.00732948 0.00635 -0.0216301 0.0151708 0.00494424 6.56602e-05 0.000805322
internal_weight=1008 603 207 405 396 207 198 352 115 92 69 176 129 176 144 140 84
internal_count=1008 603 207 405 396 207 198 352 115 92 69 176 129 176 144 140 84
cat_boundaries=0 1 2 3 4 5
cat_threshold=1006642744 18 18 12340 2
is_linear=0
shrinkage=0.0293497


Tree=7
num_leaves=9
num_cat=0
split_feature=4 2 4 4 2 4 1 7
split_gain=563.579 71.8333 82.2113 14.5013 18.503 8.66817 8.28792 7.76221
threshold=248.69965931440211 1.0000000180025095e-35 904.67989906041112 400.11726881763673 -0.68301270189221952 564.01065308573266 0.68301270189221941 86.031442012288792
decision_type=2 2 2 2 2 2 2 2
left_child=-1 3 5 4 -2 -3 -4 -7
right_child=1 2 6 -5 -6 7 -8 -9
leaf_value=-5.9732936860014592 2.8000813474507256 -2.0753175100499339 0.74974083550044379 10.888736415049124 0.0081027369920879163 0.0011855747020352294 4.5569602158364741 -0.6240917105550875
leaf_weight=384 82 37 37 280 48 37 70 33
leaf_count=384 82 37 37 280 48 37 70 33
internal_value=-0.000882353 0.0162801 0.00223397 0.0234832 0.0144831 -0.0156725 0.0205946 -0.00847719
internal_weight=1008 624 214 410 130 107 107 70
internal_count=1008 624 214 410 130 107 107 70
is_linear=0
shrinkage=0.0293497


Tree=8
num_leaves=9
num_cat=0
split_feature=4 2 4 4 6 4 1 7
split_gain=555.116 69.8833 82.2113 13.4345 21.2229 8.66817 8.28792 7.76221
threshold=248.69965931440211 1.0000000180025095e-35 904.67989906041112 400.11726881763673 11.456080869175628 564.01065308573266 0.68301270189221941 86.031442012288792
decision_type=2 2 2 2 2 2 2 2
left_child=-1 3 5 4 -2 -3 -4 -7
right_child=1 2 6 -5 -6 7 -8 -9
leaf_value=-5.7979796051192878 -0.13937299741541384 -2.0144076668480611 0.72773620415549134 10.569155808951313 2.0270137267845785 0.0011507784991138864 4.4232150270257797 -0.60577483708902014
leaf_weight=384 42 37 37 280 88 37 70 33
leaf_count=384 42 37 37 280 88 37 70 33
internal_value=-0.000940567 0.0160921 0.00223397 0.0231971 0.0144831 -0.0156725 0.0205946 -0.00847719
internal_weight=1008 624 214 410 130 107 107 70
internal_count=1008 624 214 410 130 107 107 70
is_linear=0
shrinkage=0.0293497


Tree=9
num_leaves=9
num_cat=0
split_feature=4 2 4 4 2 4 2 7
split_gain=548.174 67.0084 82.2113 15.3346 19.2539 8.66817 8.28792 7.76221
threshold=248.69965931440211 1.0000000180025095e-35 904.67989906041112 400.11726881763673 -0.68301270189221952 564.01065308573266 0.68301270189221952 86.031442012288792
decision_type=2 2 2 2 2 2 2 2
left_child=-1 3 5 4 -2 -3 -4 -7
right_child=1 2 6 -5 -6 7 -8 -9
leaf_value=-5.627810931205401 2.7219904878006944 -1.9552855062445917 4.2933952127373045 10.258954781888283 -0.019835873163989142 0.0011170035525813436 0.7063774010457099 -0.58799555745395138
leaf_weight=384 82 37 70 280 48 37 37 33
leaf_count=384 82 37 70 280 48 37 37 33
internal_value=-0.00111521 0.01581 0.00223397 0.022768 0.0135823 -0.0156725 0.0205946 -0.00847719
internal_weight=1008 624 214 410 130 107 107 70
internal_count=1008 624 214 410 130 107 107 70
is_linear=0
shrinkage=0.0293497


Tree=10
num_leaves=11
num_cat=0
split_feature=4 7 4 4 6 10 4 1 3 4
split_gain=536.701 61.4627 48.5067 15.0307 44.4497 11.7238 10.4691 3.60142 3.06017 2.43796
threshold=248.69965931440211 83.43915610599079 935.80339264338829 460.07038397305661 11.456080869175628 1010.553561827957 2275.7027642309699 0.93301270189221952 1.0000000180025095e-35 307.63851067728132
decision_type=2 2 2 2 2 2 2 2 2 2
left_child=-1 3 8 4 5 -2 -4 -5 -3 -6
right_child=1 2 6 7 9 -7 -8 -9 -10 -11
leaf_value=-5.4626366483645779 0.72697893465117136 -1.0222526690005835 0.098600515686975504 16.61167303564913 1.3336831435796013 -0.91201966703757231 34.264790963111494 1.9803497352817443 -1.8700968313562703 5.792715067444413
leaf_weight=384 33 44 39 202 37 34 36 60 35 104
leaf_count=384 33 44 39 202 37 34 36 60 35 104
internal_value=-0.00140628 0.0153399 -0.000440051 0.0206123 0.0141322 -0.00493178 0.0160963 0.0255438 -0.0167646 0.0235315
internal_weight=1008 624 154 470 208 67 75 262 79 141
internal_count=1008 624 154 470 208 67 75 262 79 141
is_linear=0
shrinkage=0.0293497


Tree=11
num_leaves=9
num_cat=0
split_feature=4 2 4 2 4 2 4 2
split_gain=506.814 57.8974 71.4174 29.2679 12.8942 23.9205 8.64485 5.36892
threshold=252.5519536762809 -0.5 534.46341720090197 0.68301270189221952 803.01229094783025 1.0000000180025095e-35 370.56905669001179 1.0000000180025095e-35
decision_type=2 2 2 2 2 2 2 2
left_child=-1 6 7 4 5 -4 -2 -3
right_child=1 2 3 -5 -6 -7 -8 -9
leaf_value=-5.3023101729653117 1.4742649767251861 -0.45494920946973516 3.6200226892971861 -0.15352442666425278 25.882604165361688 -0.12182082729187754 10.089774612073962 -1.8415529726636639
leaf_weight=388 75 57 43 60 115 41 195 34
leaf_count=388 75 57 43 60 115 41 195 34
internal_value=-0.00210485 0.0143034 0.0062258 0.0141824 0.0196293 0.00985411 0.0245708 -0.0158473
internal_weight=1008 620 350 259 199 84 270 91
internal_count=1008 620 350 259 199 84 270 91
is_linear=0
shrinkage=0.0293497


Tree=12
num_leaves=11
num_cat=0
split_feature=4 2 4 6 4 4 4 8 4 2
split_gain=495.024 66.2256 67.9897 17.9837 13.2476 12.4247 10.1583 7.25357 6.83175 3.72255
threshold=248.69965931440211 -0.24999999999999997 904.67989906041112 1.0000000180025095e-35 501.12651311311168 1537.1923440399812 379.15373484688661 3.6365663402457762 688.43045867839135 -0.5
decision_type=2 2 2 2 2 2 2 2 2 2
left_child=-1 6 3 8 -5 -4 7 -2 -3 -8
right_child=1 2 5 4 -6 -7 9 -9 -10 -11
leaf_value=-5.146689223554425 1.6100807132773252 -1.715945206131682 0.42222362692168497 -0.51437977795964029 1.1999421370738725 39.710336373766637 9.9135872074518563 0.66237319560559083 -0.40267463163534917 3.4678431821152831
leaf_weight=384 38 58 58 34 33 66 186 55 34 62
leaf_count=384 38 58 58 34 33 66 186 55 34 62
internal_value=-0.00233771 0.0137416 0.00303657 -0.00945233 0.00144456 0.0194311 0.0224693 0.012992 -0.0179008 0.025802
internal_weight=1008 624 283 159 67 124 341 93 92 248
internal_count=1008 624 283 159 67 124 341 93 92 248
is_linear=0
shrinkage=0.0293497


Tree=13
num_leaves=10
num_cat=0
split_feature=4 2 4 4 2 4 4 8 4
split_gain=490.651 65.2552 69.2624 35.8552 43.341 7.72472 6.56759 4.25398 1.94883
threshold=248.69965931440211 -0.5 1537.1923440399812 493.48662563572032 0.25000000000000017 370.56905669001179 935.80339264338829 3.6365663402457762 635.87065526325944
decision_type=2 2 2 2 2 2 2 2 2
left_child=-1 5 3 -3 8 7 -6 -2 -5
right_child=1 2 -4 4 6 -7 -8 -9 -10
leaf_value=-4.9956356945896356 1.4637517379087581 -1.032479098349163 41.842323787619328 0.72111450829435908 -0.79411486384766028 9.5026829376494941 -0.1194826133801714 0.90979351640276485 2.1635917115206516
leaf_weight=384 32 78 82 48 51 195 39 45 54
leaf_count=384 32 78 82 48 51 195 39 45 54
internal_value=-0.00245414 0.0135536 0.00502424 -0.00198833 0.0046259 0.0243903 -0.0098494 0.014921 0.0178724
internal_weight=1008 624 352 270 192 272 90 77 102
internal_count=1008 624 352 270 192 272 90 77 102
is_linear=0
shrinkage=0.0293497


Tree=14
num_leaves=10
num_cat=4
split_feature=16 14 7 13 6 16 6 3 7
split_gain=425.14 102.546 37.895 19.0975 17.1315 16.3628 9.46977 2.60277 1.09631
threshold=0 1 83.43915610599079 2 7.9680656362007172 3 13.307392473118282 1.0000000180025095e-35 70.40658602150539
decision_type=1 1 2 9 2 1 2 2 2
left_child=1 -1 3 5 -3 6 -2 -4 -6
right_child=2 4 7 -5 8 -7 -8 -9 -10
leaf_value=-4.8611897883473674 -0.12189183273516609 -0.86879896315616467 0.40325910699408574 7.45614077555439 1.7833616810507262 63.342891720576254 0.96219668898713817 -0.1579038813095287 0.66604690623791696
leaf_weight=378 59 60 65 245 32 34 45 56 34
leaf_count=378 59 60 65 245 32 34 45 56 34
internal_value=-0.00245414 -0.0215505 0.0165457 0.0210794 0.00100223 0.00916397 0.00346408 0.00176923 0.0116432
internal_weight=1008 504 504 383 126 138 104 121 66
internal_count=1008 504 504 383 126 138 104 121 66
cat_boundaries=0 1 2 3 4
cat_threshold=2 2 335683601 4
is_linear=0
shrinkage=0.0293497


Tree=15
num_leaves=11
num_cat=0
split_feature=4 2 4 4 2 4 4 8 2 6
split_gain=479.803 65.7895 72.1605 36.3517 36.2651 10.454 5.65927 4.0722 4.07204 0.604716
threshold=248.69965931440211 -0.5 1537.1923440399812 493.48662563572032 0.25000000000000017 370.56905669001179 935.80339264338829 3.6365663402457762 1.0000000180025095e-35 1.7836111111111115
decision_type=2 2 2 2 2 2 2 2 2 2
left_child=-1 5 3 9 8 7 -6 -2 -5 -3
right_child=1 2 -4 4 6 -7 -8 -9 -10 -11
leaf_value=-4.7063413135002268 1.3925509999096353 -1.6725071690747713 39.879245064611602 3.1213918326316841 -0.7661734465888751 9.0049473920005827 -0.12781135423389486 0.88666887750857959 0.28512124916134451 -0.49369554608119226
leaf_weight=384 32 32 82 60 51 195 39 45 42 46
leaf_count=384 32 32 82 60 51 195 39 45 42 46
internal_value=-0.00274521 0.0130835 0.00452443 -0.00263975 0.0040155 0.0239592 -0.00919957 0.0134028 0.0161515 -0.0196014
internal_weight=1008 624 352 270 192 272 90 77 102 78
internal_count=1008 624 352 270 192 272 90 77 102 78
is_linear=0
shrinkage=0.0293497


Tree=16
num_leaves=11
num_cat=0
split_feature=4 6 4 4 6 4 8 4 4 7
split_gain=466.948 56.6593 72.3745 23.5388 25.6296 12.7196 9.65156 6.78532 6.26849 3.08037
threshold=248.69965931440211 0.79717069892473136 904.67989906041112 526.59669550579099 11.456080869175628 1991.1135261607376 4.0050694444444455 564.01065308573266 338.72290602387687 86.031442012288792
decision_type=2 2 2 2 2 2 2 2 2 2
left_child=-1 2 7 4 6 -4 -3 -2 -6 -9
right_child=1 3 5 -5 8 -7 -8 9 -10 -11
leaf_value=-4.5682118417102 -1.6959295872240545 0.81091565668994881 0.22895736739988429 38.40486089601557 1.1575203643672174 31.983780408720698 -0.39217829202503895 -0.048668858877210328 5.1900059008071828 -0.74368652385479972
leaf_weight=384 37 43 56 168 46 51 48 37 105 33
leaf_count=384 37 43 56 168 46 51 48 37 105 33
internal_value=-0.0030945 0.0125194 4.29903e-05 0.0189055 0.0126339 0.0173132 0 -0.0167663 0.0200371 -0.0101464
internal_weight=1008 624 214 410 242 107 91 107 151 70
internal_count=1008 624 214 410 242 107 91 107 151 70
is_linear=0
shrinkage=0.0293497


Tree=17
num_leaves=10
num_cat=0
split_feature=4 2 4 4 2 4 4 2 4
split_gain=452.171 65.0638 74.7585 35.0064 27.7243 14.8308 3.83058 3.18228 2.74409
threshold=248.69965931440211 -0.5 1537.1923440399812 548.80715798922017 0.25000000000000017 338.72290602387687 935.80339264338829 1.0000000180025095e-35 743.0684716216698
decision_type=2 2 2 2 2 2 2 2 2
left_child=-1 5 3 7 8 -2 -6 -3 -5
right_child=1 2 -4 4 6 -7 -8 -9 -10
leaf_value=-4.4341364216146948 0.9380226020513861 -0.39141753992044664 37.675862163304785 0.77799966221444794 -0.54646868016020267 7.9219031721741588 -0.13077995435055198 -1.6461546468889023 1.5752986207379478
leaf_weight=384 53 61 82 54 47 219 39 37 32
leaf_count=384 53 61 82 54 47 219 39 37 32
internal_value=-0.003502 0.0118612 0.00335821 -0.00394258 0.00380029 0.022666 -0.00758601 -0.0180024 0.0157452
internal_weight=1008 624 352 270 172 272 86 98 86
internal_count=1008 624 352 270 172 272 86 98 86
is_linear=0
shrinkage=0.0293497


Tree=18
num_leaves=10
num_cat=2
split_feature=4 4 7 13 8 14 5 4 4
split_gain=446.144 49.7597 58.7415 29.4299 21.4288 20.7726 8.2276 6.79705 3.50651
threshold=252.5519536762809 1537.1923440399812 83.43915610599079 0 3.974307795698925 1 39.532184139784952 762.58182896141136 434.15131852036637
decision_type=2 2 2 9 2 1 2 2 2
left_child=-1 2 3 4 -2 6 -5 -4 -6
right_child=1 -3 7 5 8 -7 -8 -9 -10
leaf_value=-4.303996068214138 1.1490194830995641 57.061049730114455 -1.4917039547995143 0.8603105409387819 -0.51668214912521182 0.50804243688988537 5.7671902912645576 -0.19592201247153951 -0.058500765121840985
leaf_weight=388 34 124 60 59 35 63 157 56 32
leaf_count=388 34 124 60 59 35 63 157 56 32
internal_value=-0.00373486 0.0116538 0.00735109 0.0129886 -0.000873641 0.0175809 0.0225639 -0.0106756 -0.0110344
internal_weight=1008 620 496 380 101 279 216 116 67
internal_count=1008 620 496 380 101 279 216 116 67
cat_boundaries=0 1 2
cat_threshold=335544337 2
is_linear=0
shrinkage=0.0293497


Tree=19
num_leaves=10
num_cat=0
split_feature=4 2 4 2 4 6 4 4 4
split_gain=441.763 62.9813 73.3185 19.2788 19.1704 15.3017 19.7189 13.444 1.12126
threshold=248.69965931440211 -0.5 702.04954948071293 0.25000000000000017 2369.1706418080807 1.0000000180025095e-35 552.23962969623847 338.72290602387687 404.44681781249193
decision_type=2 2 2 2 2 2 2 2 2
left_child=-1 7 5 -4 -5 -3 -7 -2 -9
right_child=1 2 3 4 -6 6 -8 8 -10
leaf_value=-4.1776752886770883 0.74122694837947245 -1.3553479582621351 21.707807428266964 -0.19017176991749746 25.701346092994068 -0.48054633874821978 1.8381872837254436 2.006625599669881 9.4236138947343431
leaf_weight=384 53 62 91 64 33 68 34 58 161
leaf_count=384 53 62 91 64 33 68 34 58 161
internal_value=-0.00379307 0.0113911 0.003025 0.015633 0.00582403 -0.0111293 -0.00353178 0.0220193 0.025333
internal_weight=1008 624 352 188 97 164 102 272 219
internal_count=1008 624 352 188 97 164 102 272 219
is_linear=0
shrinkage=0.0293497


Tree=20
num_leaves=11
num_cat=0
split_feature=4 2 4 4 2 4 2 2 4 4
split_gain=433.525 67.6212 67.8637 29.1481 23.4555 13.444 4.81151 4.00935 3.7318 1.12126
threshold=248.69965931440211 -0.5 1537.1923440399812 548.80715798922017 1.0000000180025095e-35 338.72290602387687 0.68301270189221952 1.0000000180025095e-35 845.96862934309672 404.44681781249193
decision_type=2 2 2 2 2 2 2 2 2 2
left_child=-1 5 3 7 -5 -2 8 -3 -6 -7
right_child=1 2 -4 4 6 9 -8 -9 -10 -11
leaf_value=-4.0550619798463181 0.71947219664429918 -0.45155277257565279 34.199645889130473 1.9942955755171257 -0.25837596236937255 1.9477318400167793 -0.32997274013270611 -1.5142806055844351 0.40362505653054154 9.147034122268856
leaf_weight=384 53 61 82 46 42 58 43 37 41 161
leaf_count=384 53 61 82 46 42 58 43 37 41 161
internal_value=-0.00402593 0.011015 0.00235859 -0.004594 0.00243781 0.0220193 -0.00379012 -0.0174055 0 0.025333
internal_weight=1008 624 352 270 172 272 126 98 83 219
internal_count=1008 624 352 270 172 272 126 98 83 219
is_linear=0
shrinkage=0.0293497


Tree=21
num_leaves=11
num_cat=3
split_feature=4 16 6 13 4 8 16 8 4 6
split_gain=421.313 56.031 62.5603 30.0154 21.3063 13.1186 11.5218 5.48364 1.95434 1.69266
threshold=248.69965931440211 0 0.79717069892473136 1 702.04954948071293 3.974307795698925 2 3.6927284946236565 564.01065308573266 7.9680656362007172
decision_type=2 1 2 9 2 2 1 2 2 2
left_child=-1 -2 4 5 8 -4 -5 -6 -3 -8
right_child=1 2 3 6 7 -7 9 -9 -10 -11
leaf_value=-3.9360473287530651 59.566744885168085 -1.4698369993395461 1.1283714306697843 0.68828385702826878 -0.4231258716616435 -0.3258083830342185 1.2174574435503889 0.18609791612570911 -0.47384797498706532 4.5449837987803523
leaf_weight=384 117 37 45 50 42 57 45 59 37 135
leaf_count=384 117 37 45 50 42 57 45 59 37 135
internal_value=-0.00437521 0.0104509 0.00609253 0.0136282 -0.00792016 -8.20269e-05 0.0190894 0.000380573 -0.0198666 0.0234877
internal_weight=1008 624 507 332 175 102 230 101 74 180
internal_count=1008 624 507 332 175 102 230 101 74 180
cat_boundaries=0 1 2 3
cat_threshold=1 872415249 2
is_linear=0
shrinkage=0.0293497


Tree=22
num_leaves=11
num_cat=1
split_feature=4 16 2 4 2 4 1 4 2 4
split_gain=415.273 57.8263 69.2333 32.6416 22.9916 11.1397 5.35765 5.10597 2.13266 0.74056
threshold=248.69965931440211 0 -0.5 548.80715798922017 1.0000000180025095e-35 338.72290602387687 0.68301270189221941 845.96862934309672 1.0000000180025095e-35 418.8829960126352
decision_type=2 1 2 2 2 2 2 2 2 2
left_child=-1 -2 5 8 -5 -3 -6 -8 -4 -7
right_child=1 2 3 4 6 9 7 -9 -10 -11
leaf_value=-3.8205257160511468 57.818481752692414 0.5649622541069973 -0.43337203346275238 2.0436785491602305 -0.30960129137213366 2.2878473241082253 -0.2455445468773671 0.5297484821442664 -1.4266977973964536 6.755980110834038
leaf_weight=384 117 53 61 51 47 69 42 49 37 98
leaf_count=384 117 53 61 51 47 69 42 49 37 98
internal_value=-0.00454986 0.0101689 0.00574542 -0.00360717 0.00330404 0.018158 -0.00261265 0.00106495 -0.0174055 0.0219799
internal_weight=1008 624 507 287 189 220 138 91 98 167
internal_count=1008 624 507 287 189 220 138 91 98 167
cat_boundaries=0 1
cat_threshold=1
is_linear=0
shrinkage=0.0293497


Tree=23
num_leaves=11
num_cat=0
split_feature=4 2 4 4 2 4 1 4 4 2
split_gain=410.008 55.8636 61.9101 28.9349 19.4901 14.2915 4.23268 3.01996 2.37493 2.13266
threshold=248.69965931440211 -0.5 548.80715798922017 1537.1923440399812 1.0000000180025095e-35 338.72290602387687 0.68301270189221941 845.96862934309672 512.03729766786489 1.0000000180025095e-35
decision_type=2 2 2 2 2 2 2 2 2 2
left_child=-1 5 9 4 -4 -2 -6 -8 -7 -3
right_child=1 2 3 -5 6 8 7 -9 -10 -11
leaf_value=-3.7083946222852608 0.54838080951069279 -0.42065271582655184 1.8626976529350019 30.452655659506743 -0.30051460173488387 3.2540049583940798 -0.23833790029102683 0.37076896080028804 59.786144374213514 -1.3848247159450358
leaf_weight=384 53 61 46 82 43 130 42 41 89 37
leaf_count=384 53 61 46 82 43 130 42 41 89 37
internal_value=-0.00454986 0.0100749 0.00219199 0.00996059 0.00277843 0.0200794 -0.00286082 0.00046278 0.0234596 -0.0174055
internal_weight=1008 624 352 254 172 272 126 83 219 98
internal_count=1008 624 352 254 172 272 126 83 219 98
is_linear=0
shrinkage=0.0293497


Tree=24
num_leaves=12
num_cat=0
split_feature=4 2 4 4 2 4 8 4 4 2 7
split_gain=398.858 57.7375 59.506 28.1982 18.0453 13.8343 3.88615 2.72372 2.57157 2.13266 1.1968
threshold=248.69965931440211 -0.5 1537.1923440399812 548.80715798922017 1.0000000180025095e-35 338.72290602387687 3.6927284946236565 743.0684716216698 526.59669550579099 1.0000000180025095e-35 84.917261904761929
decision_type=2 2 2 2 2 2 2 2 2 2 2
left_child=-1 5 3 9 -5 -2 -6 -8 -7 -3 -4
right_child=1 2 10 4 6 8 7 -9 -10 -11 -12
leaf_value=-3.5995545369102642 0.53228602451492124 -0.40830670571515348 42.756071384466132 1.8080281281883825 -0.49279188959387749 3.1954562761662899 -0.12015272237851304 0.14224927829788334 58.967091817612314 -1.3441805947916123 20.885895931947736
leaf_weight=384 53 61 50 46 48 133 32 46 86 37 32
leaf_count=384 53 61 50 46 48 133 32 46 86 37 32
internal_value=-0.0047245 0.00969877 0.00169218 -0.00481114 0.00209719 0.0198639 -0.00332547 0.000117631 0.0231919 -0.0174055 0.0236399
internal_weight=1008 624 352 270 172 272 126 78 219 98 82
internal_count=1008 624 352 270 172 272 126 78 219 98 82
is_linear=0
shrinkage=0.0293497


Tree=25
num_leaves=11
num_cat=1
split_feature=4 16 2 4 2 4 1 4 2 4
split_gain=391.034 53.8791 56.7365 33.5908 19.2498 7.77524 4.76435 4.2259 2.13266 1.1847
threshold=248.69965931440211 0 -0.5 548.80715798922017 1.0000000180025095e-35 338.72290602387687 0.68301270189221941 845.96862934309672 1.0000000180025095e-35 418.8829960126352
decision_type=2 1 2 2 2 2 2 2 2 2
left_child=-1 -2 5 8 -5 -3 -6 -8 -4 -7
right_child=1 2 3 4 6 9 7 -9 -10 -11
leaf_value=-3.4939088699807179 52.880110468547976 0.51666361583058873 -0.39632304668324664 1.8759627803373191 -0.28561609887868888 2.0314103732620516 -0.22234791125155376 0.49914364352105423 -1.3047293643811935 5.1751766714596004
leaf_weight=384 117 53 61 51 47 69 42 49 37 98
leaf_count=384 117 53 61 51 47 69 42 49 37 98
internal_value=-0.00495736 0.00932269 0.00505121 -0.00340288 0.00361408 0.0162931 -0.00176397 0.00170767 -0.0174055 0.0195244
internal_weight=1008 624 507 287 189 220 138 91 98 167
internal_count=1008 624 507 287 189 220 138 91 98 167
cat_boundaries=0 1
cat_threshold=1
is_linear=0
shrinkage=0.0293497


Tree=26
num_leaves=14
num_cat=0
split_feature=4 4 6 4 4 1 7 8 4 8 7 4 4
split_gain=379.987 48.9693 50.0948 21.3238 16.3413 23.3546 12.557 5.57094 4.35274 2.72078 2.21263 1.60818 0.108045
threshold=252.5519536762809 1537.1923440399812 5.1174171146953418 552.23962969623847 556.87158383254734 -0.93301270189221908 77.012186379928337 3.6365663402457762 370.56905669001179 3.6927284946236565 84.917261904761929 845.96862934309672 215.06016458080848
decision_type=2 2 2 2 2 2 2 2 2 2 2 2 2
left_child=12 2 3 -2 5 -4 -5 -7 -9 -8 -3 -11 -1
right_child=1 10 4 6 -6 7 9 8 -10 11 -12 -13 -14
leaf_value=-3.3843117465008681 -0.79933612682068378 66.565693862167066 -0.29440598468638318 1.0988932245025349 21.144790719681936 2.5380801015601273 -0.47180278651640811 0.24222948893670176 3.1411816854408054 -0.10917199895927136 18.720889439339107 0.13494083233962534 -3.4662027936143582
leaf_weight=356 60 92 40 34 52 77 48 44 69 36 32 36 32
leaf_count=356 60 92 40 34 52 77 48 44 69 36 32 36 32
internal_value=-0.00519021 0.00900431 0.00474922 -0.00579431 0.012923 0.00921453 0 0.0136183 0.00862742 -0.00446692 0.0255687 -0.000127389 -0.027988
internal_weight=1008 620 496 214 282 230 154 190 113 120 124 72 388
internal_count=1008 620 496 214 282 230 154 190 113 120 124 72 388
is_linear=0
shrinkage=0.0293497


Tree=27
num_leaves=12
num_cat=5
split_feature=16 14 13 2 2 16 6 6 16 10 3
split_gain=323.428 90.5238 37.3894 30.1365 20.339 14.5033 6.33688 2.14074 2.11122 1.09665 0.822626
threshold=0 1 2 1.0000000180025095e-35 -0.5 3 13.307392473118282 -4.8369287634408602 4 1015.8655555555557 1.0000000180025095e-35
decision_type=1 1 9 2 2 1 2 2 1 2 2
left_child=1 -1 6 8 -3 7 10 -5 9 -4 -2
right_child=2 4 3 5 -6 -7 -8 -9 -10 -11 -12
leaf_value=-3.3042097546023266 -0.044266475550207518 1.0725798914112616 3.6879091370587647 -0.34580100034124933 -0.69593227684043391 20.087337305955856 0.43218777629985533 0.13142101110739871 70.445855095524479 1.4641265781388055 -0.24822768427888278
leaf_weight=378 42 56 143 48 70 33 42 45 66 43 42
leaf_count=378 42 56 143 48 70 33 42 45 66 43 42
internal_value=-0.00536486 -0.0220161 0.0111918 0.015593 -7.29367e-05 0.00379012 -0.00265098 -0.00167107 0.0219036 0.0192661 -0.00776593
internal_weight=1008 504 504 378 126 126 126 93 252 186 84
internal_count=1008 504 504 378 126 126 126 93 252 186 84
cat_boundaries=0 1 2 3 4 5
cat_threshold=2 2 335683608 4 4
is_linear=0
shrinkage=0.0293497


Tree=28
num_leaves=15
num_cat=0
split_feature=4 2 4 4 1 2 4 4 8 8 4 10 1 4
split_gain=366.836 48.7577 37.4185 32.5361 20.9275 18.9563 7.8761 5.704 4.90545 3.70683 4.70897 3.23131 1.89511 0.0557704
threshold=248.69965931440211 -0.24999999999999997 552.23962969623847 602.23161732041399 0.68301270189221941 0.25000000000000017 1078.1685970396561 2369.1706418080807 3.6365663402457762 3.974307795698925 418.8829960126352 1018.8554315476191 0.25000000000000011 388.01075748368493
decision_type=2 2 2 2 2 2 2 2 2 2 2 2 2 2
left_child=-1 3 12 4 8 6 -4 11 13 -10 -11 -7 -3 -2
right_child=1 2 5 -5 -6 7 -8 -9 9 10 -12 -13 -14 -15
leaf_value=-3.1950580992850193 0.88693386835060051 -0.32873687506444127 0.47667632516826997 48.39599739948391 -0.54756916235664077 -0.26869944436960685 22.120536956551355 16.300268400400945 0.15321452695585258 1.3906455874212944 3.7611333200458565 0.018790623217349003 -1.2328266395485867 5.8552046927716361
leaf_weight=384 40 38 49 113 33 50 39 33 34 49 33 37 37 39
leaf_count=384 40 38 49 113 33 50 39 33 34 49 33 37 37 39
internal_value=-0.0055395 0.00828848 -0.000550461 0.0157624 0.00903816 0.00567943 0.0160533 -0.00154002 0.0128189 0.00815264 0.0115194 -0.00581878 -0.018434 0.0189844
internal_weight=1008 624 283 341 228 208 88 120 195 116 82 87 75 79
internal_count=1008 624 283 341 228 208 88 120 195 116 82 87 75 79
is_linear=0
shrinkage=0.0293497


Tree=29
num_leaves=14
num_cat=2
split_feature=4 16 6 13 4 8 6 1 4 4 10 6 10
split_gain=339.117 50.8354 45.7572 29.4216 15.3985 10.9472 4.602 4.25079 3.76317 3.10709 2.15152 1.38801 0.170286
threshold=248.69965931440211 0 5.1174171146953418 1 548.80715798922017 4.0050694444444455 1.0000000180025095e-35 0.68301270189221941 373.75386785630633 845.96862934309672 1016.5230555555557 1.0000000180025095e-35 1010.2960349462367
decision_type=2 1 2 9 2 2 2 2 2 2 2 2 2
left_child=-1 6 4 5 -3 8 -2 -6 -4 11 12 -9 -5
right_child=1 2 3 10 7 -7 -8 9 -10 -11 -12 -13 -14
leaf_value=-3.1012842613513536 17.103474377710928 -0.78507229523890631 -0.10390957079239027 2.1587906120376354 -0.2482144889927593 -0.50598272891139529 63.481683977502627 -0.34518640034754255 1.6106104297611519 0.52088114585592693 0.72879724961388814 0.029080996491106317 4.1011901114772105
leaf_weight=384 34 60 33 46 47 38 83 32 44 53 32 39 83
leaf_count=384 34 60 33 46 47 38 83 32 44 53 32 39 83
internal_value=-0.00641271 0.00687819 0.00273716 0.010867 -0.00676411 -0.000776051 0.0243426 -0.00193812 0.00505309 0.000546232 0.0183833 -0.00300938 0.0216301
internal_weight=1008 624 507 276 231 115 117 171 77 124 161 71 129
internal_count=1008 624 507 276 231 115 117 171 77 124 161 71 129
cat_boundaries=0 1 2
cat_threshold=1 873472017
is_linear=0
shrinkage=0.0293497


Tree=30
num_leaves=12
num_cat=4
split_feature=16 14 16 6 12 2 9 7 2 7 10
split_gain=288.352 87.5569 40.0989 30.3397 22.0803 19.9308 6.35632 4.95157 3.31387 0.559929 0.349756
threshold=0 1 2 5.1174171146953418 3 -0.68301270189221952 0.04793682795698926 79.743951612903246 0.68301270189221952 75.893234767025106 1018.8554315476191
decision_type=1 1 1 2 9 2 2 2 2 2 2
left_child=1 -1 3 8 6 -3 -5 -4 9 -2 -11
right_child=2 5 7 4 -6 -7 -8 -9 -10 10 -12
leaf_value=-3.0224369072385895 0.011965855990180801 1.978809772061237 55.437911791969597 0.68469323756410927 3.1772024488857462 -0.52416984737975059 -0.19737064921273648 19.345844708024462 -0.26612692183128328 -0.28306157916788388 -0.32452726441545415
leaf_weight=378 40 42 84 60 105 84 50 33 43 52 37
leaf_count=378 40 42 84 60 105 84 50 33 43 52 37
internal_value=-0.00641271 -0.0221325 0.00921312 0.00449446 0.0119009 -0.000537584 0.00105221 0.0243426 -0.00448153 -0.00165979 -0.0030601
internal_weight=1008 504 504 387 215 126 110 117 172 129 89
internal_count=1008 504 504 387 215 126 110 117 172 129 89
cat_boundaries=0 1 2 3 4
cat_threshold=2 2 4 10832
is_linear=0
shrinkage=0.0293497


Tree=31
num_leaves=11
num_cat=3
split_feature=16 16 6 12 9 7 1 7 7 10
split_gain=286.214 40.0989 30.3397 22.0803 6.35632 4.95157 3.31387 2.66087 0.559929 0.349756
threshold=0 1 5.1174171146953418 2 0.04793682795698926 79.743951612903246 0.68301270189221941 71.631675627240156 75.893234767025106 1018.8554315476191
decision_type=1 1 2 9 2 2 2 2 2 2
left_child=7 2 6 4 -4 -3 -2 -1 -8 -10
right_child=1 5 3 -5 -6 -7 8 -9 9 -11
leaf_value=-2.537184209010102 -0.25831618973749809 53.810828466967038 0.66459773047208326 3.0839526680473539 -0.19157788967691416 18.778050930895301 0.0116146623012109 -2.9240346298962865 -0.27475382080315219 -0.31500250268884877
leaf_weight=199 43 84 60 105 50 33 40 305 52 37
leaf_count=199 43 84 60 105 50 33 40 305 52 37
internal_value=-0.0063545 0.00921312 0.00449446 0.0119009 0.00105221 0.0243426 -0.00448153 -0.0220161 -0.00165979 -0.0030601
internal_weight=1008 504 387 215 110 117 172 504 129 89
internal_count=1008 504 387 215 110 117 172 504 129 89
cat_boundaries=0 1 2 3
cat_threshold=2 4 10832
is_linear=0
shrinkage=0.0293497


Tree=32
num_leaves=15
num_cat=2
split_feature=4 16 1 15 1 10 4 1 4 4 10 4 9 4
split_gain=346.401 48.6016 28.8301 34.2189 10.9949 9.59808 8.60577 5.74551 3.79873 3.59812 2.29208 1.40544 0.156224 0.0555839
threshold=248.69965931440211 0 0.25000000000000011 1 -0.93301270189221908 1010.1748207885306 419.86225585903509 1.0000000180025095e-35 656.23095679776623 702.04954948071293 1010.4355510752689 3302.6791148367233 0.021510176651305685 364.73981146994805
decision_type=2 1 2 9 2 2 2 2 2 2 2 2 2 2
left_child=-1 11 4 5 -3 12 7 13 -7 10 -5 -2 -4 -6
right_child=1 2 3 9 6 8 -8 -9 -10 -11 -12 -13 -14 -15
leaf_value=-2.8397275823032504 48.242217436146184 0.014060371583588093 -0.23665399772264223 0.35541374801346376 0.067846198076893099 -1.0919179360459499 6.2617692335697903 2.1291316105611355 -0.67127377741550764 0.75696773692125141 -0.16817110584897796 31.466783680132274 -0.36444758351020951 2.3190972825720064
leaf_weight=384 70 56 32 40 34 43 55 42 57 48 32 47 35 33
leaf_count=384 70 56 32 40 34 43 55 42 57 48 32 47 35 33
internal_value=-0.00617986 0.00725426 0.00319997 -0.00279001 0.0112312 -0.011141 0.0150586 0.00947997 -0.0176436 0.00862805 0.00418509 0.0243426 -0.00231636 0.00318817
internal_weight=1008 624 507 287 220 167 164 109 100 120 72 117 67 67
internal_count=1008 624 507 287 220 167 164 109 100 120 72 117 67 67
cat_boundaries=0 1 2
cat_threshold=1 10
is_linear=0
shrinkage=0.0293497


Tree=33
num_leaves=15
num_cat=1
split_feature=4 16 2 4 6 4 2 6 1 2 1 2 4 6
split_gain=344.573 49.1556 42.4398 20.0869 8.46523 5.04961 8.17281 4.602 3.81138 3.35632 2.28418 1.52745 1.01525 0.925869
threshold=248.69965931440211 0 -0.5 548.80715798922017 1.0000000180025095e-35 409.9964705784526 -0.9330127018922193 1.0000000180025095e-35 0.25000000000000011 1.0000000180025095e-35 0.68301270189221941 -0.24999999999999997 845.96862934309672 15.592930107526882
decision_type=2 1 2 2 2 2 2 2 2 2 2 2 2 2
left_child=-1 7 5 9 10 6 -3 -2 -7 -4 -5 -6 -12 -8
right_child=1 2 3 4 11 8 13 -9 -10 -11 12 -13 -14 -15
leaf_value=-2.7563825707874172 14.559031282802636 1.9626978186123403 -0.34386373994078306 -0.2376374995842451 0.17419319917597553 5.6134713294898857 0.51443425394372677 58.542492410138081 1.0131636111362072 -1.122784626834705 -0.25536686426023014 1.0804338047881119 0.39823543587282162 -0.072210349850288333
leaf_weight=384 34 39 61 47 33 64 34 83 39 37 32 35 42 44
leaf_count=384 34 39 61 47 33 64 34 83 39 37 32 35 42 44
internal_value=-0.00623807 0.00716024 0.00308427 -0.00422005 0.00113379 0.0128297 0.00783301 0.0243426 0.0179834 -0.0150176 -0.00322061 0.00958436 0 0.00161639
internal_weight=1008 624 507 287 189 220 117 117 103 98 121 68 74 78
internal_count=1008 624 507 287 189 220 117 117 103 98 121 68 74 78
cat_boundaries=0 1
cat_threshold=1
is_linear=0
shrinkage=0.0293497


Tree=34
num_leaves=13
num_cat=4
split_feature=16 14 16 6 12 2 7 7 10 8 6 6
split_gain=275.666 99.4956 41.3947 24.2041 28.1171 16.3196 4.95157 2.93452 3.01528 2.37474 1.17895 0.883712
threshold=0 1 2 5.1174171146953418 3 -0.5 79.743951612903246 79.743951612903246 1018.8554315476191 4.327997311827958 13.307392473118282 19.151987007168461
decision_type=1 1 1 2 9 2 2 2 2 2 2 2
left_child=1 -1 3 7 10 -3 -4 9 -9 -2 -5 -12
right_child=2 5 6 4 -6 -7 -8 8 -10 -11 11 -13
leaf_value=-2.6872083845584092 0.058681437718997122 0.98315658523818561 50.632982919364316 -0.16877993936474903 2.7100288713645804 -0.54190482572040888 16.876080128185038 -0.37696396289055745 -0.27856071059212595 -0.35597478958482565 0.8108644877137402 -0.070091001333430755
leaf_weight=378 37 56 84 44 105 70 33 56 37 42 34 32
leaf_count=378 37 56 84 44 105 70 33 56 37 42 34 32
internal_value=-0.00629629 -0.0216669 0.00898034 0.00419137 0.0108105 0.000537584 0.0243426 -0.00380029 -0.00733152 0 -7.65735e-05 0.00190881
internal_weight=1008 504 504 387 215 126 117 172 93 79 110 66
internal_count=1008 504 504 387 215 126 117 172 93 79 110 66
cat_boundaries=0 1 2 3 4
cat_threshold=2 2 4 10832
is_linear=0
shrinkage=0.0293497


Tree=35
num_leaves=15
num_cat=1
split_feature=4 16 2 4 6 7 4 7 3 2 2 2 4 4
split_gain=336.805 51.2183 33.3601 19.81 7.88361 4.95157 4.6214 3.08892 3.05172 2.96696 2.69147 1.52745 0.603921 0.108045
threshold=252.5519536762809 0 -0.5 548.80715798922017 1.0000000180025095e-35 79.743951612903246 370.56905669001179 65.641823476702527 1.0000000180025095e-35 1.0000000180025095e-35 0.68301270189221952 -0.24999999999999997 845.96862934309672 215.06016458080848
decision_type=2 1 2 2 2 2 2 2 2 2 2 2 2 2
left_child=13 5 6 9 10 -2 8 -8 -3 -4 12 -6 -5 -1
right_child=1 2 3 4 11 -7 7 -9 -10 -11 -12 -13 -14 -15
leaf_value=-2.5881083928191755 49.146922576536411 -0.18497301621911919 -0.32454658428253397 -0.23583174780244265 0.18498540682991962 16.380773077821814 5.0400385201401701 2.42613711963984 1.3273850322088172 -1.0158534297948243 -0.21959916158068768 1.0470011707579114 0.38977405497356876 -2.6650587436775499
leaf_weight=356 84 38 61 32 33 33 47 96 37 35 47 35 42 32
leaf_count=356 84 38 61 32 33 33 47 96 37 35 47 35 42 32
internal_value=-0.00652914 0.00682791 0.0026423 -0.00383818 0.00144383 0.0243426 0.0113341 0.0146029 0.00440803 -0.0147201 -0.00273682 0.00958436 0.000123961 -0.027988
internal_weight=1008 620 503 285 189 117 218 143 75 96 121 68 74 388
internal_count=1008 620 503 285 189 117 218 143 75 96 121 68 74 388
cat_boundaries=0 1
cat_threshold=1
is_linear=0
shrinkage=0.0293497


Tree=36
num_leaves=14
num_cat=2
split_feature=4 16 2 4 6 12 7 2 4 2 2 4 4
split_gain=337.308 51.4012 35.145 20.8237 7.88361 6.58491 4.95157 3.35632 3.29291 2.69147 1.52745 0.603921 0.184016
threshold=248.69965931440211 0 -0.5 548.80715798922017 1.0000000180025095e-35 1 79.743951612903246 1.0000000180025095e-35 370.56905669001179 0.68301270189221952 -0.24999999999999997 845.96862934309672 438.72129348082393
decision_type=2 1 2 2 2 9 2 2 2 2 2 2 2
left_child=-1 6 5 7 9 8 -2 -4 -3 11 -6 -5 -10
right_child=1 2 3 4 10 -7 -8 -9 12 -11 -12 -13 -14
leaf_value=-2.5206550035249324 47.704477585109842 -0.081355594769403003 -0.31502125552458582 -0.22891016847248105 0.17955614982703622 2.4723827640266043 15.900003116182754 -1.0518406882873521 0.68241207062965148 -0.21315400297995887 1.0162720525221651 0.37833432276024259 4.8921151520258892
leaf_weight=384 84 43 61 32 33 112 33 37 32 47 35 42 33
leaf_count=384 84 43 61 32 33 112 33 37 32 47 35 42 33
internal_value=-0.00647093 0.00678417 0.00262146 -0.00401576 0.00144383 0.0114976 0.0243426 -0.0150176 0.00404636 -0.00273682 0.00958436 0.000123961 0.00867673
internal_weight=1008 624 507 287 189 220 117 98 108 121 68 74 65
internal_count=1008 624 507 287 189 220 117 98 108 121 68 74 65
cat_boundaries=0 1 2
cat_threshold=1 8784
is_linear=0
shrinkage=0.0293497


Tree=37
num_leaves=15
num_cat=0
split_feature=4 4 2 4 2 2 4 10 2 1 2 4 4 4
split_gain=336.805 43.0684 40.6687 14.8942 13.9844 5.9321 5.61621 4.29381 3.73717 3.05172 2.0698 1.03744 0.586728 0.108045
threshold=252.5519536762809 1414.8232369060063 -0.5 548.80715798922017 0.25000000000000017 0.68301270189221952 370.56905669001179 1011.0346102150539 1.0000000180025095e-35 1.0000000180025095e-35 1.0000000180025095e-35 463.76507462979936 845.96862934309672 215.06016458080848
decision_type=2 2 2 2 2 2 2 2 2 2 2 2 2 2
left_child=13 2 6 8 -3 10 9 11 -4 -2 -5 -8 -12 -1
right_child=1 4 3 5 -6 -7 7 -9 -10 -11 12 -13 -14 -15
leaf_value=-2.43816797362072 -0.17715636461909823 54.483329509306905 -0.30577549183476971 0.66367027557211633 11.405445225881707 -0.20689800753035328 0.73257638724206897 5.0102377275203782 -0.95516733048137981 1.2287055223002525 -0.1487544351952223 2.504177224841051 0.36723034268701649 -2.5128598585901809
leaf_weight=356 38 93 61 45 35 43 33 76 35 37 42 42 40 32
leaf_count=356 38 93 61 45 35 43 33 76 35 37 42 42 40 32
internal_value=-0.00652914 0.00682791 0.00276094 -0.0048834 0.0220273 5.40956e-05 0.0119709 0.0153824 -0.0141107 0.00440803 0.00352985 0.00908336 0.000111916 -0.027988
internal_weight=1008 620 492 266 128 170 226 151 96 75 127 75 82 388
internal_count=1008 620 492 266 128 170 226 151 96 75 127 75 82 388
is_linear=0
shrinkage=0.0293497


Tree=38
num_leaves=14
num_cat=2
split_feature=4 16 6 13 4 8 6 1 10 1 8 4 10
split_gain=337.308 48.4829 32.4834 28.4778 13.843 8.64249 6.33424 4.24534 2.67998 1.59226 1.12834 0.520743 0.260504
threshold=248.69965931440211 0 5.1174171146953418 1 552.23962969623847 3.974307795698925 1.0000000180025095e-35 0.68301270189221941 1016.5230555555557 1.0000000180025095e-35 3.6730376344086024 845.96862934309672 1010.2960349462367
decision_type=2 1 2 9 2 2 2 2 2 2 2 2 2
left_child=-1 6 4 5 -3 9 -2 -6 12 -4 -9 -12 -5
right_child=1 2 3 8 7 -7 -8 10 -10 -11 11 -13 -14
leaf_value=-2.3751152831972635 12.354246433406704 -0.6789553217998413 -0.073768359160436656 1.8281954901142661 -0.20082562335953286 -0.47732938705513167 52.191497484972814 -0.13235733698456395 0.58611022070533059 0.85152231406886492 0.0095358497174044873 0.57752915875005262 3.6463837657432894
leaf_weight=384 34 62 35 46 47 42 83 45 32 38 45 32 83
leaf_count=384 34 62 35 46 47 42 83 45 32 38 45 32 83
internal_value=-0.00647093 0.00678417 0.00273716 0.00959243 -0.00524163 -0.00171276 0.0238423 -0.000574397 0.0170129 0.00372778 0.00199469 0.00429403 0.0202684
internal_weight=1008 624 507 276 231 115 117 169 161 73 122 77 129
internal_count=1008 624 507 276 231 115 117 169 161 73 122 77 129
cat_boundaries=0 1 2
cat_threshold=1 873472017
is_linear=0
shrinkage=0.0293497


Tree=39
num_leaves=14
num_cat=1
split_feature=4 2 4 13 4 2 4 4 1 7 10 4 4
split_gain=331.366 36.0262 40.1109 38.2807 22.949 13.1358 10.9636 4.14893 3.59293 2.83317 0.465362 0.193761 0.108045
threshold=252.5519536762809 1.0000000180025095e-35 865.33312693746313 0 3395.8302969114998 -0.5 564.01065308573266 548.80715798922017 0.68301270189221941 69.424395161290334 1012.6774865591399 1078.1685970396561 215.06016458080848
decision_type=2 2 2 9 2 2 2 2 2 2 2 2 2
left_child=12 2 3 9 6 10 -3 -7 -8 -2 -5 -10 -1
right_child=1 4 -4 5 -6 7 8 -9 11 -11 -12 -13 -14
leaf_value=-2.2968997931908612 -0.24237661477637956 -0.90720640207352266 50.924291920615246 2.1020369220214561 22.643125748920728 -0.26784962510001964 -0.22081770715359189 0.56890809068460046 0.0092559758627916797 -0.4946996914208539 3.6535627459897411 -0.27838546793025498 -2.3693994974554848
leaf_weight=356 47 35 98 84 38 34 46 36 61 55 54 32 32
leaf_count=356 47 35 98 84 38 34 46 36 61 55 54 32 32
internal_value=-0.00670379 0.00654403 0.0116667 0.00627167 -0.00308437 0.0132161 -0.00779724 0.00263486 -0.00364714 -0.00792039 0.0191619 0 -0.027988
internal_weight=1008 620 408 310 212 208 174 70 139 102 138 93 388
internal_count=1008 620 408 310 212 208 174 70 139 102 138 93 388
cat_boundaries=0 1
cat_threshold=872423441
is_linear=0
shrinkage=0.0293497


Tree=40
num_leaves=14
num_cat=3
split_feature=4 16 7 13 4 16 4 4 8 10 7 7 4
split_gain=321.247 44.8895 20.1989 21.9214 14.5907 10.0858 9.6974 6.6046 5.10534 3.39 2.81805 0.711969 0.00304852
threshold=248.69965931440211 0 83.43915610599079 1 508.42243315328164 2 581.6473146573295 595.46025451552225 3.8660618279569898 1018.8554315476191 79.743951612903246 75.893234767025106 404.44681781249193
decision_type=2 1 2 9 2 1 2 2 2 2 2 2 2
left_child=-1 10 3 4 8 12 -4 -7 -3 -8 -2 -9 -5
right_child=1 2 6 5 -6 7 9 11 -10 -11 -12 -13 -14
leaf_value=-2.2379932744629292 43.093535851808902 -0.20522738063160989 -1.0236055112392026 -0.029494601933651641 0.97504703463045272 2.3153446501445143 -0.17918033772202044 0.49224296224091563 -0.4596865689578471 0.15809417582979318 14.071437120474574 0.14163081823874346 0.13325881895086436
leaf_weight=384 84 35 32 33 32 128 56 36 53 38 33 32 32
leaf_count=384 84 35 32 33 32 128 56 36 53 38 33 32 32
internal_value=-0.00699486 0.00593799 0.00204295 0.00548878 -0.00457457 0.0100937 -0.00797195 0.0138001 -0.0114015 -0.00258676 0.0223414 0.00528912 0
internal_weight=1008 624 507 381 120 261 126 196 88 94 117 68 65
internal_count=1008 624 507 381 120 261 126 196 88 94 117 68 65
cat_boundaries=0 1 2 3
cat_threshold=1 335552529 2
is_linear=0
shrinkage=0.0293497


Tree=41
num_leaves=13
num_cat=1
split_feature=4 6 4 13 4 8 6 4 4 9 10 5
split_gain=304.492 36.1358 40.9576 30.2088 22.6238 12.4259 11.1444 10.1899 4.63325 2.87019 2.07226 1.10164
threshold=248.69965931440211 0.79717069892473136 865.33312693746313 0 3395.8302969114998 3.5605219534050181 11.456080869175628 564.01065308573266 370.56905669001179 0.032385912698412705 1018.9909226190476 45.995880376344097
decision_type=2 2 2 9 2 2 2 2 2 2 2 2
left_child=-1 4 3 5 7 -3 9 -2 -8 -5 11 -9
right_child=1 2 -4 6 -6 -7 8 10 -10 -11 -12 -13
leaf_value=-2.1723089544616485 -0.91633994902676963 0.41411069427112901 48.61497424883207 0.59896328516881481 21.774691486973758 -0.46668878841821382 1.2522125110605233 -0.028400121911182203 4.7142220626976217 -0.025759923100024302 0.081403187785865555 -0.22549574921475662
leaf_weight=384 37 37 98 57 38 77 32 47 67 42 32 60
leaf_count=384 37 37 98 57 38 77 32 47 67 42 32 60
internal_value=-0.00740236 0.00518583 0.0103223 0.00491593 -0.00442495 -0.00668382 0.0115964 -0.00904037 0.0192986 0.00452487 -0.00491102 -0.00692211
internal_weight=1008 624 410 312 214 114 198 176 99 99 139 107
internal_count=1008 624 410 312 214 114 198 176 99 99 139 107
cat_boundaries=0 1
cat_threshold=335552537
is_linear=0
shrinkage=0.0293497


Tree=42
num_leaves=14
num_cat=0
split_feature=4 2 4 4 4 2 4 2 6 1 1 4 4
split_gain=300.346 37.7067 30.3802 24.1315 15.6456 14.0138 5.94358 4.03571 3.77698 3.49471 1.89556 0.908243 0.0133808
threshold=252.5519536762809 -0.5 4045.6410113866414 656.23095679776623 552.23962969623847 1.0000000180025095e-35 370.56905669001179 1.0000000180025095e-35 15.932594086021506 0.68301270189221941 1.0000000180025095e-35 813.49450120768495 215.06016458080848
decision_type=2 2 2 2 2 2 2 2 2 2 2 2 2
left_child=12 3 4 6 7 -6 10 -3 -8 -7 -2 -11 -1
right_child=1 2 -4 -5 5 9 8 -9 -10 11 -12 -13 -14
leaf_value=-2.100045759284261 -0.24255040445920084 -0.26254342495575944 28.740558719164227 51.040798662395233 1.195358987828629 -0.2258676795551913 0.46590778094970575 -0.82364349053482133 3.5771275582598117 -0.19481758355161058 1.0100939868608152 0.043629741009290283 -2.1704176225811511
leaf_weight=356 38 63 32 69 68 51 70 35 56 40 37 61 32
leaf_count=356 38 63 32 69 68 51 70 35 56 40 37 61 32
internal_value=-0.007577 0.00503002 -0.00119918 0.0132796 -0.00408568 4.18196e-05 0.00777201 -0.0138237 0.0116891 -0.00468458 0.000511926 -0.000959858 -0.0278368
internal_weight=1008 620 350 270 318 220 201 98 126 152 75 101 388
internal_count=1008 620 350 270 318 220 201 98 126 152 75 101 388
is_linear=0
shrinkage=0.0293497


Tree=43
num_leaves=14
num_cat=6
split_feature=13 2 13 15 14 12 8 14 7 1 6 6 8
split_gain=74.3386 29.4747 11.0058 21.5067 7.61426 8.30262 5.36628 4.22051 4.14411 1.33626 1.00658 0.305891 0.192547
threshold=0 -0.5 1 2 3 4 3.7405241935483873 5 78.790994623655919 0.25000000000000011 4.839930555555557 -4.1538642473118275 3.6365663402457762
decision_type=9 2 9 9 1 9 2 1 2 2 2 2 2
left_child=6 4 8 -4 5 12 -1 10 -3 -7 11 -5 -2
right_child=1 2 3 7 -6 9 -8 -9 -10 -11 -12 -13 -14
leaf_value=-1.4543492910804268 -0.69591738692245797 -1.2017716720907727 -1.2286573428988556 -0.11636789186018566 1.84313914585468 3.2354720229360217 -1.6466767485131308 0.53389515328747028 -1.8613064715580876 0.17108300592980441 0.57180826298135401 -0.37987123208659368 -1.1273798571897855
leaf_weight=138 37 53 105 52 60 120 150 35 52 40 43 60 63
leaf_count=138 37 53 105 52 60 120 150 35 52 40 43 60 63
internal_value=-0.007577 -0.00226308 -0.00764762 -0.00397127 0.00424342 0.00183923 -0.0199036 0.00180407 -0.0156033 0.00591263 0 -0.0016497 -0.00433976
internal_weight=1008 720 400 295 320 260 288 190 105 160 155 112 100
internal_count=1008 720 400 295 320 260 288 190 105 160 155 112 100
cat_boundaries=0 1 2 3 4 5 6
cat_threshold=469770776 5276928 18 2 8712 2
is_linear=0
shrinkage=0.0293497


Tree=44
num_leaves=17
num_cat=6
split_feature=13 2 13 14 13 12 14 8 2 10 8 8 10 10 8 8
split_gain=65.0048 24.609 11.482 7.7629 11.5195 6.84282 4.63172 3.3111 2.24225 1.45572 0.850823 1.26495 0.76161 0.253518 0.14071 0.0149909
threshold=0 -0.5 1 2 3 4 5 3.7405241935483873 0.25000000000000017 1010.0791666666668 4.2462365591397857 3.6927284946236565 1011.0346102150539 1010.641960125448 2.7057043650793653 3.974307795698925
decision_type=9 2 9 1 9 9 1 2 2 2 2 2 2 2 2 2
left_child=7 3 8 4 12 13 10 -1 -3 -6 11 14 -2 -4 -7 -11
right_child=1 2 5 -5 9 6 -8 -9 -10 15 -12 -13 -14 -15 -16 -17
leaf_value=-1.4573011163474878 -1.0148887398378719 -1.1665000937626258 -1.7538744020760884 1.7890436564514505 0.14936685357564894 -0.83841245102914774 0.73712773615921823 -1.6642325733495344 -1.9076142614846878 2.0826740726999389 0.041163405971060857 -0.3899317529758346 -0.8814380970371769 -0.8978454540657812 0.0207570749963993 3.2344423324346625
leaf_weight=129 46 63 50 60 37 32 35 132 42 77 40 41 58 75 37 54
leaf_count=129 46 63 50 60 37 32 35 132 42 77 40 41 58 75 37 54
internal_value=-0.00728593 -0.00260869 -0.00744209 0.00320705 0.000896011 -0.00387693 0 -0.0196126 -0.0156033 0.00564738 -0.0024041 -0.00380773 -0.00624159 -0.0089599 -0.000556229 0.00744496
internal_weight=1008 747 415 332 272 310 185 261 105 168 150 110 104 125 69 131
internal_count=1008 747 415 332 272 310 185 261 105 168 150 110 104 125 69 131
cat_boundaries=0 1 2 3 4 5 6
cat_threshold=201335320 5276928 2 269516801 16522 2
is_linear=0
shrinkage=0.0293497


Tree=45
num_leaves=16
num_cat=0
split_feature=4 2 4 4 4 2 4 7 1 2 7 4 4 8 4
split_gain=316.01 32.2544 27.3146 22.8635 16.7503 10.1587 6.36234 3.75042 3.59036 3.37416 2.82991 0.555867 0.82577 0.137984 0.0133808
threshold=252.5519536762809 -0.5 4045.6410113866414 792.08183638017465 548.80715798922017 1.0000000180025095e-35 331.12795795609861 66.044948476702515 0.68301270189221941 1.0000000180025095e-35 70.850806451612911 1135.9860450634139 773.61878324339034 4.327997311827958 215.06016458080848
decision_type=2 2 2 2 2 2 2 2 2 2 2 2 2 2 2
left_child=14 3 4 6 9 13 -2 -8 -7 -3 -9 12 -10 -6 -1
right_child=1 2 -4 -5 5 8 7 10 11 -11 -12 -13 -14 -15 -16
leaf_value=-1.9778459599783169 -0.10579919170915499 -0.20704528225602431 27.919346633332299 52.872005138046717 1.3577226016993822 -0.22370692987925073 3.1105973282564552 0.085754951458800729 -0.093269477623048699 -0.7022958113033525 1.7422506344283888 -0.4210510866877209 0.48492941037176457 0.67947246320503474 -2.0612189040853659
leaf_weight=356 48 61 32 68 38 51 59 41 37 35 54 32 32 32 32
leaf_count=356 48 61 32 68 38 51 59 41 37 35 54 32 32 32 32
internal_value=-0.00705307 0.00588165 0 0.0134967 -0.00261051 0.00162555 0.00816878 0.0110898 -0.00237253 -0.012892 0.00656196 0.000380573 0.00224954 0.010981 -0.0278368
internal_weight=1008 620 350 270 318 222 202 154 152 96 95 101 69 70 388
internal_count=1008 620 350 270 318 222 202 154 152 96 95 101 69 70 388
is_linear=0
shrinkage=0.0293497


Tree=46
num_leaves=14
num_cat=4
split_feature=15 14 1 7 12 7 12 7 10 6 10 10 10
split_gain=30.4975 17.9916 15.1692 5.10513 4.72333 2.84352 1.57579 2.85859 1.15746 1.03364 0.237904 0.679019 0.165182
threshold=0 1 0.25000000000000011 75.893234767025106 2 72.042786738351268 3 78.790994623655919 1015.4170833333334 11.456080869175628 1013.8610752688174 1009.7022666517325 1014.5336111111113
decision_type=9 1 2 2 9 2 9 2 2 2 2 2 2
left_child=3 2 4 10 12 -3 7 -4 -6 -5 11 -1 -2
right_child=1 5 6 9 8 -7 -8 -9 -10 -11 -12 -13 -14
leaf_value=-0.92317485546977462 -1.0844482029636255 2.1222039817397929 0.12147065895850767 -1.4980440145199885 3.2930624844595355 0.15949030663305205 -1.0064242190113764 -1.722814391784818 0.18437073153571482 -1.0064559357051424 -0.42901370536018246 -1.00482066134744 -0.11840468733178269
leaf_weight=32 54 33 46 178 83 48 190 54 41 45 45 105 54
leaf_count=32 54 33 46 178 83 48 190 54 41 45 45 105 54
internal_value=-0.00722772 -0.00274264 -0.00484996 -0.013378 0.000544968 0.00985672 -0.00933205 -0.00380773 0.00443835 -0.0169942 -0.00938675 -0.0105391 -0.0035503
internal_weight=1008 603 522 405 232 81 290 100 124 223 182 137 108
internal_count=1008 603 522 405 232 81 290 100 124 223 182 137 108
cat_boundaries=0 1 2 3 4
cat_threshold=18 2 10352 16682
is_linear=0
shrinkage=0.0293497


Tree=47
num_leaves=14
num_cat=0
split_feature=4 4 2 6 6 4 4 9 4 4 10 7 4
split_gain=314.874 31.8401 23.6305 22.7775 10.6008 7.31083 6.17614 5.26845 5.13191 4.67649 3.60643 1.28704 0.627417
threshold=248.69965931440211 904.67989906041112 -0.24999999999999997 -4.8369287634408602 11.456080869175628 2991.9862140553837 370.56905669001179 0.04793682795698926 545.32881348854892 1160.1552180693886 1009.9737231182797 78.171863799283173 431.27233741278923
decision_type=2 2 2 2 2 2 2 2 2 2 2 2 2
left_child=-1 3 -3 -2 8 9 -6 -8 10 -4 -5 -10 -12
right_child=1 2 5 4 6 -7 7 -9 11 -11 12 -13 -14
leaf_value=-1.9058559398848773 -0.76991880721385741 50.312424585355402 0.40583141421234165 0.11272920865580505 0.14287121607229794 21.716620772038898 3.5050465635608523 1.6676278975603824 0.017556601490515994 -0.35169458034798318 -0.34343609409968462 0.25163854853767026 -0.11207841986259537
leaf_weight=384 57 80 38 43 63 50 54 40 57 36 35 37 34
leaf_count=384 57 80 38 43 63 50 54 40 57 36 35 37 34
internal_value=-0.00705307 0.00574995 0.0152707 0.000999473 0.00382199 0.00668382 0.00957248 0.0144099 -0.000329148 0.000123961 -0.00478505 0.00445358 -0.00902279
internal_weight=1008 624 204 420 363 124 157 94 206 74 112 94 69
internal_count=1008 624 204 420 363 124 157 94 206 74 112 94 69
is_linear=0
shrinkage=0.0293497


Tree=48
num_leaves=13
num_cat=2
split_feature=4 4 2 6 13 6 14 4 4 4 9 9
split_gain=313.131 28.679 23.0856 20.5168 26.3319 14.7299 10.2733 6.17778 4.67649 4.60768 1.39458 1.16009
threshold=248.69965931440211 904.67989906041112 -0.24999999999999997 -4.8369287634408602 0 8.5851478494623681 1 2991.9862140553837 1160.1552180693886 452.31867825930834 0.028965053763440867 0.04793682795698926
decision_type=2 2 2 2 9 2 1 2 2 2 2 2
left_child=-1 3 -3 -2 9 10 11 8 -4 -5 -6 -7
right_child=1 2 7 4 5 6 -8 -9 -10 -11 -12 -13
leaf_value=-1.8499197345083078 -0.74732195945515478 48.835772517534572 0.39392040412045787 -0.42644392134528553 0.15422084643997627 2.6437689481230415 0.025332066755461555 21.079245546467956 -0.3413724673988992 -0.032625835387774985 -0.31608970920075574 1.5272313711051504
leaf_weight=384 57 80 38 64 52 75 39 50 36 37 38 58
leaf_count=384 57 80 38 64 52 75 39 50 36 37 38 58
internal_value=-0.00711129 0.00565593 0.0146962 0.00113912 0.00382199 0.0086556 0.0140189 0.0062117 0.000123961 -0.00825516 -0.000102005 0.0178994
internal_weight=1008 624 204 420 363 262 172 124 74 101 90 133
internal_count=1008 624 204 420 363 262 172 124 74 101 90 133
cat_boundaries=0 1 2
cat_threshold=335544337 2
is_linear=0
shrinkage=0.0293497


Tree=49
num_leaves=13
num_cat=4
split_feature=13 2 15 13 15 6 6 7 2 7 8 10
split_gain=68.9447 23.2751 13.4896 6.52595 5.71504 3.35916 1.61535 0.682123 0.667841 0.255276 0.120566 0.159016
threshold=0 -0.5 1 2 3 4.839930555555557 18.024639336917563 70.850806451612911 0.25000000000000017 70.40658602150539 4.0768145161290326 1012.5921034946238
decision_type=9 2 9 9 9 2 2 2 2 2 2 2
left_child=3 4 -3 -1 9 10 7 -6 -5 -2 11 -4
right_child=1 2 5 8 6 -7 -8 -9 -10 -11 -12 -13
leaf_value=-1.4703608480016759 0.87374989656535629 -1.0674319856991232 0.17594092180282622 -0.93075134143367744 1.1324953855262765 0.46801844711819079 3.6461088353107431 4.0432986265100563 -1.5817286941188031 -0.34203097314656211 -0.35111875656202007 -0.2078799385032355
leaf_weight=135 51 125 34 203 34 59 77 61 58 49 74 48
leaf_count=135 51 125 34 203 34 59 77 61 58 49 74 48
internal_value=-0.00728593 -0.000863701 -0.00606378 -0.0166358 0.00542244 -0.000952652 0.00842094 0.00533047 -0.0120407 -8.35139e-05 -0.00343827 -0.00153785
internal_weight=1008 612 340 396 272 215 172 95 261 100 156 82
internal_count=1008 612 340 396 272 215 172 95 261 100 156 82
cat_boundaries=0 1 2 3 4
cat_threshold=475014680 18 201327120 18
is_linear=0
shrinkage=0.0293497


Tree=50
num_leaves=16
num_cat=0
split_feature=4 2 4 4 4 6 4 7 7 4 4 8 4 6 4
split_gain=313.131 28.2162 25.3444 23.5677 15.2985 8.49138 5.58197 4.74509 4.40799 4.23719 2.33081 0.977296 0.960995 1.61689 0.810102
threshold=248.69965931440211 -0.5 792.08183638017465 548.80715798922017 4045.6410113866414 4.839930555555557 1372.7146778288031 65.641823476702527 79.267495519713279 373.75386785630633 449.69915621628081 3.5893145161290332 813.49450120768495 -3.5825268817204297 1093.7436754328678
decision_type=2 2 2 2 2 2 2 2 2 2 2 2 2 2 2
left_child=-1 2 7 8 5 6 12 9 -3 -2 11 -9 13 -5 -14
right_child=1 3 -4 4 -6 -7 -8 10 -10 -11 -12 -13 14 -15 -16
leaf_value=-1.776031733764919 0.20804389928581354 -0.17861722454818141 48.423527746007807 -0.36290446991601238 25.890032164530329 1.404974352568465 -2.3314378510050253 0.84990891447497707 -0.70164586852481781 2.8236887903004764 2.1050871045993702 -0.10228389821057213 0.10735574680286834 0.075508172865946285 0.08848624214616696
leaf_weight=384 40 63 68 32 32 44 33 32 35 39 47 46 32 48 33
leaf_count=384 40 63 68 32 32 44 33 32 35 39 47 46 32 48 33
internal_value=-0.00711129 0.00565593 0.0127509 2.6152e-05 0.00488301 0.00188957 -0.000709988 0.00722699 -0.0120329 0.0130649 0.00311783 0 0.00147706 -0.000114703 0.00418426
internal_weight=1008 624 272 352 254 222 178 204 98 79 125 78 145 80 65
internal_count=1008 624 272 352 254 222 178 204 98 79 125 78 145 80 65
is_linear=0
shrinkage=0.0293497


Tree=51
num_leaves=15
num_cat=2
split_feature=4 2 4 4 15 1 4 16 10 10 4 4 4 4
split_gain=316.621 25.0386 26.1022 22.3508 20.0276 23.3559 15.7793 7.39536 5.61699 4.31603 3.31011 2.41798 2.30722 0.0823798
threshold=248.69965931440211 -0.5 792.08183638017465 4045.6410113866414 0 0.25000000000000011 552.23962969623847 1 1011.7003091397851 1009.9737231182797 364.73981146994805 688.43045867839135 449.69915621628081 366.57083162401631
decision_type=2 2 2 2 9 2 2 1 2 2 2 2 2 2
left_child=-1 2 8 4 5 -3 -6 -8 12 -7 -10 -11 13 -2
right_child=1 3 -4 -5 6 9 7 -9 10 11 -12 -13 -14 -15
leaf_value=-1.723905823439724 -0.018658804380936117 0.83804531399809323 47.002314139893208 25.130168773990622 -0.47223978211172168 -0.22736284542567742 0.76437114273124085 0.21933120111626195 0.26596270969848063 -0.72259167943254421 2.4024878065736659 -0.53463363241783868 2.0433035342076047 -0.099281901565764469
leaf_weight=384 32 43 68 32 34 35 55 39 36 46 57 68 47 32
leaf_count=384 32 43 68 32 34 35 55 39 36 46 57 68 47 32
internal_value=-0.00699486 0.00584397 0.0125354 0.00052596 -0.00167798 -0.00758854 0.00685605 0.0137876 0.00693972 -0.013623 0.012363 -0.0165099 0.00192814 -0.00105569
internal_weight=1008 624 272 352 320 192 128 94 204 149 93 114 111 64
internal_count=1008 624 272 352 320 192 128 94 204 149 93 114 111 64
cat_boundaries=0 1 2
cat_threshold=10 4
is_linear=0
shrinkage=0.0293497


Tree=52
num_leaves=13
num_cat=2
split_feature=4 4 2 2 13 14 1 1 4 4 2 9
split_gain=307.933 26.9 25.3068 17.4783 21.945 11.2612 11.7317 4.63011 3.70667 5.59234 2.81085 1.08218
threshold=248.69965931440211 792.08183638017465 1.0000000180025095e-35 0.25000000000000017 0 1 0.25000000000000011 1.0000000180025095e-35 3540.0940033894253 1160.1552180693886 -0.5 0.030309139784946242
decision_type=2 2 2 2 9 1 2 2 2 2 2 2
left_child=-1 3 10 4 7 6 11 -2 9 -4 -3 -6
right_child=1 2 8 -5 5 -7 -8 -9 -10 -11 -12 -13
leaf_value=-1.6733097903546554 -0.4431714796585014 45.622812656133668 0.21289390706145966 -0.66865019548600202 3.0237591963245301 -0.059955398092347192 0.1330965627876689 -0.066965763452255495 16.722577578645986 -0.37627522004264841 13.532068947854889 1.5877155885934999
leaf_weight=384 45 68 51 60 50 64 58 61 36 34 39 58
leaf_count=384 45 68 51 60 50 64 58 61 36 34 39 58
internal_value=-0.00728593 0.00537387 0.0134085 0.000615676 0.00334344 0.00834263 0.0127601 -0.00714346 0.00370441 0 0.023876 0.018508
internal_weight=1008 624 228 396 336 230 166 106 121 85 107 108
internal_count=1008 624 228 396 336 230 166 106 121 85 107 108
cat_boundaries=0 1 2
cat_threshold=335552529 2
is_linear=0
shrinkage=0.0293497


Tree=53
num_leaves=16
num_cat=1
split_feature=4 4 2 6 13 2 4 4 4 2 4 10 2 9 5
split_gain=309.661 26.2675 25.4487 18.5475 6.78982 6.99891 6.141 5.88806 5.80329 5.76131 4.16805 2.95995 1.80054 1.03705 1.02186
threshold=248.69965931440211 904.67989906041112 -0.24999999999999997 11.456080869175628 0 0.25000000000000017 430.36928860343761 2991.9862140553837 1178.9245733772789 -0.9330127018922193 512.03729766786489 1009.8378360215055 -0.24999999999999997 0.044959677419354846 45.995880376344097
decision_type=2 2 2 2 9 2 2 2 2 2 2 2 2 2 2
left_child=-1 3 -3 4 10 11 9 8 -4 -5 -2 -6 -13 -11 -12
right_child=1 2 7 6 5 -7 -8 -9 -10 13 14 12 -14 -15 -16
leaf_value=-1.6241987331476995 -0.14584333179832337 45.502709319131377 0.40350696066046976 1.588412742485551 0.11224226629373031 -0.72768296706245006 4.0331621327756757 18.480553408499198 -0.50033635060764026 0.65986680196733005 0.26811064185095757 -0.63625495916164043 -0.064856377822158029 -0.32357317878795705 0.057162276880619978
leaf_weight=384 58 80 42 44 34 33 41 50 32 40 36 32 33 32 37
leaf_count=384 58 80 42 44 34 33 41 50 32 40 36 32 33 32 37
internal_value=-0.00722772 0.00546789 0.0141216 0.00113912 -0.00349011 -0.00790062 0.00919939 0.00526745 0 0.0051251 0.00110353 -0.00393392 -0.00777824 0 0.0061292
internal_weight=1008 624 204 420 263 132 157 124 74 116 131 99 65 72 73
internal_count=1008 624 204 420 263 132 157 124 74 116 131 99 65 72 73
cat_boundaries=0 1
cat_threshold=268468235
is_linear=0
shrinkage=0.0293497


Tree=54
num_leaves=15
num_cat=1
split_feature=4 6 4 4 4 6 1 10 16 4 9 4 9 6
split_gain=304.492 25.6088 22.8181 21.3249 10.1591 10.3973 7.04206 5.90137 4.63878 3.77948 1.58391 1.77851 1.5764 1.42955
threshold=248.69965931440211 11.456080869175628 449.69915621628081 4045.6410113866414 508.42243315328164 5.1174171146953418 1.0000000180025095e-35 1009.9737231182797 0 1145.6293276591566 1.0000000180025095e-35 845.96862934309672 0.04793682795698926 5.1174171146953418
decision_type=2 2 2 2 2 2 2 2 1 2 2 2 2 2
left_child=-1 3 6 4 7 8 12 -2 10 -7 -6 -12 -3 -9
right_child=1 2 -4 -5 5 9 -8 13 -10 -11 11 -13 -14 -15
leaf_value=-1.5765290682961148 0.038764730871181506 0.75385736977834761 17.242266196625412 23.359407523961991 0.1261636813495704 0.3604943108845618 2.6201825585477061 -0.46389445764704179 -0.89305334324818242 32.692805886891641 0.063969158468321727 -0.38126653664302329 -0.2847447948328688 -0.079266916070224305
leaf_weight=384 36 49 69 32 54 41 49 40 65 34 42 39 36 38
leaf_count=384 36 49 69 32 54 41 49 40 65 34 42 39 36 38
internal_value=-0.00740236 0.00518583 0.013758 0.000927441 -0.0008529 0.00205882 0.00618625 -0.00829526 -0.00121804 0.011421 0.0015862 -0.00047416 0.000451933 -0.012857
internal_weight=1008 624 203 421 389 275 134 114 200 75 135 81 85 78
internal_count=1008 624 203 421 389 275 134 114 200 75 135 81 85 78
cat_boundaries=0 1
cat_threshold=4
is_linear=0
shrinkage=0.0293497


Tree=55
num_leaves=13
num_cat=3
split_feature=4 4 2 13 2 4 4 16 1 16 9 9
split_gain=302.779 25.3809 26.7978 17.0476 31.6648 15.0492 10.4387 8.96797 9.13848 3.26835 1.86046 1.08218
threshold=248.69965931440211 792.08183638017465 -0.5 0 1.0000000180025095e-35 4045.6410113866414 512.03729766786489 1 0.25000000000000011 2 1.0000000180025095e-35 0.030309139784946242
decision_type=2 2 2 9 2 2 2 1 2 1 2 2
left_child=-1 3 -3 6 7 9 -2 -5 11 -4 -11 -9
right_child=1 2 5 4 -6 -7 -8 8 -10 10 -12 -13
leaf_value=-1.5302584914383122 -0.39631396098306337 42.423839004186789 -1.2378676118737042 -0.014740469056356823 -0.77838309595728172 22.673817081688451 0.12884975625025133 2.6329869240966 0.2119781844275104 0.32698251129757838 0.0052292219113738228 1.5072296344792493
leaf_weight=384 98 68 35 56 48 32 37 50 49 40 53 58
leaf_count=384 98 68 35 56 48 32 37 50 49 40 53 58
internal_value=-0.00746057 0.00509181 0.0128944 0.000467569 0.00490158 0.00591529 -0.00753558 0.0100864 0.0136765 0.000986613 0.00418683 0.018508
internal_weight=1008 624 228 396 261 160 135 213 157 128 93 108
internal_count=1008 624 228 396 261 160 135 213 157 128 93 108
cat_boundaries=0 1 2 3
cat_threshold=335552529 2 1
is_linear=0
shrinkage=0.0293497


Tree=56
num_leaves=14
num_cat=1
split_feature=4 4 2 4 2 13 7 2 7 9 10 7 9
split_gain=302.779 23.7149 27.7564 15.7271 15.2236 21.2684 11.4028 3.93976 2.98062 2.45107 2.13831 1.98493 0.112929
threshold=248.69965931440211 792.08183638017465 -0.5 4045.6410113866414 0.25000000000000017 0 67.32187500000002 -0.5 78.8239247311828 0.028965053763440867 1016.5230555555557 79.267495519713279 0.025349462365591404
decision_type=2 2 2 2 2 9 2 2 2 2 2 2 2
left_child=-1 4 -3 10 5 7 12 -2 9 -8 11 -4 -7
right_child=1 2 3 -5 -6 6 8 -9 -10 -11 -12 -13 -14
leaf_value=-1.4853459398309208 -0.45445915025171507 41.178714164612572 0.35274739610829015 22.008348479151415 -0.59681469141593879 2.6372839603776117 0.26174779054579594 -0.022944964880318768 0.93920142026616049 -0.11454625446919631 0.58464951752688854 -0.24970493041312244 1.3587192598964861
leaf_weight=384 60 68 42 32 60 36 62 46 48 50 47 39 34
leaf_count=384 60 68 42 32 60 36 62 46 48 50 47 39 34
internal_value=-0.00746057 0.00509181 0.0126373 0.00554918 0.000615676 0.00316891 0.00809839 -0.00714346 0.00371861 0.000604585 0.000529206 -0.00191763 0.0184926
internal_weight=1008 624 228 160 396 336 230 106 160 112 128 81 70
internal_count=1008 624 228 160 396 336 230 106 160 112 128 81 70
cat_boundaries=0 1
cat_threshold=335552529
is_linear=0
shrinkage=0.0293497


Tree=57
num_leaves=16
num_cat=2
split_feature=4 4 2 4 6 13 6 6 4 4 6 16 4 9 4
split_gain=299.367 23.2986 25.6378 15.7271 15.1288 16.5734 17.7006 8.25526 3.21684 2.94097 6.44581 2.51453 1.65135 0.184845 0.0993494
threshold=248.69965931440211 792.08183638017465 -0.5 4045.6410113866414 -4.8369287634408602 0 11.456080869175628 7.9680656362007172 368.16476071192187 1160.1552180693886 1.0000000180025095e-35 1 595.46025451552225 0.030309139784946242 388.01075748368493
decision_type=2 2 2 2 2 9 2 2 2 2 2 1 2 2 2
left_child=-1 4 -3 9 -2 7 11 -6 -8 -4 -11 -7 -13 -10 -9
right_child=1 2 3 -5 5 6 8 14 13 10 -12 12 -14 -15 -16
leaf_value=-1.4417515559077294 -0.5969348308528144 39.970133303671972 0.22818883702928935 21.362411147391025 0.039429934249141346 -0.31068051187361856 0.61815406901235048 -0.320360527229681 3.3478092425102801 -0.58141019219947287 8.3287625827979035 0.4972357813956404 -0.048967419107281231 2.3095822868306635 -0.62466853811538381
leaf_weight=384 48 68 57 32 42 40 36 41 38 39 32 53 33 33 32
leaf_count=384 48 68 57 32 42 40 36 41 38 39 32 53 33 33 32
internal_value=-0.007577 0.00490378 0.0123802 0.00554918 0.000467569 0.00272271 0.00715423 -0.00592796 0.0162194 0.000529206 -0.00300938 0 0.00282647 0.0202906 -0.012533
internal_weight=1008 624 228 160 396 348 233 115 107 128 71 126 86 71 73
internal_count=1008 624 228 160 396 348 233 115 107 128 71 126 86 71 73
cat_boundaries=0 1 2
cat_threshold=335552529 2
is_linear=0
shrinkage=0.0293497


Tree=58
num_leaves=15
num_cat=2
split_feature=4 6 4 4 4 12 6 1 10 6 16 9 9 4
split_gain=301.071 23.3253 21.9657 21.3249 8.7975 9.7503 16.4118 5.88389 5.29573 2.3675 2.17255 1.5764 0.753634 0.301353
threshold=248.69965931440211 11.456080869175628 449.69915621628081 4045.6410113866414 508.42243315328164 0 5.1174171146953418 1.0000000180025095e-35 1009.9737231182797 5.1174171146953418 1 0.04793682795698926 1.0000000180025095e-35 730.5238118931876
decision_type=2 2 2 2 2 9 2 2 2 2 1 2 2 2
left_child=-1 3 7 4 8 10 12 11 -2 -10 13 -3 -7 -6
right_child=1 2 -4 -5 5 6 -8 -9 9 -11 -12 -13 -14 -15
leaf_value=-1.3994366519081569 0.048774847657175602 0.6438453034136693 13.109396577389486 20.73543185043988 0.18145486074488787 -0.3424771202059893 1.5331329171956987 2.3733134393474984 -0.40361151033052339 -0.084066330076264781 0.23242557701585764 -0.25368970613416025 -0.73892787824400308 0.85131212737775297
leaf_weight=384 36 49 69 32 34 64 50 49 40 38 48 36 47 32
leaf_count=384 36 49 69 32 34 64 50 49 40 38 48 36 47 32
internal_value=-0.00751879 0.00499779 0.0131807 0.000927441 -0.0008529 0.00184563 -0.00262334 0.00574928 -0.00778184 -0.0121077 0.00810019 0.000451933 -0.00930966 0.0125282
internal_weight=1008 624 203 421 389 275 161 134 114 78 114 85 111 66
internal_count=1008 624 203 421 389 275 161 134 114 78 114 85 111 66
cat_boundaries=0 1 2
cat_threshold=8450 4
is_linear=0
shrinkage=0.0293497


Tree=59
num_leaves=13
num_cat=1
split_feature=4 4 6 6 15 4 5 4 6 4 4 2
split_gain=293.217 25.6832 21.1754 16.5655 13.2604 10.2667 11.6021 8.18952 6.67778 4.17565 4.64762 2.06184
threshold=248.69965931440211 904.67989906041112 2.5369444444444453 11.456080869175628 0 508.42243315328164 45.995880376344097 404.44681781249193 5.1174171146953418 3540.0940033894253 1160.1552180693886 -0.9330127018922193
decision_type=2 2 2 2 9 2 2 2 2 2 2 2
left_child=-1 3 9 4 8 -6 -7 11 -2 10 -3 -5
right_child=1 2 -4 7 5 6 -8 -9 -10 -11 -12 -13
leaf_value=-1.3583636755438664 -0.5069623001304514 0.31484984305933622 41.840208754881957 0.88451531221404089 -0.25486572371436261 0.82652176624812179 -0.0028803103627188763 3.0894818479042891 -0.041049543248629673 13.206363127834825 -0.41500369635600731 -0.12262857502226168
leaf_weight=384 93 37 93 35 38 38 36 63 58 37 37 59
leaf_count=384 93 37 93 35 38 38 36 63 58 37 37 59
internal_value=-0.00763522 0.00471574 0.0132598 0.000440872 -0.00393593 0.00343421 0.0103901 0.00808011 -0.00933515 0.00403715 0 0.00196449
internal_weight=1008 624 204 420 263 112 74 157 151 111 74 94
internal_count=1008 624 204 420 263 112 74 157 151 111 74 94
cat_boundaries=0 1
cat_threshold=10
is_linear=0
shrinkage=0.0293497


Tree=60
num_leaves=12
num_cat=5
split_feature=16 14 13 1 16 7 2 16 1 7 7
split_gain=239.487 84.6938 24.7643 26.3111 10.6823 9.45056 8.87185 6.99171 2.24318 1.49339 0.190993
threshold=0 1 2 0.25000000000000011 3 77.012186379928337 1.0000000180025095e-35 4 -0.93301270189221908 75.893234767025106 87.487351190476218
decision_type=1 1 9 2 1 2 2 1 2 2 2
left_child=1 -1 4 8 6 -3 -2 9 -4 -5 -11
right_child=2 5 3 7 -6 -7 -8 -9 -10 10 -12
leaf_value=-1.3546952564792769 -0.39009590859423177 0.6560424025458913 1.0093912354404013 0.40899145388263097 6.2697084428521226 -0.45350143057973918 0.1025692020658288 19.739252036938932 3.5368415359500598 -0.17051329828501058 -0.0011157827827948102
leaf_weight=378 90 59 36 52 45 67 45 40 108 46 42
leaf_count=378 90 59 36 52 45 67 45 40 108 46 42
internal_value=-0.00746057 -0.0217833 0.00676892 0.0114398 -0.00189885 -0.000537584 -0.00635742 0.0039572 0.0212122 0.000483953 -0.00143339
internal_weight=1008 504 504 324 180 126 135 180 144 140 88
internal_count=1008 504 504 324 180 126 135 180 144 140 88
cat_boundaries=0 1 2 3 4 5
cat_threshold=2 2 335683601 4 4
is_linear=0
shrinkage=0.0293497


Tree=61
num_leaves=16
num_cat=2
split_feature=4 4 7 7 4 15 4 1 4 4 16 7 10 7 9
split_gain=276.786 21.7706 14.0189 13.7757 10.0702 6.33872 9.55627 4.60189 7.25333 5.57593 3.76217 4.82482 3.41676 1.80294 1.22035
threshold=248.69965931440211 904.67989906041112 71.469444444444449 67.32187500000002 364.73981146994805 0 508.42243315328164 0.25000000000000011 3788.0004649408061 1160.1552180693886 1 79.054771505376365 1011.0346102150539 78.8239247311828 0.032385912698412705
decision_type=2 2 2 2 2 9 2 2 2 2 1 2 2 2 2
left_child=-1 3 -3 4 -2 6 13 -4 9 -9 12 14 -7 -5 -12
right_child=1 2 7 5 -6 10 -8 8 -10 -11 11 -13 -14 -15 -16
leaf_value=-1.2787363446189743 -0.057018135437881826 40.888239927358086 30.666304556324288 0.030387785105024975 2.0284199456854348 -0.48201654177889425 0.55115836828482678 0.30564185809993055 16.030921939454018 -0.51371137416004709 -0.017400396143872007 0.22522782070108471 -1.1602173571019234 -0.23111288391468657 -0.67106616667766517
leaf_weight=384 39 55 33 43 65 44 32 37 33 46 40 51 33 32 41
leaf_count=384 39 55 33 43 65 44 32 37 33 46 40 51 33 32 41
internal_value=-0.00775164 0.00424564 0.0121107 0.000301222 0.00965297 -0.00262701 0.00283012 0.00694065 0.00361133 -0.00046278 -0.00552841 -0.00228753 -0.0111256 -0.00207037 -0.00696978
internal_weight=1008 624 204 420 104 316 107 149 116 83 209 132 77 75 81
internal_count=1008 624 204 420 104 316 107 149 116 83 209 132 77 75 81
cat_boundaries=0 1 2
cat_threshold=3 2
is_linear=0
shrinkage=0.0293497


Tree=62
num_leaves=15
num_cat=3
split_feature=4 13 6 4 15 4 4 9 6 16 4 10 6 6
split_gain=271.902 24.7552 25.1184 19.573 14.1162 14.8361 9.10986 8.64781 8.21734 5.31629 4.6145 3.86185 2.70754 1.32741
threshold=248.69965931440211 0 11.456080869175628 2490.467423439663 1 548.80715798922017 453.99139288516056 0.030309139784946242 5.1174171146953418 2 575.47113013907176 1010.641960125448 1.0000000180025095e-35 -4.1538642473118275
decision_type=2 9 2 2 9 2 2 2 2 1 2 2 2 2
left_child=-1 10 3 4 8 11 7 -4 13 -7 -2 -6 -5 -3
right_child=1 2 6 12 5 9 -8 -9 -10 -11 -12 -13 -14 -15
leaf_value=-1.2412058800659129 -0.34214402204249289 -0.53415841491399951 2.1785297366940894 10.846171703228171 0.14838146058437635 0.7865305702009775 17.91862294432271 0.48892039021750283 0.23898489151276486 0.26407963161460091 -0.0070297288199471153 -0.30017283408290157 42.81919184801486 -0.67799950636763273
leaf_weight=384 78 32 38 33 38 46 59 64 40 33 49 40 32 42
leaf_count=384 78 32 38 33 38 46 59 64 40 33 49 40 32 42
internal_value=-0.00792629 0.00396358 0.00690244 0.00229627 -0.00100748 0.00444004 0.016612 0.0104153 -0.00857231 0.0138049 -0.00711969 -0.00386452 0.0167632 -0.0151283
internal_weight=1008 624 497 336 271 157 161 102 114 79 127 78 65 74
internal_count=1008 624 497 336 271 157 161 102 114 79 127 78 65 74
cat_boundaries=0 1 2 3
cat_threshold=336601104 8 4
is_linear=0
shrinkage=0.0293497


Tree=63
num_leaves=13
num_cat=4
split_feature=16 14 13 1 2 1 2 16 9 9 1 7
split_gain=218.622 83.75 24.9103 23.2175 6.69568 3.88857 2.93733 2.52424 4.75228 2.24787 0.938982 0.331396
threshold=0 1 2 0.25000000000000011 -0.68301270189221952 -0.93301270189221908 0.68301270189221952 3 1.0000000180025095e-35 0.04793682795698926 0.68301270189221941 71.15967741935485
decision_type=1 1 9 2 2 2 2 1 2 2 2 2
left_child=1 -1 10 5 -3 -4 7 8 -5 -7 -2 -10
right_child=2 4 3 6 -6 9 -8 -9 11 -11 -12 -13
leaf_value=-1.2409760013296744 -0.19628059094493333 1.4002220244098533 0.90789334417749612 0.40155909519104882 -0.25095230591065432 3.3445369625319143 -0.056508277538474538 16.86075857665324 -0.18545204346680597 3.4692885699184486 -0.033612916851322401 0.0022519625443806722
leaf_weight=378 78 42 43 40 84 56 43 44 34 73 39 54
leaf_count=378 78 42 43 40 84 56 43 44 34 73 39 54
internal_value=-0.0079845 -0.0216669 0.00560501 0.00910884 -0.000537584 0.0174251 0.0026325 0.00448153 0.00190143 0.0202684 -0.00583485 -0.00143339
internal_weight=1008 504 504 387 126 172 215 172 128 129 117 88
internal_count=1008 504 504 387 126 172 215 172 128 129 117 88
cat_boundaries=0 1 2 3 4
cat_threshold=2 2 335749136 4
is_linear=0
shrinkage=0.0293497


Tree=64
num_leaves=15
num_cat=2
split_feature=4 2 4 4 15 1 1 16 10 4 10 7 4 8
split_gain=270.284 19.2117 24.3117 18.1561 11.109 21.3872 17.2405 7.09203 3.51184 7.93459 1.45537 1.19587 1.57674 0.89833
threshold=248.69965931440211 -0.5 792.08183638017465 4045.6410113866414 0 0.68301270189221941 0.25000000000000011 1 1011.7003091397851 370.56905669001179 1009.9737231182797 70.850806451612911 418.8829960126352 3.6578629032258072
decision_type=2 2 2 2 9 2 2 1 2 2 2 2 2 2
left_child=-1 2 8 4 5 -3 -6 -7 11 -10 -8 -2 -13 -12
right_child=1 3 -4 -5 6 7 10 -9 9 -11 13 12 -14 -15
leaf_value=-1.1683547098415097 -0.12073039524530721 -0.24430824534467202 35.536360156820145 17.876221224335449 0.61603968754940264 0.74898255897677168 -0.34787053898557024 0.16889570279367452 -0.025544415398284302 1.5878941366837065 -0.67456368003288125 -0.16507772735030565 1.8964391642102523 -0.51705408739257919
leaf_weight=384 40 49 68 32 44 42 35 32 43 50 41 34 37 77
leaf_count=384 40 49 68 32 44 42 35 32 43 50 41 34 37 77
internal_value=-0.0079845 0.00386956 0.00973332 -0.00052596 -0.00277745 0.00381126 -0.00698086 0.0143386 0.00435423 0.00858939 -0.0121192 0.000346389 0.00300938 -0.0139676
internal_weight=1008 624 272 352 320 123 197 74 204 93 153 111 71 118
internal_count=1008 624 272 352 320 123 197 74 204 93 153 111 71 118
cat_boundaries=0 1 2
cat_threshold=17 4
is_linear=0
shrinkage=0.0293497


Tree=65
num_leaves=14
num_cat=2
split_feature=14 12 6 7 6 9 8 8 6 8 8 9 6
split_gain=25.0766 16.0927 9.63205 7.34486 3.56008 3.26948 2.28332 1.56763 0.827518 0.590294 0.140769 0.124594 0.0268958
threshold=0 1 11.456080869175628 77.012186379928337 13.307392473118282 0.021510176651305685 3.0085640681003589 3.6365663402457762 18.024639336917563 3.125837813620072 4.0768145161290326 0.03590277777777779 19.270216173835131
decision_type=1 9 2 2 2 2 2 2 2 2 2 2 2
left_child=1 4 6 11 -1 -5 -3 8 -6 -4 -8 -2 -11
right_child=3 2 9 5 7 -7 10 -9 -10 12 -12 -13 -14
leaf_value=-0.74222736929289801 0.32084298745152579 -0.64639784193109306 1.8097717591764027 -0.41727894068666616 -0.020854802260085011 0.1103455137686332 -0.55444262209711648 -0.69256189960718695 -0.46855486852938993 0.85290700209866332 -0.82221266270230375 1.6103050270699404 -0.29082077251484351
leaf_weight=372 34 52 33 33 36 44 63 96 54 33 89 33 36
leaf_count=372 34 52 33 33 36 44 63 96 54 33 89 33 36
internal_value=-0.00815914 -0.0100618 -0.00392595 0.00291074 -0.01303 -0.00277589 -0.00780154 -0.00918525 -0.00530061 0.00295816 -0.00969401 0.0101626 0.000556229
internal_weight=1008 864 306 144 558 77 204 186 90 102 152 67 69
internal_count=1008 864 306 144 558 77 204 186 90 102 152 67 69
cat_boundaries=0 1 2
cat_threshold=2 13137
is_linear=0
shrinkage=0.0293497


Tree=66
num_leaves=13
num_cat=5
split_feature=16 14 13 6 9 16 2 2 16 8 5 8
split_gain=229.89 80.8941 20.017 25.2931 7.32266 3.45555 6.06616 2.56892 2.09216 1.54907 1.41644 1.30814
threshold=0 1 2 10.373184363799284 0.021510176651305685 3 -0.5 0.68301270189221952 4 3.6365663402457762 39.532184139784952 4.2895833333333337
decision_type=1 1 9 2 2 1 2 2 1 2 2 2
left_child=1 -1 4 7 -2 6 -6 8 10 -3 -4 -11
right_child=2 9 3 -5 5 -7 -8 -9 -10 11 -12 -13
leaf_value=-1.1593049378098268 -0.39354888175962527 -0.22840157584893295 -0.029660797760588775 2.9479632281933772 -0.57889334804176495 8.3151860404007998 0.12787003617231654 -0.012705143704685647 30.156907718309252 0.1685747231730195 0.41141350117072062 -0.1738483117251676
leaf_weight=378 63 42 56 116 36 36 45 36 38 51 78 33
leaf_count=378 63 42 56 116 36 36 45 36 38 51 78 33
internal_value=-0.00775164 -0.0217833 0.00618697 0.0103863 -0.00159045 0.00232983 -0.00047416 0.00427063 0.00584401 -0.00100223 0.0035644 0.000805322
internal_weight=1008 504 504 324 180 117 81 208 172 126 134 84
internal_count=1008 504 504 324 180 117 81 208 172 126 134 84
cat_boundaries=0 1 2 3 4 5
cat_threshold=2 2 335683601 4 4
is_linear=0
shrinkage=0.0293497


Tree=67
num_leaves=15
num_cat=2
split_feature=4 13 6 4 4 13 8 4 4 8 2 4 4 6
split_gain=273.088 18.8191 17.2376 17.7766 11.3811 6.16296 4.96926 4.46661 3.45436 2.52839 1.76487 1.50225 1.22878 0.318324
threshold=248.69965931440211 0 11.456080869175628 2660.0020138354826 453.99139288516056 1 4.6399103942652333 452.31867825930834 678.75358175068629 3.974307795698925 1.0000000180025095e-35 361.79371842090484 845.96862934309672 8.5851478494623681
decision_type=2 9 2 2 2 9 2 2 2 2 2 2 2 2
left_child=-1 8 3 5 11 6 -3 -7 9 -2 13 -4 -12 -9
right_child=1 2 4 -5 -6 7 -8 10 -10 -11 12 -13 -14 -15
leaf_value=-1.0896689539739994 -0.082264652749136705 0.39175410237663699 0.15785444709506458 25.804507828536245 16.017619595629434 -0.28998217372721657 -0.00045434144948537528 0.62801354641830509 0.0205064544234696 -0.4757331425438911 -0.0014896322307147065 1.0471396080118931 -0.29809234858896161 0.045053772381557659
leaf_weight=384 38 51 38 62 59 33 55 32 35 36 39 70 36 40
leaf_count=384 38 51 38 62 59 33 55 32 35 36 39 70 36 40
internal_value=-0.007577 0.00433966 0.00666594 0.00289122 0.0146132 -3.21801e-05 0.0051251 -0.00344089 -0.00622602 -0.0103901 -0.00105859 0.00821284 -0.00440803 0.00175047
internal_weight=1008 624 515 348 167 286 106 180 109 74 147 108 75 72
internal_count=1008 624 515 348 167 286 106 180 109 74 147 108 75 72
cat_boundaries=0 1 2
cat_threshold=68165648 268535810
is_linear=0
shrinkage=0.0293497


Tree=68
num_leaves=15
num_cat=3
split_feature=4 13 2 4 4 15 4 16 6 9 4 8 6 6
split_gain=258.851 19.8319 25.2739 12.9471 10.9999 8.13732 14.5872 10.5559 8.98243 6.55839 5.84618 3.68811 4.3609 1.42792
threshold=273.83013006280811 0 -0.5 4045.6410113866414 1093.7436754328678 1 552.23962969623847 2 4.839930555555557 0.04793682795698926 226.84940285172729 3.6365663402457762 2.9213888888888895 15.932594086021506
decision_type=2 9 2 2 2 9 2 1 2 2 2 2 2 2
left_child=10 11 4 5 9 8 -7 -8 -4 -3 -1 -2 -13 -11
right_child=1 2 3 -5 -6 6 7 -9 -10 13 -12 12 -14 -15
leaf_value=-1.0637508072218598 0.019904597157045938 1.8249672496645966 -0.51913808564757091 15.72814081080293 61.305431944384488 -0.19824464836239009 0.79148427543368349 -0.048182298859725033 0.72160720445108284 0.092706402850161643 -0.80302644841157145 -0.15638510771757544 -0.4783177022492564 1.0691033787892856
leaf_weight=368 41 71 74 32 51 58 44 36 34 49 32 40 42 36
leaf_count=368 41 71 74 32 51 58 44 36 34 49 32 40 42 36
internal_value=-0.00792629 0.00406783 0.00671415 0.000876696 0.0146251 -0.00122888 0.00322798 0.0118062 -0.00702272 0.0101969 -0.0262693 -0.00601253 -0.0100935 0.00389145
internal_weight=1008 608 485 278 207 246 138 80 108 156 400 123 82 85
internal_count=1008 608 485 278 207 246 138 80 108 156 400 123 82 85
cat_boundaries=0 1 2 3
cat_threshold=336601104 8 4
is_linear=0
shrinkage=0.0293497


Tree=69
num_leaves=12
num_cat=5
split_feature=16 1 12 13 13 16 10 8 5 2 10
split_gain=209.41 17.1961 7.14822 6.36768 4.04152 20.9377 3.34667 1.06478 0.935635 0.694597 0.192439
threshold=0 0.25000000000000011 1 2 3 4 1010.1748207885306 4.0768145161290326 73.463790322580664 -0.68301270189221952 1012.5921034946238
decision_type=1 2 9 9 9 1 2 2 2 2 2
left_child=3 2 8 9 6 7 -3 -6 -2 -1 -8
right_child=1 4 -4 -5 5 -7 10 -9 -10 -11 -12
leaf_value=-0.059135754154968675 2.3991262072943047 0.42145171801628561 1.5287079808901616 -1.0164538732092612 -0.29151822758182283 24.009004335119638 -0.0058019340754757063 -0.36046017493147853 0.021599458328677771 -0.77945790296113182 0.079027693758563819
leaf_weight=39 52 59 120 387 59 35 47 46 52 78 34
leaf_count=39 52 59 120 387 59 35 47 46 52 78 34
internal_value=-0.00780986 0.00548862 0.0115543 -0.0212013 0.000451655 -0.00279457 0.00396597 -0.00983997 0.00367451 -0.0104448 0
internal_weight=1008 504 224 504 280 140 140 105 104 117 81
internal_count=1008 504 224 504 280 140 140 105 104 117 81
cat_boundaries=0 1 2 3 4 5
cat_threshold=2 10816 3 269518859 4
is_linear=0
shrinkage=0.0293497


Tree=70
num_leaves=15
num_cat=1
split_feature=4 6 4 4 15 6 4 7 7 10 7 9 10 4
split_gain=251.663 16.8033 23.7035 13.6182 10.6392 14.8238 13.2484 5.71005 5.67705 4.2876 3.32772 0.88516 0.772685 0.525311
threshold=239.76853280280997 11.456080869175628 438.72129348082393 4045.6410113866414 0 5.1174171146953418 552.23962969623847 78.171863799283173 86.031442012288792 1014.5336111111113 71.631675627240156 1.0000000180025095e-35 1010.1748207885306 373.75386785630633
decision_type=2 2 2 2 9 2 2 2 2 2 2 2 2 2
left_child=-1 3 9 4 5 11 7 12 -8 13 -7 -2 -6 -3
right_child=1 2 -4 -5 6 10 8 -9 -10 -11 -12 -13 -14 -15
leaf_value=-1.0026975272782956 -0.5964107598090419 -0.20461496406719534 6.4434095027170404 14.561869496458391 0.36185675291238412 -0.2526731544061816 0.70407409439050472 -0.28302370157388906 0.012837643916319353 1.7340366415283337 0.80770144946542555 -0.67226254338808045 -0.048069156989714208 0.51148661808648355
leaf_weight=380 59 43 77 32 35 32 63 41 36 42 36 57 33 42
leaf_count=380 59 43 77 32 35 32 63 41 36 42 36 57 33 42
internal_value=-0.00786807 0.00347124 0.010387 2.17145e-05 -0.00137004 -0.00639065 0.00299961 -0.0035741 0.0110253 0.00214686 0.00357103 -0.0131985 0.000993893 -0.00113984
internal_weight=1008 628 204 424 392 184 208 109 99 127 68 116 68 85
internal_count=1008 628 204 424 392 184 208 109 99 127 68 116 68 85
cat_boundaries=0 1
cat_threshold=8
is_linear=0
shrinkage=0.0293497


Tree=71
num_leaves=12
num_cat=4
split_feature=16 14 13 6 15 2 6 8 1 10 10
split_gain=193.381 77.2913 18.0468 22.2943 5.59348 5.1074 4.64245 1.79331 1.41554 0.745865 0.383679
threshold=0 1 2 11.456080869175628 3 -0.24999999999999997 5.1174171146953418 4.1465725806451621 0.68301270189221941 1010.4355510752689 1013.2194220430109
decision_type=1 1 9 2 9 2 2 2 2 2 2
left_child=1 -1 7 4 6 -3 9 10 -6 -4 -2
right_child=2 5 3 -5 8 -7 -8 -9 -10 -11 -12
leaf_value=-1.0038839091032927 -0.16384983023091634 0.48676236559565556 -0.048953941145149088 2.7817792954301752 0.17692785178762097 -0.80816813526036257 0.48053331609501471 -0.30027695997491477 0.62105410643961434 -0.59368750714473617 0.0011987882361341562
leaf_weight=378 34 70 40 129 54 56 50 48 54 60 35
leaf_count=378 34 70 40 129 54 56 50 48 54 60 35
internal_value=-0.0079845 -0.0208522 0.00479028 0.00777923 0.00276237 -0.000537584 -0.000789697 -0.00491285 0.00751879 -0.0047723 -0.00140289
internal_weight=1008 504 504 387 258 126 150 117 108 100 69
internal_count=1008 504 504 387 258 126 150 117 108 100 69
cat_boundaries=0 1 2 3 4
cat_threshold=2 2 335749136 8
is_linear=0
shrinkage=0.0293497


Tree=72
num_leaves=15
num_cat=1
split_feature=4 2 4 4 16 4 4 5 7 4 9 4 4 2
split_gain=230.72 15.546 19.7146 9.98632 7.7531 7.23897 4.77569 4.53077 2.59869 3.02144 2.19757 1.39177 1.36938 0.226532
threshold=273.83013006280811 -0.5 1050.209595733792 4045.6410113866414 0 581.6473146573295 226.84940285172729 56.636407738095251 70.40658602150539 370.56905669001179 0.021510176651305685 456.84385804582718 453.99139288516056 1.0000000180025095e-35
decision_type=2 2 2 2 1 2 2 2 2 2 2 2 2 2
left_child=6 2 8 4 5 11 -1 10 9 -2 -7 -3 -10 -6
right_child=1 3 -4 -5 13 7 -8 -9 12 -11 -12 -13 -14 -15
leaf_value=-0.94380506380226215 0.0011636042206079403 -0.045503521076461675 53.183081830439313 14.151908239607701 -0.2181334268941649 0.21918049411045426 -0.77229235881535974 0.44021466211886512 -0.24565747269596583 1.2736501699225264 -0.031360444230680753 -0.16239452942397459 0.9531128779902337 -1.5065642346699402
leaf_weight=368 39 38 57 32 45 36 32 43 56 70 52 44 38 58
leaf_count=368 39 38 57 32 45 36 32 43 56 70 52 44 38 58
internal_value=-0.00792629 0.00339238 0.0088291 -0.000532 -0.00225588 0.000731083 -0.0252429 0.00521017 0.0042313 0.00733238 0.000768854 -0.00581567 9.76791e-05 -0.00889429
internal_weight=1008 608 260 348 316 213 400 131 203 109 88 82 94 103
internal_count=1008 608 260 348 316 213 400 131 203 109 88 82 94 103
cat_boundaries=0 1
cat_threshold=4
is_linear=0
shrinkage=0.0293497


Tree=73
num_leaves=14
num_cat=5
split_feature=16 14 13 6 9 2 2 16 9 8 16 2 8
split_gain=179.631 79.1997 18.5118 24.5292 5.328 4.9446 3.77444 3.0833 2.67622 5.64802 1.21762 5.21873 1.06238
threshold=0 1 2 10.373184363799284 0.021510176651305685 0.68301270189221952 -0.68301270189221952 3 1.0000000180025095e-35 3.0085640681003589 4 -0.5 4.018864087301588
decision_type=1 1 9 2 2 2 2 1 2 2 1 2 2
left_child=1 -1 4 5 -2 7 -3 8 -4 -10 11 -6 -8
right_child=2 6 3 -5 10 -7 12 -9 9 -11 -12 -13 -14
leaf_value=-0.94671991883616591 -0.35516255812173869 1.2479015651780414 0.32801569547324788 2.2837095862125052 -0.63484154915498825 -0.1113177612033401 -0.78544065784205486 26.506885872246279 0.70763155848033099 -0.29244357855487435 5.269963448739432 0.11019221002485551 -0.014255786096883273
leaf_weight=378 63 42 60 116 36 36 37 38 32 42 36 45 47
leaf_count=378 63 42 60 116 36 36 37 38 32 42 36 45 47
internal_value=-0.00775164 -0.0201538 0.0045575 0.00863061 -0.00282407 0.00258007 0 0.00482215 0.00225347 -0.000913665 0.000328676 -0.0011959 -0.00358956
internal_weight=1008 504 504 324 180 208 126 172 134 74 117 81 84
internal_count=1008 504 504 324 180 208 126 172 134 74 117 81 84
cat_boundaries=0 1 2 3 4 5
cat_threshold=2 2 335683601 4 4
is_linear=0
shrinkage=0.0293497


Tree=74
num_leaves=18
num_cat=1
split_feature=4 6 4 4 15 4 7 7 7 4 5 9 1 4 4 1 2
split_gain=224.5 18.9132 17.2241 9.54932 13.1652 14.5746 7.66069 6.95878 5.90619 4.48546 4.19936 2.84684 2.25584 0.481166 0.436931 0.298372 0.0751618
threshold=273.83013006280811 11.456080869175628 438.72129348082393 2991.9862140553837 0 552.23962969623847 83.43915610599079 78.171863799283173 86.031442012288792 226.84940285172729 45.995880376344097 1.0000000180025095e-35 1.0000000180025095e-35 1208.1636846254667 407.11646552610142 -0.68301270189221897 -0.5
decision_type=2 2 2 2 9 2 2 2 2 2 2 2 2 2 2 2 2
left_child=9 3 12 4 10 7 -5 14 -7 16 -2 -12 15 -4 -6 -3 -1
right_child=1 2 13 6 5 8 -8 -9 -10 -11 11 -13 -14 -15 -16 -17 -18
leaf_value=-0.77128465545340297 -0.61150849504769322 -0.23167210386715886 1.8976656859485392 36.549475732318527 -0.10050379102709948 0.68342182186763645 -0.28679013419207866 -0.25642398866883076 0.014781901124255391 -0.74596885978288541 0.042560229392342247 -0.23944217848632365 1.6968726728101289 59.580093369488779 0.097999824191125129 0.14377839418504265 -0.92903990606692399
leaf_weight=172 79 32 43 32 32 58 32 41 34 32 36 37 42 34 36 40 196
leaf_count=172 79 32 43 32 32 58 32 41 34 32 36 37 42 34 36 40 196
internal_value=-0.00786807 0.00329589 0.0109394 -9.24058e-05 -0.00210272 0.00268232 0.0101803 -0.004111 0.0115433 -0.0249496 -0.00837363 -0.00292731 0.00316109 0.0217526 0.000993893 0 -0.0260016
internal_weight=1008 608 191 417 353 201 64 109 92 400 152 73 114 77 68 72 368
internal_count=1008 608 191 417 353 201 64 109 92 400 152 73 114 77 68 72 368
cat_boundaries=0 1
cat_threshold=8
is_linear=0
shrinkage=0.0293497


Tree=75
num_leaves=18
num_cat=2
split_feature=4 2 4 4 15 16 1 10 4 2 4 4 10 10 4 4 4
split_gain=218.365 14.0992 17.0578 9.98632 7.062 16.026 14.4601 5.54636 9.36969 4.23544 2.93251 2.66274 1.69327 0.862101 0.772431 0.567797 3.19581
threshold=273.83013006280811 -0.5 1795.5943992225059 4045.6410113866414 0 1 0.25000000000000011 1011.0346102150539 430.36928860343761 -0.5 702.04954948071293 169.68441775702743 1009.9737231182797 1010.0791666666668 370.56905669001179 688.43045867839135 1135.9860450634139
decision_type=2 2 2 2 9 1 2 2 2 2 2 2 2 2 2 2 2
left_child=9 2 7 4 5 10 -6 13 14 11 -3 -1 -8 -2 -9 -14 -17
right_child=1 3 -4 -5 6 -7 12 8 -10 -11 -12 -13 15 -15 -16 16 -18
leaf_value=-0.80247844883341679 -0.228951462010309 0.088247497149023718 62.448207890031583 13.080026329173618 0.54792685454373014 -0.78014065721658554 -0.2505797182802722 -0.03068755141061202 2.9171310895690614 -0.93373876847028447 0.74967201199426003 -0.3952785212722339 -0.37433897740796979 0.48278224398172781 0.69981023171339862 -0.36219383584071635 -1.237397198036811
leaf_weight=156 46 32 35 32 44 53 35 38 38 212 38 32 46 61 42 32 36
leaf_count=156 46 32 35 32 44 53 35 38 38 212 38 32 46 61 42 32 36
internal_value=-0.00780986 0.0031994 0.00837814 -0.000532 -0.00225588 0.00293075 -0.00567475 0.0051207 0.00950303 -0.0246564 0.0126503 -0.0203083 -0.0104784 0 0.00303758 -0.0124026 -0.00872531
internal_weight=1008 608 260 348 316 123 193 225 118 400 70 188 149 107 80 114 68
internal_count=1008 608 260 348 316 123 193 225 118 400 70 188 149 107 80 114 68
cat_boundaries=0 1 2
cat_threshold=17 4
is_linear=0
shrinkage=0.0293497


Tree=76
num_leaves=18
num_cat=1
split_feature=4 6 4 4 15 4 1 7 7 8 10 6 10 4 10 10 4
split_gain=211.733 14.4661 17.6119 9.64889 13.0638 12.521 8.99979 7.66069 5.71005 5.31609 4.20121 3.13433 2.56783 2.58668 2.03333 0.772685 0.185096
threshold=239.76853280280997 11.456080869175628 430.36928860343761 2991.9862140553837 0 552.23962969623847 0.68301270189221941 83.43915610599079 78.171863799283173 3.974307795698925 1012.7642809139786 10.287031810035844 1010.3430779569893 762.58182896141136 1014.5336111111113 1010.1748207885306 373.75386785630633
decision_type=2 2 2 2 9 2 2 2 2 2 2 2 2 2 2 2 2
left_child=11 3 14 4 10 8 -7 -5 15 -4 12 -1 13 -2 16 -6 -3
right_child=1 2 9 7 5 6 -8 -9 -10 -11 -12 -13 -14 -15 -16 -17 -18
leaf_value=-0.86668953770195056 -0.53335448742201086 -0.17953269965026156 5.7470806705702344 35.104565571353923 0.37810890651596424 -0.0069429537335855994 0.62364579113043372 -0.4588716157027512 -0.23791131618607478 1.7470456053531682 -0.10352262760122888 -0.78397474220613439 -0.79807332733158876 -0.19552883944377986 1.0089892739266615 -0.043917367129662155 0.24303592688110506
leaf_weight=216 33 43 51 32 35 35 57 32 41 36 56 164 36 34 39 33 35
leaf_count=216 33 43 51 32 35 35 57 32 41 36 56 164 36 34 39 33 35
internal_value=-0.007577 0.0028173 0.00923792 -0.000160048 -0.00214332 0.00268232 0.0109075 0.0101803 -0.0035741 0.0192618 -0.0082008 -0.0248726 -0.0123027 -0.00754719 0.00132925 0.000993893 -0.000867009
internal_weight=1008 628 204 424 360 201 92 64 109 87 159 380 103 67 117 68 78
internal_count=1008 628 204 424 360 201 92 64 109 87 159 380 103 67 117 68 78
cat_boundaries=0 1
cat_threshold=8
is_linear=0
shrinkage=0.0293497


Tree=77
num_leaves=15
num_cat=5
split_feature=16 14 1 12 16 7 2 12 2 2 10 10 7 10
split_gain=161.568 69.4236 11.0003 6.16263 5.07826 4.84606 4.82329 3.83003 2.85934 0.906051 0.323334 0.235011 0.115795 0.0019327
threshold=0 1 0.25000000000000011 2 3 72.042786738351268 0.68301270189221952 4 -0.5 1.0000000180025095e-35 1010.553561827957 1011.0346102150539 78.171863799283173 1015.8655555555557
